Language model created by QuickLM on Thu Jul  7 05:50:32 EDT 2016
Copyright (c) 1996-2010 Carnegie Mellon University and Alexander I. Rudnicky

The model is in standard ARPA format, designed by Doug Paul while he was at MITRE.

The code that was used to produce this language model is available in Open Source.
Please visit http://www.speech.cs.cmu.edu/tools/ for more information

The (fixed) discount mass is 0.5. The backoffs are computed using the ratio method.
This model based on a corpus of 38 sentences and 160 words

\data\
ngram 1=146
ngram 2=248
ngram 3=242

\1-grams:
-1.2690 </s> -0.3010
-2.8488  ÄHM -0.2770
-2.5478  äh -0.2986
-2.8488  hm -0.2998
-1.2690 <s> -0.2523
-2.8488 ABER -0.2955
-2.8488 ACH -0.3004
-2.3717 ALSO -0.2936
-2.8488 ALS -0.2770
-2.8488 AN -0.3004
-2.2467 AUCH -0.2930
-2.5478 AUF -0.2961
-2.8488 AUFGESCHRIEBEN -0.2986
-2.8488 AUS -0.2770
-2.8488 BEI -0.2998
-2.8488 BEIM -0.2770
-2.8488 BISSCHEN -0.3004
-2.3717 DA -0.2973
-2.8488 DANKE -0.3004
-1.8946 DANN -0.2930
-2.8488 DANN -0.2770
-2.0707 DAS -0.2885
-2.8488 DASS -0.2942
-2.8488 DEM -0.2998
-2.2467 DEN -0.2979
-2.8488 DER -0.2770
-2.5478 DIE -0.2998
-2.5478 DIENSTAG -0.2930
-2.8488 DIESER -0.3004
-2.5478 DOCH -0.2986
-2.8488 DORT -0.3004
-2.8488 DRAUF -0.2986
-2.2467 EIN -0.2986
-2.5478 EINE -0.2998
-2.8488 EINIGERMAßEN -0.3004
-2.8488 ERST -0.2992
-2.5478 ES -0.2992
-2.8488 ESSEN -0.2961
-2.8488 FEST -0.3004
-2.8488 FLUG -0.3004
-2.8488 FLUGZEIT -0.2986
-2.8488 FRAU -0.3004
-2.8488 FREYER -0.2770
-2.8488 FRONLEICHNAM -0.2936
-2.5478 FÜR -0.2992
-2.8488 GEHE -0.2967
-2.8488 GEHEN -0.2942
-2.8488 GEHT -0.2998
-2.8488 GENAU -0.2986
-2.3717 GENAU -0.2770
-2.8488 GENIEßEN -0.2770
-2.2467 GUT -0.2930
-2.5478 GUTEN -0.2986
-2.3717 GUT -0.2770
-2.2467 HABE -0.2904
-2.5478 HABEN -0.2917
-2.8488 HALTEN -0.2942
-2.8488 HANNOVER -0.3004
-2.8488 HERR -0.3004
-2.0037 ICH -0.2885
-2.8488 IHNEN -0.2961
-2.8488 IM -0.2998
-2.3717 IN -0.2986
-2.8488 INFORMIEREN -0.3004
-2.8488 INS -0.3004
-2.2467 IST -0.2936
-1.7696 JA -0.2744
-2.5478 JA -0.2770
-2.5478 JETZT -0.2992
-2.8488 JUNI -0.2986
-2.8488 KNEIPENBESUCH -0.2998
-2.8488 KNEIPE -0.2770
-2.8488 KNIPP -0.2770
-2.8488 KONZERT -0.2992
-2.8488 KUCKEN -0.3004
-2.8488 KÖNNEN -0.2986
-2.8488 KÖNNTEN -0.2998
-2.8488 LAUFEN -0.2942
-2.8488 LETZTEN -0.3004
-2.8488 MACHEN -0.2942
-2.8488 MACHEN -0.2770
-2.8488 MAI -0.2998
-2.3717 MAL -0.2923
-2.8488 MEHR -0.3004
-2.2467 MHM -0.2873
-2.1498 MHM -0.2770
-2.8488 MICH -0.3004
-2.8488 MINUTEN -0.2986
-2.5478 MIR -0.2979
-2.5478 MITTWOCH -0.2998
-2.8488 MONTAG -0.2961
-2.8488 MÖCHTE -0.2967
-2.8488 MÖGLICHKEIT -0.3004
-2.8488 MÜSSEN -0.2942
-2.8488 NAMEN -0.3004
-2.8488 NEHMEN -0.2942
-2.8488 NEUNTER -0.2961
-2.8488 NICHT -0.3004
-2.2467 NOCH -0.2955
-2.5478 NÄCHSTEN -0.2986
-2.8488 NÄMLICH -0.3004
-2.5478 ODER -0.2986
-2.5478 OKAY -0.2930
-2.8488 ORDNUNG -0.3004
-2.8488 ORT -0.3004
-2.8488 PREISLICH -0.3004
-2.8488 PÜNKTLICH -0.3004
-2.8488 REINE -0.3004
-2.8488 RESERVIEREN -0.3004
-2.5478 SCHON -0.2986
-2.5478 SEHEN -0.2992
-2.8488 SEIN -0.3004
-2.8488 SICH -0.2998
-2.2467 SIE -0.2936
-2.8488 SIEBZIG -0.3004
-2.8488 SIEHT -0.2973
-2.8488 SIND -0.2936
-2.8488 SITZEN -0.2967
-2.5478 SO -0.2948
-2.8488 SOLLEN -0.2942
-2.2467 TAG -0.2961
-2.8488 TAGE -0.2992
-2.8488 THEATER -0.2998
-2.8488 TJA -0.2942
-1.9457 UND -0.2815
-2.3717 UNS -0.2873
-2.8488 UN -0.2770
-2.8488 URLAUBSTAG -0.2961
-2.8488 VIELLEICHT -0.3004
-2.8488 VOGGESSER -0.2770
-2.8488 VOR -0.3004
-2.8488 VORAB -0.3004
-2.8488 VORHER -0.2986
-2.8488 VORLIEGEN -0.2992
-2.8488 VORZUGSWEISE -0.2998
-2.8488 WARTEN -0.2986
-2.8488 WAS -0.2992
-2.8488 WEG -0.3004
-2.8488 WENN -0.2986
-2.8488 WIE -0.3004
-1.8074 WIR -0.2796
-2.5478 WÄRE -0.2986
-2.8488 ZEHNTER -0.3004
-2.8488 ZU -0.3004
-2.8488 ZWEI -0.3004
-2.8488 ÜBERNACHTUNG -0.2770
-2.8488 ÜBERN -0.3004

\2-grams:
-0.6021  äh DA -0.2218
-0.6021  äh GEHE -0.0000
-0.3010  hm JETZT -0.1761
-0.3010  ÄHM </s> -0.3010
-1.8808 <s> hm -0.0000
-1.8808 <s> ACH -0.0000
-1.8808 <s> ALSO -0.2218
-1.8808 <s> DA -0.2218
-1.8808 <s> FÜR -0.1761
-1.8808 <s> GENAU -0.0000
-1.8808 <s> GUT -0.2430
-1.5798 <s> GUTEN -0.0000
-1.5798 <s> GUT -0.0001
-1.8808 <s> ICH -0.2688
-1.1818 <s> JA -0.1996
-1.5798 <s> JA -0.0001
-1.8808 <s> KÖNNEN -0.0001
-1.5798 <s> MHM -0.1761
-1.2788 <s> MHM -0.0001
-1.8808 <s> OKAY -0.1761
-1.8808 <s> SIEBZIG -0.0001
-1.8808 <s> UND -0.2730
-0.3010 ABER DANN -0.2762
-0.3010 ACH MAI -0.0001
-0.7782 ALSO DIESER -0.0001
-0.7782 ALSO ICH -0.2341
-0.7782 ALSO IST -0.2430
-0.3010 ALS </s> -0.3010
-0.3010 AN DEM -0.0001
-0.9031 AUCH DAS -0.2632
-0.9031 AUCH EIN -0.2430
-0.9031 AUCH PÜNKTLICH -0.0001
-0.9031 AUCH SO -0.1761
-0.6021 AUF DEN -0.2430
-0.6021 AUF EIN -0.2430
-0.3010 AUFGESCHRIEBEN IST -0.2430
-0.3010 AUS </s> -0.3010
-0.3010 BEI MIR -0.1761
-0.3010 BISSCHEN ESSEN -0.0001
-0.7782 DA GEHT -0.0001
-0.7782 DA HALTEN -0.0001
-0.7782 DA IST -0.2430
-0.3010 DANKE IHNEN -0.0001
-1.2553 DANN AN -0.0001
-1.2553 DANN AUCH -0.2430
-1.2553 DANN DOCH -0.0001
-1.2553 DANN ERST -0.0001
-1.2553 DANN GEHEN -0.0001
-1.2553 DANN MACHEN -0.0001
-1.2553 DANN MÜSSEN -0.0001
-1.2553 DANN NEHMEN -0.0001
-1.2553 DANN VIELLEICHT -0.0001
-0.3010 DANN </s> -0.3010
-1.0792 DAS DANN -0.2762
-1.0792 DAS FÜR -0.1761
-1.0792 DAS IST -0.2430
-1.0792 DAS MAL -0.2218
-1.0792 DAS PREISLICH -0.0001
-1.0792 DAS SIND -0.0001
-0.3010 DASS WIR -0.2596
-0.3010 DEM MITTWOCH -0.1761
-0.9031 DEN LETZTEN -0.0001
-0.9031 DEN MÖCHTE -0.0001
-0.9031 DEN NAMEN -0.0001
-0.9031 DEN NÄCHSTEN -0.0001
-0.3010 DER </s> -0.3010
-0.6021 DIE REINE -0.0001
-0.6021 DIE ÜBERNACHTUNG -0.0001
-0.6021 DIENSTAG MHM -0.0001
-0.6021 DIENSTAG UND -0.2730
-0.3010 DIESER MONTAG -0.0001
-0.3010 DOCH NOCH -0.1761
-0.3010 DORT SITZEN -0.0001
-0.3010 DRAUF HABE -0.1761
-0.9031 EIN BISSCHEN -0.0001
-0.9031 EIN KNEIPENBESUCH -0.0001
-0.9031 EIN KONZERT -0.0001
-0.9031 EIN URLAUBSTAG -0.0001
-0.6021 EINE KNEIPE -0.0001
-0.6021 EINE MÖGLICHKEIT -0.0001
-0.3010 EINIGERMAßEN GENIEßEN -0.0001
-0.3010 ERST IN -0.2218
-0.6021 ES BEI -0.0001
-0.6021 ES SO -0.1761
-0.3010 ESSEN UND -0.2730
-0.3010 FEST DER -0.0001
-0.3010 FLUG ABER -0.0001
-0.3010 FLUGZEIT  -0.0001
-0.3010 FRAU VOGGESSER -0.0001
-0.3010 FRONLEICHNAM JA -0.2825
-0.6021 FÜR DIE -0.1761
-0.6021 FÜR MICH -0.0001
-0.3010 GEHE ICH -0.2688
-0.3010 GEHEN WIR -0.2808
-0.3010 GEHT ES -0.1761
-0.3010 GENAU MHM -0.2430
-0.3010 GENAU </s> -0.3010
-0.9031 GUT DANN -0.2762
-0.9031 GUT FRONLEICHNAM -0.0001
-0.9031 GUT HABEN -0.1761
-0.9031 GUT WENN -0.0001
-0.3010 GUTEN TAG -0.1761
-0.9031 HABE DANN -0.2762
-0.6021 HABE ICH -0.2341
-0.9031 HABE NÄMLICH -0.0001
-0.6021 HABEN SIE -0.2430
-0.6021 HABEN WIR -0.2808
-0.3010 HALTEN WIR -0.2596
-0.3010 HANNOVER MACHEN -0.0001
-0.3010 HERR FREYER -0.0001
-1.1461 ICH äh -0.1761
-1.1461 ICH AUF -0.1761
-1.1461 ICH DANKE -0.0001
-1.1461 ICH DANN -0.2762
-0.8451 ICH HABE -0.1761
-1.1461 ICH MIR -0.1761
-0.3010 IHNEN UND -0.2730
-0.3010 IM NÄCHSTEN -0.0001
-0.7782 IN EINE -0.1761
-0.7782 IN HANNOVER -0.0001
-0.7782 IN ORDNUNG -0.0001
-0.3010 INFORMIEREN WAS -0.0001
-0.3010 INS THEATER -0.0001
-0.9031 IST DIE -0.1761
-0.9031 IST EIN -0.2430
-0.9031 IST GUT -0.2430
-0.9031 IST ODER -0.1761
-1.3802 JA ÄHM -0.0001
-1.3802 JA DAS -0.2632
-1.3802 JA GENAU -0.0001
-1.3802 JA GENAU -0.0001
-1.3802 JA GUT -0.2430
-1.3802 JA GUT -0.0001
-1.3802 JA INS -0.0001
-1.3802 JA JA -0.2825
-1.3802 JA UND -0.2730
-1.3802 JA VORHER -0.0001
-1.3802 JA VORZUGSWEISE -0.0001
-1.3802 JA ZWEI -0.0001
-0.3010 JA </s> -0.3010
-0.6021 JETZT SCHON -0.1761
-0.6021 JETZT WARTEN -0.0001
-0.3010 KNEIPENBESUCH WÄRE -0.1761
-0.3010 KONZERT ALSO -0.2218
-0.3010 KÖNNEN SIE -0.2430
-0.3010 KÖNNTEN AUF -0.1761
-0.3010 LAUFEN WIR -0.2808
-0.3010 LETZTEN FLUG -0.0001
-0.3010 MACHEN WIR -0.2808
-0.3010 MACHEN </s> -0.3010
-0.3010 MAI OKAY -0.1761
-0.7782 MAL FEST -0.0001
-0.7782 MAL JA -0.2825
-0.7782 MAL ÜBERN -0.0001
-0.3010 MEHR DASS -0.0001
-0.9031 MHM GUT -0.2430
-0.9031 MHM HABEN -0.1761
-0.9031 MHM JA -0.2825
-0.9031 MHM MHM -0.2430
-0.3010 MHM </s> -0.3010
-0.3010 MICH RESERVIEREN -0.0001
-0.3010 MINUTEN HABE -0.1761
-0.6021 MIR AUCH -0.2430
-0.6021 MIR AUFGESCHRIEBEN -0.0001
-0.6021 MITTWOCH DRAUF -0.0001
-0.6021 MITTWOCH NEUNTER -0.0001
-0.3010 MONTAG UND -0.2730
-0.3010 MÖCHTE ICH -0.2688
-0.3010 MÖGLICHKEIT SICH -0.0001
-0.3010 MÜSSEN WIR -0.2808
-0.3010 NAMEN KNIPP -0.0001
-0.3010 NEHMEN WIR -0.2596
-0.3010 NEUNTER UND -0.2730
-0.3010 NICHT MEHR -0.0001
-0.9031 NOCH DORT -0.0001
-0.9031 NOCH EIN -0.2430
-0.9031 NOCH EINIGERMAßEN -0.0001
-0.9031 NOCH MAL -0.2218
-0.3010 NÄCHSTEN TAG -0.1761
-0.3010 NÄMLICH IM -0.0001
-0.6021 ODER IN -0.2218
-0.6021 ODER SOLLEN -0.0001
-0.6021 OKAY JA -0.2825
-0.3010 ORDNUNG BEIM -0.0001
-0.3010 ORT KUCKEN -0.0001
-0.3010 PREISLICH AUS -0.0001
-0.3010 PÜNKTLICH SEIN -0.0001
-0.3010 REINE FLUGZEIT -0.0001
-0.3010 RESERVIEREN KÖNNTEN -0.0001
-0.6021 SCHON IN -0.2218
-0.6021 SCHON VORAB -0.0001
-0.3010 SEHEN UNS -0.1249
-0.3010 SEIN NICHT -0.0001
-0.3010 SICH JETZT -0.1761
-0.9031 SIE DAS -0.2632
-0.9031 SIE EINE -0.1761
-0.9031 SIE MAL -0.2218
-0.3010 SIEBZIG MINUTEN -0.0001
-0.3010 SIEHT DAS -0.2632
-0.3010 SIND JA -0.2825
-0.3010 SITZEN ICH -0.2341
-0.6021 SO DANN -0.2762
-0.6021 SO VORLIEGEN -0.0001
-0.3010 SOLLEN WIR -0.2596
-0.9031 TAG AUCH -0.2430
-0.9031 TAG DOCH -0.0001
-0.9031 TAG FRAU -0.0001
-0.9031 TAG HERR -0.0001
-0.3010 TAGE ALSO -0.2218
-0.3010 THEATER ODER -0.1761
-0.3010 TJA WIR -0.2596
-1.2041 UND DANN -0.2762
-1.2041 UND DEN -0.2430
-1.2041 UND DIENSTAG -0.1761
-1.2041 UND MITTWOCH -0.1761
-1.2041 UND TJA -0.0001
-1.2041 UND WIE -0.0001
-1.2041 UND WIR -0.2596
-1.2041 UND ZEHNTER -0.0001
-0.7782 UNS DANN -0.2762
-0.7782 UNS DANN -0.0001
-0.7782 UNS JA -0.2825
-0.3010 UN </s> -0.3010
-0.3010 URLAUBSTAG UND -0.2730
-0.3010 VIELLEICHT LAUFEN -0.0001
-0.3010 VOR ORT -0.0001
-0.3010 VORAB ZU -0.0001
-0.3010 VORHER NOCH -0.2430
-0.3010 VORLIEGEN GENAU -0.0001
-0.3010 VORZUGSWEISE DIENSTAG -0.1761
-0.3010 WARTEN SIE -0.2430
-0.3010 WAS DA -0.2218
-0.3010 WEG ALS -0.0001
-0.3010 WENN SIE -0.2430
-0.3010 WIE SIEHT -0.0001
-1.3424 WIR AUCH -0.2430
-1.3424 WIR DANN -0.2762
-1.0414 WIR DAS -0.2218
-1.0414 WIR DEN -0.1761
-1.3424 WIR ES -0.1761
-1.3424 WIR NOCH -0.2430
-1.0414 WIR SEHEN -0.0001
-1.3424 WIR UNS -0.2218
-0.6021 WÄRE SCHON -0.1761
-0.6021 WÄRE WÄRE -0.1761
-0.3010 ZEHNTER JUNI -0.0001
-0.3010 ZU INFORMIEREN -0.0001
-0.3010 ZWEI TAGE -0.0001
-0.3010 ÜBERN WEG -0.0001

\3-grams:
-0.3010  äh DA GEHT
-0.3010  äh GEHE ICH
-0.3010  hm JETZT WARTEN
-0.3010 <s> hm JETZT
-0.3010 <s> ACH MAI
-0.3010 <s> ALSO ICH
-0.3010 <s> DA HALTEN
-0.3010 <s> FÜR DIE
-0.3010 <s> GENAU </s>
-0.3010 <s> GUT FRONLEICHNAM
-0.3010 <s> GUTEN TAG
-0.3010 <s> GUT </s>
-0.3010 <s> ICH DANKE
-1.0000 <s> JA ÄHM
-1.0000 <s> JA DAS
-1.0000 <s> JA GENAU
-1.0000 <s> JA INS
-1.0000 <s> JA UND
-0.3010 <s> JA </s>
-0.3010 <s> KÖNNEN SIE
-0.6021 <s> MHM GUT
-0.6021 <s> MHM MHM
-0.3010 <s> MHM </s>
-0.3010 <s> OKAY JA
-0.3010 <s> SIEBZIG MINUTEN
-0.3010 <s> UND TJA
-0.3010 ABER DANN MÜSSEN
-0.3010 ACH MAI OKAY
-0.3010 ALSO DIESER MONTAG
-0.3010 ALSO ICH HABE
-0.3010 ALSO IST EIN
-0.3010 AN DEM MITTWOCH
-0.3010 AUCH DAS SIND
-0.3010 AUCH EIN URLAUBSTAG
-0.3010 AUCH PÜNKTLICH SEIN
-0.3010 AUCH SO VORLIEGEN
-0.3010 AUF DEN NAMEN
-0.3010 AUF EIN KONZERT
-0.3010 AUFGESCHRIEBEN IST DIE
-0.3010 BEI MIR AUCH
-0.3010 BISSCHEN ESSEN UND
-0.3010 DA GEHT ES
-0.3010 DA HALTEN WIR
-0.3010 DA IST ODER
-0.3010 DANKE IHNEN UND
-0.3010 DANN AN DEM
-0.3010 DANN AUCH PÜNKTLICH
-0.3010 DANN DOCH NOCH
-0.3010 DANN ERST IN
-0.3010 DANN GEHEN WIR
-0.3010 DANN MACHEN WIR
-0.3010 DANN MÜSSEN WIR
-0.3010 DANN NEHMEN WIR
-0.3010 DANN VIELLEICHT LAUFEN
-0.3010 DAS DANN ERST
-0.3010 DAS FÜR MICH
-0.3010 DAS IST GUT
-0.3010 DAS MAL FEST
-0.3010 DAS PREISLICH AUS
-0.3010 DAS SIND JA
-0.3010 DASS WIR DEN
-0.3010 DEM MITTWOCH DRAUF
-0.3010 DEN LETZTEN FLUG
-0.3010 DEN MÖCHTE ICH
-0.3010 DEN NAMEN KNIPP
-0.3010 DEN NÄCHSTEN TAG
-0.3010 DIE REINE FLUGZEIT
-0.3010 DIE ÜBERNACHTUNG </s>
-0.3010 DIENSTAG MHM </s>
-0.3010 DIENSTAG UND MITTWOCH
-0.3010 DIESER MONTAG UND
-0.6021 DOCH NOCH DORT
-0.6021 DOCH NOCH EINIGERMAßEN
-0.3010 DORT SITZEN ICH
-0.3010 DRAUF HABE ICH
-0.3010 EIN BISSCHEN ESSEN
-0.3010 EIN KNEIPENBESUCH WÄRE
-0.3010 EIN KONZERT ALSO
-0.3010 EIN URLAUBSTAG UND
-0.3010 EINE KNEIPE </s>
-0.3010 EINE MÖGLICHKEIT SICH
-0.3010 EINIGERMAßEN GENIEßEN </s>
-0.3010 ERST IN HANNOVER
-0.3010 ES BEI MIR
-0.3010 ES SO DANN
-0.3010 ESSEN UND DANN
-0.3010 FEST DER </s>
-0.3010 FLUG ABER DANN
-0.3010 FRAU VOGGESSER </s>
-0.3010 FRONLEICHNAM JA VORZUGSWEISE
-0.3010 FÜR DIE ÜBERNACHTUNG
-0.3010 FÜR MICH RESERVIEREN
-0.3010 GEHE ICH AUF
-0.3010 GEHEN WIR NOCH
-0.3010 GEHT ES BEI
-0.3010 GENAU MHM HABEN
-0.3010 GUT DANN MACHEN
-0.3010 GUT FRONLEICHNAM JA
-0.3010 GUT HABEN SIE
-0.3010 GUT WENN SIE
-0.6021 GUTEN TAG FRAU
-0.6021 GUTEN TAG HERR
-0.3010 HABE DANN AN
-0.6021 HABE ICH äh
-0.6021 HABE ICH MIR
-0.3010 HABE NÄMLICH IM
-0.3010 HABEN SIE EINE
-0.3010 HABEN WIR AUCH
-0.3010 HALTEN WIR DAS
-0.3010 HANNOVER MACHEN </s>
-0.3010 HERR FREYER </s>
-0.3010 ICH äh GEHE
-0.3010 ICH AUF EIN
-0.3010 ICH DANKE IHNEN
-0.3010 ICH DANN DOCH
-0.6021 ICH HABE DANN
-0.6021 ICH HABE NÄMLICH
-0.3010 ICH MIR AUFGESCHRIEBEN
-0.3010 IHNEN UND WIR
-0.3010 IM NÄCHSTEN TAG
-0.3010 IN EINE KNEIPE
-0.3010 IN HANNOVER MACHEN
-0.3010 IN ORDNUNG BEIM
-0.3010 INFORMIEREN WAS DA
-0.3010 INS THEATER ODER
-0.3010 IST DIE REINE
-0.3010 IST EIN KNEIPENBESUCH
-0.3010 IST GUT WENN
-0.3010 IST ODER SOLLEN
-0.3010 JA ÄHM </s>
-0.3010 JA DAS IST
-0.3010 JA GENAU MHM
-0.3010 JA GUT DANN
-0.3010 JA GUT </s>
-0.3010 JA INS THEATER
-0.3010 JA JA GUT
-0.3010 JA UND WIE
-0.3010 JA VORHER NOCH
-0.3010 JA VORZUGSWEISE DIENSTAG
-0.3010 JA ZWEI TAGE
-0.3010 JETZT SCHON VORAB
-0.3010 JETZT WARTEN SIE
-0.3010 KNEIPENBESUCH WÄRE WÄRE
-0.3010 KONZERT ALSO IST
-0.3010 KÖNNTEN AUF DEN
-0.3010 LAUFEN WIR UNS
-0.3010 LETZTEN FLUG ABER
-0.3010 MACHEN WIR ES
-0.3010 MAL FEST DER
-0.3010 MAL JA GENAU
-0.3010 MAL ÜBERN WEG
-0.3010 MEHR DASS WIR
-0.3010 MHM GUT HABEN
-0.3010 MHM HABEN WIR
-0.3010 MHM JA JA
-0.3010 MHM MHM JA
-0.3010 MICH RESERVIEREN KÖNNTEN
-0.3010 MINUTEN HABE ICH
-0.3010 MIR AUCH DAS
-0.3010 MIR AUFGESCHRIEBEN IST
-0.3010 MITTWOCH DRAUF HABE
-0.3010 MITTWOCH NEUNTER UND
-0.3010 MONTAG UND DIENSTAG
-0.3010 MÖCHTE ICH DANN
-0.3010 MÖGLICHKEIT SICH JETZT
-0.3010 MÜSSEN WIR DANN
-0.3010 NAMEN KNIPP </s>
-0.3010 NEHMEN WIR DEN
-0.3010 NEUNTER UND ZEHNTER
-0.3010 NICHT MEHR DASS
-0.3010 NOCH DORT SITZEN
-0.3010 NOCH EIN BISSCHEN
-0.3010 NOCH EINIGERMAßEN GENIEßEN
-0.3010 NOCH MAL ÜBERN
-0.6021 NÄCHSTEN TAG AUCH
-0.6021 NÄCHSTEN TAG DOCH
-0.3010 NÄMLICH IM NÄCHSTEN
-0.3010 ODER IN EINE
-0.3010 ODER SOLLEN WIR
-0.3010 OKAY JA GUT
-0.3010 ORDNUNG BEIM </s>
-0.3010 PÜNKTLICH SEIN NICHT
-0.3010 RESERVIEREN KÖNNTEN AUF
-0.3010 SCHON IN ORDNUNG
-0.3010 SCHON VORAB ZU
-0.6021 SEHEN UNS DANN
-0.6021 SEHEN UNS DANN
-0.3010 SEIN NICHT MEHR
-0.3010 SICH JETZT SCHON
-0.3010 SIE DAS FÜR
-0.3010 SIE EINE MÖGLICHKEIT
-0.3010 SIE MAL JA
-0.3010 SIEBZIG MINUTEN HABE
-0.3010 SIEHT DAS PREISLICH
-0.3010 SIND JA ZWEI
-0.3010 SITZEN ICH HABE
-0.3010 SO DANN GEHEN
-0.3010 SO VORLIEGEN GENAU
-0.3010 SOLLEN WIR DAS
-0.3010 TAG AUCH EIN
-0.3010 TAG DOCH NOCH
-0.3010 TAG FRAU VOGGESSER
-0.3010 TAG HERR FREYER
-0.3010 TAGE ALSO DIESER
-0.3010 THEATER ODER IN
-0.3010 TJA WIR SEHEN
-0.3010 UND DANN NEHMEN
-0.3010 UND DEN MÖCHTE
-0.3010 UND DIENSTAG MHM
-0.3010 UND MITTWOCH NEUNTER
-0.3010 UND TJA WIR
-0.3010 UND WIE SIEHT
-0.3010 UND WIR SEHEN
-0.3010 UND ZEHNTER JUNI
-0.3010 UNS DANN VIELLEICHT
-0.3010 UNS DANN </s>
-0.3010 UNS JA VORHER
-0.3010 URLAUBSTAG UND DEN
-0.3010 VIELLEICHT LAUFEN WIR
-0.3010 VOR ORT KUCKEN
-0.3010 VORAB ZU INFORMIEREN
-0.3010 VORHER NOCH MAL
-0.3010 VORLIEGEN GENAU </s>
-0.3010 VORZUGSWEISE DIENSTAG UND
-0.3010 WARTEN SIE MAL
-0.3010 WAS DA IST
-0.3010 WENN SIE DAS
-0.3010 WIE SIEHT DAS
-0.3010 WIR AUCH SO
-0.3010 WIR DANN AUCH
-0.6021 WIR DAS DANN
-0.6021 WIR DAS MAL
-0.6021 WIR DEN LETZTEN
-0.6021 WIR DEN NÄCHSTEN
-0.3010 WIR ES SO
-0.3010 WIR NOCH EIN
-0.3010 WIR SEHEN UNS
-0.3010 WIR UNS JA
-0.3010 WÄRE SCHON IN
-0.3010 WÄRE WÄRE SCHON 
-0.3010 ZU INFORMIEREN WAS
-0.3010 ZWEI TAGE ALSO
-0.3010 ÜBERN WEG ALS

\end\
