Language model created by QuickLM on Wed Jul  6 13:52:12 EDT 2016
Copyright (c) 1996-2010 Carnegie Mellon University and Alexander I. Rudnicky

The model is in standard ARPA format, designed by Doug Paul while he was at MITRE.

The code that was used to produce this language model is available in Open Source.
Please visit http://www.speech.cs.cmu.edu/tools/ for more information

The (fixed) discount mass is 0.5. The backoffs are computed using the ratio method.
This model based on a corpus of 38 sentences and 161 words

\data\
ngram 1=161
ngram 2=282
ngram 3=268

\1-grams:
-2.8476 (18)\ -0.2769
-2.8476 <%> -0.3004
-2.8476 <%>\ -0.2769
-1.2678 </s> -0.3010
-2.8476 <\'E4HM>\ -0.2769
-2.5465 <\'e4h> -0.2986
-2.8476 <h\'e4s> -0.2998
-2.8476 <hm> -0.2998
-1.2678 <s> -0.2535
-2.8476 ABER -0.2954
-2.8476 ACH -0.3004
-2.3705 ALSO -0.2936
-2.8476 ALS\ -0.2769
-2.8476 AN -0.3004
-2.2455 AUCH -0.2929
-2.5465 AUF -0.2961
-2.8476 AUFGESCHRIEBEN -0.2986
-2.8476 AUS\ -0.2769
-2.8476 BEI -0.2998
-2.8476 BEIM\ -0.2769
-2.8476 BISSCHEN -0.3004
-2.3705 DA -0.2973
-2.8476 DANKE -0.3004
-1.8933 DANN -0.2929
-2.8476 DANN\ -0.2769
-2.0694 DAS -0.2885
-2.8476 DASS -0.2942
-2.8476 DEM -0.2998
-2.2455 DEN -0.2979
-2.8476 DER\ -0.2769
-2.5465 DIE -0.2998
-2.5465 DIENSTAG -0.2929
-2.8476 DIESER -0.3004
-2.5465 DOCH -0.2986
-2.8476 DORT -0.3004
-2.8476 DRAUF -0.2986
-2.2455 EIN -0.2986
-2.5465 EINE -0.2998
-2.8476 EINIGERMA\'DFEN -0.3004
-2.8476 ERST -0.2992
-2.5465 ES -0.2992
-2.8476 ESSEN -0.2961
-2.8476 FEST -0.3004
-2.8476 FLUG -0.3004
-2.8476 FLUGZEIT -0.3004
-2.8476 FRAU -0.3004
-2.8476 FREYER\ -0.2769
-2.8476 FRONLEICHNAM -0.3004
-2.5465 F\'FCR -0.2992
-2.8476 GEHE -0.2967
-2.8476 GEHEN -0.2942
-2.8476 GEHT -0.2998
-2.8476 GENAU -0.2986
-2.3705 GENAU\ -0.2769
-2.8476 GENIE\'DFEN\ -0.2769
-2.2455 GUT -0.2929
-2.5465 GUTEN -0.2986
-2.3705 GUT\ -0.2769
-2.2455 HABE -0.2904
-2.5465 HABEN -0.2917
-2.8476 HALTEN -0.2942
-2.8476 HANNOVER -0.3004
-2.8476 HELVETICA;} -0.2769
-2.8476 HERR -0.3004
-2.0025 ICH -0.2885
-2.8476 IHNEN -0.2961
-2.8476 IM -0.2998
-2.3705 IN -0.2986
-2.8476 INFORMIEREN -0.3004
-2.8476 INS -0.3004
-2.2455 IST -0.2936
-1.8062 JA -0.2756
-2.8476 JAVORZUGSWEISE -0.2998
-2.5465 JA\ -0.2769
-2.5465 JETZT -0.2992
-2.8476 JUNI -0.2992
-2.8476 KNEIPENBESUCH -0.2998
-2.8476 KNEIPE\ -0.2769
-2.8476 KNIPP\ -0.2769
-2.8476 KONZERT -0.2992
-2.8476 KUCKEN -0.3004
-2.8476 K\'F6NNEN -0.2986
-2.8476 K\'F6NNTEN -0.2998
-2.8476 LAUFEN -0.2942
-2.8476 LETZTEN -0.3004
-2.8476 MACHEN -0.2942
-2.8476 MACHEN\ -0.2769
-2.8476 MAI -0.2998
-2.3705 MAL -0.2929
-2.8476 MEHR -0.3004
-2.2455 MHM -0.2879
-2.1486 MHM\ -0.2769
-2.8476 MICH -0.3004
-2.8476 MINUTEN -0.2986
-2.5465 MIR -0.2979
-2.5465 MITTWOCH -0.2998
-2.8476 MONTAG -0.2961
-2.8476 M\'F6CHTE -0.2967
-2.8476 M\'F6GLICHKEIT -0.3004
-2.8476 M\'FCSSEN -0.2942
-2.8476 NAMEN -0.3004
-2.8476 NEHMEN -0.2942
-2.8476 NEUNTER -0.2961
-2.8476 NICHT -0.3004
-2.2455 NOCH -0.2954
-2.5465 N\'E4CHSTEN -0.2986
-2.8476 N\'E4MLICH -0.3004
-2.5465 ODER -0.2986
-2.5465 OKAY -0.2936
-2.8476 ORDNUNG -0.3004
-2.8476 ORT -0.3004
-2.8476 PREISLICH -0.3004
-2.8476 P\'FCNKTLICH -0.3004
-2.8476 REINE -0.3004
-2.8476 RESERVIEREN -0.3004
-2.5465 SCHON -0.2986
-2.5465 SEHEN -0.2992
-2.8476 SEIN -0.3004
-2.8476 SICH -0.2998
-2.2455 SIE -0.2936
-2.8476 SIEBZIG -0.3004
-2.8476 SIEHT -0.2973
-2.8476 SIND -0.2942
-2.8476 SITZEN -0.2967
-2.5465 SO -0.2948
-2.8476 SOLLEN -0.2942
-2.2455 TAG -0.2961
-2.8476 TAGE -0.2992
-2.8476 THEATER -0.2998
-2.8476 TJA -0.2942
-1.9445 UND -0.2815
-2.3705 UNS -0.2879
-2.8476 UN\ -0.2769
-2.8476 URLAUBSTAG -0.2961
-2.8476 VIELLEICHT -0.3004
-2.8476 VOGGESSER\ -0.2769
-2.8476 VOR -0.3004
-2.8476 VORAB -0.3004
-2.8476 VORHER -0.2986
-2.8476 VORLIEGEN -0.2992
-2.8476 WARTEN -0.2986
-2.8476 WAS -0.2992
-2.8476 WEG -0.3004
-2.8476 WENN -0.2986
-2.8476 WIE -0.3004
-1.8062 WIR -0.2795
-2.5465 W\'E4RE -0.2986
-2.8476 ZEHNTER -0.3004
-2.8476 ZU -0.3004
-2.8476 ZWEI -0.3004
-2.3705 \ -0.2769
-2.8476 \'DCBERNACHTUNG\ -0.2769
-2.8476 \'FCBERN -0.3004
-2.8476 \CF0 -0.3004
-2.8476 \F0\FS24 -0.3004
-2.8476 \PAPERW11900\PAPERH16840\MARGL1440\MARGR1440\VIEWW25400\VIEWH13360\VIEWKIND0 -0.2769
-2.8476 \PARD\TX566\TX1133\TX1700\TX2267\TX2834\TX3401\TX3968\TX4535\TX5102\TX5669\TX6236\TX6803\PARDIRNATURAL -0.2769
-2.8476 {\COLORTBL;\RED255\GREEN255\BLUE255;} -0.2769
-2.8476 {\FONTTBL\F0\FSWISS\FCHARSET0 -0.3004
-2.8476 {\RTF1\ANSI\ANSICPG1252\COCOARTF1348\COCOASUBRTF170 -0.2769
-2.8476 } -0.2769

\2-grams:
-0.3010 (18)\ </s> -0.3010
-0.3010 <%> VOR 0.0000
-0.3010 <%>\ </s> -0.3010
-0.3010 <\'E4HM>\ </s> -0.3010
-0.6021 <\'e4h> DA -0.2218
-0.6021 <\'e4h> GEHE 0.0000
-0.3010 <h\'e4s> <\'e4h> -0.1761
-0.3010 <hm> JETZT -0.1761
-1.8808 <s> <hm> 0.0000
-1.8808 <s> ACH 0.0000
-1.8808 <s> ALSO -0.2218
-1.8808 <s> DA -0.2218
-1.8808 <s> F\'FCR -0.1761
-1.8808 <s> GENAU\ 0.0000
-1.8808 <s> GUT -0.2430
-1.5798 <s> GUTEN 0.0000
-1.5798 <s> GUT\ 0.0000
-1.8808 <s> ICH -0.2688
-1.1818 <s> JA -0.1891
-1.5798 <s> JA\ 0.0000
-1.8808 <s> K\'F6NNEN 0.0000
-1.5798 <s> MHM -0.1761
-1.2788 <s> MHM\ 0.0000
-1.8808 <s> OKAY -0.1761
-1.8808 <s> SIEBZIG 0.0000
-1.8808 <s> UND -0.2730
-1.5798 <s> \ 0.0000
-1.8808 <s> \F0\FS24 0.0000
-1.8808 <s> \PAPERW11900\PAPERH16840\MARGL1440\MARGR1440\VIEWW25400\VIEWH13360\VIEWKIND0 0.0000
-1.8808 <s> \PARD\TX566\TX1133\TX1700\TX2267\TX2834\TX3401\TX3968\TX4535\TX5102\TX5669\TX6236\TX6803\PARDIRNATURAL 0.0000
-1.8808 <s> {\COLORTBL;\RED255\GREEN255\BLUE255;} 0.0000
-1.8808 <s> {\FONTTBL\F0\FSWISS\FCHARSET0 0.0000
-1.8808 <s> {\RTF1\ANSI\ANSICPG1252\COCOARTF1348\COCOASUBRTF170 0.0000
-1.8808 <s> } 0.0000
-0.3010 ABER DANN -0.2762
-0.3010 ACH MAI 0.0000
-0.7782 ALSO DIESER 0.0000
-0.7782 ALSO ICH -0.2341
-0.7782 ALSO IST -0.2430
-0.3010 ALS\ </s> -0.3010
-0.3010 AN DEM 0.0000
-0.9031 AUCH DAS -0.2632
-0.9031 AUCH EIN -0.2430
-0.9031 AUCH P\'FCNKTLICH 0.0000
-0.9031 AUCH SO -0.1761
-0.6021 AUF DEN -0.2430
-0.6021 AUF EIN -0.2430
-0.3010 AUFGESCHRIEBEN IST -0.2430
-0.3010 AUS\ </s> -0.3010
-0.3010 BEI MIR -0.1761
-0.3010 BEIM\ </s> -0.3010
-0.3010 BISSCHEN ESSEN 0.0000
-0.7782 DA GEHT 0.0000
-0.7782 DA HALTEN 0.0000
-0.7782 DA IST -0.2430
-0.3010 DANKE IHNEN 0.0000
-1.2553 DANN AN 0.0000
-1.2553 DANN AUCH -0.2430
-1.2553 DANN DOCH 0.0000
-1.2553 DANN ERST 0.0000
-1.2553 DANN GEHEN 0.0000
-1.2553 DANN MACHEN 0.0000
-1.2553 DANN M\'FCSSEN 0.0000
-1.2553 DANN NEHMEN 0.0000
-1.2553 DANN VIELLEICHT 0.0000
-0.3010 DANN\ </s> -0.3010
-1.0792 DAS DANN -0.2762
-1.0792 DAS F\'FCR -0.1761
-1.0792 DAS IST -0.2430
-1.0792 DAS MAL -0.2218
-1.0792 DAS PREISLICH 0.0000
-1.0792 DAS SIND 0.0000
-0.3010 DASS WIR -0.2596
-0.3010 DEM MITTWOCH -0.1761
-0.9031 DEN LETZTEN 0.0000
-0.9031 DEN M\'F6CHTE 0.0000
-0.9031 DEN NAMEN 0.0000
-0.9031 DEN N\'E4CHSTEN 0.0000
-0.3010 DER\ </s> -0.3010
-0.6021 DIE REINE 0.0000
-0.6021 DIE \'DCBERNACHTUNG\ 0.0000
-0.6021 DIENSTAG MHM\ 0.0000
-0.6021 DIENSTAG UND -0.2730
-0.3010 DIESER MONTAG 0.0000
-0.3010 DOCH NOCH -0.1761
-0.3010 DORT SITZEN 0.0000
-0.3010 DRAUF HABE -0.1761
-0.9031 EIN BISSCHEN 0.0000
-0.9031 EIN KNEIPENBESUCH 0.0000
-0.9031 EIN KONZERT 0.0000
-0.9031 EIN URLAUBSTAG 0.0000
-0.6021 EINE KNEIPE\ 0.0000
-0.6021 EINE M\'F6GLICHKEIT 0.0000
-0.3010 EINIGERMA\'DFEN GENIE\'DFEN\ 0.0000
-0.3010 ERST IN -0.2218
-0.6021 ES BEI 0.0000
-0.6021 ES SO -0.1761
-0.3010 ESSEN UND -0.2730
-0.3010 FEST DER\ 0.0000
-0.3010 FLUG ABER 0.0000
-0.3010 FLUGZEIT (18)\ 0.0000
-0.3010 FRAU VOGGESSER\ 0.0000
-0.3010 FREYER\ </s> -0.3010
-0.3010 FRONLEICHNAM JAVORZUGSWEISE 0.0000
-0.6021 F\'FCR DIE -0.1761
-0.6021 F\'FCR MICH 0.0000
-0.3010 GEHE ICH -0.2688
-0.3010 GEHEN WIR -0.2808
-0.3010 GEHT ES -0.1761
-0.3010 GENAU MHM -0.2430
-0.3010 GENAU\ </s> -0.3010
-0.3010 GENIE\'DFEN\ </s> -0.3010
-0.9031 GUT DANN -0.2762
-0.9031 GUT FRONLEICHNAM 0.0000
-0.9031 GUT HABEN -0.1761
-0.9031 GUT WENN 0.0000
-0.3010 GUTEN TAG -0.1761
-0.3010 GUT\ </s> -0.3010
-0.9031 HABE DANN -0.2762
-0.6021 HABE ICH -0.2341
-0.9031 HABE N\'E4MLICH 0.0000
-0.6021 HABEN SIE -0.2430
-0.6021 HABEN WIR -0.2808
-0.3010 HALTEN WIR -0.2596
-0.3010 HANNOVER MACHEN\ 0.0000
-0.3010 HELVETICA;} </s> -0.3010
-0.3010 HERR FREYER\ 0.0000
-1.1461 ICH <\'e4h> -0.1761
-1.1461 ICH AUF -0.1761
-1.1461 ICH DANKE 0.0000
-1.1461 ICH DANN -0.2762
-0.8451 ICH HABE -0.1761
-1.1461 ICH MIR -0.1761
-0.3010 IHNEN UND -0.2730
-0.3010 IM N\'E4CHSTEN 0.0000
-0.7782 IN EINE -0.1761
-0.7782 IN HANNOVER 0.0000
-0.7782 IN ORDNUNG 0.0000
-0.3010 INFORMIEREN WAS 0.0000
-0.3010 INS THEATER 0.0000
-0.9031 IST DIE -0.1761
-0.9031 IST EIN -0.2430
-0.9031 IST GUT -0.2430
-0.9031 IST ODER -0.1761
-1.3424 JA <\'E4HM>\ 0.0000
-1.3424 JA DAS -0.2632
-1.3424 JA GENAU 0.0000
-1.3424 JA GENAU\ 0.0000
-1.3424 JA GUT -0.2430
-1.3424 JA GUT\ 0.0000
-1.3424 JA INS 0.0000
-1.3424 JA JA -0.2808
-1.3424 JA UND -0.2730
-1.3424 JA VORHER 0.0000
-1.3424 JA ZWEI 0.0000
-0.3010 JAVORZUGSWEISE DIENSTAG -0.1761
-0.3010 JA\ </s> -0.3010
-0.6021 JETZT SCHON -0.1761
-0.6021 JETZT WARTEN 0.0000
-0.3010 JUNI \ 0.0000
-0.3010 KNEIPENBESUCH W\'E4RE -0.1761
-0.3010 KNEIPE\ </s> -0.3010
-0.3010 KNIPP\ </s> -0.3010
-0.3010 KONZERT ALSO -0.2218
-0.3010 KUCKEN <%>\ 0.0000
-0.3010 K\'F6NNEN SIE -0.2430
-0.3010 K\'F6NNTEN AUF -0.1761
-0.3010 LAUFEN WIR -0.2808
-0.3010 LETZTEN FLUG 0.0000
-0.3010 MACHEN WIR -0.2808
-0.3010 MACHEN\ </s> -0.3010
-0.3010 MAI OKAY -0.1761
-0.7782 MAL FEST 0.0000
-0.7782 MAL JA -0.2808
-0.7782 MAL \'FCBERN 0.0000
-0.3010 MEHR DASS 0.0000
-0.9031 MHM GUT -0.2430
-0.9031 MHM HABEN -0.1761
-0.9031 MHM JA -0.2808
-0.9031 MHM MHM -0.2430
-0.3010 MHM\ </s> -0.3010
-0.3010 MICH RESERVIEREN 0.0000
-0.3010 MINUTEN HABE -0.1761
-0.6021 MIR AUCH -0.2430
-0.6021 MIR AUFGESCHRIEBEN 0.0000
-0.6021 MITTWOCH DRAUF 0.0000
-0.6021 MITTWOCH NEUNTER 0.0000
-0.3010 MONTAG UND -0.2730
-0.3010 M\'F6CHTE ICH -0.2688
-0.3010 M\'F6GLICHKEIT SICH 0.0000
-0.3010 M\'FCSSEN WIR -0.2808
-0.3010 NAMEN KNIPP\ 0.0000
-0.3010 NEHMEN WIR -0.2596
-0.3010 NEUNTER UND -0.2730
-0.3010 NICHT MEHR 0.0000
-0.9031 NOCH DORT 0.0000
-0.9031 NOCH EIN -0.2430
-0.9031 NOCH EINIGERMA\'DFEN 0.0000
-0.9031 NOCH MAL -0.2218
-0.3010 N\'E4CHSTEN TAG -0.1761
-0.3010 N\'E4MLICH IM 0.0000
-0.6021 ODER IN -0.2218
-0.6021 ODER SOLLEN 0.0000
-0.6021 OKAY <h\'e4s> 0.0000
-0.6021 OKAY JA -0.2808
-0.3010 ORDNUNG BEIM\ 0.0000
-0.3010 ORT KUCKEN 0.0000
-0.3010 PREISLICH AUS\ 0.0000
-0.3010 P\'FCNKTLICH SEIN 0.0000
-0.3010 REINE FLUGZEIT 0.0000
-0.3010 RESERVIEREN K\'F6NNTEN 0.0000
-0.6021 SCHON IN -0.2218
-0.6021 SCHON VORAB 0.0000
-0.3010 SEHEN UNS -0.1249
-0.3010 SEIN NICHT 0.0000
-0.3010 SICH JETZT -0.1761
-0.9031 SIE <%> 0.0000
-0.9031 SIE DAS -0.2632
-0.9031 SIE EINE -0.1761
-0.9031 SIE MAL -0.2218
-0.3010 SIEBZIG MINUTEN 0.0000
-0.3010 SIEHT DAS -0.2632
-0.3010 SIND JA -0.2808
-0.3010 SITZEN ICH -0.2341
-0.6021 SO DANN -0.2762
-0.6021 SO VORLIEGEN 0.0000
-0.3010 SOLLEN WIR -0.2596
-0.9031 TAG AUCH -0.2430
-0.9031 TAG DOCH 0.0000
-0.9031 TAG FRAU 0.0000
-0.9031 TAG HERR 0.0000
-0.3010 TAGE ALSO -0.2218
-0.3010 THEATER ODER -0.1761
-0.3010 TJA WIR -0.2596
-1.2041 UND DANN -0.2762
-1.2041 UND DEN -0.2430
-1.2041 UND DIENSTAG -0.1761
-1.2041 UND MITTWOCH -0.1761
-1.2041 UND TJA 0.0000
-1.2041 UND WIE 0.0000
-1.2041 UND WIR -0.2596
-1.2041 UND ZEHNTER 0.0000
-0.7782 UNS DANN -0.2762
-0.7782 UNS DANN\ 0.0000
-0.7782 UNS JA -0.2808
-0.3010 UN\ </s> -0.3010
-0.3010 URLAUBSTAG UND -0.2730
-0.3010 VIELLEICHT LAUFEN 0.0000
-0.3010 VOGGESSER\ </s> -0.3010
-0.3010 VOR ORT 0.0000
-0.3010 VORAB ZU 0.0000
-0.3010 VORHER NOCH -0.2430
-0.3010 VORLIEGEN GENAU\ 0.0000
-0.3010 WARTEN SIE -0.2430
-0.3010 WAS DA -0.2218
-0.3010 WEG ALS\ 0.0000
-0.3010 WENN SIE -0.2430
-0.3010 WIE SIEHT 0.0000
-1.3424 WIR AUCH -0.2430
-1.3424 WIR DANN -0.2762
-1.0414 WIR DAS -0.2218
-1.0414 WIR DEN -0.1761
-1.3424 WIR ES -0.1761
-1.3424 WIR NOCH -0.2430
-1.0414 WIR SEHEN 0.0000
-1.3424 WIR UNS -0.2218
-0.6021 W\'E4RE SCHON -0.1761
-0.6021 W\'E4RE W\'E4RE -0.1761
-0.3010 ZEHNTER JUNI 0.0000
-0.3010 ZU INFORMIEREN 0.0000
-0.3010 ZWEI TAGE 0.0000
-0.3010 \ </s> -0.3010
-0.3010 \'DCBERNACHTUNG\ </s> -0.3010
-0.3010 \'FCBERN WEG 0.0000
-0.3010 \CF0 UN\ 0.0000
-0.3010 \F0\FS24 \CF0 0.0000
-0.3010 \PAPERW11900\PAPERH16840\MARGL1440\MARGR1440\VIEWW25400\VIEWH13360\VIEWKIND0 </s> -0.3010
-0.3010 \PARD\TX566\TX1133\TX1700\TX2267\TX2834\TX3401\TX3968\TX4535\TX5102\TX5669\TX6236\TX6803\PARDIRNATURAL </s> -0.3010
-0.3010 {\COLORTBL;\RED255\GREEN255\BLUE255;} </s> -0.3010
-0.3010 {\FONTTBL\F0\FSWISS\FCHARSET0 HELVETICA;} 0.0000
-0.3010 {\RTF1\ANSI\ANSICPG1252\COCOARTF1348\COCOASUBRTF170 </s> -0.3010
-0.3010 } </s> -0.3010

\3-grams:
-0.3010 <%> VOR ORT
-0.3010 <\'e4h> DA GEHT
-0.3010 <\'e4h> GEHE ICH
-0.3010 <h\'e4s> <\'e4h> DA
-0.3010 <hm> JETZT WARTEN
-0.3010 <s> <hm> JETZT
-0.3010 <s> ACH MAI
-0.3010 <s> ALSO ICH
-0.3010 <s> DA HALTEN
-0.3010 <s> F\'FCR DIE
-0.3010 <s> GENAU\ </s>
-0.3010 <s> GUT FRONLEICHNAM
-0.3010 <s> GUTEN TAG
-0.3010 <s> GUT\ </s>
-0.3010 <s> ICH DANKE
-1.0000 <s> JA <\'E4HM>\
-1.0000 <s> JA DAS
-1.0000 <s> JA GENAU\
-1.0000 <s> JA INS
-1.0000 <s> JA UND
-0.3010 <s> JA\ </s>
-0.3010 <s> K\'F6NNEN SIE
-0.6021 <s> MHM GUT
-0.6021 <s> MHM MHM
-0.3010 <s> MHM\ </s>
-0.3010 <s> OKAY JA
-0.3010 <s> SIEBZIG MINUTEN
-0.3010 <s> UND TJA
-0.3010 <s> \ </s>
-0.3010 <s> \F0\FS24 \CF0
-0.3010 <s> \PAPERW11900\PAPERH16840\MARGL1440\MARGR1440\VIEWW25400\VIEWH13360\VIEWKIND0 </s>
-0.3010 <s> \PARD\TX566\TX1133\TX1700\TX2267\TX2834\TX3401\TX3968\TX4535\TX5102\TX5669\TX6236\TX6803\PARDIRNATURAL </s>
-0.3010 <s> {\COLORTBL;\RED255\GREEN255\BLUE255;} </s>
-0.3010 <s> {\FONTTBL\F0\FSWISS\FCHARSET0 HELVETICA;}
-0.3010 <s> {\RTF1\ANSI\ANSICPG1252\COCOARTF1348\COCOASUBRTF170 </s>
-0.3010 <s> } </s>
-0.3010 ABER DANN M\'FCSSEN
-0.3010 ACH MAI OKAY
-0.3010 ALSO DIESER MONTAG
-0.3010 ALSO ICH HABE
-0.3010 ALSO IST EIN
-0.3010 AN DEM MITTWOCH
-0.3010 AUCH DAS SIND
-0.3010 AUCH EIN URLAUBSTAG
-0.3010 AUCH P\'FCNKTLICH SEIN
-0.3010 AUCH SO VORLIEGEN
-0.3010 AUF DEN NAMEN
-0.3010 AUF EIN KONZERT
-0.3010 AUFGESCHRIEBEN IST DIE
-0.3010 BEI MIR AUCH
-0.3010 BISSCHEN ESSEN UND
-0.3010 DA GEHT ES
-0.3010 DA HALTEN WIR
-0.3010 DA IST ODER
-0.3010 DANKE IHNEN UND
-0.3010 DANN AN DEM
-0.3010 DANN AUCH P\'FCNKTLICH
-0.3010 DANN DOCH NOCH
-0.3010 DANN ERST IN
-0.3010 DANN GEHEN WIR
-0.3010 DANN MACHEN WIR
-0.3010 DANN M\'FCSSEN WIR
-0.3010 DANN NEHMEN WIR
-0.3010 DANN VIELLEICHT LAUFEN
-0.3010 DAS DANN ERST
-0.3010 DAS F\'FCR MICH
-0.3010 DAS IST GUT
-0.3010 DAS MAL FEST
-0.3010 DAS PREISLICH AUS\
-0.3010 DAS SIND JA
-0.3010 DASS WIR DEN
-0.3010 DEM MITTWOCH DRAUF
-0.3010 DEN LETZTEN FLUG
-0.3010 DEN M\'F6CHTE ICH
-0.3010 DEN NAMEN KNIPP\
-0.3010 DEN N\'E4CHSTEN TAG
-0.3010 DIE REINE FLUGZEIT
-0.3010 DIE \'DCBERNACHTUNG\ </s>
-0.3010 DIENSTAG MHM\ </s>
-0.3010 DIENSTAG UND MITTWOCH
-0.3010 DIESER MONTAG UND
-0.6021 DOCH NOCH DORT
-0.6021 DOCH NOCH EINIGERMA\'DFEN
-0.3010 DORT SITZEN ICH
-0.3010 DRAUF HABE ICH
-0.3010 EIN BISSCHEN ESSEN
-0.3010 EIN KNEIPENBESUCH W\'E4RE
-0.3010 EIN KONZERT ALSO
-0.3010 EIN URLAUBSTAG UND
-0.3010 EINE KNEIPE\ </s>
-0.3010 EINE M\'F6GLICHKEIT SICH
-0.3010 EINIGERMA\'DFEN GENIE\'DFEN\ </s>
-0.3010 ERST IN HANNOVER
-0.3010 ES BEI MIR
-0.3010 ES SO DANN
-0.3010 ESSEN UND DANN
-0.3010 FEST DER\ </s>
-0.3010 FLUG ABER DANN
-0.3010 FLUGZEIT (18)\ </s>
-0.3010 FRAU VOGGESSER\ </s>
-0.3010 FRONLEICHNAM JAVORZUGSWEISE DIENSTAG
-0.3010 F\'FCR DIE \'DCBERNACHTUNG\
-0.3010 F\'FCR MICH RESERVIEREN
-0.3010 GEHE ICH AUF
-0.3010 GEHEN WIR NOCH
-0.3010 GEHT ES BEI
-0.3010 GENAU MHM HABEN
-0.3010 GUT DANN MACHEN
-0.3010 GUT FRONLEICHNAM JAVORZUGSWEISE
-0.3010 GUT HABEN SIE
-0.3010 GUT WENN SIE
-0.6021 GUTEN TAG FRAU
-0.6021 GUTEN TAG HERR
-0.3010 HABE DANN AN
-0.6021 HABE ICH <\'e4h>
-0.6021 HABE ICH MIR
-0.3010 HABE N\'E4MLICH IM
-0.3010 HABEN SIE EINE
-0.3010 HABEN WIR AUCH
-0.3010 HALTEN WIR DAS
-0.3010 HANNOVER MACHEN\ </s>
-0.3010 HERR FREYER\ </s>
-0.3010 ICH <\'e4h> GEHE
-0.3010 ICH AUF EIN
-0.3010 ICH DANKE IHNEN
-0.3010 ICH DANN DOCH
-0.6021 ICH HABE DANN
-0.6021 ICH HABE N\'E4MLICH
-0.3010 ICH MIR AUFGESCHRIEBEN
-0.3010 IHNEN UND WIR
-0.3010 IM N\'E4CHSTEN TAG
-0.3010 IN EINE KNEIPE\
-0.3010 IN HANNOVER MACHEN\
-0.3010 IN ORDNUNG BEIM\
-0.3010 INFORMIEREN WAS DA
-0.3010 INS THEATER ODER
-0.3010 IST DIE REINE
-0.3010 IST EIN KNEIPENBESUCH
-0.3010 IST GUT WENN
-0.3010 IST ODER SOLLEN
-0.3010 JA <\'E4HM>\ </s>
-0.3010 JA DAS IST
-0.3010 JA GENAU MHM
-0.3010 JA GENAU\ </s>
-0.3010 JA GUT DANN
-0.3010 JA GUT\ </s>
-0.3010 JA INS THEATER
-0.3010 JA JA GUT\
-0.3010 JA UND WIE
-0.3010 JA VORHER NOCH
-0.3010 JA ZWEI TAGE
-0.3010 JAVORZUGSWEISE DIENSTAG UND
-0.3010 JETZT SCHON VORAB
-0.3010 JETZT WARTEN SIE
-0.3010 JUNI \ </s>
-0.3010 KNEIPENBESUCH W\'E4RE W\'E4RE
-0.3010 KONZERT ALSO IST
-0.3010 KUCKEN <%>\ </s>
-0.3010 K\'F6NNEN SIE <%>
-0.3010 K\'F6NNTEN AUF DEN
-0.3010 LAUFEN WIR UNS
-0.3010 LETZTEN FLUG ABER
-0.3010 MACHEN WIR ES
-0.3010 MAI OKAY <h\'e4s>
-0.3010 MAL FEST DER\
-0.3010 MAL JA GENAU
-0.3010 MAL \'FCBERN WEG
-0.3010 MEHR DASS WIR
-0.3010 MHM GUT HABEN
-0.3010 MHM HABEN WIR
-0.3010 MHM JA JA
-0.3010 MHM MHM JA
-0.3010 MICH RESERVIEREN K\'F6NNTEN
-0.3010 MINUTEN HABE ICH
-0.3010 MIR AUCH DAS
-0.3010 MIR AUFGESCHRIEBEN IST
-0.3010 MITTWOCH DRAUF HABE
-0.3010 MITTWOCH NEUNTER UND
-0.3010 MONTAG UND DIENSTAG
-0.3010 M\'F6CHTE ICH DANN
-0.3010 M\'F6GLICHKEIT SICH JETZT
-0.3010 M\'FCSSEN WIR DANN
-0.3010 NAMEN KNIPP\ </s>
-0.3010 NEHMEN WIR DEN
-0.3010 NEUNTER UND ZEHNTER
-0.3010 NICHT MEHR DASS
-0.3010 NOCH DORT SITZEN
-0.3010 NOCH EIN BISSCHEN
-0.3010 NOCH EINIGERMA\'DFEN GENIE\'DFEN\
-0.3010 NOCH MAL \'FCBERN
-0.6021 N\'E4CHSTEN TAG AUCH
-0.6021 N\'E4CHSTEN TAG DOCH
-0.3010 N\'E4MLICH IM N\'E4CHSTEN
-0.3010 ODER IN EINE
-0.3010 ODER SOLLEN WIR
-0.3010 OKAY <h\'e4s> <\'e4h>
-0.3010 OKAY JA GUT
-0.3010 ORDNUNG BEIM\ </s>
-0.3010 ORT KUCKEN <%>\
-0.3010 PREISLICH AUS\ </s>
-0.3010 P\'FCNKTLICH SEIN NICHT
-0.3010 REINE FLUGZEIT (18)\
-0.3010 RESERVIEREN K\'F6NNTEN AUF
-0.3010 SCHON IN ORDNUNG
-0.3010 SCHON VORAB ZU
-0.6021 SEHEN UNS DANN
-0.6021 SEHEN UNS DANN\
-0.3010 SEIN NICHT MEHR
-0.3010 SICH JETZT SCHON
-0.3010 SIE <%> VOR
-0.3010 SIE DAS F\'FCR
-0.3010 SIE EINE M\'F6GLICHKEIT
-0.3010 SIE MAL JA
-0.3010 SIEBZIG MINUTEN HABE
-0.3010 SIEHT DAS PREISLICH
-0.3010 SIND JA ZWEI
-0.3010 SITZEN ICH HABE
-0.3010 SO DANN GEHEN
-0.3010 SO VORLIEGEN GENAU\
-0.3010 SOLLEN WIR DAS
-0.3010 TAG AUCH EIN
-0.3010 TAG DOCH NOCH
-0.3010 TAG FRAU VOGGESSER\
-0.3010 TAG HERR FREYER\
-0.3010 TAGE ALSO DIESER
-0.3010 THEATER ODER IN
-0.3010 TJA WIR SEHEN
-0.3010 UND DANN NEHMEN
-0.3010 UND DEN M\'F6CHTE
-0.3010 UND DIENSTAG MHM\
-0.3010 UND MITTWOCH NEUNTER
-0.3010 UND TJA WIR
-0.3010 UND WIE SIEHT
-0.3010 UND WIR SEHEN
-0.3010 UND ZEHNTER JUNI
-0.3010 UNS DANN VIELLEICHT
-0.3010 UNS DANN\ </s>
-0.3010 UNS JA VORHER
-0.3010 URLAUBSTAG UND DEN
-0.3010 VIELLEICHT LAUFEN WIR
-0.3010 VOR ORT KUCKEN
-0.3010 VORAB ZU INFORMIEREN
-0.3010 VORHER NOCH MAL
-0.3010 VORLIEGEN GENAU\ </s>
-0.3010 WARTEN SIE MAL
-0.3010 WAS DA IST
-0.3010 WEG ALS\ </s>
-0.3010 WENN SIE DAS
-0.3010 WIE SIEHT DAS
-0.3010 WIR AUCH SO
-0.3010 WIR DANN AUCH
-0.6021 WIR DAS DANN
-0.6021 WIR DAS MAL
-0.6021 WIR DEN LETZTEN
-0.6021 WIR DEN N\'E4CHSTEN
-0.3010 WIR ES SO
-0.3010 WIR NOCH EIN
-0.3010 WIR SEHEN UNS
-0.3010 WIR UNS JA
-0.3010 W\'E4RE SCHON IN
-0.3010 W\'E4RE W\'E4RE SCHON
-0.3010 ZEHNTER JUNI \
-0.3010 ZU INFORMIEREN WAS
-0.3010 ZWEI TAGE ALSO
-0.3010 \'FCBERN WEG ALS\
-0.3010 \CF0 UN\ </s>
-0.3010 \F0\FS24 \CF0 UN\
-0.3010 {\FONTTBL\F0\FSWISS\FCHARSET0 HELVETICA;} </s>

\end\
