#############################################################################
## Copyright (c) 1996, Carnegie Mellon University, Cambridge University,
## Ronald Rosenfeld and Philip Clarkson
## Version 3, Copyright (c) 2006, Carnegie Mellon University 
## Contributors includes Wen Xu, Ananlada Chotimongkol, 
## David Huggins-Daines, Arthur Chan and Alan Black 
#############################################################################
=============================================================================
===============  This file was produced by the CMU-Cambridge  ===============
===============     Statistical Language Modeling Toolkit     ===============
=============================================================================
This is a 3-gram language model, based on a vocabulary of 2001 words,
  which begins "$C", "$E", "$F"...
This is an OPEN-vocabulary model (type 1)
  (OOVs were mapped to UNK, which is treated as any other vocabulary word)
Good-Turing discounting was applied.
1-gram frequency of frequency : 851 
2-gram frequency of frequency : 10448 1985 861 452 329 202 129 
3-gram frequency of frequency : 24038 2110 628 286 166 90 64 
1-gram discounting ratios : 1.00 
2-gram discounting ratios : 0.32 0.62 0.67 0.90 0.71 0.72 0.99 
3-gram discounting ratios : 0.16 0.44 0.60 0.72 0.65 0.83 0.69 
This file is in the ARPA-standard format introduced by Doug Paul.

p(wd3|wd1,wd2)= if(trigram exists)           p_3(wd1,wd2,wd3)
                else if(bigram w1,w2 exists) bo_wt_2(w1,w2)*p(wd3|wd2)
                else                         p(wd3|w2)

p(wd2|wd1)= if(bigram exists) p_2(wd1,wd2)
            else              bo_wt_1(wd1)*p_1(wd2)

All probs and back-off weights (bo_wt) are given in log10 form.

Data formats:

Beginning of data mark: \data\
ngram 1=nr            # number of 1-grams
ngram 2=nr            # number of 2-grams
ngram 3=nr            # number of 3-grams

\1-grams:
p_1     wd_1 bo_wt_1
\2-grams:
p_2     wd_1 wd_2 bo_wt_2
\3-grams:
p_3     wd_1 wd_2 wd_3 

end of data mark: \end\

\data\
ngram 1=2002
ngram 2=15081
ngram 3=27663

\1-grams:
-4.5733 <UNK>	0.0000
-3.3418 $C	-0.2432
-3.6180 $E	-0.2379
-4.0951 $F	-0.1659
-4.0951 $I	-0.1271
-2.5855 $L	-0.1654
-3.1251 $M	-0.1336
-4.5733 $P	-0.1671
-3.0537 $S	-0.2341
-2.9001 $T	-0.1998
-4.0951 $T's	-0.1627
-3.5308 $U	-0.2163
-2.6691 $W	-0.3070
-4.5733 $W's	-0.1649
-2.5192 $Z	-0.2400
-4.5733 'es	-0.1677
-3.3961 'is	-0.0882
-3.4261 'm	-0.2871
-2.0040 'n	-0.4179
-2.5810 'ne	-0.3549
-3.4931 'nem	-0.2293
-3.3170 'nen	-0.3735
-3.9702 'ner	-0.1647
-2.0282 's	-0.2059
-1.0541 </s>	-3.5183
-99.0000 <s>	-0.7970
-4.5733 Abbildung	-0.1685
-4.5733 Abmessung	-0.1666
-4.5733 Abschluss	-0.1686
-4.2712 Abschnitt	-0.1282
-4.5733 Abschnitte	-0.1576
-4.5733 Abstand	-0.1568
-4.5733 Abzweig	-0.1285
-4.5733 Abzweigungen	-0.1679
-4.5733 Acht	-0.1663
-4.0951 Ahnung	-0.1193
-3.9702 Anfang	-0.2638
-4.0951 Angebot	-0.1065
-4.5733 Anordnung	-0.1655
-4.0951 Anzahl	-0.3146
-3.7271 Art	-0.1656
-4.5733 Ausbuchtung	-0.1684
-4.5733 Ausbuchtungen	-0.1685
-4.5733 Ausläufer	-0.1677
-4.5733 Ausschnitt	-0.1627
-4.0951 Auswuchs	-0.1235
-4.5733 Auswählen	-0.1285
-4.5733 Auß'dings	-0.1645
-4.5733 Außenwände	-0.1655
-3.7941 Balken	-0.1107
-2.9702 Bauch	-0.3624
-4.5733 Bauchdecke	-0.1686
-4.2712 Bauchnabel	-0.1284
-4.5733 Bauchquadrat	-0.1285
-4.0951 Bauchseite	-0.1212
-4.5733 Bauchstück	-0.1285
-4.5733 Bauchteil	-0.1655
-4.5733 Bauchteile	-0.1658
-4.0951 Bauteil	-0.1545
-4.2712 Bedrängnis	-0.4101
-4.5733 Begriffe	-0.1674
-2.8910 Bein	-0.2778
-4.2712 Beinchen	-0.1258
-3.6180 Beine	-0.1227
-3.9702 Beinen	-0.2342
-3.9702 Beins	-0.3655
-3.9702 Bereich	-0.2745
-4.5733 Beschreibung	-0.1285
-4.2712 Bett	-0.1671
-4.5733 Bild	-0.1576
-3.9702 Bildschirm	-0.2328
-3.5722 Blatt	-0.1685
-4.5733 Blattes	-0.1285
-4.5733 Blattteilen	-0.1686
-4.5733 Bleistiftstriche	-0.1677
-4.2712 Blitz	-0.1673
-2.9594 Block	-0.3781
-4.5733 Blockbuchstaben	-0.1513
-4.5733 Blocks	-0.1686
-4.2712 Blättchen	-0.1670
-3.4583 Blöcke	-0.2427
-4.2712 Blöcken	-0.1218
-4.2712 Blödsinn	-0.1260
-4.0951 Bogen	-0.1118
-4.0951 Breite	-0.1618
-4.2712 Breitseite	-0.4117
-4.5733 Brille	-0.1686
-4.2712 Brust	-0.1616
-4.5733 Buchstaben	-0.1686
-3.9702 Bumerang	-0.1512
-3.3170 Daumen	-0.2804
-4.2712 Delle	-0.1213
-4.5733 Dete	-0.1670
-4.5733 Diagonale	-0.1576
-3.2298 Ding	-0.1858
-4.2712 Dinger	-0.1660
-4.5733 Dingern	-0.1647
-4.2712 Dings	-0.1651
-4.5733 Dozentin	-0.1285
-4.5733 Drei	-0.1285
-3.9702 Dreieck	-0.2312
-4.5733 Dreierlinie	-0.1685
-3.5722 Dreierreihe	-0.3311
-4.0951 Dreierstück	-0.1583
-4.5733 Dreiersäule	-0.1625
-4.5733 Dreiteilige	-0.1657
-4.5733 Drittel	-0.1655
-4.5733 Druckschrift	-0.1673
-4.5733 Eck	-0.1680
-3.0408 Ecke	-0.1700
-4.0951 Ecken	-0.3173
-4.2712 Eckstück	-0.1589
-4.5733 Eindruck	-0.1285
-3.7271 Einheit	-0.1218
-3.7941 Einheiten	-0.1577
-4.5733 Einkerbung	-0.1655
-3.6180 Eins	-0.2020
-4.5733 Einserteil	-0.1685
-4.5733 Einzel	-0.1686
-4.2712 Einzelstück	-0.1281
-4.2712 Einzelteil	-0.1654
-3.1573 Elefant	-0.1936
-2.7089 Elefanten	-0.2938
-4.5733 Elefantenfuß	-0.1686
-4.5733 Elefantenkopf	-0.1686
-3.9702 Element	-0.1475
-4.0951 Elf	-0.1554
-3.4261 Ende	-0.2236
-4.2712 Ente	-0.1606
-3.9702 Entschuldigung	-0.1169
-4.5733 Euter	-0.1686
-4.5733 Extraquadrat	-0.1686
-4.5733 F	-0.1683
-4.5733 Fa	-0.1672
-3.7941 Fall	-0.1008
-4.5733 Fantasie	-0.1285
-4.5733 Farbe	-0.1285
-4.2712 Farben	-0.1685
-4.0951 Faust	-0.4808
-4.0951 Fehler	-0.1684
-3.2105 Feld	-0.2218
-3.7271 Felder	-0.2857
-4.5733 Fenster	-0.1685
-3.5722 Figur	-0.1376
-4.5733 Figuren	-0.1675
-4.2712 Finger	-0.1624
-4.5733 Fingern	-0.1678
-4.5733 Fleck	-0.1285
-4.0951 Fläche	-0.3148
-3.3961 Flügel	-0.1394
-4.5733 Flügeln	-0.1627
-3.2712 Form	-0.1682
-4.5733 Fortsetzung	-0.1645
-4.5733 Frage	-0.1650
-4.5733 Franziska	-0.1285
-4.2712 Freikästchen	-0.1238
-4.5733 Freiraum	-0.1655
-3.0537 Fuß	-0.2355
-4.2712 Fünf	-0.1621
-3.7941 Füße	-0.1057
-3.9702 Füßen	-0.1641
-4.0951 Ganze	-0.3156
-4.0951 Ganzes	-0.1247
-4.5733 Gedankengang	-0.1674
-4.5733 Geometrie	-0.1285
-4.5733 Gerade	-0.1621
-4.5733 Geschmack	-0.1686
-4.5733 Geste	-0.1674
-3.3418 Gott	-0.5083
-4.5733 Gottes	-0.1686
-3.2935 Grad	-0.2882
-4.2712 Grund	-0.1578
-4.0951 Grundform	-0.1218
-4.5733 Grundlinie	-0.1627
-4.5733 Grundquadrat	-0.1678
-4.2712 Grundquadrate	-0.4177
-4.5733 Grundquadraten	-0.1684
-4.0951 Grundraster	-0.3172
-3.7271 Grundrasters	-0.1711
-4.5733 Grundriss	-0.1680
-4.5733 Güte	-0.1285
-4.2712 Haken	-0.1615
-3.7941 Hakenkreuz	-0.2074
-4.0951 Hals	-0.1561
-3.4583 Hand	-0.1253
-4.2712 Handstand	-0.1284
-4.5733 Hase	-0.1685
-4.2712 Herz	-0.1684
-4.5733 Hinter	-0.1686
-4.5733 Hinterbauch	-0.1606
-3.6691 Hinterbein	-0.0906
-3.9702 Hinterbeine	-0.1234
-4.2712 Hinterbeinen	-0.1662
-4.5733 Hinterbeins	-0.1682
-4.0951 Hinterfuß	-0.0968
-3.3961 Hinterkopf	-0.1933
-3.6691 Hinterlauf	-0.1644
-4.5733 Hinterläufe	-0.1675
-4.5733 Hintern	-0.1645
-4.5733 Hinterpfote	-0.1285
-4.2712 Hinterseite	-0.4169
-3.0951 Hinterteil	-0.2188
-4.5733 Hinterteils	-0.1513
-4.5733 Hitlerhakenkreuz	-0.1680
-4.5733 Hitlers	-0.1686
-4.2712 Hufeisen	-0.1155
-4.5733 Hä	-0.1686
-3.3418 Hälfte	-0.5477
-4.5733 Hände	-0.1645
-3.6691 Höhe	-0.2720
-4.5733 I	-0.1686
-3.7941 Idee	-0.2888
-4.5733 Inhalt	-0.1285
-4.5733 Innenseite	-0.1576
-4.5733 Insel	-0.1686
-4.5733 Jana	-0.1686
-4.5733 Job	-0.1285
-4.5733 Jonas	-0.1285
-3.5308 Kante	-0.2693
-4.5733 Kanten	-0.1621
-3.4931 Karo	-0.2507
-3.5308 Karos	-0.2152
-4.5733 Kasten	-0.1670
-4.5733 Keile	-0.1686
-4.5733 Knick	-0.1674
-3.8733 Kolibri	-0.0938
-4.2712 Koordinaten	-0.1671
-2.9001 Kopf	-0.2162
-4.5733 Kopfes	-0.1634
-3.9702 Kopfteil	-0.1454
-4.5733 Korsika	-0.1650
-4.5733 Kreu	-0.1627
-2.7030 Kreuz	-0.2328
-4.2712 Kreuzes	-0.1663
-4.5733 Kuh	-0.1686
-4.2712 Käse	-0.1626
-2.6132 Kästchen	-0.3400
-3.8733 Körper	-0.2089
-4.5733 Körperteile	-0.1670
-4.5733 Legespiel	-0.1682
-3.8733 Lehne	-0.2021
-4.5733 Liegen	-0.1685
-3.6691 Linie	-0.2123
-4.5733 Linien	-0.1677
-3.8733 Loch	-0.1167
-4.0951 Länge	-0.1241
-4.5733 Längsseite	-0.1686
-3.3418 Lücke	-0.2420
-3.9702 Lücken	-0.2344
-4.5733 Mann	-0.1285
-4.5733 Manu	-0.1285
-4.2712 Markierungen	-0.1664
-4.5733 Martha	-0.1285
-4.5733 Mathematik	-0.1669
-3.8733 Maus	-0.6624
-4.0951 Mensch	-0.2773
-4.5733 Minuten	-0.1686
-4.5733 Mist	-0.1568
-3.0040 Mitte	-0.2616
-4.5733 Mittelfuß	-0.1677
-4.5733 Mittelstrang	-0.1655
-4.5733 Mittelstrich	-0.1685
-4.2712 Mittelteil	-0.1681
-4.2712 Mittelzunge	-0.4176
-3.3961 Moment	-0.2292
-3.8733 Männchen	-0.1609
-3.9702 Männeken	-0.1564
-3.8733 Möglichkeit	-0.1872
-4.2712 Möglichkeiten	-0.1671
-4.0951 Nacken	-0.1587
-4.5733 Namen	-0.1661
-3.9702 Neun	-0.1307
-4.5733 Norden	-0.1685
-2.9001 Nummer	-0.5824
-4.5733 Nummerierung	-0.1655
-4.5733 Oberseite	-0.1683
-3.9702 Oberstrich	-0.3772
-4.5733 Oberteilen	-0.1661
-3.8733 Ohr	-0.1423
-4.2712 Ohren	-0.1271
-4.5733 Ordnung	-0.1684
-4.5733 Orientierungspunkt	-0.1663
-4.5733 Papierhälfte	-0.1682
-4.5733 Pardon	-0.1285
-4.5733 Partie	-0.1666
-4.2712 Pfeil	-0.1627
-4.5733 Pforte	-0.1684
-4.5733 Pixeln	-0.1686
-4.2712 Plan	-0.1651
-3.5308 Platz	-0.2253
-3.6691 Plus	-0.1578
-4.0951 Pluszeichen	-0.2588
-4.5733 Plättchen	-0.1680
-4.0951 Popo	-0.1161
-3.9702 Position	-0.1178
-4.2712 Preis	-0.1686
-3.4583 Prinzip	-0.2264
-3.5308 Problem	-0.2295
-4.0951 Probleme	-0.1561
-4.0951 Puzzle	-0.1446
-4.5733 Puzzlebrett	-0.1285
-4.0951 Puzzleteil	-0.1480
-4.0951 Puzzleteile	-0.1266
-4.5733 Puzzleteils	-0.1285
-4.2712 Qu	-0.1630
-4.2712 Qua	-0.1675
-2.4719 Quadrat	-0.2857
-2.7941 Quadrate	-0.3081
-3.1743 Quadraten	-0.1780
-4.2712 Quartal	-0.1673
-4.5733 Querbalken	-0.1686
-4.5733 Querstrich	-0.1663
-3.4261 Rand	-0.2204
-4.5733 Rasterzelle	-0.1684
-4.5733 Raum	-0.1686
-4.5733 Rech	-0.1682
-3.0159 Rechteck	-0.2108
-3.9702 Rechtecke	-0.1616
-4.2712 Rechtecken	-0.1510
-4.5733 Rei	-0.1641
-2.9812 Reihe	-0.4316
-4.0951 Reihen	-0.1612
-3.6691 Reihenfolge	-0.1103
-3.9702 Rest	-0.1647
-3.4931 Richtung	-0.1770
-4.2712 Richtungen	-0.1574
-4.5733 Rotes	-0.1678
-3.6180 Rucksack	-0.1064
-2.9288 Rücken	-0.2310
-3.9702 Rückenlehne	-0.2312
-4.5733 Rückenlinie	-0.1655
-4.2712 Rückens	-0.1262
-4.0951 Rückenteil	-0.1605
-4.5733 Rückenteilchen	-0.1644
-2.9190 Rüssel	-0.2747
-4.5733 Rüssels	-0.1285
-4.2712 Sachen	-0.1589
-4.2712 Sattel	-0.1595
-4.0951 Schachbrett	-0.2778
-4.0951 Schenkel	-0.1601
-4.5733 Schenkeln	-0.1285
-4.5733 Schlange	-0.1685
-3.6180 Schornstein	-0.2007
-4.5733 Schrift	-0.1672
-4.2712 Schräge	-0.3776
-4.0951 Schwanz	-0.1270
-4.5733 Schwierigkeiten	-0.1655
-4.5733 Schädel	-0.1686
-4.2712 Sechs	-0.4136
-2.7149 Seite	-0.2811
-3.7941 Seiten	-0.1225
-4.5733 Sekunde	-0.1568
-4.5733 Sicherheit	-0.1671
-3.2105 Sieben	-0.1752
-4.5733 Sinn	-0.1685
-3.2712 Spalte	-0.6355
-4.0951 Spalten	-0.1504
-4.5733 Spiegelachse	-0.1661
-4.2712 Spiel	-0.1285
-3.8733 Spielplan	-0.1490
-4.5733 Spielplans	-0.1576
-4.5733 Spielregeln	-0.1647
-4.5733 Spielteile	-0.1673
-3.6691 Spitze	-0.1908
-4.5733 Sprechstunde	-0.1655
-3.7941 Stab	-0.1394
-4.5733 Steffi	-0.1686
-3.1409 Stein	-0.1033
-4.5733 Steinchen	-0.1627
-3.7271 Steine	-0.1527
-3.9702 Stelle	-0.2491
-4.5733 Stern	-0.1627
-4.5733 Sternzacken	-0.1672
-3.9702 Stirn	-0.2665
-4.5733 Streifen	-0.1645
-3.3170 Strich	-0.2534
-3.9702 Striche	-0.1562
-4.5733 Struktur	-0.1684
-3.2935 Stufe	-0.1749
-3.7271 Stufen	-0.2233
-4.5733 Stufenhöhe	-0.1679
-3.3681 Stuhl	-0.1537
-4.5733 Stuhllehne	-0.1673
-4.5733 Stäbe	-0.1684
-2.9388 Stück	-0.1711
-4.0951 Stückchen	-0.3028
-3.8733 Stücke	-0.2434
-4.5733 Symbol	-0.1285
-3.7271 Säule	-0.4922
-4.2712 Säulen	-0.1675
-4.5733 T	-0.1627
-4.5733 Talkis	-0.1658
-1.9616 Teil	-0.3679
-4.0951 Teilchen	-0.1253
-2.9702 Teile	-0.1456
-3.3681 Teilen	-0.2446
-4.2712 Teils	-0.1675
-4.5733 Teilung	-0.1625
-4.5733 Tetris	-0.1285
-4.2712 Tier	-0.1284
-4.2712 Tierchen	-0.1164
-4.5733 Toreinfahrt	-0.1674
-2.6327 Treppe	-0.1499
-4.2712 Treppenabsatz	-0.1670
-4.5733 Treppendinger	-0.1644
-4.5733 Treppenform	-0.1678
-4.5733 Treppenteil	-0.1644
-4.5733 Treppenähnliches	-0.1648
-4.0951 Tschuldigung	-0.4437
-4.5733 Uhrzeiger	-0.1285
-3.5722 Uhrzeigersinn	-0.4122
-3.7271 Umriss	-0.2079
-4.5733 Umrisse	-0.1673
-4.2712 Umrissmodell	-0.1652
-4.5733 Umschreibung	-0.1682
-3.6180 Unterseite	-0.1944
-4.5733 Verbindung	-0.1627
-4.0951 Verlängerung	-0.1534
-4.5733 Version	-0.1655
-3.6691 Vier	-0.2268
-4.2712 Viereck	-0.1674
-4.5733 Vierecke	-0.1285
-4.5733 Vierecken	-0.1655
-4.5733 Viererlinie	-0.1655
-3.7271 Viertel	-0.1699
-4.2712 Vorder	-0.1654
-4.5733 Vorderbei	-0.1627
-3.1920 Vorderbein	-0.1637
-3.5722 Vorderbeins	-0.2290
-3.4583 Vorderfuß	-0.3016
-4.5733 Vorderfußes	-0.1685
-4.5733 Vorderkante	-0.1677
-4.2712 Vorderkopf	-0.1503
-3.8733 Vorderlauf	-0.0947
-4.2712 Vorderläufen	-0.1164
-4.5733 Vorderseite	-0.1677
-4.5733 Vorstellung	-0.1666
-4.5733 Vortrag	-0.1686
-4.5733 Walki	-0.1686
-4.2712 Weg	-0.1276
-4.5733 Weise	-0.1686
-4.2712 Willen	-0.1278
-4.5733 Win	-0.1285
-3.0040 Winkel	-0.1560
-4.2712 Winkelteil	-0.1660
-4.2712 Worten	-0.1492
-4.5733 Ypsilon	-0.1675
-4.2712 Zacken	-0.1637
-4.0951 Zahlen	-0.2757
-4.5733 Zehn	-0.1621
-4.5733 Zeichen	-0.1684
-4.5733 Zeichnung	-0.1656
-4.5733 Zeilchen	-0.1685
-3.2935 Zeile	-0.2619
-3.8733 Zeilen	-0.3145
-3.9702 Zeit	-0.1652
-4.5733 Zelle	-0.1678
-4.2712 Zettel	-0.1561
-4.5733 Zettels	-0.1285
-4.5733 Zickzack	-0.1285
-4.5733 Zickzackeecke	-0.1644
-4.5733 Zickzacklinie	-0.1684
-4.5733 Zipfel	-0.1644
-4.5733 Zusatzteil	-0.1625
-3.5308 Zwei	-0.1659
-4.5733 Zweierding	-0.1285
-3.8733 Zweierreihe	-0.1619
-4.5733 Zweierteil	-0.1679
-4.5733 Zweiteilige	-0.1649
-4.5733 Zwölf	-0.1621
-3.8733 a	-0.5327
-2.9812 ab	-0.5444
-4.5733 abdecke	-0.1663
-2.2278 aber	-0.3033
-4.5733 abfällt	-0.1644
-4.5733 abgeh'n	-0.1621
-4.5733 abgehend	-0.1685
-4.5733 abgelegt	-0.1285
-4.5733 abgeschlossen	-0.1644
-4.5733 abgeschnitten	-0.1673
-4.5733 abschließ'n	-0.1576
-3.4583 abschließen	-0.6465
-4.2712 abschließende	-0.4174
-3.6180 abschließt	-0.3133
-4.2712 abwechselnd	-0.1686
-4.5733 abweichen	-0.1285
-4.2712 abweichenden	-0.4177
-3.8733 abzähl'n	-0.1178
-4.5733 abzählt	-0.1681
-2.6857 ach	-0.5524
-3.6180 acht	-0.1310
-4.5733 achte	-0.1661
-4.5733 achten	-0.1683
-2.7869 ah	-0.2718
-3.3418 aha	-0.2579
-3.5308 alle	-0.1865
-4.5733 alleinstehende	-0.1686
-4.5733 allerdings	-0.1625
-3.9702 allererste	-0.2656
-4.2712 allerersten	-0.1593
-4.5733 alleroberste	-0.1684
-2.8910 alles	-0.5338
-2.8240 als	-0.2482
-1.8630 also	-0.2407
-2.6914 am	-0.4005
-2.0671 an	-0.6688
-4.5733 anatomisch	-0.1685
-4.5733 and're	-0.1682
-3.6691 and'res	-0.4029
-4.2712 ander	-0.4118
-4.2712 ander'm	-0.1619
-3.2712 ander'n	-0.2924
-3.1573 andere	-0.2018
-3.7941 anderen	-0.2967
-3.4931 anderes	-0.3205
-3.4583 anders	-0.1693
-3.6180 andersrum	-0.2503
-4.5733 andocken	-0.1606
-4.5733 aneinander	-0.1682
-4.5733 anenander	-0.1649
-4.2712 anfang'n	-0.1276
-4.0951 anfange	-0.1561
-3.6691 anfangen	-0.2008
-4.2712 anfängst	-0.1590
-4.2712 angefangen	-0.1648
-4.5733 angefügt	-0.1682
-4.5733 angekommen	-0.1285
-3.4261 angelegt	-0.3903
-4.5733 angenommen	-0.1686
-3.9702 angeordnet	-0.3992
-4.5733 angeschlossen	-0.1621
-4.2712 angesetzt	-0.1280
-4.5733 anguckst	-0.1632
-4.5733 anguckt	-0.1674
-4.2712 anklicken	-0.1285
-3.4931 anlegen	-0.3390
-3.7271 anliegen	-0.1991
-3.9702 anliegt	-0.3700
-4.5733 anordnen	-0.1686
-3.3961 ans	-0.2847
-4.0951 anscheinend	-0.1685
-3.8733 anschließen	-0.0923
-4.5733 anschließend	-0.1682
-4.5733 anschließt	-0.1285
-4.5733 ansetzen	-0.1660
-4.5733 anzubringen	-0.1576
-4.5733 arbeiten	-0.1627
-4.5733 are	-0.1686
-4.2712 argh	-0.1276
-4.5733 au	-0.1678
-2.3961 auch	-0.2690
-2.4684 auf	-0.5942
-4.5733 aufgeht	-0.1285
-4.2712 aufgemalten	-0.1676
-4.5733 aufgeteilt	-0.1656
-4.5733 aufgetreten	-0.1285
-4.5733 aufgezeichnet	-0.1625
-4.5733 aufhöre	-0.1678
-4.5733 aufhören	-0.1674
-4.5733 aufkreuze	-0.1682
-4.2712 aufrecht	-0.1197
-4.2712 aufrechte	-0.1609
-4.5733 aufsetzt	-0.1651
-4.5733 aufspaltbar	-0.1568
-2.3170 aus	-0.5989
-4.5733 ausdenken	-0.1285
-4.5733 ausf	-0.1627
-4.2712 ausfüll'n	-0.1676
-4.5733 ausfüllen	-0.1684
-4.2712 ausfüllt	-0.1155
-4.5733 ausgedruckt	-0.1641
-3.7271 ausgefüllt	-0.3080
-4.5733 ausgefüllten	-0.1662
-4.2712 ausgehe	-0.1644
-4.5733 ausgehen	-0.1513
-4.0951 ausgehend	-0.1631
-4.5733 ausgemacht	-0.1650
-4.5733 ausgerutscht	-0.1285
-4.5733 ausgeschnittene	-0.1684
-4.5733 ausgesparte	-0.1682
-4.5733 ausgestrecktem	-0.1684
-4.5733 ausgestreckter	-0.1684
-4.5733 ausjefüllt	-0.1655
-4.5733 auslaufend	-0.1664
-4.5733 ausprobieren	-0.1285
-4.5733 ausprobierst	-0.1576
-4.5733 ausschaun	-0.1680
-4.5733 ausschaut	-0.1650
-4.5733 ausseh'n	-0.1650
-3.9702 aussehen	-0.1488
-2.9490 aussieht	-0.5663
-4.0951 automatisch	-0.1593
-3.6180 außen	-0.1127
-4.2712 außer	-0.1651
-4.2712 b	-0.1632
-4.5733 basteln	-0.1680
-4.5733 bau	-0.1610
-4.2712 bauen	-0.1506
-4.5733 bedauerlicherweise	-0.1684
-4.5733 beeden	-0.1685
-4.5733 befinden	-0.1679
-4.5733 befindet	-0.1679
-4.5733 begeben	-0.1664
-4.2712 beginnen	-0.1545
-4.5733 beginnend	-0.1656
-4.2712 beginnt	-0.1482
-4.5733 behaupten	-0.1684
-2.6972 bei	-1.2011
-3.9702 beide	-0.2709
-3.4583 beiden	-0.2233
-3.4931 beim	-0.2215
-4.5733 belegen	-0.1285
-4.0951 belegt	-0.3167
-4.5733 benutzt	-0.1678
-4.5733 benutzten	-0.1684
-4.5733 ber	-0.1685
-4.2712 berühr'n	-0.1648
-3.9702 berühren	-0.2226
-3.9702 berührt	-0.1609
-4.2712 bescheuert	-0.4118
-3.7271 beschreib	-0.1943
-4.2712 beschreibe	-0.1625
-3.2712 beschreiben	-0.1579
-4.5733 beschreibendes	-0.1639
-3.7941 beschrieben	-0.3513
-4.2712 besetzt	-0.1602
-4.0951 besser	-0.1262
-4.0951 bestehen	-0.1247
-4.5733 bestehend	-0.1576
-4.5733 bestehende	-0.1676
-3.2105 besteht	-0.2633
-4.0951 besten	-0.1275
-4.5733 bestes	-0.1285
-3.5722 bestimmt	-0.2327
-4.5733 bestimmten	-0.1686
-4.5733 betrachte	-0.1686
-4.5733 betrifft	-0.1634
-3.5722 bezeichnen	-0.2549
-4.5733 bezeichnest	-0.1285
-4.5733 bezeichnet	-0.1673
-4.5733 beziehen	-0.1679
-3.9702 beziehungsweise	-0.1593
-4.5733 bidirektionale	-0.1686
-3.7941 bilden	-0.1592
-3.3961 bildet	-0.1922
-3.5308 bin	-0.1871
-3.3418 bis	-0.3739
-4.5733 biss'n	-0.1649
-2.8398 bisschen	-0.2228
-3.8733 bist	-0.1103
-3.6691 bitte	-0.3579
-3.6691 bleiben	-0.3636
-3.4261 bleibt	-0.2052
-4.5733 blockiert	-0.1663
-3.8733 bloß	-0.3184
-4.5733 blubbern	-0.1686
-4.0951 blöd	-0.3175
-4.5733 boah	-0.1644
-4.5733 br	-0.1285
-4.2712 brauch	-0.1597
-4.2712 brauch'n	-0.1661
-4.5733 brauchen	-0.1670
-4.0951 breit	-0.1636
-4.5733 breit'ste	-0.1678
-4.0951 bündig	-0.3148
-4.5733 clockwise	-0.1679
-3.7941 cool	-0.2706
-3.4261 d	-0.1585
-4.2712 d'	-0.4137
-4.5733 d's	-0.1682
-2.0076 da	-0.2463
-4.5733 dabei	-0.1683
-4.5733 dacht	-0.1610
-4.5733 dachte	-0.1513
-3.7271 dadrunter	-0.1825
-3.9702 dadrüber	-0.1565
-4.5733 dadurch	-0.1663
-3.5308 dahin	-0.2693
-4.2712 dam	-0.1676
-3.6180 damit	-0.1340
-4.0951 danach	-0.1575
-3.3961 daneben	-0.3666
-4.5733 danke	-0.1685
-1.9029 dann	-0.2059
-3.6180 daran	-0.2514
-4.5733 darauf	-0.1686
-3.7941 darf	-0.2575
-4.2712 darfst	-0.1647
-4.5733 darin	-0.1643
-4.5733 darum	-0.1674
-4.0951 darunter	-0.1587
-3.8733 darüber	-0.2373
-1.4070 das	-0.3038
-2.2690 dass	-0.6342
-4.2712 dasselbe	-0.1269
-4.2712 dat	-0.1649
-3.3961 davon	-0.1656
-3.7271 davor	-0.1020
-4.5733 davorsitzt	-0.1663
-3.7271 dazu	-0.1820
-3.5722 dazwischen	-0.3613
-3.4583 de	-0.2173
-3.7271 dein	-0.1679
-4.2712 deine	-0.1675
-4.2712 deinem	-0.1686
-4.0951 deinen	-0.1685
-4.2712 deiner	-0.1686
-4.5733 deines	-0.1686
-4.5733 deins	-0.1682
-2.0865 dem	-0.3697
-2.2584 den	-0.3978
-4.0951 denk	-0.2983
-3.7271 denke	-0.2897
-3.9702 denken	-0.1152
-3.9702 denkst	-0.1176
-2.8164 denn	-0.0817
-1.8546 der	-0.3383
-4.5733 derselben	-0.1686
-2.6801 des	-0.4219
-4.5733 deshalb	-0.1683
-4.0951 deswegen	-0.1244
-4.5733 deutlich	-0.1686
-4.5733 deutliches	-0.1681
-4.5733 diagonal	-0.1686
-3.6180 dich	-0.2041
-4.5733 dicke	-0.1686
-4.5733 dickes	-0.1686
-1.8264 die	-0.2547
-4.0951 dies	-0.1659
-2.7798 diese	-0.2808
-2.8820 diesem	-0.2204
-3.2105 diesen	-0.1807
-3.0282 dieser	-0.2809
-2.3004 dieses	-0.4814
-4.0951 dieset	-0.1684
-2.8014 dir	-0.2568
-3.0282 direkt	-0.3459
-2.0511 dis	-0.1263
-2.8562 dit	-0.3438
-2.5153 doch	-0.1688
-4.5733 doll	-0.1655
-4.5733 doppelt	-0.1686
-4.5733 doppelte	-0.1675
-4.0951 dort	-0.1662
-4.2712 dr	-0.1642
-2.9490 dran	-0.4035
-3.5722 drauf	-0.2387
-4.5733 drechts	-0.1652
-3.5308 dreh	-0.2644
-3.4261 dreh'n	-0.3066
-3.1920 drehen	-0.4346
-3.3170 drehst	-0.3855
-3.8733 drehste	-0.2280
-3.6691 dreht	-0.1242
-4.5733 drehte	-0.1675
-2.3292 drei	-0.3721
-4.5733 dreien	-0.1680
-4.5733 dreier	-0.1644
-4.0951 dreistufige	-0.4829
-3.6180 drin	-0.3209
-4.0951 drinne	-0.2765
-4.5733 dritt	-0.1641
-3.1409 dritte	-0.7061
-3.9702 dritten	-0.2673
-4.5733 drittes	-0.1513
-3.5308 drunter	-0.2761
-3.7271 drüber	-0.2267
-4.5733 drück	-0.1673
-4.5733 drücke	-0.1686
-4.5733 drückst	-0.1685
-2.0420 du	-0.3174
-3.7941 durch	-0.1801
-4.5733 durchaus	-0.1679
-4.5733 durchgehende	-0.1686
-4.5733 durchgehenden	-0.1684
-4.5733 durchgeht	-0.1625
-4.5733 durchnummeriert	-0.1285
-4.2712 dürfen	-0.1661
-4.5733 dürften	-0.1568
-4.5733 dürftest	-0.1647
-3.4931 eben	-0.1431
-4.5733 ebenfalls	-0.1656
-3.8733 echt	-0.1626
-4.5733 eenen	-0.1686
-3.7271 egal	-0.2503
-4.2712 eh	-0.1653
-4.5733 ehemalige	-0.1685
-3.6691 eher	-0.1608
-3.9702 ei	-0.1601
-4.2712 eigenes	-0.1672
-3.2298 eigentlich	-0.0766
-2.2867 ein	-0.4107
-4.5733 eindeutig	-0.1285
-2.6972 eine	-0.1613
-3.3681 einem	-0.2214
-3.1573 einen	-0.1936
-3.2298 einer	-0.3481
-4.0951 eines	-0.1535
-2.6857 einfach	-0.2488
-4.0951 einfacher	-0.1662
-4.5733 einfachsten	-0.1679
-4.5733 einfüge	-0.1680
-3.8733 einfügen	-0.1225
-4.0951 eingefügt	-0.1275
-4.5733 eingehalten	-0.1682
-4.5733 eingepasst	-0.1682
-3.8733 eingesetzt	-0.2064
-4.5733 einhakt	-0.1645
-4.5733 einig	-0.1285
-4.5733 einigen	-0.1663
-4.5733 einiges	-0.1655
-4.5733 einjebaut	-0.1576
-4.5733 einjelegt	-0.1656
-4.2712 einma	-0.1679
-3.0040 einmal	-0.3208
-4.5733 einpassen	-0.1656
-4.2712 einpasst	-0.1269
-2.4079 eins	-0.3403
-4.2712 einsetzen	-0.1278
-3.4931 einzelne	-0.2869
-3.4583 einzelnen	-0.2868
-4.5733 einzelner	-0.1684
-3.7271 einzelnes	-0.2535
-4.5733 einziges	-0.1676
-4.5733 einzupassen	-0.1285
-4.2712 einzusetzen	-0.1283
-3.6691 elf	-0.1591
-3.9702 endet	-0.1253
-4.5733 endlich	-0.1670
-4.5733 entfernt	-0.1285
-4.5733 entgangen	-0.1285
-4.5733 entlang	-0.1285
-4.5733 entsprechenden	-0.1685
-4.5733 entspricht	-0.1641
-4.2712 entsteht	-0.1239
-4.2712 entweder	-0.1665
-3.3961 er	-0.1284
-4.5733 ergeben	-0.1663
-4.5733 erinnert	-0.1649
-4.2712 erkannt	-0.1271
-4.0951 erkennen	-0.1157
-4.5733 erkennt	-0.1627
-4.5733 erkenntlich	-0.1285
-3.8733 erklär	-0.3529
-4.2712 erklär'n	-0.1259
-3.8733 erklären	-0.1964
-3.3170 erst	-0.2733
-2.9924 erste	-0.4537
-3.5722 ersten	-0.2789
-4.5733 erster	-0.1686
-4.2712 erstes	-0.1490
-3.0951 erstma	-0.2582
-3.6180 erstmal	-0.1318
-4.0951 erzähl	-0.1591
-4.5733 erzähle	-0.1686
-2.2143 es	-0.2851
-3.5722 etwa	-0.1159
-4.0951 etwas	-0.1686
-4.5733 eventuell	-0.1683
-4.5733 exakt	-0.1655
-3.9702 extra	-0.2702
-3.9702 ey	-0.1662
-3.7941 f	-0.1912
-4.5733 falls	-0.1647
-3.1409 falsch	-0.2037
-4.2712 falsche	-0.4130
-4.5733 falsches	-0.1285
-4.2712 falschrum	-0.1674
-3.4931 fang	-0.2963
-4.5733 fang'n	-0.1655
-3.9702 fangen	-0.4109
-4.5733 fass	-0.1621
-3.5308 fast	-0.1499
-4.2712 fehlen	-0.1621
-4.5733 fehlenden	-0.1686
-3.4583 fehlt	-0.1919
-4.0951 fertich	-0.2649
-3.4583 fertig	-0.6668
-4.5733 fertisch	-0.1285
-4.5733 fette	-0.1686
-4.5733 fettes	-0.1686
-4.5733 finde	-0.1285
-4.0951 finden	-0.1269
-4.5733 findest	-0.1513
-4.5733 findeste	-0.1513
-3.2712 flip	-0.5544
-3.9702 flippen	-0.3290
-4.0951 folgendem	-0.4831
-4.5733 formen	-0.1576
-4.2712 fort	-0.1660
-4.2712 fortgesetzt	-0.1665
-4.5733 fortsetzt	-0.1285
-4.2712 frag	-0.1670
-4.2712 fragen	-0.1218
-2.8910 frei	-0.4900
-3.6691 freie	-0.2150
-4.2712 freien	-0.1660
-4.5733 freier	-0.1686
-4.0951 freies	-0.1659
-4.5733 früher	-0.1674
-4.5733 funktioniert	-0.1661
-4.5733 fällt	-0.1513
-4.5733 fängst	-0.1670
-4.2712 fängt	-0.1682
-4.2712 förmig	-0.1219
-3.8733 förmige	-0.3071
-4.0951 fü	-0.1539
-4.5733 füge	-0.1660
-4.0951 fügst	-0.1444
-4.5733 fügste	-0.1634
-3.6691 fügt	-1.0319
-4.5733 führenden	-0.1685
-3.9702 führt	-0.3366
-4.5733 fülle	-0.1663
-3.9702 füllt	-0.1592
-2.8240 fünf	-0.1928
-3.5722 fünfte	-0.7631
-4.2712 fünften	-0.1682
-3.9702 fünfundvierzig	-1.0059
-3.2712 für	-0.2726
-4.5733 fürcht	-0.1686
-4.5733 fürchte	-0.1685
-4.0951 g	-0.1661
-4.5733 ga	-0.1678
-4.5733 gab	-0.1646
-4.5733 gan	-0.1656
-2.5679 ganz	-0.3630
-3.8733 ganze	-0.2510
-3.9702 ganzen	-0.2747
-4.5733 ganzes	-0.1685
-3.1920 gar	-0.8847
-3.7941 ge	-0.1536
-4.5733 geb	-0.1685
-4.5733 gebastelt	-0.1285
-3.7941 gedacht	-0.2480
-4.2712 gedachten	-0.1681
-3.2712 gedreht	-0.4854
-4.5733 geeignet	-0.1684
-3.7271 geflippt	-0.3101
-4.5733 gefragt	-0.1684
-4.0951 gefunden	-0.1253
-4.5733 gefüllt	-0.1673
-4.5733 gefüllten	-0.1683
-3.7271 gegen	-0.3787
-4.5733 gegriffen	-0.1627
-3.7271 geh	-0.2765
-3.3961 geh'n	-0.2084
-4.5733 gehabt	-0.1685
-4.2712 gehe	-0.1228
-3.5722 gehen	-0.1813
-4.5733 gehend	-0.1661
-4.2712 gehst	-0.1254
-2.5428 geht	-0.3275
-3.6180 gehört	-0.3929
-3.8733 gekippt	-0.3057
-4.5733 geklappt	-0.1677
-4.5733 gelassen	-0.1625
-4.0951 gelb	-0.1634
-3.2298 gelegt	-0.1986
-4.5733 gelogen	-0.1674
-4.5733 gelöst	-0.1513
-3.5308 gemacht	-0.2643
-4.5733 gemeinsame	-0.1686
-3.9702 gen	-0.1212
-1.9823 genau	-0.5536
-3.9702 genauso	-0.1659
-4.2712 genommen	-0.1094
-4.5733 genug	-0.1625
-4.2712 gepappt	-0.1603
-3.3170 gerade	-0.1131
-4.5733 geraden	-0.1686
-4.5733 gerades	-0.1682
-4.5733 gern	-0.1285
-4.5733 gerne	-0.1682
-4.5733 gerundet	-0.1663
-3.3418 gesagt	-0.2473
-4.5733 gesamte	-0.1682
-4.0951 gesamten	-0.1684
-4.5733 gesamtes	-0.1684
-4.5733 geschickt	-0.1684
-4.5733 geschoben	-0.1681
-4.5733 geschrieben	-0.1682
-4.0951 gesehen	-0.1254
-3.6691 gesetzt	-0.3576
-4.5733 gespannt	-0.1662
-3.7941 gespiegelt	-0.6735
-4.2712 gespiegelte	-0.1682
-4.5733 gespiegeltes	-0.1675
-4.2712 gesprochen	-0.1685
-4.5733 gestapelte	-0.1680
-4.5733 gestapelten	-0.1684
-4.2712 gestellt	-0.1572
-4.5733 getroffen	-0.1682
-4.5733 gevierteilt	-0.1686
-4.5733 gewes'n	-0.1285
-4.5733 gewinnen	-0.1685
-4.5733 gewisser	-0.1686
-4.5733 gewöhnen	-0.1682
-4.5733 gezackelt	-0.1682
-4.5733 gezackten	-0.1684
-4.5733 gezeigt	-0.1656
-4.5733 gib	-0.1673
-3.2712 gibt	-0.4290
-2.7527 glaub	-0.6158
-3.6691 glaube	-0.3887
-3.7271 gleich	-0.2821
-4.0951 gleiche	-0.1675
-4.0951 gleichen	-0.4838
-3.8733 gleichlang	-0.6673
-4.5733 gleichlangen	-0.1686
-4.5733 gleichmäßige	-0.1686
-4.5733 gleichseitiges	-0.1686
-4.2712 gleichzeitig	-0.1590
-4.5733 gn	-0.1648
-3.6691 grad	-0.1561
-3.7941 grade	-0.2225
-4.5733 grades	-0.1682
-4.5733 great	-0.1285
-4.5733 grenzen	-0.1657
-3.5722 grenzt	-0.2824
-4.5733 groß	-0.1650
-3.5722 große	-0.4004
-4.5733 großem	-0.1672
-3.8733 großen	-0.6670
-3.8733 großes	-0.3525
-4.2712 größeres	-0.1671
-4.5733 grün	-0.1686
-4.5733 guck	-0.1674
-3.9702 gucken	-0.1134
-4.5733 guckst	-0.1680
-3.4583 guckt	-0.1685
-2.6132 gut	-0.4395
-4.5733 gutem	-0.1686
-4.5733 guten	-0.1686
-4.5733 gwai	-0.1666
-4.0951 gänzlich	-0.3124
-3.8733 ha	-0.2880
-2.1556 hab	-0.7798
-3.8733 hab'n	-0.1138
-3.4261 habe	-0.2346
-3.1920 haben	-0.3545
-4.2712 hach	-0.1512
-4.2712 halbes	-0.4177
-4.5733 halbieren	-0.1684
-4.5733 halbiert	-0.1576
-4.5733 halbierte	-0.1660
-3.9702 hallo	-0.2354
-3.2500 halt	-0.1665
-3.0809 ham	-0.5027
-4.5733 handelt	-0.1679
-4.2712 has	-0.1282
-4.5733 haschte	-0.1663
-2.5230 hast	-0.3658
-3.2935 haste	-0.1375
-2.7334 hat	-0.2289
-3.9702 hatt	-0.9984
-4.0951 hatte	-0.1477
-3.4931 hatten	-0.1845
-4.2712 hattest	-0.1242
-4.2712 hau	-0.1662
-4.5733 hau'n	-0.1621
-3.6180 haut	-0.4448
-3.3681 heißt	-0.2127
-4.2712 hellblau	-0.1283
-4.2712 her	-0.1284
-4.5733 herrje	-0.1513
-4.5733 herum	-0.1685
-3.7941 hervorragend	-0.2874
-4.5733 hi	-0.1285
-2.7661 hier	-0.1932
-2.6132 hin	-0.3944
-4.2712 hingehört	-0.3776
-3.2935 hingelegt	-0.3305
-4.5733 hinhalten	-0.1568
-4.0951 hinhaut	-0.2745
-4.0951 hinkommen	-0.1484
-4.5733 hinkriegen	-0.1576
-4.5733 hinlege	-0.1285
-3.4931 hinlegen	-0.1460
-4.0951 hinlegst	-0.1600
-4.5733 hinlegt	-0.1285
-3.1409 hinten	-0.1906
-4.2712 hinter	-0.1620
-3.3681 hintere	-0.6510
-3.6180 hinteren	-0.2100
-4.2712 hinteres	-0.1633
-4.5733 hinzukriegen	-0.1644
-1.9778 hm	-0.8285
-4.5733 ho	-0.1686
-3.1920 hoch	-0.4176
-4.2712 hochgeht	-0.1649
-4.5733 hochheben	-0.1576
-4.5733 hochkant	-0.1686
-4.5733 hochkante	-0.1673
-4.5733 hoffen	-0.1675
-3.9702 hoffentlich	-0.1241
-4.2712 hohl	-0.4154
-4.2712 hohles	-0.4177
-3.7271 horizontal	-0.4163
-4.2712 huh	-0.1624
-4.0951 hundertachtzig	-0.4837
-4.5733 hups	-0.1513
-4.5733 hurra	-0.1285
-3.7941 hä	-0.4734
-4.5733 häh	-0.1650
-4.5733 hältst	-0.1647
-3.6691 hängt	-0.2412
-3.9702 hätt	-0.3694
-3.6691 hätte	-0.1932
-4.0951 hätten	-0.1602
-4.5733 hättest	-0.1285
-4.2712 hö	-0.1285
-3.6691 höher	-0.3483
-4.2712 hör	-0.1609
-4.0951 hörst	-0.3110
-4.2712 hört	-0.1636
-1.7567 ich	-0.4629
-2.7397 ick	-0.4344
-4.5733 identifizierbar	-0.1675
-4.0951 identifizieren	-0.1657
-4.5733 ihm	-0.1675
-4.0951 ihn	-0.1657
-4.5733 ihr	-0.1686
-4.5733 ihre	-0.1686
-2.9812 im	-0.5304
-3.3681 immer	-0.2143
-2.1506 in	-0.7484
-4.5733 indem	-0.1610
-4.5733 ineinander	-0.1656
-4.5733 innen	-0.1643
-3.7941 inner	-0.5226
-4.0951 innerhalb	-0.1612
-3.4261 ins	-0.3295
-3.4261 insgesamt	-0.1177
-4.5733 ir	-0.1686
-4.5733 irgend'ne	-0.1686
-4.5733 irgendein	-0.1686
-4.2712 irgendwann	-0.1670
-3.8733 irgendwas	-0.1656
-4.5733 irgendwelchen	-0.1685
-2.8562 irgendwie	-0.1683
-3.7941 irgendwo	-0.1592
-4.5733 irritiert	-0.1685
-1.8521 is	-0.3854
-2.2712 ist	-0.3570
-3.9702 it	-0.1614
-4.5733 j	-0.1685
-1.5709 ja	-0.6089
-4.5733 janz	-0.1681
-4.5733 jap	-0.1656
-3.4261 jawohl	-0.4104
-4.0951 je	-0.1562
-3.7941 jeden	-0.5545
-4.2712 jedenfalls	-0.1659
-4.5733 jeh	-0.1665
-4.5733 jeh'n	-0.1679
-4.5733 jemacht	-0.1641
-4.5733 jesagt	-0.1681
-2.5900 jetz	-0.1483
-3.5722 jetze	-0.0996
-1.9229 jetzt	-0.0981
-4.5733 jeweil	-0.1647
-4.0951 jeweils	-0.1585
-3.8733 jo	-0.2889
-4.5733 juhu	-0.1285
-3.9702 jut	-0.3404
-4.5733 juti	-0.1285
-4.5733 k	-0.1644
-2.8088 kann	-0.5600
-3.1743 kannst	-0.4720
-3.8733 kannste	-0.2316
-4.5733 kannstes	-0.1674
-4.5733 kapierst	-0.1647
-4.5733 kapiert	-0.1285
-4.5733 kaputt	-0.1674
-4.5733 keen	-0.1685
-3.6180 kein	-0.2053
-3.2712 keine	-0.2713
-4.2712 keinen	-0.1685
-4.5733 kennst	-0.1647
-4.5733 kippen	-0.1645
-4.5733 kippst	-0.1647
-4.2712 klang	-0.1665
-4.5733 klapp	-0.1675
-3.7941 klappt	-0.2630
-3.0282 klar	-0.3793
-4.2712 klei	-0.1683
-3.2105 kleine	-0.3900
-3.5308 kleinen	-0.1962
-4.0951 kleiner	-0.1681
-4.0951 kleinere	-0.1623
-3.7271 kleines	-0.3498
-4.5733 klug	-0.1285
-4.5733 ko	-0.1661
-4.5733 kombiniert	-0.1679
-4.2712 komisch	-0.1564
-3.9702 komische	-0.1676
-4.0951 komischen	-0.1630
-3.8733 komisches	-0.1151
-3.4261 komm	-0.3666
-3.5722 kommen	-0.1453
-2.2278 kommt	-0.3509
-3.8733 komplett	-0.1224
-4.5733 komplette	-0.1686
-4.5733 komplettieren	-0.1285
-3.7941 kompliziert	-0.1512
-4.2712 komplizierter	-0.1256
-4.5733 konzentrier	-0.1685
-4.5733 konzentrieren	-0.1627
-4.2712 korrekt	-0.1398
-4.5733 kreuzt	-0.1672
-4.2712 krieg	-0.1568
-4.5733 krieg'n	-0.1677
-4.5733 kriege	-0.1686
-4.5733 krummes	-0.1673
-3.9702 kurz	-0.1176
-3.4261 kurze	-0.4663
-3.8733 kurzen	-0.2377
-4.5733 könn'n	-0.1677
-3.2935 können	-0.5643
-3.7271 könnt	-0.3586
-3.4261 könnte	-0.2240
-4.5733 könnten	-0.1634
-4.5733 kürzer	-0.1285
-3.7941 kürzere	-0.2870
-4.5733 kürzeren	-0.1576
-4.5733 l	-0.1649
-4.5733 la	-0.1686
-4.5733 lag	-0.1576
-3.0671 lang	-0.7707
-3.0159 lange	-0.3234
-3.6180 langen	-0.1606
-4.5733 langer	-0.1684
-3.9702 langes	-0.2348
-4.0951 langsam	-0.2690
-3.8733 lass	-0.2450
-3.3681 lassen	-0.2878
-4.5733 laut	-0.1686
-4.5733 lauter	-0.1686
-4.5733 le	-0.1670
-3.1409 leg	-0.6089
-3.9702 lege	-0.1390
-3.2298 legen	-0.2491
-3.1573 legst	-0.5324
-3.9702 legste	-0.1444
-4.2712 legt	-0.1622
-4.2712 leicht	-0.1648
-4.2712 leid	-0.1570
-3.8733 leider	-0.3512
-4.2712 lesen	-0.1677
-3.2105 letzte	-0.4822
-3.6691 letzten	-0.1193
-4.5733 letztere	-0.1285
-4.5733 li	-0.1568
-4.5733 liege	-0.1686
-2.9812 liegen	-0.5714
-3.8733 liegende	-0.2461
-4.5733 liegenden	-0.1673
-4.2712 liegendes	-0.4172
-2.4550 liegt	-0.3296
-4.5733 lin	-0.1655
-2.9388 linke	-0.3100
-3.1409 linken	-0.4843
-2.1623 links	-0.4474
-4.2712 logisch	-0.1268
-4.2712 los	-0.1277
-4.5733 losgehen	-0.1285
-4.5733 loslegen	-0.1285
-4.5733 lustige	-0.1686
-4.5733 lustiges	-0.1686
-4.5733 läng	-0.1655
-3.9702 länger	-0.2687
-3.4931 längere	-0.4614
-4.2712 längeren	-0.1630
-4.5733 längerer	-0.1686
-4.5733 längeres	-0.1285
-4.2712 länglich	-0.3776
-4.0951 länglichen	-0.1553
-4.5733 längs	-0.1576
-4.5733 längste	-0.1678
-4.5733 längsten	-0.1678
-4.0951 lässt	-0.1243
-4.5733 läufst	-0.1606
-4.5733 lösen	-0.1674
-3.9702 m	-0.1594
-2.5855 ma	-0.1765
-3.3170 mach	-0.2587
-4.5733 mache	-0.1285
-3.0040 machen	-0.4417
-3.9702 machst	-0.2425
-4.5733 machste	-0.1634
-3.5722 macht	-0.2183
-2.5388 mal	-0.2643
-4.2712 malen	-0.1638
-2.6914 man	-0.3860
-4.2712 manchmal	-0.4169
-4.5733 markiert	-0.1672
-4.5733 massive	-0.1639
-4.5733 massiven	-0.1639
-3.1573 mehr	-0.1558
-4.5733 mehreren	-0.1684
-4.5733 mehrmals	-0.1684
-3.4261 mein	-0.2098
-3.4261 meine	-0.2744
-3.9702 meinen	-0.1624
-4.0951 meiner	-0.1686
-4.5733 meinetwegen	-0.1568
-4.5733 meins	-0.1670
-3.2105 meinst	-0.3547
-4.2712 meinste	-0.1155
-4.2712 meint	-0.4101
-4.5733 meinte	-0.1680
-4.2712 mer	-0.1638
-4.5733 merde	-0.1285
-3.9702 mhm	-0.1644
-4.5733 mi	-0.1621
-3.5722 mich	-0.1451
-4.0951 minus	-0.4837
-2.6037 mir	-0.1975
-4.5733 missverstanden	-0.1610
-4.5733 missversteh'n	-0.1680
-2.1474 mit	-0.7275
-3.7941 miteinander	-0.3174
-4.2712 mittendrin	-0.1670
-3.6691 mittig	-0.1942
-3.9702 mittlere	-0.1636
-3.8733 mittleren	-0.1572
-4.5733 mittleres	-0.1639
-4.5733 mitzähl'n	-0.1641
-3.4261 mm	-0.2060
-4.5733 momentan	-0.1686
-4.5733 mu	-0.1513
-2.2712 muss	-0.2809
-2.8164 musst	-0.5531
-3.5308 musste	-0.1604
-4.5733 muster	-0.1655
-4.5733 möcht	-0.1610
-4.5733 möchtest	-0.1644
-4.2712 möglich	-0.1598
-4.5733 möglichen	-0.1686
-4.5733 mürrisch	-0.1285
-4.5733 müss	-0.1683
-3.0809 müssen	-0.2330
-4.0951 müsst	-0.4812
-4.5733 müsst'n	-0.1632
-3.0040 müsste	-0.2802
-4.2712 müssten	-0.1664
-4.2712 müsstes	-0.1560
-3.5722 müsstest	-0.2343
-3.4261 n	-0.1661
-2.7271 na	-0.4212
-2.0245 nach	-1.2958
-4.2712 nachdem	-0.1623
-4.2712 nachfragen	-0.1201
-3.7941 nachher	-0.2942
-3.5722 natürlich	-0.2336
-2.8088 ne	-0.5989
-3.1743 neben	-0.4927
-3.9702 neben'nander	-0.2662
-4.5733 nebendran	-0.1285
-4.2712 nebeneinander	-0.1612
-2.3367 nee	-0.3784
-3.8733 nehm	-0.3193
-4.5733 nehm'n	-0.1285
-4.2712 nehme	-0.1557
-3.9702 nehmen	-0.3622
-2.9388 nein	-0.2984
-4.5733 nenn	-0.1513
-4.5733 nennt	-0.1678
-3.9702 neue	-0.4130
-4.5733 neuesten	-0.1685
-3.6180 neun	-0.1748
-3.4931 neunzig	-1.1137
-2.3367 nich	-0.2363
-2.6801 nicht	-0.1439
-3.4931 nichts	-0.4845
-4.5733 niemals	-0.1644
-3.5308 nimm	-0.3646
-3.3681 nimmst	-0.5512
-4.5733 nimmste	-0.1513
-3.9702 nimmt	-0.1489
-4.5733 nirgends	-0.1684
-4.2712 nirgendwo	-0.1677
-4.5733 nischt	-0.1686
-4.5733 nit	-0.1684
-3.7271 nja	-0.1304
-4.5733 no'ma	-0.1649
-2.1848 noch	-0.4625
-2.9288 nochma	-0.2102
-3.0537 nochmal	-0.1753
-4.5733 norma	-0.1650
-4.2712 normal	-0.1660
-4.0951 normale	-0.2995
-4.5733 normales	-0.1675
-4.2712 nummeriert	-0.1666
-4.5733 nun	-0.1676
-2.6277 nur	-0.4065
-4.5733 nutz'n	-0.1677
-3.2712 nächste	-0.4864
-4.2712 nächsten	-0.1638
-4.0951 nächstes	-0.1223
-4.2712 näher	-0.1643
-3.5722 nämlich	-0.1397
-3.9702 nö	-0.2155
-4.2712 o	-0.1631
-4.5733 oach	-0.1682
-4.5733 oah	-0.1568
-3.2935 ob	-0.3794
-4.5733 ob'ren	-0.1681
-2.1039 oben	-0.3881
-2.9702 obere	-0.4389
-3.1573 oberen	-0.2834
-4.5733 oberhalb	-0.1665
-3.6180 oberste	-0.2067
-3.8733 obersten	-0.3246
-4.5733 obwohl	-0.1666
-3.7941 och	-0.1587
-2.5308 oder	-0.2041
-4.5733 of	-0.1686
-4.5733 offensichtlich	-0.1674
-4.5733 oft	-0.1644
-3.0408 oh	-0.4427
-3.9702 ohne	-0.1616
-4.0951 oje	-0.1233
-2.0171 okay	-0.7364
-4.5733 ordnen	-0.1285
-4.5733 originell	-0.1661
-4.5733 overview	-0.1285
-4.5733 pa	-0.1683
-4.5733 packen	-0.1513
-4.2712 packste	-0.1501
-4.5733 pah	-0.1627
-4.5733 pap	-0.1285
-4.0951 parallel	-0.1678
-3.7941 pass	-0.2936
-3.7941 passen	-0.1515
-4.0951 passend	-0.1194
-4.5733 passgerecht	-0.1649
-2.7271 passt	-0.3703
-4.5733 perfect	-0.1686
-3.3961 perfekt	-0.6029
-4.5733 pf	-0.1621
-4.2712 ph	-0.1281
-4.5733 plasst	-0.1641
-4.0951 plus	-0.1631
-4.0951 positionieren	-0.1557
-4.5733 positionierst	-0.1647
-4.2712 positioniert	-0.1512
-3.0809 praktisch	-0.2313
-3.7941 prima	-0.1458
-4.0951 probier	-0.1619
-4.2712 puh	-0.1610
-4.5733 puzzeln	-0.1576
-4.5733 qua	-0.1682
-4.5733 quadratisch	-0.1625
-3.9702 quadratische	-0.2703
-3.5722 quadratischen	-0.3553
-4.5733 quadratisches	-0.1684
-3.2500 quasi	-0.1617
-3.7271 quatsch	-0.1510
-3.9702 quer	-0.2630
-4.2712 r	-0.1681
-3.7271 ragt	-0.1391
-3.2500 ran	-0.4094
-4.5733 rangefügt	-0.1285
-4.5733 rangeh'n	-0.1651
-4.5733 rangelegt	-0.1576
-4.2712 rangeschoben	-0.3776
-4.2712 rangesetzt	-0.1280
-4.5733 ranlege	-0.1632
-4.5733 ranpass'n	-0.1684
-4.2712 ranpassen	-0.1164
-4.5733 raten	-0.1513
-4.5733 rauf	-0.1686
-4.5733 raufsetze	-0.1285
-3.2935 raus	-0.3599
-4.5733 rausgehen	-0.1627
-4.5733 rausgeht	-0.1671
-4.5733 rausgeschaut	-0.1285
-3.7941 rausguckt	-0.1784
-4.2712 rausjenommen	-0.1651
-4.5733 rauskommt	-0.1285
-3.9702 rausragt	-0.1580
-4.2712 raussteh'n	-0.1654
-4.2712 rausstehenden	-0.1233
-4.2712 raussteht	-0.1628
-4.5733 rauszeigen	-0.1285
-4.5733 rauszeigt	-0.1285
-3.9702 re	-0.2707
-4.5733 rech	-0.1644
-4.5733 rechne	-0.1610
-3.8733 recht	-0.1322
-3.0159 rechte	-0.3724
-2.9095 rechten	-0.4970
-3.6691 rechter	-0.9538
-2.0617 rechts	-0.3302
-4.5733 rechtwinklig	-0.1684
-4.5733 rechtwinklige	-0.1686
-4.5733 rechtwinkliges	-0.1686
-4.0951 reden	-0.1280
-4.5733 rei	-0.1686
-4.2712 reichen	-0.4147
-3.4931 reicht	-0.1454
-4.2712 reichts	-0.1641
-2.8164 rein	-0.4070
-4.5733 reingeht	-0.1285
-4.2712 reingelegt	-0.1565
-4.2712 reingepasst	-0.3776
-4.5733 reingeschoben	-0.1285
-4.2712 reingesetzt	-0.1271
-4.5733 reingesetztes	-0.1677
-4.5733 reinlege	-0.1657
-3.9702 reinlegen	-0.1144
-3.9702 reinpassen	-0.1199
-4.0951 reinpasst	-0.2658
-4.5733 reinragen	-0.1648
-4.5733 reinschau'n	-0.1684
-4.2712 reinschieben	-0.1545
-4.5733 reinsetzen	-0.1576
-4.5733 reinsteckt	-0.1606
-4.2712 reintun	-0.1682
-3.7941 relativ	-0.4513
-2.6801 richtig	-0.3622
-3.6180 richtige	-0.2121
-4.5733 richtigen	-0.1683
-4.5733 rin	-0.1686
-3.9702 rosa	-0.1648
-4.5733 rot	-0.1676
-4.0951 rotate	-0.1267
-4.2712 rote	-0.1665
-4.5733 roten	-0.1627
-4.5733 rotes	-0.1678
-4.0951 rotieren	-0.1611
-4.0951 rotiert	-0.4834
-3.1251 rum	-0.1566
-4.5733 rumliegen	-0.1682
-4.5733 rumpuzzeln	-0.1285
-3.3681 runter	-0.2181
-4.5733 runtergeh'n	-0.1285
-4.2712 runtergeht	-0.1164
-4.5733 runtergesetzt	-0.1610
-4.5733 runterhängt	-0.1285
-4.5733 runterzeigt	-0.1285
-4.5733 rätselhaft	-0.1644
-4.2712 rüber	-0.1225
-4.5733 rüberguckst	-0.1679
-4.5733 rüberschieben	-0.1285
-4.0951 s	-0.1593
-4.5733 sach	-0.1680
-3.3418 sag	-0.4457
-4.0951 sag'n	-0.2769
-3.2298 sagen	-0.2189
-3.7941 sagst	-0.1176
-4.5733 sagt	-0.1678
-4.2712 sch	-0.1511
-4.0951 schaut	-0.3078
-4.5733 scheinbar	-0.1680
-4.2712 scheint	-0.4167
-4.5733 scheiß	-0.1285
-3.5308 scheiße	-0.3147
-4.5733 schenkligen	-0.1675
-4.0951 schick	-0.3049
-3.7271 schieb	-0.2784
-4.5733 schieb'n	-0.1568
-4.2712 schiebe	-0.1433
-4.2712 schieben	-0.1560
-4.5733 schiebst	-0.1660
-4.5733 schiebt	-0.1679
-4.5733 schlecht	-0.1285
-4.5733 schlechte	-0.1686
-4.2712 schließe	-0.1615
-3.7941 schließen	-0.2895
-4.5733 schließlich	-0.1679
-2.7661 schließt	-0.1625
-4.5733 schließt'n	-0.1686
-4.5733 schließte	-0.1686
-4.5733 schmalere	-0.1686
-4.5733 schnell	-0.1621
-4.5733 schneller	-0.1685
-2.5348 schon	-0.1810
-4.2712 schreiben	-0.1684
-3.9702 schreibt	-0.2714
-4.5733 schrä	-0.1650
-3.9702 schräg	-0.1638
-4.5733 schrägen	-0.1677
-4.5733 schräges	-0.1673
-4.5733 schwarzem	-0.1686
-4.5733 schwarzes	-0.1678
-4.2712 schweizer	-0.4169
-3.7271 schwer	-0.1029
-4.5733 schwere	-0.1625
-4.5733 schwersten	-0.1678
-3.9702 schwierig	-0.1268
-4.2712 schwieriger	-0.1276
-3.4261 schön	-0.4712
-4.5733 schöner	-0.1682
-4.5733 schönes	-0.1686
-4.5733 se	-0.1568
-3.3681 sechs	-0.0914
-4.5733 sechsmal	-0.1649
-4.2712 sechste	-0.1527
-4.5733 sechsten	-0.1639
-4.5733 see	-0.1285
-3.2500 seh	-0.3389
-3.9702 seh'n	-0.1485
-4.2712 sehe	-0.1278
-3.7941 sehen	-0.3130
-3.4261 sehr	-0.3313
-2.7334 sein	-0.3335
-4.5733 seiner	-0.1686
-4.5733 seit	-0.1686
-4.5733 seitenverkehr	-0.1625
-3.7941 seitenverkehrt	-0.1028
-4.5733 selben	-0.1686
-4.0951 selber	-0.1250
-3.9702 selbst	-0.1281
-4.5733 selektieren	-0.1606
-4.5733 seltsames	-0.1651
-3.0537 senkrecht	-0.2119
-4.2712 senkrechte	-0.1678
-4.0951 senkrechten	-0.1662
-4.0951 setz	-0.1672
-4.2712 setzen	-0.1271
-3.5308 setzt	-0.5332
-4.5733 setzte	-0.1285
-4.0951 shit	-0.1175
-4.5733 si	-0.1679
-2.7869 sich	-0.1381
-4.5733 sicher	-0.1568
-4.0951 sie	-0.1659
-3.3681 sieben	-0.1885
-4.5733 siebte	-0.1639
-3.5308 siehst	-0.2543
-4.5733 siehste	-0.1644
-2.5308 sieht	-0.7514
-4.2712 sin	-0.1513
-2.5766 sind	-0.2445
-4.5733 sitz	-0.1669
-4.5733 sitzender	-0.1686
-1.7353 so	-0.3370
-4.5733 sofort	-0.1576
-4.5733 sogar	-0.1678
-4.5733 solche	-0.1625
-2.9388 soll	-0.3449
-4.0951 soll'n	-0.1091
-4.2712 sollen	-0.1273
-3.9702 sollst	-0.1091
-3.8733 sollte	-0.3213
-4.5733 solltest	-0.1285
-4.5733 son	-0.1686
-3.3681 sondern	-0.1638
-3.5308 sonst	-0.2308
-4.0951 sorry	-0.1002
-3.9702 sowas	-0.2282
-4.5733 soweit	-0.1610
-4.5733 sowieso	-0.1677
-4.2712 sowohl	-0.4148
-2.5153 sozusagen	-0.2572
-4.5733 sp	-0.1644
-4.5733 spiegel	-0.1686
-4.5733 spiegelbildliches	-0.1675
-3.4583 spiegeln	-0.2069
-3.4583 spiegelverkehrt	-0.2425
-4.0951 spiegelverkehrtes	-0.3165
-4.5733 spiel'n	-0.1674
-4.2712 sprechen	-0.1603
-4.5733 sprichst	-0.1655
-3.6180 später	-0.3226
-4.0951 st	-0.1634
-4.5733 steh'n	-0.1686
-4.5733 stehende	-0.1673
-4.2712 stehenden	-0.1659
-4.5733 stehengeblieben	-0.1285
-3.1409 steht	-0.3295
-4.2712 stell	-0.4171
-4.2712 stellen	-0.1672
-4.5733 stimmen	-0.1675
-3.0671 stimmt	-0.3219
-4.5733 stinknormales	-0.1685
-3.9702 stopp	-0.1180
-4.5733 stoßen	-0.1682
-4.5733 stufig	-0.1686
-3.6180 stößt	-0.1874
-4.0951 such	-0.1661
-4.2712 suche	-0.1606
-4.5733 suchen	-0.1285
-3.1743 super	-0.4435
-4.5733 supertoll	-0.1285
-4.2712 symmetrisch	-0.1675
-4.5733 symmetrische	-0.1285
-4.5733 symmetrischen	-0.1683
-4.5733 symmetrischer	-0.1627
-3.9702 tatsächlich	-0.1580
-4.5733 teilen	-0.1285
-4.5733 teilweise	-0.1676
-4.2712 theoretisch	-0.1566
-4.5733 tiefstmöglichen	-0.1686
-4.5733 tja	-0.1680
-3.9702 toll	-0.1250
-3.7941 total	-0.2368
-4.5733 treppenförmig	-0.1513
-4.0951 trotzdem	-0.1663
-4.2712 tschüss	-0.3776
-4.0951 tu	-0.1557
-4.5733 tue	-0.1568
-4.2712 tun	-0.1267
-3.7271 tut	-0.4967
-3.9702 u	-0.1154
-4.5733 uch	-0.1285
-4.2712 uf	-0.1268
-3.7941 uh	-0.5500
-3.0951 um	-0.4810
-3.7271 umdreh'n	-0.2868
-3.7271 umdrehen	-0.1972
-4.5733 umdrehst	-0.1285
-4.5733 umfasst	-0.1285
-4.0951 umgedreht	-0.1655
-4.2712 umgedrehte	-0.1673
-4.2712 umgedrehtes	-0.1685
-4.5733 umgekehrt	-0.1675
-4.2712 umgekippt	-0.1581
-4.5733 umgelegt	-0.1634
-4.5733 umgete	-0.1686
-4.5733 umklappen	-0.1285
-4.2712 umlegen	-0.1283
-3.3170 un	-0.5352
-4.5733 unabhängig	-0.1655
-4.5733 unangenehm	-0.1660
-4.5733 unbedingt	-0.1665
-1.6014 und	-0.5912
-4.5733 unförmig	-0.1627
-3.5722 ungefähr	-0.1363
-4.2712 uninteressant	-0.1238
-4.2712 unklar	-0.4118
-4.5733 unlogisch	-0.1685
-3.4583 uns	-0.1869
-3.8733 unser	-0.1661
-4.2712 unser'm	-0.1670
-4.5733 unser'n	-0.1676
-3.9702 unsere	-0.3800
-4.2712 unserem	-0.4169
-4.0951 unseres	-0.3179
-4.5733 unsymmetrischten	-0.1682
-4.5733 unt	-0.1662
-2.2418 unten	-0.3661
-3.2935 unter	-0.4421
-3.1098 untere	-0.2476
-4.5733 untereinander	-0.1685
-3.2500 unteren	-0.2456
-4.5733 unterhalb	-0.1655
-4.5733 unters	-0.1627
-3.8733 unterste	-0.1629
-4.0951 untersten	-0.1636
-3.9702 unterteilt	-0.1238
-4.5733 unterzubringen	-0.1285
-4.0951 ups	-0.1092
-4.2712 v	-0.1601
-4.2712 ver	-0.1685
-4.5733 verbinden	-0.1285
-4.0951 verbunden	-0.1229
-4.5733 verdammt	-0.1285
-4.5733 verdient	-0.1661
-4.2712 verdreht	-0.3776
-4.5733 verfolge	-0.1674
-4.5733 vergessen	-0.1663
-4.5733 vergiss	-0.1660
-4.5733 verk	-0.1610
-3.6180 verkehrt	-0.4202
-4.0951 verkehrte	-0.2766
-3.7271 verkehrtrum	-0.2173
-4.5733 verkehrtrume	-0.1686
-4.5733 verkehrtrumes	-0.1675
-3.7941 verkrüppelte	-0.5535
-4.5733 verkrüppeltes	-0.1675
-4.5733 verkürzter	-0.1686
-4.5733 verlieren	-0.1685
-4.5733 verlängert	-0.1673
-4.2712 verlängertes	-0.1673
-4.5733 vermutlich	-0.1658
-4.5733 verpasst	-0.1661
-4.0951 verschieb	-0.3037
-3.7271 verschieben	-0.0964
-4.5733 verschieden	-0.1685
-4.2712 verschiedene	-0.1685
-4.2712 verschiedenen	-0.1684
-3.6180 verschoben	-0.2503
-4.5733 verschobenes	-0.1681
-4.2712 versetzt	-0.1581
-4.5733 verstand'n	-0.1685
-3.4931 verstanden	-0.3008
-3.3961 versteh	-0.7073
-4.5733 versteh'n	-0.1685
-4.2712 verstehe	-0.1235
-3.9702 verstehste	-0.9659
-4.5733 versteht	-0.1678
-4.5733 verständigen	-0.1627
-3.6691 versuch	-0.2535
-4.5733 versuche	-0.1680
-3.5722 versuchen	-0.1590
-4.2712 versucht	-0.1675
-4.2712 vertauscht	-0.1280
-4.5733 verteilt	-0.1672
-4.2712 vertikal	-0.3776
-4.5733 vertikales	-0.1655
-4.5733 verwechselst	-0.1660
-4.5733 verwirrend	-0.1661
-3.5308 viel	-0.1994
-3.8733 viele	-0.1273
-3.1409 vielleicht	-0.0840
-4.2712 vielte	-0.4146
-2.6277 vier	-0.2215
-4.5733 viereckig	-0.1674
-4.5733 vierer	-0.1627
-4.5733 viergeteilt	-0.1682
-3.6180 vierte	-0.2504
-4.5733 vierteil'n	-0.1663
-3.8733 vierteilen	-0.1396
-4.5733 vierteilt	-0.1576
-4.0951 vierten	-0.1632
-3.6180 voll	-0.2553
-4.5733 vollkommen	-0.1686
-4.2712 vollständig	-0.1620
-2.6377 vom	-0.4804
-4.5733 vomeim	-0.1686
-2.1377 von	-0.8799
-4.5733 voneinander	-0.1686
-2.9594 vor	-0.7246
-4.2712 vordere	-0.1675
-3.5308 vorderen	-0.3969
-4.2712 vorgegeben	-0.1621
-3.8733 vorher	-0.1672
-4.5733 vorhergehende	-0.1639
-3.3681 vorhin	-0.2830
-4.5733 vorige	-0.1681
-4.2712 vorletzte	-0.1619
-4.5733 vorletztes	-0.1684
-4.2712 vorn	-0.1576
-3.2935 vorne	-0.2633
-3.9702 vorstell'n	-0.1065
-4.2712 vorstelle	-0.1680
-4.5733 vorstellen	-0.1662
-4.5733 vorstellst	-0.1625
-4.0951 völlig	-0.1681
-3.5722 w	-0.2635
-2.6746 wa	-0.2267
-3.6180 waagerecht	-0.1490
-4.2712 waagerechten	-0.1233
-3.6180 waagrecht	-0.1386
-3.4583 wahrscheinlich	-0.1682
-4.0951 wann	-0.1653
-2.9924 war	-0.1992
-4.5733 waren	-0.1634
-4.5733 warst	-0.1285
-3.7941 wart	-0.4433
-2.8820 warte	-0.8172
-3.8733 warum	-0.1218
-2.2418 was	-0.4451
-3.7941 wat	-0.2543
-3.8733 weeste	-0.3229
-4.5733 weeß	-0.1666
-3.8733 weg	-0.1042
-4.5733 wei	-0.1666
-4.5733 weia	-0.1634
-2.9490 weil	-0.2396
-3.6180 weit	-0.3678
-2.7661 weiter	-0.5277
-4.5733 weiterdrehen	-0.1285
-4.5733 weiteres	-0.1639
-4.5733 weitergeführt	-0.1627
-4.2712 weiterläuft	-0.1398
-3.9702 weitermachen	-0.3377
-2.9594 weiß	-0.4808
-4.5733 weiße	-0.1686
-4.0951 weißen	-0.1637
-4.5733 weißer	-0.1685
-4.5733 weißes	-0.1677
-4.2712 weißt	-0.1581
-3.7941 weißte	-0.3484
-4.5733 welch	-0.1627
-3.6691 welche	-0.3614
-4.5733 welchem	-0.1684
-4.2712 welchen	-0.1686
-3.8733 welcher	-0.2481
-3.4261 welches	-0.2372
-4.5733 wemem	-0.1655
-2.4517 wenn	-1.0201
-4.5733 wer	-0.1679
-2.9812 werden	-0.4399
-4.5733 wichtigste	-0.1663
-2.0712 wie	-0.5916
-2.9095 wieder	-0.1895
-4.5733 wiederholen	-0.1285
-3.9702 wiederum	-0.2722
-4.0951 wieso	-0.1564
-4.5733 wieviel	-0.1676
-4.0951 will	-0.1175
-3.9702 willst	-0.3747
-2.4199 wir	-0.2643
-2.9924 wird	-0.2247
-4.0951 wirklich	-0.1645
-4.5733 wis	-0.1663
-4.0951 wissen	-0.1216
-2.4324 wo	-0.3597
-4.2712 woanders	-0.1284
-3.9702 wobei	-0.1410
-3.9702 wohin	-0.3405
-4.2712 wohl	-0.1635
-4.2712 woll'n	-0.4161
-4.0951 wollen	-0.3139
-4.2712 wollt	-0.1610
-4.5733 wollte	-0.1665
-4.5733 womit	-0.1610
-4.5733 worum	-0.1646
-4.5733 wovon	-0.1670
-3.7941 wunderbar	-0.5145
-4.2712 wusst	-0.4101
-4.5733 wussten	-0.1677
-4.0951 wär	-0.1634
-4.5733 wär'n	-0.1664
-3.8733 wäre	-0.1865
-4.0951 wären	-0.1475
-3.7271 würd	-0.5709
-3.3170 würde	-0.1761
-4.2712 würdest	-0.1645
-4.5733 yeah	-0.1285
-4.5733 yes	-0.1285
-4.5733 you	-0.1686
-4.5733 zackiges	-0.1677
-4.5733 zah	-0.1678
-4.5733 zartgrüne	-0.1686
-3.7271 zehn	-0.1439
-4.5733 zei	-0.1644
-4.5733 zeig	-0.1673
-3.3418 zeigen	-0.5426
-4.5733 zeigende	-0.1639
-2.9095 zeigt	-0.5155
-4.5733 zeiliges	-0.1683
-4.5733 zeitig	-0.1686
-4.5733 zerteilen	-0.1684
-4.5733 zerteilt	-0.1285
-4.5733 zickzackig	-0.1674
-3.4931 ziemlich	-0.3592
-2.7210 zu	-0.3615
-4.5733 zueinander	-0.1285
-4.5733 zuenander	-0.1686
-4.2712 zuerst	-0.1651
-3.2500 zum	-0.1943
-4.5733 zumindest	-0.1576
-4.5733 zun	-0.1682
-3.7271 zur	-0.2903
-4.2712 zurück	-0.1285
-3.9702 zusammen	-0.1457
-4.5733 zusammengedrücktes	-0.1673
-4.5733 zusammengeklebtes	-0.1673
-4.2712 zusammengesetzt	-0.1652
-4.5733 zusammenliegen	-0.1285
-4.5733 zusammenpasst	-0.1285
-4.5733 zusammensetzt	-0.1285
-4.5733 zusammenstoßen	-0.1285
-4.2712 zusätzliche	-0.1269
-4.5733 zusätzlichen	-0.1285
-2.6746 zwar	-0.2756
-2.2867 zwei	-0.3622
-4.5733 zweikästige	-0.1285
-4.5733 zweit	-0.1627
-3.0809 zweite	-0.2647
-3.1251 zweiten	-0.4464
-4.0951 zweites	-0.3131
-3.0159 zwischen	-0.3821
-4.2712 zwo	-0.4157
-3.6691 zwölf	-0.1859
-3.9702 zähl	-0.1534
-4.5733 zähl'n	-0.1285
-3.8733 zählen	-0.1997
-4.5733 zählt	-0.1632
-2.0147 äh	-0.1114
-2.0894 ähm	-0.1691
-3.9702 ähnlich	-0.2313
-4.5733 ändert	-0.1685
-4.5733 äußere	-0.1684
-4.5733 äußerstes	-0.1639
-3.7941 öh	-0.1463
-4.2712 ü	-0.1618
-3.2298 über	-0.4278
-3.8733 über'nander	-0.1917
-3.3170 übereinander	-0.1648
-4.5733 übereinanderstehenden	-0.1680
-4.5733 übereinst	-0.1663
-4.5733 übergeordneten	-0.1672
-3.5308 überhaupt	-0.4090
-4.5733 überlappen	-0.1655
-4.0951 überlappt	-0.1059
-4.2712 überleg	-0.4177
-4.2712 überlegen	-0.1609
-4.2712 überraschend	-0.1278
-4.2712 überschneiden	-0.1277
-4.5733 überschneidet	-0.1679
-4.5733 übersteh'n	-0.1513
-4.5733 überstehen	-0.1285
-4.5733 übersteht	-0.1285
-3.5308 übrig	-0.1198
-4.5733 übriges	-0.1639

\2-grams:
-0.5943 $C </s> 2.7553
-1.7228 $C betrachte 0.0905
-1.7228 $C da -0.0739
-1.1385 $C das -0.0751
-1.7228 $C genau -0.0646
-1.7228 $C kommt -0.0497
-1.1385 $C rein -0.0192
-1.7228 $C stell 0.3396
-1.7228 $C und -0.0765
-1.7228 $C vor -0.0747
-1.4466 $E </s> 3.4401
-1.4466 $E bezeichnet 0.0905
-1.4466 $E das -0.0535
-0.6499 $E dem -0.1833
-1.4466 $E links -0.0776
-0.8623 $E ohne -0.0020
-0.9695 $F Strich -0.0703
-0.9695 $F am -0.0710
-0.9695 $F wo -0.0522
-0.9695 $I </s> 3.4401
-0.9695 $I oder -0.0702
-0.9695 $I vorstelle -0.0020
-0.7125 $L </s> 2.2395
-2.4836 $L Form -0.0711
-2.4836 $L Stück -0.0749
-2.4836 $L Stückchen 0.1524
-1.8993 $L aber -0.0705
-1.8993 $L also -0.0491
-1.6869 $L an -0.1243
-2.4836 $L anliegt 0.2262
-1.8993 $L auf -0.0620
-2.4836 $L aus -0.0585
-2.4836 $L aussieht -0.0748
-2.4836 $L bezeichnest 0.0905
-1.4343 $L da -0.0669
-2.4836 $L dann -0.0533
-1.4397 $L das -0.1258
-2.4836 $L denn -0.0757
-1.6869 $L die -0.0658
-2.4836 $L dieses -0.0774
-2.4836 $L dis -0.0690
-2.4836 $L eben -0.0664
-2.4836 $L es -0.0712
-2.4836 $L falsch -0.0730
-2.4836 $L förmig -0.0020
-2.4836 $L förmige -0.0493
-2.4836 $L geschrieben 0.0905
-2.4836 $L hab 0.1986
-1.8993 $L hat -0.0572
-2.4836 $L ich -0.0223
-2.4836 $L inner 0.3208
-2.4836 $L irgendwie -0.0755
-1.8993 $L is -0.0642
-1.6869 $L ist -0.0496
-2.4836 $L ja -0.0546
-1.8993 $L kommt -0.0548
-2.4836 $L liegen 0.1260
-1.8993 $L mit -0.2397
-1.8993 $L nach 0.2341
-1.8993 $L nich -0.0543
-2.4836 $L nur -0.0766
-2.4836 $L richtig 0.1382
-2.4836 $L sag 0.0254
-2.4836 $L schiebe -0.0020
-1.8993 $L schreibt 0.1361
-2.4836 $L sein 0.1137
-2.4836 $L sieht -0.0639
-2.4836 $L so -0.0754
-1.8993 $L sozusagen -0.0502
-2.4836 $L und -0.0772
-2.4836 $L unten -0.0775
-2.4836 $L verkehrtrum -0.0577
-2.4836 $L vor 0.1367
-2.4836 $L vorher -0.0493
-2.4836 $L was -0.0775
-2.4836 $L wat -0.0542
-2.4836 $L zeigt 0.0029
-2.4836 $L ähm -0.0622
-0.8902 $M </s> 2.9624
-1.9395 $M aber -0.0757
-1.3552 $M auch -0.0737
-1.9395 $M bezeichnen -0.0640
-1.9395 $M das -0.0771
-1.9395 $M eigentlich -0.0718
-1.9395 $M entlang 0.0905
-1.9395 $M grade -0.0542
-1.9395 $M is -0.0656
-1.9395 $M ja -0.0747
-1.9395 $M jetzt -0.0779
-1.9395 $M leg -0.0578
-1.9395 $M liegt -0.0662
-1.9395 $M nach 0.0209
-1.9395 $M reinschau'n 0.0905
-1.9395 $M schon -0.0637
-1.9395 $M so -0.0129
-1.9395 $M stößt -0.0624
-1.1428 $M und -0.1674
-1.9395 $M wie -0.0777
-1.9395 $M wäre -0.0493
-1.9395 $M äh -0.0757
-0.4924 $P wenn 0.0212
-0.8823 $S </s> 2.7553
-0.9670 $S Teil -0.0710
-2.0109 $S aber -0.0775
-2.0109 $S die -0.0779
-2.0109 $S einpasst -0.0020
-2.0109 $S förmig -0.0020
-2.0109 $S hier 0.0024
-2.0109 $S hm 0.2409
-1.4266 $S is -0.0735
-1.4266 $S oder -0.0045
-2.0109 $S okay 0.0872
-2.0109 $S so -0.0712
-2.0109 $S stößt -0.0140
-1.2141 $S und 0.0975
-2.0109 $S von 0.1134
-1.2141 $S was -0.0375
-2.0109 $S wie 0.0593
-2.0109 $S äh -0.0778
-0.6812 $T </s> 2.5183
-2.1736 $T Form -0.0711
-2.1736 $T Strich -0.0266
-1.5893 $T Stück -0.0173
-2.1736 $T Teil -0.0778
-2.1736 $T aber -0.0775
-2.1736 $T also -0.0670
-2.1736 $T aussieht -0.0748
-2.1736 $T da -0.0686
-1.3769 $T das -0.0609
-2.1736 $T ein -0.0623
-2.1736 $T es -0.0698
-2.1736 $T gesetzt -0.0603
-2.1736 $T hab 0.1986
-1.5893 $T hast 0.1274
-2.1736 $T hier -0.0760
-1.5893 $T is -0.0755
-2.1736 $T jetzt -0.0779
-2.1736 $T kommt -0.0775
-1.5893 $T liegt -0.0730
-2.1736 $T mach -0.0703
-2.1736 $T nach 0.0822
-1.5893 $T nee 0.0328
-2.1736 $T nur -0.0563
-2.1736 $T oben -0.0763
-2.1736 $T rein 0.1538
-2.1736 $T sein -0.0762
-1.5893 $T und -0.0756
-2.1736 $T wie -0.0765
-2.1736 $T äh -0.0573
-2.1736 $T übrig -0.0653
-0.9695 $T's sind -0.0416
-0.9695 $T's zeigt 0.0029
-0.9695 $T's äh -0.0739
-0.9495 $U </s> 3.2671
-1.5338 $U das -0.0743
-1.5338 $U die -0.0753
-1.5338 $U erkenntlich 0.0905
-0.9495 $U förmige -0.1279
-1.5338 $U oder -0.0702
-1.5338 $U um 0.1344
-0.9495 $U wenn 0.1973
-0.5105 $W </s> 2.1203
-2.4009 $W ah 0.0839
-2.4009 $W andersrum -0.0140
-2.4009 $W angelegt 0.0512
-2.4009 $W bildet -0.0687
-2.4009 $W da -0.0730
-1.3570 $W das -0.0497
-2.4009 $W dem -0.0764
-2.4009 $W dis -0.0755
-2.4009 $W dran -0.0406
-2.4009 $W einma -0.0020
-1.8166 $W hm -0.0636
-2.4009 $W ich -0.0688
-1.3515 $W is -0.0573
-1.8166 $W ist -0.0748
-1.8166 $W ja 0.0983
-2.4009 $W je -0.0289
-2.4009 $W kommt -0.0370
-2.4009 $W liegt -0.0740
-2.4009 $W ma -0.0105
-2.4009 $W muss -0.0775
-2.4009 $W ne -0.0690
-2.4009 $W oben -0.0763
-1.6041 $W oder -0.0030
-2.4009 $W passt 0.0022
-2.4009 $W ran -0.0531
-2.4009 $W rechts -0.0331
-2.4009 $W so -0.0575
-2.4009 $W sozusagen -0.0261
-2.4009 $W um -0.0490
-2.4009 $W umklappen 0.0905
-1.0671 $W und -0.0514
-2.4009 $W verkehrt 0.2065
-2.4009 $W vielleicht -0.0730
-2.4009 $W vom -0.0765
-2.4009 $W vor 0.1367
-2.4009 $W was -0.0489
-2.4009 $W wo -0.0772
-2.4009 $W äh -0.0757
-0.4924 $W's an -0.0188
-0.6767 $Z </s> 2.1380
-2.5493 $Z Form -0.0320
-1.0569 $Z Teil -0.0765
-2.5493 $Z ab 0.2934
-2.5493 $Z also -0.0466
-1.4207 $Z an -0.0306
-2.5493 $Z ausfüllt -0.0020
-2.5493 $Z automatisch -0.0289
-2.5493 $Z bezeichnen -0.0640
-2.5493 $Z da -0.0767
-1.7525 $Z das -0.1671
-2.5493 $Z dem -0.0777
-2.5493 $Z der -0.0779
-2.5493 $Z dieses -0.0027
-2.5493 $Z doch -0.0769
-2.5493 $Z drauf -0.0640
-2.5493 $Z drunter -0.0653
-2.5493 $Z ein -0.0623
-1.9650 $Z förmige -0.1279
-2.5493 $Z genau -0.0600
-2.5493 $Z genommen -0.0020
-2.5493 $Z gesetzt 0.1820
-2.5493 $Z hab 0.1986
-2.5493 $Z haben -0.0561
-2.5493 $Z hinlegst -0.0289
-2.5493 $Z ick 0.0301
-2.5493 $Z in -0.0776
-2.5493 $Z ins 0.0824
-2.5493 $Z ist -0.0775
-2.5493 $Z ja -0.0766
-2.5493 $Z kommt -0.0370
-1.4999 $Z liegt -0.1386
-2.5493 $Z malen -0.0020
-2.5493 $Z mit 0.1292
-2.5493 $Z ne 0.3503
-2.5493 $Z nimm -0.0653
-2.5493 $Z normal -0.0020
-2.5493 $Z nur -0.0563
-1.7525 $Z oder -0.0136
-2.5493 $Z okay -0.0337
-1.7525 $Z rein 0.0505
-2.5493 $Z schließt -0.0760
-1.9650 $Z schon -0.0037
-2.5493 $Z schreiben -0.0020
-2.5493 $Z sieht -0.0639
-2.5493 $Z sozusagen -0.0705
-2.5493 $Z steht -0.0159
-2.5493 $Z umgedreht -0.0289
-1.9650 $Z un -0.0396
-1.7525 $Z und -0.0538
-2.5493 $Z ungefähr -0.0640
-1.7525 $Z vom -0.1688
-2.5493 $Z von -0.0762
-1.9650 $Z vor 0.3585
-2.5493 $Z was -0.0741
-1.9650 $Z weeste -0.0271
-2.5493 $Z wenn 0.0556
-2.5493 $Z wird -0.0545
-2.5493 $Z ähm -0.0777
-0.4924 'es $W -0.0764
-1.6685 'is 'n -0.0778
-1.6685 'is </s> 3.4401
-1.6685 'is Teil -0.0474
-1.6685 'is aber -0.0775
-1.6685 'is an -0.0280
-1.6685 'is die -0.0772
-1.6685 'is dis -0.0777
-1.6685 'is in -0.0776
-1.0842 'is ja 0.0977
-1.6685 'is jetz -0.0615
-1.6685 'is nich -0.0774
-1.6685 'is praktisch -0.0605
-1.6685 'is sozusagen -0.0643
-1.6685 'is und -0.0762
-1.6385 'm Abzweig 0.0905
-0.5892 'm Kopf -0.5216
-1.6385 'm Rücken -0.0750
-1.6385 'm Rüssel -0.0751
-1.6385 'm ganz -0.0768
-1.6385 'm großem 0.0905
-1.6385 'm großen 0.4764
-1.6385 'm guten 0.0905
-1.6385 'm kleinen -0.0264
-1.6385 'm kurzen -0.0493
-1.6385 'm langen -0.0624
-2.2638 'n $C -0.0134
-3.0606 'n $F -0.0289
-3.0606 'n $I -0.0289
-1.2672 'n $L 0.1108
-2.2638 'n $M 0.0104
-3.0606 'n $P 0.0905
-1.6140 'n $S -0.1370
-1.4890 'n $T 0.0660
-2.2638 'n $U 0.0491
-2.0112 'n $W -0.1056
-1.2672 'n $Z -0.2522
-3.0606 'n 'n -0.0778
-1.9320 'n </s> 2.7553
-3.0606 'n Balken -0.0542
-3.0606 'n Bauch -0.0649
-3.0606 'n Bein -0.0599
-3.0606 'n Bild 0.0905
-3.0606 'n Blitz -0.0020
-2.4763 'n Block -0.0618
-3.0606 'n Bogen -0.0289
-2.4763 'n Bumerang -0.0020
-3.0606 'n Ding -0.0718
-3.0606 'n Dings -0.0020
-3.0606 'n Eckstück -0.0020
-1.6651 'n Elefant -0.2096
-2.4763 'n Fehler 0.0267
-3.0606 'n Feld -0.0720
-3.0606 'n Flügel -0.0687
-2.4763 'n Freikästchen 0.0905
-2.4763 'n Haken 0.0905
-3.0606 'n Hintern 0.0905
-3.0606 'n Karo -0.0310
-2.4763 'n Kolibri -0.0183
-2.4763 'n Kopf -0.0470
-1.9320 'n Kreuz -0.0999
-1.6651 'n Kästchen 0.0038
-3.0606 'n Körper 0.0451
-2.2638 'n Loch 0.0150
-3.0606 'n Mittelstrang 0.0905
-3.0606 'n Pfeil -0.0020
-2.4763 'n Plus -0.0417
-3.0606 'n Preis -0.0020
-2.2638 'n Problem 0.0924
-1.5268 'n Quadrat -0.0073
-2.2638 'n Rand -0.1012
-1.5682 'n Rechteck 0.0683
-3.0606 'n Rotes 0.0905
-3.0606 'n Rucksack -0.0624
-3.0606 'n Rücken -0.0658
-2.0112 'n Rüssel -0.0658
-3.0606 'n Sattel -0.0020
-2.4763 'n Schachbrett 0.2399
-3.0606 'n Schornstein -0.0140
-3.0606 'n Schwanz -0.0289
-3.0606 'n Stein -0.0159
-3.0606 'n Stern 0.0905
-2.4763 'n Stück -0.0371
-3.0606 'n Stückchen 0.1524
-1.3641 'n Teil -0.0486
-3.0606 'n Viereck -0.0020
-3.0606 'n Vorderbein -0.0723
-3.0606 'n Weg -0.0020
-2.0167 'n Winkel -0.0040
-3.0606 'n Ypsilon 0.0905
-3.0606 'n Zeichen 0.0905
-3.0606 'n Zickzack 0.0905
-2.0167 'n and'res -0.1162
-1.9320 'n anderes -0.5687
-3.0606 'n aus -0.0406
-3.0606 'n ausgestreckter 0.0905
-3.0606 'n b -0.0020
-3.0606 'n bis -0.0699
-0.9450 'n bisschen 0.1272
-2.4763 'n das -0.0780
-3.0606 'n dickes 0.0905
-2.0112 'n dis -0.0753
-3.0606 'n ein -0.0307
-3.0606 'n einfach -0.0666
-3.0606 'n einzelner 0.0905
-2.0167 'n einzelnes -0.0344
-3.0606 'n extra -0.0417
-3.0606 'n falsches 0.0905
-2.4763 'n freies 0.0267
-1.6651 'n ganz -0.0831
-3.0606 'n gespiegeltes 0.0905
-3.0606 'n grades 0.0905
-2.2638 'n großes 0.2771
-2.4763 'n größeres 0.0905
-2.4763 'n halbes 0.1666
-3.0606 'n hm -0.0768
-2.2638 'n ich -0.1834
-3.0606 'n is -0.0673
-3.0606 'n ja -0.0610
-3.0606 'n jetzt -0.0593
-3.0606 'n klei -0.0020
-2.4763 'n kleiner 0.0267
-2.4763 'n kleines 0.0311
-2.4763 'n komisches -0.0183
-3.0606 'n kürzeren 0.0905
-3.0606 'n längeres 0.0905
-3.0606 'n mittleres 0.0905
-3.0606 'n neunzig 1.0358
-2.2638 'n noch -0.0547
-3.0606 'n normales 0.0905
-3.0606 'n quadratisches 0.0905
-3.0606 'n rechten 0.0048
-1.7268 'n rechter 0.4422
-3.0606 'n rechtwinkliges 0.0905
-3.0606 'n schrä 0.0905
-3.0606 'n schräges 0.0905
-3.0606 'n schönes 0.0905
-3.0606 'n seltsames 0.0905
-2.4763 'n sieht 0.3062
-2.4763 'n so 0.0074
-2.4763 'n spiegelverkehrtes -0.0206
-3.0606 'n stinknormales 0.0905
-3.0606 'n symmetrischer 0.0905
-3.0606 'n umgete 0.0905
-3.0606 'n verk 0.0905
-3.0606 'n verkehrtrumes 0.0905
-3.0606 'n verlängertes -0.0020
-2.4763 'n wa -0.0746
-3.0606 'n weiteres 0.0905
-2.4763 'n wie -0.1137
-3.0606 'n zackiges 0.0905
-2.4763 'n ziemlich -0.0542
-3.0606 'n zusammengedrücktes 0.0905
-3.0606 'n zwei -0.0774
-3.0606 'n zweites 0.1524
-2.4763 'n äh -0.0726
-2.4763 'n ähm -0.0702
-3.0606 'n überhaupt -0.0653
-2.4836 'ne $T -0.0752
-2.4836 'ne $Z -0.0769
-2.4836 'ne 'n -0.0663
-2.4836 'ne 'ne -0.0767
-1.3551 'ne Art 0.0620
-2.4836 'ne Brille 0.0905
-2.4836 'ne Delle -0.0020
-2.4836 'ne Dreierreihe 0.0196
-1.8993 'ne Ecke 0.0262
-2.4836 'ne Einheit -0.0577
-1.8993 'ne Ente 0.0905
-2.4836 'ne Fläche 0.1524
-2.4836 'ne Fortsetzung 0.0905
-2.4836 'ne Gerade 0.0905
-2.4836 'ne Höhe -0.0603
-1.4343 'ne Idee 0.0982
-1.8993 'ne Kante -0.0119
-2.4836 'ne Keile 0.0905
-2.4836 'ne Kuh 0.0905
-1.6869 'ne Linie -0.2741
-1.4343 'ne Lücke 0.0563
-2.4836 'ne Möglichkeit -0.0493
-2.4836 'ne Nummerierung 0.0905
-2.4836 'ne Pforte 0.0905
-1.8993 'ne Reihe -0.0333
-1.8993 'ne Sieben -0.0120
-1.8993 'ne Stufe -0.0632
-2.4836 'ne Toreinfahrt 0.0905
-0.7125 'ne Treppe -0.0513
-2.4836 'ne Vier -0.0603
-2.4836 'ne Zeile -0.0707
-2.4836 'ne Zwei -0.0653
-2.4836 'ne Zweierreihe -0.0493
-2.4836 'ne also -0.0722
-2.4836 'ne aufrechte -0.0020
-2.4836 'ne dicke 0.0905
-2.4836 'ne drei -0.0774
-1.6869 'ne dreistufige 0.0837
-2.4836 'ne ganz -0.0768
-2.4836 'ne gerade -0.0703
-2.4836 'ne große -0.0209
-2.4836 'ne hast 0.1198
-2.4836 'ne hintere 0.0312
-2.4836 'ne k 0.0905
-2.4836 'ne klei -0.0020
-1.6869 'ne kleine -0.1551
-2.4836 'ne kürzere -0.0542
-2.4836 'ne linke -0.0573
-2.4836 'ne lustige 0.0905
-2.4836 'ne richtige -0.0140
-2.4836 'ne sieht 0.2730
-2.4836 'ne so -0.0608
-2.4836 'ne verkehrtrume 0.0905
-1.8993 'ne wie -0.0117
-2.4836 'ne zartgrüne 0.0905
-2.4836 'ne äh -0.0767
-1.5716 'nem $L -0.0727
-1.5716 'nem Elefanten 0.0057
-0.9873 'nem Quadrat -0.0312
-1.5716 'nem Rucksack -0.0624
-1.5716 'nem Schachbrett 0.1524
-1.5716 'nem ander'n -0.0505
-1.5716 'nem großen 0.4764
-1.5716 'nem im -0.0746
-1.5716 'nem kleinen -0.0653
-0.9873 'nem mit -0.2397
-1.7477 'nen $E -0.0140
-1.7477 'nen $S -0.0171
-1.7477 'nen $Z -0.0704
-1.7477 'nen Elefant -0.0728
-1.7477 'nen Elefanten 0.0057
-1.7477 'nen Kästchen -0.0387
-1.7477 'nen Pluszeichen -0.0289
-1.7477 'nen Stuhl -0.0693
-0.4139 'nen Stück -0.0827
-1.7477 'nen and'res -0.0603
-1.7477 'nen anderen -0.0542
-1.7477 'nen bisschen -0.0756
-1.0945 'ner Faust 0.4057
-1.0945 'ner Seite -0.0348
-1.0945 'ner bestimmten 0.0905
-1.0945 'ner in 0.0601
-3.0377 's $T -0.0752
-3.0377 's $W -0.0764
-1.9883 's 'n -0.1007
-3.0377 's 'ne 0.0154
-1.2443 's </s> 2.2172
-3.0377 's Fenster 0.0905
-3.0377 's Hinterteil -0.0735
-3.0377 's Kreuz -0.0763
-2.4534 's Rechteck -0.0280
-3.0377 's Richtung -0.0310
-3.0377 's ab -0.0371
-3.0377 's ah -0.0520
-2.4534 's als -0.0659
-2.4534 's also -0.0241
-3.0377 's an -0.0658
-3.0377 's anguckt 0.0905
-1.6422 's auch 0.0098
-2.4534 's auf -0.0620
-1.7039 's aus -0.2696
-2.4534 's aussieht 0.3229
-1.9883 's bei 0.5802
-3.0377 's beschreiben -0.0711
-3.0377 's besteht 0.0778
-3.0377 's bezeichnen 0.1130
-3.0377 's bisschen -0.0681
-1.6422 's da -0.0398
-2.2409 's dann -0.0692
-2.2409 's das -0.0661
-2.4534 's denn -0.0732
-3.0377 's der -0.0771
-2.4534 's dir -0.0734
-3.0377 's dis -0.0690
-1.9091 's doch -0.0922
-1.9938 's dreht 0.0004
-2.4534 's drei -0.0295
-3.0377 's eben -0.0664
-3.0377 's eigentlich -0.0531
-2.2409 's ein -0.0224
-3.0377 's eine -0.0570
-1.7039 's einfach 0.0566
-2.4534 's eins -0.0395
-3.0377 's erstma 0.0361
-3.0377 's falsch -0.0730
-3.0377 's fünfte 0.1160
-3.0377 's für 0.0070
-2.4534 's ganz 0.0071
-2.4534 's gar 0.2839
-3.0377 's ge -0.0542
-3.0377 's gefunden -0.0289
-3.0377 's gelegt -0.0718
-1.9938 's genau -0.0764
-3.0377 's gesagt -0.0234
-3.0377 's glaub 0.2362
-2.4534 's gut -0.0707
-3.0377 's hat -0.0552
-2.4534 's hier -0.0511
-1.9883 's hin -0.0632
-3.0377 's hinkriegen 0.0905
-3.0377 's hinlege 0.0905
-2.4534 's hinlegen -0.0542
-2.4534 's hohl 0.1666
-3.0377 's hö -0.0020
-2.2409 's ich 0.0001
-3.0377 's ick -0.0761
-3.0377 's immer -0.0433
-1.9883 's in 0.1040
-3.0377 's ins -0.0380
-1.9883 's irgendwie -0.0070
-1.9938 's is -0.0122
-1.5039 's ja 0.0684
-2.4534 's jetz -0.0600
-1.1303 's jetzt -0.0809
-3.0377 's keine -0.0711
-3.0377 's kippen 0.0905
-3.0377 's kompliziert -0.0542
-3.0377 's könnte -0.0681
-3.0377 's leg -0.0159
-3.0377 's letzte -0.0041
-1.9883 's links -0.1800
-3.0377 's losgehen 0.0905
-1.9938 's ma -0.1709
-2.4534 's mal -0.0482
-3.0377 's meinst -0.0720
-1.9883 's mit -0.2063
-3.0377 's muss -0.0490
-3.0377 's na 0.1235
-1.5039 's nach 0.7213
-3.0377 's natürlich -0.0640
-2.4534 's nee -0.2306
-1.9091 's nich -0.1074
-2.2409 's nicht -0.0677
-2.4534 's noch -0.0613
-1.7039 's nochma -0.0232
-2.2409 's nochmal -0.0398
-2.4534 's nur -0.0413
-3.0377 's nämlich -0.0640
-3.0377 's obere -0.0557
-3.0377 's och -0.0542
-3.0377 's okay -0.0572
-2.4534 's praktisch -0.0558
-3.0377 's raus -0.0711
-2.2409 's rechts -0.1619
-3.0377 's rechtwinklig 0.0905
-3.0377 's rein -0.0628
-1.9938 's richtig 0.1661
-3.0377 's rote -0.0020
-3.0377 's sagst -0.0542
-1.9883 's schon -0.0802
-3.0377 's schreibt -0.0417
-3.0377 's schöner 0.0905
-3.0377 's sein -0.0762
-3.0377 's seitenverkehrt -0.0542
-3.0377 's senkrecht -0.0739
-2.4534 's sieht 0.1000
-3.0377 's sind -0.0727
-1.5039 's so 0.1788
-3.0377 's sozusagen -0.0769
-3.0377 's total 0.0220
-3.0377 's tun -0.0020
-1.9938 's um 0.1832
-3.0377 's umdrehst 0.0905
-3.0377 's umgekippt -0.0020
-3.0377 's unser -0.0493
-3.0377 's unterteilt -0.0417
-2.4534 's vielleicht -0.0677
-3.0377 's vier -0.0766
-3.0377 's voll 0.0319
-3.0377 's von -0.0777
-2.2409 's vor -0.1853
-3.0377 's vorher -0.0493
-3.0377 's waagerecht -0.0624
-1.9091 's weiter -0.0076
-3.0377 's wenn 0.0212
-3.0377 's wie -0.0657
-2.4534 's wieder -0.2157
-3.0377 's wo -0.0522
-3.0377 's wäre 0.0451
-3.0377 's würdest -0.0020
-3.0377 's zeigt -0.0752
-3.0377 's zu -0.0262
-3.0377 's zwei -0.0684
-3.0377 's äh -0.0729
-0.0001 </s> <s> 0.1163
-4.0109 <s> $M -0.0731
-4.0109 <s> $U -0.0264
-4.0109 <s> $W -0.0764
-3.4266 <s> 'n -0.0648
-4.0109 <s> 'ne -0.0691
-4.0109 <s> 's -0.0778
-4.0109 <s> Bauch 0.0433
-4.0109 <s> Dreierstück -0.0289
-4.0109 <s> Fuß -0.0508
-4.0109 <s> Hase 0.0905
-4.0109 <s> Käse -0.0020
-4.0109 <s> Manu 0.0905
-3.4266 <s> Mensch -0.0206
-4.0109 <s> Mist 0.0905
-2.9670 <s> Moment 0.0583
-2.6771 <s> Nummer 0.1298
-4.0109 <s> Pardon 0.0905
-4.0109 <s> Problem -0.0264
-3.4266 <s> Quadrat -0.0300
-4.0109 <s> Sekunde 0.0905
-3.4266 <s> Spalte 0.3540
-2.8823 <s> Teil -0.0831
-4.0109 <s> Treppe -0.0202
-4.0109 <s> Tschuldigung 0.4057
-4.0109 <s> a 0.4626
-1.9387 <s> aber 0.0393
-1.7942 <s> ach 0.0360
-1.8558 <s> ah 0.0719
-2.3424 <s> aha -0.0304
-4.0109 <s> alle -0.0653
-2.2398 <s> alles -0.8985
-3.2141 <s> als -0.0706
-1.2657 <s> also 0.1018
-4.0109 <s> am -0.0527
-2.3144 <s> an -0.0659
-4.0109 <s> ans -0.0687
-3.4266 <s> argh 0.0905
-2.9615 <s> auf 0.0592
-4.0109 <s> aufgezeichnet 0.0905
-4.0109 <s> aus -0.0752
-4.0109 <s> ausgefüllt 0.0693
-3.4266 <s> außer 0.0905
-4.0109 <s> bedauerlicherweise 0.0905
-3.4266 <s> bei 0.3686
-3.4266 <s> beschreib -0.0363
-3.4266 <s> beziehungsweise -0.0020
-4.0109 <s> boah 0.0905
-2.9615 <s> cool 0.1160
-2.9615 <s> d 0.0311
-1.8751 <s> da -0.0040
-4.0109 <s> damit -0.0624
-4.0109 <s> daneben 0.0412
-1.7551 <s> dann 0.0071
-4.0109 <s> darum 0.0905
-4.0109 <s> darüber -0.0493
-1.3199 <s> das 0.0342
-3.4266 <s> dass -0.0172
-4.0109 <s> dat -0.0020
-4.0109 <s> dazu -0.0577
-4.0109 <s> dazwischen 0.1160
-2.9670 <s> den -0.0736
-2.9670 <s> denn -0.0585
-2.1568 <s> der -0.0441
-2.0414 <s> die -0.0833
-3.4266 <s> diese -0.0248
-4.0109 <s> diesen -0.0720
-3.4266 <s> dieser -0.0481
-2.4046 <s> dieses 0.0262
-2.9615 <s> direkt -0.0269
-1.9057 <s> dis 0.0184
-3.2141 <s> dit -0.0795
-2.5185 <s> doch -0.1415
-4.0109 <s> dreh -0.0653
-3.2141 <s> drehen -0.1162
-3.2141 <s> drei -0.1460
-4.0109 <s> dritte 0.3118
-2.1761 <s> du -0.3433
-4.0109 <s> eben -0.0664
-4.0109 <s> echt -0.0493
-3.2141 <s> ein -0.0571
-4.0109 <s> eine -0.0709
-3.4266 <s> einen -0.0513
-4.0109 <s> einer -0.0718
-4.0109 <s> eingesetzt -0.0493
-3.4266 <s> einmal -0.0595
-3.4266 <s> eins -0.0665
-4.0109 <s> elf -0.0603
-4.0109 <s> erklär 0.0451
-2.9670 <s> es -0.0171
-4.0109 <s> ey -0.0417
-4.0109 <s> falls 0.0905
-4.0109 <s> fang -0.0664
-3.2141 <s> fertig 0.3950
-4.0109 <s> fertisch 0.0905
-4.0109 <s> findeste 0.0905
-2.8823 <s> flip 0.2829
-4.0109 <s> flippen 0.2262
-4.0109 <s> fällt 0.0905
-4.0109 <s> fü -0.0289
-4.0109 <s> fünf -0.0757
-4.0109 <s> fünfte 0.1160
-4.0109 <s> g -0.0289
-2.9670 <s> ganz -0.0093
-4.0109 <s> ge -0.0542
-3.4266 <s> gedreht 0.3206
-3.4266 <s> geflippt 0.0311
-2.9615 <s> geht -0.0040
-3.4266 <s> gen -0.0020
-1.3602 <s> genau -0.3469
-3.4266 <s> genauso -0.0020
-4.0109 <s> gern 0.0905
-4.0109 <s> gespiegelt 0.0220
-4.0109 <s> gewisser 0.0905
-4.0109 <s> glaub 0.2362
-4.0109 <s> guck 0.0905
-1.8953 <s> gut 0.0394
-3.2141 <s> ha 0.2514
-2.2881 <s> hab -0.3751
-4.0109 <s> hach -0.0020
-2.9615 <s> hallo 0.1195
-4.0109 <s> has -0.0020
-2.4393 <s> hast -0.0086
-2.9670 <s> haste -0.0859
-4.0109 <s> hat -0.0761
-4.0109 <s> hellblau -0.0020
-3.2141 <s> hervorragend 0.0288
-4.0109 <s> hi 0.0905
-2.6771 <s> hier -0.4899
-4.0109 <s> hin -0.0766
-1.2153 <s> hm -0.0058
-4.0109 <s> hoch 0.1157
-4.0109 <s> hoffen 0.0905
-3.4266 <s> horizontal 0.2794
-3.4266 <s> huh 0.0905
-3.2141 <s> hä -0.0012
-4.0109 <s> häh 0.0905
-4.0109 <s> hätt 0.2262
-1.7551 <s> ich -0.2784
-3.4266 <s> ick 0.0327
-2.4771 <s> in 0.2035
-4.0109 <s> ir 0.0905
-4.0109 <s> irgendwie -0.0755
-2.3724 <s> is 0.0059
-3.2141 <s> ist -0.1120
-0.8144 <s> ja -0.2048
-4.0109 <s> jap 0.0905
-2.5185 <s> jawohl -0.0175
-4.0109 <s> je -0.0289
-3.4266 <s> jetz -0.0675
-2.2175 <s> jetzt -0.0093
-2.9670 <s> jo 0.0876
-4.0109 <s> juhu 0.0905
-3.4266 <s> jut 0.3031
-4.0109 <s> juti 0.0905
-4.0109 <s> kann -0.0049
-2.9615 <s> kannst -0.1993
-3.2141 <s> kannste -0.0234
-4.0109 <s> keine -0.0320
-4.0109 <s> klappt -0.0542
-4.0109 <s> kleinen -0.0653
-4.0109 <s> komische -0.0417
-3.4266 <s> kommt -0.0291
-4.0109 <s> korrekt -0.0020
-4.0109 <s> können 0.1592
-3.4266 <s> lass -0.0183
-3.2141 <s> leg 0.2022
-4.0109 <s> leider 0.0451
-2.4771 <s> links -0.1367
-4.0109 <s> logisch -0.0020
-4.0109 <s> m -0.0417
-3.2141 <s> mach -0.0800
-3.4266 <s> macht -0.0493
-4.0109 <s> meinste -0.0020
-3.4266 <s> mhm -0.0020
-2.6771 <s> mit 0.0735
-2.4771 <s> mm 0.0718
-2.8823 <s> muss -0.0075
-4.0109 <s> musste -0.0653
-4.0109 <s> müssen -0.0252
-3.4266 <s> n -0.0577
-1.8751 <s> na 0.0702
-2.5185 <s> nach 0.9491
-4.0109 <s> natürlich -0.0640
-2.5643 <s> ne -0.5258
-3.2141 <s> neben -0.2064
-1.5790 <s> nee 0.1734
-2.1206 <s> nein -0.0627
-2.9615 <s> nich -0.0458
-4.0109 <s> nicht -0.0581
-3.2141 <s> nimm 0.1205
-2.9670 <s> nja 0.0353
-2.9615 <s> noch -0.2340
-3.4266 <s> nochma -0.0718
-3.4266 <s> nochmal -0.0100
-2.8823 <s> nur 0.0361
-4.0109 <s> nächstes -0.0289
-3.2141 <s> nö 0.0287
-4.0109 <s> oah 0.0905
-3.4266 <s> oben -0.0228
-2.4771 <s> oder 0.0494
-2.3424 <s> oh 0.1878
-4.0109 <s> ohne -0.0417
-3.4266 <s> oje 0.0267
-1.1329 <s> okay 0.0305
-4.0109 <s> pap 0.0905
-2.5643 <s> passt 0.0858
-4.0109 <s> perfect 0.0905
-2.8823 <s> perfekt 0.2313
-3.4266 <s> prima -0.0289
-4.0109 <s> quatsch -0.0577
-2.5185 <s> rechts 0.0556
-2.8823 <s> richtig 0.0312
-4.0109 <s> rosa -0.0417
-3.4266 <s> rotate 0.0267
-4.0109 <s> runter 0.0588
-2.9670 <s> sag -0.0775
-4.0109 <s> sagen -0.0004
-4.0109 <s> scheint 0.3396
-4.0109 <s> scheiß 0.0905
-4.0109 <s> scheiße 0.0943
-3.2141 <s> schließt -0.0588
-3.2141 <s> schön 0.1321
-4.0109 <s> sechs -0.0693
-2.9615 <s> sehr -0.0306
-3.4266 <s> senkrecht -0.2009
-4.0109 <s> setzt 0.0943
-2.9670 <s> sieht 0.4391
-1.6100 <s> so -0.2180
-3.2141 <s> soll -0.2438
-4.0109 <s> sollen -0.0020
-4.0109 <s> sonst -0.0653
-2.9615 <s> sozusagen -0.0504
-4.0109 <s> steht -0.0159
-4.0109 <s> stößt -0.0624
-2.8823 <s> super 0.0242
-4.0109 <s> supertoll 0.0905
-3.4266 <s> toll -0.0020
-4.0109 <s> tschüss 0.3396
-3.4266 <s> tut 0.4238
-2.9670 <s> uh 0.1036
-3.4266 <s> um -0.0558
-2.9615 <s> un 0.2143
-1.1154 <s> und -0.0013
-4.0109 <s> ungefähr -0.0640
-2.8823 <s> unten 0.0654
-3.2141 <s> ups 0.0905
-4.0109 <s> verbunden -0.0289
-4.0109 <s> verkehrtrum 0.0693
-4.0109 <s> verschieb -0.0289
-4.0109 <s> verschoben -0.0140
-3.4266 <s> versteh 0.3229
-4.0109 <s> verstehe -0.0020
-3.4266 <s> verstehste 0.7549
-4.0109 <s> versteht 0.0905
-3.4266 <s> versuch -0.0417
-4.0109 <s> vertikal 0.3396
-3.2141 <s> vielleicht -0.0624
-3.4266 <s> vier -0.0750
-4.0109 <s> vierte -0.0624
-3.2141 <s> vom -0.0423
-3.2141 <s> von 0.2293
-3.4266 <s> vorne -0.2220
-4.0109 <s> wann -0.0289
-4.0109 <s> war -0.0545
-4.0109 <s> wart 0.3127
-2.3724 <s> warte 0.3990
-3.2141 <s> warum 0.0150
-2.8823 <s> was -0.0099
-4.0109 <s> weeste -0.0493
-2.9615 <s> weil -0.0898
-4.0109 <s> weißt -0.0020
-3.4266 <s> welchen 0.0905
-4.0109 <s> welches -0.0681
-2.5185 <s> wenn 0.1059
-2.1383 <s> wie 0.1462
-4.0109 <s> wieso -0.0289
-3.2141 <s> wir -0.1427
-2.4393 <s> wo -0.0309
-3.4266 <s> wobei -0.0020
-4.0109 <s> wohin -0.0417
-4.0109 <s> woll'n 0.3396
-3.4266 <s> wunderbar 0.3034
-4.0109 <s> yes 0.0905
-4.0109 <s> zeiliges 0.0905
-2.6154 <s> zwei -0.0864
-3.4266 <s> zwischen 0.0506
-1.7404 <s> äh -0.1366
-1.7123 <s> ähm -0.0308
-2.9615 <s> öh 0.0267
-4.0109 <s> über 0.0865
-0.4924 Abbildung neun -0.0140
-0.4924 Abmessung nich -0.0774
-0.4924 Abschluss bilden 0.0220
-0.7934 Abschnitt </s> 3.4401
-0.7934 Abschnitt halt -0.0715
-0.4924 Abschnitte und -0.0061
-0.4924 Abstand ja -0.0747
-0.4924 Abzweig </s> 3.4401
-0.4924 Abzweigungen hat -0.0761
-0.4924 Acht ist -0.0687
-0.9695 Ahnung </s> 3.4401
-0.9695 Ahnung ah -0.0693
-0.9695 Ahnung ich -0.0223
-1.0945 Anfang positioniert -0.0020
-1.0945 Anfang sich -0.0759
-0.5101 Anfang und -0.0558
-0.9695 Angebot </s> 3.4401
-0.9695 Angebot aber -0.0581
-0.9695 Angebot das -0.0722
-0.4924 Anordnung von -0.0749
-0.9695 Anzahl einer -0.0531
-0.3852 Anzahl von -0.2479
-1.3375 Art $L 0.0154
-1.3375 Art $S -0.0739
-1.3375 Art Dreieck 0.0823
-1.3375 Art Treppe -0.0202
-1.3375 Art Winkel -0.0336
-1.3375 Art Zickzacklinie 0.0905
-1.3375 Art vierer 0.0905
-0.4924 Ausbuchtung über 0.0865
-0.4924 Ausbuchtungen sondern -0.0693
-0.4924 Ausläufer des -0.0764
-0.4924 Ausschnitt also -0.0466
-0.9695 Auswuchs </s> 3.4401
-0.9695 Auswuchs an -0.0502
-0.9695 Auswuchs hat -0.0552
-0.4924 Auswählen </s> 3.4401
-0.4924 Auß'dings nach 0.0209
-0.4924 Außenwände von 0.1134
-1.2705 Balken </s> 3.4401
-1.2705 Balken davon -0.0408
-1.2705 Balken dazu -0.0577
-1.2705 Balken irgendwie -0.0755
-1.2705 Balken und -0.0744
-1.2705 Balken äh -0.0672
-0.6128 Bauch </s> 2.5183
-1.5209 Bauch also -0.0383
-2.1052 Bauch aus -0.0752
-2.1052 Bauch das -0.0686
-1.5209 Bauch des -0.1299
-2.1052 Bauch einfach -0.0763
-2.1052 Bauch endet -0.0417
-2.1052 Bauch ganz -0.0591
-2.1052 Bauch hm 0.0402
-2.1052 Bauch irgendwie -0.0677
-2.1052 Bauch jetz -0.0767
-1.5209 Bauch kommt -0.0639
-2.1052 Bauch noch -0.0637
-1.3084 Bauch rein -0.0393
-1.0558 Bauch und -0.0169
-1.5209 Bauch unten 0.0096
-2.1052 Bauch vom 0.0051
-1.3084 Bauch von -0.2086
-2.1052 Bauch zu -0.0762
-1.5209 Bauch äh -0.0742
-0.4924 Bauchdecke berühr'n -0.0020
-0.7934 Bauchnabel </s> 3.4401
-0.7934 Bauchnabel hätte -0.0603
-0.4924 Bauchquadrat </s> 3.4401
-0.9695 Bauchseite </s> 3.4401
-0.9695 Bauchseite also -0.0779
-0.9695 Bauchseite rein 0.1538
-0.4924 Bauchstück </s> 3.4401
-0.4924 Bauchteil mit 0.1292
-0.4924 Bauchteile noch -0.0657
-0.9695 Bauteil an -0.0658
-0.9695 Bauteil ich -0.0735
-0.9695 Bauteil kommt -0.0282
-0.2091 Bedrängnis ich -0.0672
-0.4924 Begriffe geht -0.0356
-0.6902 Bein </s> 2.5183
-2.1826 Bein auf -0.0313
-2.1826 Bein aus -0.0406
-2.1826 Bein dann -0.0707
-1.3858 Bein das -0.0619
-2.1826 Bein der -0.0765
-1.1332 Bein des -0.4346
-2.1826 Bein drin -0.0624
-2.1826 Bein gelegt -0.0718
-1.5983 Bein hinten -0.0107
-2.1826 Bein is -0.0746
-2.1826 Bein legen -0.0718
-2.1826 Bein muss -0.0775
-2.1826 Bein nach 0.0178
-2.1826 Bein noch -0.0776
-2.1826 Bein passt 0.0022
-2.1826 Bein quasi -0.0715
-2.1826 Bein ran -0.0718
-2.1826 Bein rangeh'n 0.0905
-1.3858 Bein rein -0.0578
-2.1826 Bein reinragen 0.0905
-2.1826 Bein schon -0.0701
-2.1826 Bein sieht 0.2730
-1.3858 Bein und -0.1385
-2.1826 Bein vom 0.0051
-1.5983 Bein von -0.0596
-1.5983 Bein vorne -0.0410
-2.1826 Bein äh -0.0778
-0.7934 Beinchen </s> 3.4401
-0.7934 Beinchen was -0.0741
-0.8623 Beine </s> 3.2671
-1.4466 Beine da -0.0778
-1.4466 Beine das -0.0761
-1.4466 Beine die -0.0719
-1.4466 Beine nach 0.0178
-1.4466 Beine und -0.0780
-1.4466 Beine vorne -0.0707
-1.4466 Beine zeigen -0.0703
-1.0945 Beinen </s> 3.4401
-0.5101 Beinen des -0.1299
-1.0945 Beinen sondern -0.0693
-0.5101 Beins </s> 3.2671
-0.5101 Beins und -0.0745
-0.5101 Bereich des -0.2306
-1.0945 Bereich müsstest 0.1130
-1.0945 Bereich unseres 0.1524
-0.4924 Beschreibung </s> 3.4401
-0.7934 Bett heißt -0.0433
-0.7934 Bett sozusagen -0.0643
-0.4924 Bild und -0.0332
-0.5101 Bildschirm </s> 3.2671
-1.0945 Bildschirm ist -0.0054
-1.0945 Bildschirm sehen 0.0220
-1.4924 Blatt aus -0.0774
-1.4924 Blatt das -0.0776
-1.4924 Blatt ja 0.0975
-1.4924 Blatt jetzt -0.0779
-1.4924 Blatt viergeteilt 0.0905
-1.4924 Blatt vierteil'n 0.0905
-0.9081 Blatt vierteilen -0.0183
-1.4924 Blatt vor -0.0747
-1.4924 Blatt wenn 0.0212
-0.4924 Blattes </s> 3.4401
-0.4924 Blattteilen miteinander 0.0220
-0.4924 Bleistiftstriche nicht -0.0764
-0.7934 Blitz aussehen -0.0417
-0.7934 Blitz sozusagen -0.0261
-0.5441 Block </s> 2.4391
-2.1156 Block Lücke 0.0239
-2.1156 Block an -0.0188
-2.1156 Block beziehungsweise -0.0417
-1.0663 Block der -0.0676
-2.1156 Block hin -0.0685
-2.1156 Block in 0.0090
-1.5313 Block is -0.0729
-1.0717 Block liegt -0.0438
-1.5313 Block links -0.2451
-1.5313 Block mit 0.1479
-2.1156 Block nee -0.0248
-2.1156 Block noch -0.0776
-2.1156 Block oben -0.0728
-2.1156 Block okay 0.0872
-2.1156 Block plus -0.0289
-2.1156 Block und -0.0726
-1.5313 Block unten 0.0138
-2.1156 Block von 0.1134
-2.1156 Block wieder -0.0751
-0.4924 Blockbuchstaben das -0.0778
-0.4924 Blocks anliegt 0.2262
-0.7934 Blättchen oder -0.0060
-0.7934 Blättchen praktisch -0.0736
-1.6063 Blöcke </s> 3.4401
-1.6063 Blöcke hätte -0.0603
-1.6063 Blöcke im -0.0746
-0.4778 Blöcke lang 0.0894
-1.6063 Blöcke oben -0.0097
-1.6063 Blöcke und -0.0332
-1.6063 Blöcke unten -0.0709
-1.6063 Blöcke von -0.0467
-0.7934 Blöcken </s> 3.4401
-0.7934 Blöcken is -0.0724
-0.7934 Blödsinn </s> 3.4401
-0.7934 Blödsinn ist -0.0738
-0.9695 Bogen </s> 3.4401
-0.9695 Bogen nach 0.0209
-0.9695 Bogen und -0.0776
-0.9695 Breite drei -0.0420
-0.9695 Breite frei 0.0438
-0.9695 Breite äh -0.0729
-0.2091 Breitseite der -0.2482
-0.4924 Brille aufsetzt 0.0905
-0.7934 Brust also -0.0765
-0.7934 Brust vom 0.0051
-0.4924 Buchstaben identifizierbar 0.0905
-1.0945 Bumerang der -0.0779
-1.0945 Bumerang hab 0.1986
-1.0945 Bumerang positionierst 0.0905
-1.0945 Bumerang so -0.0759
-1.7477 Daumen auf 0.1118
-1.1634 Daumen geht -0.0550
-1.7477 Daumen hin 0.1374
-1.7477 Daumen hochgeht -0.0020
-1.7477 Daumen ick -0.0761
-1.1634 Daumen mit 0.0266
-0.9509 Daumen muss -0.0380
-1.7477 Daumen sich -0.0759
-1.1634 Daumen und -0.0678
-1.1634 Daumen zeigt -0.1701
-1.7477 Daumen äh -0.0738
-1.7477 Daumen ähm -0.0777
-0.7934 Delle </s> 3.4401
-0.7934 Delle die -0.0772
-0.4924 Dete wir -0.0720
-0.4924 Diagonale und -0.0688
-0.7855 Ding </s> 2.9624
-1.8348 Ding auch -0.0453
-1.8348 Ding da -0.0758
-1.8348 Ding das -0.0722
-1.8348 Ding einfach -0.0711
-1.8348 Ding hab 0.1986
-1.2505 Ding hin 0.1534
-1.8348 Ding in -0.0723
-1.8348 Ding is -0.0673
-1.8348 Ding jetz -0.0767
-1.8348 Ding kommt -0.0622
-1.8348 Ding muss -0.0490
-1.8348 Ding rausragt -0.0417
-1.8348 Ding steht -0.0730
-1.8348 Ding vor 0.0433
-1.2505 Ding was -0.0462
-1.8348 Ding wie -0.0614
-0.7934 Dinger ach -0.0711
-0.7934 Dinger auch -0.0746
-0.4924 Dingern du -0.0726
-0.7934 Dings dran -0.0401
-0.7934 Dings hab 0.1986
-0.4924 Dozentin </s> 3.4401
-0.4924 Drei </s> 3.4401
-0.5101 Dreieck </s> 3.2671
-1.0945 Dreieck sozusagen -0.0735
-1.0945 Dreieck was -0.0511
-0.4924 Dreierlinie waagerecht -0.0624
-1.4924 Dreierreihe </s> 3.4401
-1.4924 Dreierreihe am -0.0763
-0.9081 Dreierreihe steht -0.0099
-0.6956 Dreierreihe und -0.0698
-0.6956 Dreierreihe von 0.0559
-0.9695 Dreierstück also -0.0771
-0.9695 Dreierstück guckt -0.0673
-0.9695 Dreierstück nach -0.0766
-0.4924 Dreiersäule is -0.0438
-0.4924 Dreiteilige links -0.0522
-0.4924 Drittel von 0.1134
-0.4924 Druckschrift sozusagen -0.0261
-0.4924 Eck rein 0.1538
-0.6901 Ecke </s> 3.0062
-2.0239 Ecke also -0.0779
-1.2271 Ecke an -0.0222
-2.0239 Ecke aus -0.0752
-2.0239 Ecke dann -0.0659
-2.0239 Ecke das -0.0778
-2.0239 Ecke deines 0.0905
-2.0239 Ecke entfernt 0.0905
-2.0239 Ecke gefüllt 0.0905
-2.0239 Ecke haste -0.0490
-2.0239 Ecke her -0.0020
-2.0239 Ecke in 0.0090
-2.0239 Ecke kommt -0.0775
-2.0239 Ecke liegen -0.0747
-2.0239 Ecke nach 0.0209
-2.0239 Ecke oben -0.0413
-2.0239 Ecke reinschieben -0.0020
-2.0239 Ecke schließt -0.0533
-2.0239 Ecke so -0.0202
-2.0239 Ecke und -0.0332
-2.0239 Ecke vom -0.0765
-1.4396 Ecke von -0.0596
-2.0239 Ecke wie -0.0484
-2.0239 Ecke äh -0.0767
-2.0239 Ecke übrig -0.0653
-0.9695 Ecken berühren -0.0417
-0.3852 Ecken ne 0.4454
-0.7934 Eckstück dann -0.0533
-0.7934 Eckstück äh -0.0739
-0.4924 Eindruck </s> 3.4401
-1.3375 Einheit </s> 3.4401
-1.3375 Einheit lang -0.0616
-1.3375 Einheit nach 0.0178
-1.3375 Einheit ne 0.3503
-1.3375 Einheit raussteht -0.0020
-1.3375 Einheit weg -0.0493
-1.3375 Einheit zu -0.0762
-1.2705 Einheiten also -0.0779
-1.2705 Einheiten bestehend 0.0905
-1.2705 Einheiten denn -0.0757
-1.2705 Einheiten für -0.0711
-1.2705 Einheiten lange -0.0531
-1.2705 Einheiten ähm -0.0764
-0.4924 Einkerbung von -0.0398
-0.8623 Eins </s> 3.2671
-1.4466 Eins an -0.0765
-1.4466 Eins dran -0.0655
-0.8623 Eins ham -0.1215
-1.4466 Eins ranpassen -0.0020
-1.4466 Eins und -0.0413
-1.4466 Eins was -0.0757
-0.4924 Einserteil anlegen -0.0664
-0.4924 Einzel Einzelstück -0.0020
-0.7934 Einzelstück </s> 3.4401
-0.7934 Einzelstück müssen -0.0245
-0.7934 Einzelteil guckt -0.0348
-0.7934 Einzelteil in 0.0601
-0.8635 Elefant </s> 3.0672
-1.9074 Elefant am -0.0573
-1.9074 Elefant ausfüll'n -0.0020
-1.9074 Elefant da -0.0576
-1.3231 Elefant das -0.0663
-1.9074 Elefant endet -0.0417
-1.9074 Elefant haben -0.0561
-1.1106 Elefant hat -0.1231
-1.3231 Elefant hinten -0.0107
-1.9074 Elefant mit -0.0761
-1.9074 Elefant ne -0.0758
-1.9074 Elefant oben -0.0763
-1.9074 Elefant oder -0.0609
-1.9074 Elefant okay 0.0872
-1.9074 Elefant rechts -0.0331
-1.9074 Elefant sein -0.0704
-1.9074 Elefant voll 0.0319
-1.9074 Elefant äh -0.0778
-0.7553 Elefanten </s> 2.4043
-1.7773 Elefanten ab 0.1204
-1.5649 Elefanten also -0.0641
-1.7773 Elefanten an -0.0245
-2.3616 Elefanten anzubringen 0.0905
-2.3616 Elefanten bilden 0.0220
-1.7773 Elefanten bildet -0.0591
-2.3616 Elefanten dann -0.0707
-2.3616 Elefanten davor -0.0577
-2.3616 Elefanten denkst -0.0417
-1.7773 Elefanten der -0.0696
-2.3616 Elefanten drin -0.0624
-2.3616 Elefanten eigentlich -0.0718
-2.3616 Elefanten ein -0.0623
-2.3616 Elefanten fünf -0.0622
-2.3616 Elefanten genau -0.0506
-1.7773 Elefanten haben -0.0668
-2.3616 Elefanten hast 0.1198
-2.3616 Elefanten hat -0.0761
-2.3616 Elefanten hatten -0.0664
-2.3616 Elefanten hier -0.0760
-2.3616 Elefanten hin -0.0685
-2.3616 Elefanten ich -0.0758
-2.3616 Elefanten ist -0.0704
-1.7773 Elefanten ja -0.0435
-2.3616 Elefanten komplett -0.0493
-1.5649 Elefanten legen -0.0394
-2.3616 Elefanten muss -0.0775
-2.3616 Elefanten oben -0.0299
-1.7773 Elefanten oder -0.0186
-2.3616 Elefanten okay -0.0597
-2.3616 Elefanten perfekt 0.4270
-2.3616 Elefanten reichts -0.0020
-2.3616 Elefanten so -0.0774
-2.3616 Elefanten sozusagen -0.0261
-0.7901 Elefanten und -0.1332
-2.3616 Elefanten vor 0.0433
-1.7773 Elefanten wenn 0.1973
-2.3616 Elefanten wo -0.0522
-0.4924 Elefantenfuß rauskommt 0.0905
-0.4924 Elefantenkopf vorstellst 0.0905
-1.0945 Element Nummer -0.0362
-1.0945 Element is -0.0715
-1.0945 Element mit 0.0063
-1.0945 Element und -0.0740
-0.9695 Elf die -0.0766
-0.9695 Elf is -0.0765
-0.9695 Elf machen -0.0744
-1.0542 Ende </s> 3.2671
-1.6385 Ende also -0.0765
-1.6385 Ende an -0.0765
-1.6385 Ende des -0.0764
-1.6385 Ende eins -0.0675
-1.6385 Ende liegen -0.0747
-1.6385 Ende liegt -0.0545
-1.6385 Ende rein -0.0445
-0.8418 Ende vom -0.1606
-1.0542 Ende von -0.0596
-0.7934 Ente die -0.0748
-0.7934 Ente wenn 0.0212
-1.0945 Entschuldigung </s> 3.4401
-1.0945 Entschuldigung die -0.0748
-1.0945 Entschuldigung dis -0.0777
-1.0945 Entschuldigung total -0.0542
-0.4924 Euter hätte -0.0603
-0.4924 Extraquadrat schließe -0.0020
-0.4924 F Fuß 0.0244
-0.4924 Fa Quadrat -0.0771
-1.2705 Fall </s> 3.4401
-1.2705 Fall an -0.0765
-1.2705 Fall das -0.0674
-1.2705 Fall dieses -0.0735
-1.2705 Fall ma -0.0105
-1.2705 Fall müsste -0.0336
-0.4924 Fantasie </s> 3.4401
-0.4924 Farbe </s> 3.4401
-0.7934 Farben kommen -0.0640
-0.7934 Farben malen -0.0020
-0.1727 Faust mit 0.0227
-0.9695 Fehler aufgetreten 0.0905
-0.9695 Fehler lag 0.0905
-0.9695 Fehler lassen -0.0433
-1.0574 Feld </s> 3.1181
-1.8541 Feld aus -0.0406
-1.8541 Feld dann -0.0770
-1.8541 Feld doppelt 0.0905
-1.8541 Feld entsteht -0.0020
-1.2698 Feld frei -0.0724
-1.8541 Feld in -0.0776
-1.8541 Feld mit -0.0776
-1.0574 Feld und -0.0201
-1.2698 Feld unten -0.2439
-1.0574 Feld von -0.0234
-1.8541 Feld vor 0.0433
-1.8541 Feld was -0.0489
-1.8541 Feld äh -0.0738
-1.8541 Feld ähm -0.0753
-0.7532 Felder an -0.0346
-1.3375 Felder davor -0.0577
-0.7532 Felder frei -0.1848
-1.3375 Felder noch -0.0657
-1.3375 Felder sagen -0.0718
-0.4924 Fenster zeigen 0.2229
-0.9081 Figur </s> 3.2671
-1.4924 Figur einfach -0.0763
-1.4924 Figur ich -0.0437
-1.4924 Figur insgesamt -0.0681
-1.4924 Figur is -0.0765
-1.4924 Figur liegen -0.0645
-1.4924 Figur schließt -0.0697
-1.4924 Figur umdreh'n 0.0693
-1.4924 Figur und -0.0626
-0.4924 Figuren sind -0.0768
-0.7934 Finger der -0.0752
-0.7934 Finger geh'n -0.0408
-0.4924 Fingern zu -0.0657
-0.4924 Fleck </s> 3.4401
-0.9695 Fläche schieben -0.0020
-0.3852 Fläche von -0.0664
-1.0842 Flügel </s> 3.2671
-1.6685 Flügel der -0.0765
-1.6685 Flügel des -0.0712
-1.6685 Flügel geht -0.0602
-1.6685 Flügel hm 0.0402
-1.6685 Flügel ich -0.0780
-1.6685 Flügel muss -0.0738
-1.6685 Flügel nimmst -0.0693
-1.0842 Flügel schließt -0.0738
-1.6685 Flügel siehst -0.0653
-1.6685 Flügel und -0.0332
-1.6685 Flügel vom -0.0596
-1.6685 Flügel wenn -0.0715
-0.4924 Flügeln also -0.0771
-0.9967 Form </s> 3.1181
-1.2091 Form als -0.0659
-1.7934 Form beschreiben -0.0711
-1.7934 Form bleibt -0.0380
-1.7934 Form dieses -0.0753
-1.7934 Form eines -0.0289
-1.7934 Form eins -0.0772
-1.7934 Form erstmal -0.0624
-1.7934 Form haben 0.1157
-1.7934 Form hat -0.0761
-1.7934 Form her -0.0020
-1.7934 Form nach 0.0209
-1.7934 Form raus 0.1815
-1.7934 Form schwer -0.0577
-1.7934 Form von -0.0712
-1.7934 Form vor 0.1367
-1.7934 Form wird -0.0745
-0.4924 Fortsetzung nach 0.0178
-0.4924 Frage wie -0.0777
-0.4924 Franziska </s> 3.4401
-0.7934 Freikästchen 'n -0.0767
-0.7934 Freikästchen </s> 3.4401
-0.4924 Freiraum von 0.1134
-0.6771 Fuß </s> 3.0062
-2.0109 Fuß an -0.0295
-2.0109 Fuß aus -0.0774
-2.0109 Fuß bilden -0.0542
-1.4266 Fuß bildet -0.2138
-1.4266 Fuß der -0.0713
-2.0109 Fuß des -0.0668
-2.0109 Fuß dran -0.0406
-2.0109 Fuß fortsetzt 0.0905
-2.0109 Fuß is -0.0724
-2.0109 Fuß ja 0.0975
-2.0109 Fuß muss -0.0775
-2.0109 Fuß nur -0.0720
-2.0109 Fuß oder -0.0769
-2.0109 Fuß okay 0.0872
-2.0109 Fuß rein 0.1538
-2.0109 Fuß reingeht 0.0905
-2.0109 Fuß sind -0.0727
-1.2141 Fuß und -0.0394
-2.0109 Fuß unten 0.0088
-2.0109 Fuß vom 0.0051
-1.4266 Fuß von -0.0596
-0.7934 Fünf is -0.0715
-0.7934 Fünf oh -0.0621
-1.2705 Füße </s> 3.4401
-1.2705 Füße du -0.0625
-1.2705 Füße hab -0.0289
-1.2705 Füße hinten -0.0730
-1.2705 Füße ja 0.0975
-1.2705 Füße oder -0.0060
-1.0945 Füßen am -0.0527
-1.0945 Füßen einfügen -0.0493
-1.0945 Füßen hin -0.0766
-1.0945 Füßen kommt -0.0622
-0.9695 Ganze ma -0.0767
-0.3852 Ganze sieht 0.1000
-0.9695 Ganzes </s> 3.4401
-0.9695 Ganzes mit 0.1292
-0.9695 Ganzes praktisch -0.0736
-0.4924 Gedankengang schon -0.0769
-0.4924 Geometrie </s> 3.4401
-0.4924 Gerade die -0.0748
-0.4924 Geschmack zumindest 0.0905
-0.4924 Geste oder -0.0638
-0.3890 Gott </s> 3.0062
-1.1385 Gott aber 0.0062
-1.7228 Gott also -0.0466
-1.7228 Gott geflippt 0.0062
-1.7228 Gott ist -0.0054
-1.1385 Gott nee -0.0683
-0.9261 Gott wie -0.0640
-0.4924 Gottes Willen -0.0020
-1.7711 Grad Winkel -0.0634
-1.1868 Grad das -0.0617
-1.7711 Grad dreh'n 0.0493
-1.1868 Grad drehen -0.2292
-1.7711 Grad dreht -0.0603
-0.9744 Grad gedreht -0.0162
-1.1868 Grad gegen 0.0574
-1.7711 Grad im -0.0360
-0.9744 Grad nach 0.1267
-1.7711 Grad so -0.0202
-1.7711 Grad verdreht 0.3396
-1.7711 Grad ähm -0.0622
-0.7934 Grund die -0.0779
-0.7934 Grund äh -0.0778
-0.9695 Grundform </s> 3.4401
-0.9695 Grundform einzupassen 0.0905
-0.9695 Grundform is -0.0570
-0.4924 Grundlinie also -0.0574
-0.4924 Grundquadrat zu -0.0762
-0.2091 Grundquadrate über'nander -0.0183
-0.4924 Grundquadraten übereinander -0.0266
-0.9695 Grundraster erkannt -0.0020
-0.3852 Grundraster zu -0.0528
-1.3375 Grundrasters </s> 3.4401
-1.3375 Grundrasters aus -0.0774
-0.7532 Grundrasters direkt -0.0265
-1.3375 Grundrasters gelegt -0.0718
-1.3375 Grundrasters passen -0.0542
-1.3375 Grundrasters und -0.0413
-0.4924 Grundriss rein -0.0757
-0.4924 Güte </s> 3.4401
-0.7934 Haken links -0.0504
-0.7934 Haken nach 0.0178
-0.6862 Hakenkreuz also -0.0685
-1.2705 Hakenkreuz halbiert 0.0905
-1.2705 Hakenkreuz ja 0.0975
-1.2705 Hakenkreuz nimmt -0.0417
-1.2705 Hakenkreuz und -0.0716
-0.9695 Hals bildet -0.0155
-0.9695 Hals sozusagen -0.0643
-0.9695 Hals und -0.0740
-0.8096 Hand </s> 3.1181
-1.6063 Hand aber -0.0497
-1.6063 Hand also -0.0713
-1.6063 Hand das -0.0743
-1.6063 Hand die -0.0772
-1.6063 Hand hm 0.2409
-1.6063 Hand in -0.0068
-1.6063 Hand ma -0.0767
-1.6063 Hand mit -0.0776
-1.6063 Hand muss -0.0738
-1.6063 Hand ähm -0.0730
-0.7934 Handstand </s> 3.4401
-0.7934 Handstand macht -0.0640
-0.4924 Hase mich -0.0640
-0.7934 Herz hätte -0.0603
-0.7934 Herz ungefähr -0.0640
-0.4924 Hinter Hinterbauch 0.0905
-0.4924 Hinterbauch so -0.0774
-1.3955 Hinterbein </s> 3.4401
-1.3955 Hinterbein beziehungsweise -0.0417
-1.3955 Hinterbein das -0.0776
-1.3955 Hinterbein dis -0.0765
-1.3955 Hinterbein gehört -0.0140
-1.3955 Hinterbein haste -0.0490
-1.3955 Hinterbein und -0.0780
-1.3955 Hinterbein vom 0.0051
-1.0945 Hinterbeine </s> 3.4401
-1.0945 Hinterbeine anfang'n -0.0020
-1.0945 Hinterbeine anfangen 0.0479
-1.0945 Hinterbeine genau -0.0680
-0.7934 Hinterbeinen muss -0.0582
-0.7934 Hinterbeinen siehst -0.0264
-0.4924 Hinterbeins ab 0.2934
-0.9695 Hinterfuß </s> 3.4401
-0.9695 Hinterfuß das -0.0776
-0.9695 Hinterfuß und -0.0413
-0.8717 Hinterkopf </s> 3.1181
-1.6685 Hinterkopf an -0.0777
-1.6685 Hinterkopf der -0.0724
-1.6685 Hinterkopf des 0.0431
-1.6685 Hinterkopf ein -0.0774
-1.0842 Hinterkopf genau -0.0398
-1.6685 Hinterkopf hm 0.0402
-1.6685 Hinterkopf muss -0.0582
-1.6685 Hinterkopf ne 0.3503
-1.0842 Hinterkopf sozusagen -0.0174
-1.6685 Hinterkopf und -0.0716
-1.3955 Hinterlauf </s> 3.4401
-1.3955 Hinterlauf an -0.0250
-1.3955 Hinterlauf den -0.0705
-1.3955 Hinterlauf in -0.0723
-1.3955 Hinterlauf oder -0.0769
-1.3955 Hinterlauf sozusagen -0.0735
-0.8112 Hinterlauf vom 0.0070
-0.4924 Hinterläufe sind -0.0692
-0.4924 Hintern nach 0.0209
-0.4924 Hinterpfote </s> 3.4401
-0.2091 Hinterseite des -0.1916
-1.3852 Hinterteil $W -0.0697
-0.8410 Hinterteil </s> 2.7553
-1.9695 Hinterteil ab 0.2934
-1.3852 Hinterteil an -0.0654
-1.9695 Hinterteil bildet -0.0687
-1.9695 Hinterteil da -0.0686
-1.9695 Hinterteil das -0.0722
-1.9695 Hinterteil des -0.0186
-1.9695 Hinterteil dit -0.0755
-1.9695 Hinterteil dran -0.0655
-1.9695 Hinterteil geht -0.0602
-1.9695 Hinterteil ne 0.3503
-1.9695 Hinterteil rausgeschaut 0.0905
-1.3852 Hinterteil schließt -0.0675
-1.9695 Hinterteil sieht 0.2730
-1.9695 Hinterteil und -0.0688
-1.1727 Hinterteil vom -0.3169
-1.3852 Hinterteil von 0.1746
-1.9695 Hinterteil zum -0.0518
-0.4924 Hinterteils das -0.0755
-0.4924 Hitlerhakenkreuz kann 0.0132
-0.4924 Hitlers Hakenkreuz 0.0220
-0.7934 Hufeisen </s> 3.4401
-0.7934 Hufeisen ja -0.0729
-0.4924 Hä Hände 0.0905
-1.1385 Hälfte </s> 3.2671
-1.7228 Hälfte davon -0.0687
-1.7228 Hälfte der -0.0779
-0.2762 Hälfte des -0.2778
-1.7228 Hälfte vom -0.0557
-1.7228 Hälfte von -0.0777
-1.1385 Hälfte zwei -0.0767
-0.4924 Hände nach 0.0178
-0.5987 Höhe </s> 3.1181
-1.3955 Höhe es -0.0341
-1.3955 Höhe von -0.0762
-0.8112 Höhe wie -0.0455
-1.3955 Höhe zwei -0.0736
-0.4924 I see 0.0905
-1.2705 Idee aber -0.0391
-1.2705 Idee okay -0.0778
-0.4738 Idee was -0.3666
-1.2705 Idee welches -0.0681
-0.4924 Inhalt </s> 3.4401
-0.4924 Innenseite und -0.0688
-0.4924 Insel Korsika 0.0905
-0.4924 Jana konzentrier 0.0905
-0.4924 Job </s> 3.4401
-0.4924 Jonas </s> 3.4401
-1.5338 Kante des -0.0764
-0.9495 Kante die -0.2409
-1.5338 Kante dieses -0.0774
-1.5338 Kante sein -0.0655
-1.5338 Kante unten -0.0757
-1.5338 Kante vom -0.0679
-0.9495 Kante von -0.0596
-0.9495 Kante zur 0.1110
-0.4924 Kanten die -0.0779
-1.5716 Karo ganz -0.0423
-0.9873 Karo is -0.0688
-0.9873 Karo links -0.0601
-1.5716 Karo länger 0.0823
-1.5716 Karo mit 0.1292
-0.9873 Karo rechts -0.0738
-1.5716 Karo sozusagen -0.0769
-1.5716 Karo von -0.0415
-1.5716 Karo was -0.0741
-0.9495 Karos </s> 3.2671
-1.5338 Karos anschließen -0.0493
-1.5338 Karos die -0.0748
-1.5338 Karos neben -0.0725
-1.5338 Karos neben'nander 0.0823
-1.5338 Karos nebeneinander -0.0020
-1.5338 Karos sind -0.0692
-0.7370 Karos und -0.0257
-0.4924 Kasten wo -0.0772
-0.4924 Keile ineinander 0.0905
-0.4924 Knick geht -0.0356
-1.1914 Kolibri </s> 3.4401
-1.1914 Kolibri da -0.0778
-1.1914 Kolibri das -0.0778
-1.1914 Kolibri der -0.0771
-1.1914 Kolibri mit -0.0776
-0.7934 Koordinaten weiter -0.0760
-0.7934 Koordinaten zu -0.0762
-1.3677 Kopf </s> 3.1181
-1.5802 Kopf an -0.0695
-2.1645 Kopf aus -0.0752
-1.3677 Kopf da -0.1434
-2.1645 Kopf dann -0.0678
-1.1151 Kopf des -0.1584
-2.1645 Kopf fertig 0.4659
-2.1645 Kopf gelegt -0.0531
-1.5802 Kopf gestellt 0.0905
-1.3677 Kopf is -0.0640
-2.1645 Kopf ja 0.0975
-2.1645 Kopf kommt -0.0775
-2.1645 Kopf links -0.0776
-2.1645 Kopf mit 0.1292
-2.1645 Kopf oben -0.0299
-2.1645 Kopf praktisch -0.0736
-2.1645 Kopf rein 0.1538
-2.1645 Kopf runterhängt 0.0905
-2.1645 Kopf schon -0.0733
-2.1645 Kopf so -0.0202
-2.1645 Kopf stehenden -0.0020
-1.1206 Kopf steht -0.0999
-1.5802 Kopf stellen 0.0905
-2.1645 Kopf und -0.0413
-1.3677 Kopf von -0.2086
-2.1645 Kopf zeigt 0.0029
-2.1645 Kopf zusammen -0.0417
-1.5802 Kopf äh -0.0686
-0.4924 Kopfes jetzt -0.0593
-1.0945 Kopfteil diesem -0.0753
-1.0945 Kopfteil so -0.0759
-1.0945 Kopfteil und -0.0726
-1.0945 Kopfteil von -0.0467
-0.4924 Korsika wie -0.0642
-0.4924 Kreu also -0.0751
-2.3675 Kreuz 's -0.0766
-0.7289 Kreuz </s> 2.3721
-2.3675 Kreuz Symbol 0.0905
-1.3236 Kreuz an -0.0137
-2.3675 Kreuz angelegt -0.0681
-2.3675 Kreuz anliegen 0.0062
-2.3675 Kreuz anliegt 0.2262
-2.3675 Kreuz besteht -0.0720
-1.7831 Kreuz da -0.0634
-1.7831 Kreuz das -0.0721
-2.3675 Kreuz ein -0.0774
-1.7831 Kreuz einfach -0.0693
-2.3675 Kreuz es -0.0341
-2.3675 Kreuz gelegt -0.0015
-2.3675 Kreuz genau 0.0596
-2.3675 Kreuz halt -0.0715
-1.7831 Kreuz hast -0.0532
-1.7831 Kreuz hin 0.1534
-2.3675 Kreuz im -0.0746
-2.3675 Kreuz in 0.0601
-1.3181 Kreuz is -0.0150
-2.3675 Kreuz ist -0.0703
-1.5707 Kreuz jetzt -0.0587
-2.3675 Kreuz kommt -0.0775
-2.3675 Kreuz liegt -0.0473
-2.3675 Kreuz ne 0.3503
-1.7831 Kreuz nimmst -0.0603
-2.3675 Kreuz noch -0.0091
-2.3675 Kreuz nur -0.0681
-2.3675 Kreuz oder -0.0702
-2.3675 Kreuz positionieren -0.0289
-2.3675 Kreuz rechts -0.0777
-2.3675 Kreuz reinschieben -0.0020
-2.3675 Kreuz reinsteckt 0.0905
-2.3675 Kreuz siehst -0.0264
-2.3675 Kreuz sieht -0.0769
-2.3675 Kreuz umfasst 0.0905
-1.7831 Kreuz und -0.1791
-2.3675 Kreuz uns -0.0673
-2.3675 Kreuz vier -0.0766
-2.3675 Kreuz vorne -0.0707
-2.3675 Kreuz war 0.0094
-1.5707 Kreuz was -0.1642
-2.3675 Kreuz wirklich -0.0289
-0.7934 Kreuzes muss -0.0738
-0.7934 Kreuzes verstehste 0.9279
-0.4924 Kuh ihr 0.0905
-0.7934 Käse dieses -0.0699
-0.7934 Käse dis -0.0765
-0.9224 Kästchen </s> 2.4769
-2.4562 Kästchen Platz -0.0653
-2.4562 Kästchen als -0.0685
-1.8719 Kästchen also -0.0685
-2.4562 Kästchen am -0.0527
-2.4562 Kästchen auf 0.1118
-2.4562 Kästchen besetzt -0.0020
-2.4562 Kästchen besteht -0.0720
-2.4562 Kästchen bis 0.0254
-2.4562 Kästchen da -0.0758
-1.4068 Kästchen das -0.0702
-2.4562 Kästchen davor -0.0577
-1.6594 Kästchen die -0.0690
-2.4562 Kästchen dieses -0.0774
-1.3276 Kästchen dran 0.0341
-2.4562 Kästchen ein -0.0307
-1.1224 Kästchen frei 0.0232
-2.4562 Kästchen ganz -0.0423
-2.4562 Kästchen hier -0.0760
-2.4562 Kästchen im -0.0746
-2.4562 Kästchen is -0.0698
-1.6594 Kästchen ist -0.0649
-1.8719 Kästchen lang 0.0831
-1.4068 Kästchen lange -0.1328
-2.4562 Kästchen langen -0.0624
-2.4562 Kästchen liegen 0.1260
-2.4562 Kästchen meinst 0.1075
-2.4562 Kästchen nach 0.0822
-1.8719 Kästchen ne 0.3567
-2.4562 Kästchen nich -0.0774
-2.4562 Kästchen noch -0.0760
-1.4068 Kästchen oben -0.1040
-1.8719 Kästchen raus 0.1944
-2.4562 Kästchen rechts -0.0331
-2.4562 Kästchen reichen 0.3396
-2.4562 Kästchen reicht -0.0664
-1.8719 Kästchen sein -0.0684
-2.4562 Kästchen sind -0.0727
-1.0607 Kästchen und -0.1987
-2.4562 Kästchen unterteilt -0.0417
-2.4562 Kästchen vom -0.0765
-1.6594 Kästchen von 0.0643
-2.4562 Kästchen was -0.0617
-2.4562 Kästchen weiter -0.0645
-1.1914 Körper </s> 3.4401
-1.1914 Körper hin 0.1374
-0.6071 Körper rein -0.0279
-1.1914 Körper vom 0.0051
-0.4924 Körperteile wo -0.0667
-0.4924 Legespiel vor -0.0649
-1.1914 Lehne </s> 3.4401
-1.1914 Lehne an -0.0658
-0.6071 Lehne nach 0.2341
-1.1914 Lehne vom -0.0679
-0.4924 Liegen kommen -0.0640
-1.3955 Linie 'n -0.0663
-1.3955 Linie </s> 3.4401
-0.5987 Linie aus -0.1374
-1.3955 Linie des -0.0712
-1.3955 Linie durch -0.0542
-1.3955 Linie oder -0.0702
-0.4924 Linien nicht -0.0713
-1.1914 Loch </s> 3.4401
-1.1914 Loch also -0.0765
-1.1914 Loch bei 0.5416
-1.1914 Loch sozusagen -0.0735
-1.1914 Loch was -0.0741
-0.9695 Länge </s> 3.4401
-0.9695 Länge hat -0.0703
-0.9695 Länge von -0.0762
-0.4924 Längsseite pa 0.0905
-0.6789 Lücke </s> 3.0672
-1.7228 Lücke alles 0.3020
-1.7228 Lücke bleiben -0.0603
-1.7228 Lücke bleibt -0.0380
-1.7228 Lücke frei 0.0438
-1.7228 Lücke geht -0.0699
-1.7228 Lücke is -0.0771
-1.7228 Lücke mit -0.0710
-1.7228 Lücke unter -0.0707
-1.7228 Lücke von -0.0777
-0.9261 Lücke zwischen -0.0568
-0.5101 Lücken </s> 3.2671
-1.0945 Lücken frei 0.0438
-1.0945 Lücken oh -0.0621
-0.4924 Mann </s> 3.4401
-0.4924 Manu </s> 3.4401
-0.7934 Markierungen für -0.0505
-0.7934 Markierungen nich -0.0774
-0.4924 Martha </s> 3.4401
-0.4924 Mathematik auch -0.0772
-1.1914 Maus an -0.0188
-0.1420 Maus ist -0.1169
-0.3852 Mensch </s> 3.2671
-0.9695 Mensch weil -0.0392
-0.4924 Minuten Jana 0.0905
-0.4924 Mist ja -0.0610
-1.0167 Mitte </s> 3.0672
-2.0606 Mitte an -0.0188
-2.0606 Mitte das -0.0628
-1.4763 Mitte des -0.0694
-2.0606 Mitte geh -0.0577
-2.0606 Mitte geht -0.0699
-2.0606 Mitte guckt -0.0348
-2.0606 Mitte mit -0.0667
-1.2638 Mitte nach 0.1217
-1.0112 Mitte noch 0.0052
-2.0606 Mitte oder -0.0638
-2.0606 Mitte okay 0.0872
-2.0606 Mitte rein -0.0757
-2.0606 Mitte setzen -0.0020
-1.2638 Mitte so -0.1200
-2.0606 Mitte sondern -0.0433
-1.2638 Mitte und -0.0718
-2.0606 Mitte unten -0.0741
-1.2638 Mitte vom -0.0523
-1.4763 Mitte von -0.0053
-0.4924 Mittelfuß des -0.0668
-0.4924 Mittelstrang von 0.1134
-0.4924 Mittelstrich fehlt -0.0673
-0.7934 Mittelteil fehlt -0.0348
-0.7934 Mittelteil senkrecht -0.0616
-0.2091 Mittelzunge fehlt -0.2078
-0.6191 Moment </s> 2.9624
-1.6685 Moment ah 0.0839
-1.6685 Moment also -0.0670
-1.6685 Moment die -0.0754
-1.6685 Moment is -0.0438
-1.0842 Moment mal -0.0443
-1.6685 Moment okay -0.0729
-1.6685 Moment so -0.0330
