#############################################################################
## Copyright (c) 1996, Carnegie Mellon University, Cambridge University,
## Ronald Rosenfeld and Philip Clarkson
## Version 3, Copyright (c) 2006, Carnegie Mellon University 
## Contributors includes Wen Xu, Ananlada Chotimongkol, 
## David Huggins-Daines, Arthur Chan and Alan Black 
#############################################################################
=============================================================================
===============  This file was produced by the CMU-Cambridge  ===============
===============     Statistical Language Modeling Toolkit     ===============
=============================================================================
This is a 3-gram language model, based on a vocabulary of 1030 words,
  which begins "$B", "$C", "$C's"...
This is an OPEN-vocabulary model (type 1)
  (OOVs were mapped to UNK, which is treated as any other vocabulary word)
Good-Turing discounting was applied.
1-gram frequency of frequency : 437 
2-gram frequency of frequency : 3795 769 313 159 116 84 66 
3-gram frequency of frequency : 7926 963 323 167 114 66 53 
1-gram discounting ratios : 1.00 
2-gram discounting ratios : 0.35 0.57 0.65 0.90 0.86 0.91 0.70 
3-gram discounting ratios : 0.21 0.48 0.68 0.85 0.68 0.93 0.77 
This file is in the ARPA-standard format introduced by Doug Paul.

p(wd3|wd1,wd2)= if(trigram exists)           p_3(wd1,wd2,wd3)
                else if(bigram w1,w2 exists) bo_wt_2(w1,w2)*p(wd3|wd2)
                else                         p(wd3|w2)

p(wd2|wd1)= if(bigram exists) p_2(wd1,wd2)
            else              bo_wt_1(wd1)*p_1(wd2)

All probs and back-off weights (bo_wt) are given in log10 form.

Data formats:

Beginning of data mark: \data\
ngram 1=nr            # number of 1-grams
ngram 2=nr            # number of 2-grams
ngram 3=nr            # number of 3-grams

\1-grams:
p_1     wd_1 bo_wt_1
\2-grams:
p_2     wd_1 wd_2 bo_wt_2
\3-grams:
p_3     wd_1 wd_2 wd_3 

end of data mark: \end\

\data\
ngram 1=1030
ngram 2=5648
ngram 3=9859

\1-grams:
-3.9263 $B	-0.3278
-3.0513 $C	-0.2966
-4.2294 $C's	-0.1801
-3.9263 $F	-0.1438
-3.4492 $I	-0.2555
-4.2294 $K	-0.1439
-2.3885 $L	-0.6894
-4.2294 $M	-0.1439
-4.2294 $N	-0.1439
-4.2294 $O	-0.1830
-2.9721 $S	-0.7634
-2.5839 $T	-0.5535
-4.2294 $T's	-0.1790
-2.6476 $U	-0.6270
-3.0513 $W	-0.8544
-2.9721 $Z	-0.5336
-3.7503 $Z's	-0.1353
-3.9263 'm	-0.1843
-3.1482 'n	-0.1963
-3.7503 'ne	-0.2982
-3.2731 's	-0.2501
-1.0404 </s>	-3.1872
-99.0000 <s>	-0.7320
-4.2294 Abschluss	-0.1775
-4.2294 Abschnitt	-0.1801
-3.3823 Abstand	-0.1915
-3.9263 Ahnung	-0.3643
-3.3243 Art	-0.4477
-4.2294 Aus	-0.1747
-3.9263 Ausbeulung	-0.3624
-4.2294 Ausbuchtung	-0.1785
-4.2294 Ausläufer	-0.1826
-3.3243 Ausrichtung	-0.3441
-4.2294 Auswahlfeld	-0.1701
-4.2294 Auswahlfeldes	-0.1852
-4.2294 Auswuchtung	-0.1790
-3.9263 Außenkante	-0.1742
-3.1860 Balken	-0.2258
-4.2294 Basis	-0.1747
-2.7222 Bauch	-0.5881
-4.2294 Bauchdecke	-0.1853
-4.2294 Bauchlinie	-0.1801
-3.9263 Bauchraumes	-0.1743
-4.2294 Baukästen	-0.1852
-2.7503 Baustein	-0.2826
-2.9263 Bausteine	-0.3289
-2.9263 Bausteinen	-0.1740
-3.9263 Bausteines	-0.1801
-4.2294 Bausteinkomplex	-0.1848
-3.0812 Bein	-0.2985
-3.9263 Beine	-0.1693
-3.9263 Beinen	-0.1843
-4.2294 Beines	-0.1850
-4.2294 Berg	-0.1439
-3.9263 Bild	-0.1853
-4.2294 Bildes	-0.1439
-4.2294 Bio	-0.1439
-2.8849 Block	-0.2297
-3.3243 Blöcke	-0.5688
-3.0233 Blöcken	-0.9369
-3.3243 Boden	-0.4670
-3.3823 Brücke	-0.2326
-4.2294 Buchstabe	-0.1836
-3.7503 Croissant	-0.4095
-3.9263 Diagonale	-0.1804
-4.2294 Ding	-0.1837
-4.2294 Dreieck	-0.1854
-4.2294 Dreier	-0.1854
-3.9263 Dreierriegel	-0.3639
-4.2294 Dreiers	-0.1701
-4.2294 Dromedar	-0.1747
-3.1482 Dromedars	-0.3516
-4.2294 Dromedarzielobjektes	-0.1747
-3.9263 Druckbuchstaben	-0.1420
-4.2294 Ec	-0.1836
-2.3083 Ecke	-0.4888
-4.2294 Ele	-0.1852
-2.4212 Elefanten	-0.3552
-4.2294 Elefantenbauches	-0.1701
-4.2294 Elefantenfigur	-0.1844
-4.2294 Elefantenfuß	-0.1852
-3.6253 Elefantens	-0.1722
-3.5284 Elefantenzielfigur	-0.2193
-4.2294 Element	-0.1844
-3.2731 Ende	-0.5291
-4.2294 Enden	-0.1853
-4.2294 Exoten	-0.1820
-4.2294 F	-0.1849
-3.9263 Fantasie	-0.1788
-3.5284 Feld	-0.3168
-3.6253 Felder	-0.1745
-3.9263 Feldes	-0.1727
-4.2294 Fi	-0.1775
-4.2294 Figu	-0.1826
-2.4280 Figur	-0.2927
-3.7503 Figuren	-0.1710
-4.2294 Fläch	-0.1747
-4.2294 Flächen	-0.1849
-3.6253 Form	-0.1332
-4.2294 Frage	-0.1853
-3.9263 Freiraum	-0.1771
-4.2294 Fu	-0.1750
-2.7089 Fuß	-0.4061
-4.2294 Fußboden	-0.1439
-3.9263 Fußes	-0.1438
-3.9263 Gebilde	-0.1601
-3.4492 Gerade	-0.5047
-3.9263 Geraden	-0.1837
-2.3466 Gnubbel	-0.2615
-3.6253 Gnubbeln	-0.1559
-3.6253 Gnubbels	-0.1551
-4.2294 Golfschläger	-0.1439
-3.7503 Gott	-0.1398
-2.0938 Grad	-1.4385
-3.1860 Hals	-0.3478
-3.7503 Halses	-0.1321
-4.2294 Han	-0.1840
-3.9263 Haufen	-0.1593
-3.7503 Hinterbein	-0.2828
-3.7503 Hinterfuß	-0.2931
-3.7503 Hintern	-0.2932
-3.2731 Hinterteil	-0.3694
-4.2294 Hobel	-0.1854
-3.9263 Hockeyschläger	-0.3278
-3.5284 Hälfte	-0.1664
-3.9263 Hälften	-0.1854
-3.3243 Höcker	-0.4675
-4.2294 Höckers	-0.1801
-4.2294 Höckerteil	-0.1801
-4.2294 Höhe	-0.1801
-3.2731 Kamel	-0.1877
-2.5839 Kamels	-0.2977
-3.2731 Kante	-0.1875
-4.2294 Kasten	-0.1854
-4.2294 Kis	-0.1846
-4.2294 Kiste	-0.1843
-3.9263 Kisten	-0.1847
-4.2294 Klotz	-0.1790
-4.2294 Knick	-0.1439
-4.2294 Kombination	-0.1820
-2.6833 Kopf	-0.5302
-3.5284 Kopfes	-0.1604
-4.2294 Kopfseite	-0.1801
-4.2294 Kopfteil	-0.1826
-4.2294 Kreu	-0.1766
-2.7222 Kreuz	-0.3973
-3.9263 Kreuzes	-0.1439
-3.9263 Kreuzfigur	-0.1849
-3.9263 Krücke	-0.3278
-4.2294 Kurbel	-0.1830
-4.2294 Käst	-0.1439
-2.1860 Kästchen	-0.4506
-4.2294 Körper	-0.1747
-4.2294 Körpermitte	-0.1747
-4.2294 Leerstelle	-0.1747
-3.1482 Linie	-0.1910
-2.8294 Loch	-0.1876
-4.2294 Länge	-0.1439
-3.6253 Löcher	-0.2009
-3.3243 Lücke	-0.2655
-4.2294 M	-0.1853
-4.2294 Maul	-0.1801
-2.2829 Mitte	-0.3172
-3.9263 Mittelkante	-0.1843
-3.7503 Mittellinie	-0.1435
-4.2294 Mittelteil	-0.1833
-3.9263 Nummer	-0.1831
-3.5284 Oberkante	-0.3164
-3.7503 Oberseite	-0.1790
-4.2294 Objekt	-0.1833
-3.9263 Ohr	-0.1787
-3.9263 Ohren	-0.1841
-4.2294 Ohrenkästchen	-0.1847
-4.2294 Orientierungspunkt	-0.1701
-4.2294 Passbild	-0.1852
-3.7503 Passform	-0.2573
-3.7503 Platz	-0.2836
-3.6253 Plus	-0.9735
-3.9263 Pluszeichen	-0.1416
-3.7503 Po	-0.1849
-4.2294 Podest	-0.1801
-3.9263 Popo	-0.1402
-3.3243 Position	-0.3133
-4.2294 Prinzip	-0.1750
-3.7503 Punkt	-0.2544
-4.2294 Punktes	-0.1801
-3.9263 Puzzle	-0.1846
-4.2294 Pömpel	-0.1790
-3.9263 Qua	-0.3588
-2.9721 Quader	-0.0904
-3.6253 Quadern	-0.1731
-4.2294 Quadra	-0.1841
-2.5198 Quadrat	-0.3929
-3.9263 Quadrate	-0.1790
-3.4492 Quadraten	-0.2452
-3.5284 Quadrates	-0.2328
-4.2294 Quadratfläche	-0.1849
-4.2294 Quadratreihe	-0.1790
-3.4492 Quadrats	-0.2209
-4.2294 R	-0.1788
-4.2294 Ra	-0.1840
-2.4950 Rand	-0.3439
-4.2294 Raum	-0.1439
-4.2294 Recht	-0.1750
-2.9263 Rechteck	-0.3030
-2.9486 Rechtecks	-0.4014
-2.9486 Reihe	-0.3448
-4.2294 Reihen	-0.1849
-3.9263 Rest	-0.1800
-3.9263 Richtung	-0.1270
-3.9263 Riegel	-0.1701
-4.2294 Riegels	-0.1833
-3.6253 Rumpf	-0.2401
-4.2294 Rumpfes	-0.1790
-2.7960 Rücken	-0.2525
-4.2294 Rückenlinie	-0.1801
-3.7503 Rückens	-0.2882
-4.2294 Rückenteil	-0.1848
-3.6253 Rüssel	-0.1794
-4.2294 S	-0.1828
-4.2294 Schen	-0.1775
-3.4492 Schenkel	-0.1732
-3.9263 Schlange	-0.1760
-3.9263 Schnauze	-0.3540
-3.9263 Schulter	-0.3540
-4.2294 Schwanz	-0.1849
-2.4950 Seite	-0.3142
-4.2294 Senkrechte	-0.1826
-4.2294 Sessel	-0.1439
-3.7503 Sieben	-0.2556
-4.2294 Sitz	-0.1854
-4.2294 Sitze	-0.1766
-4.2294 Sitzfläche	-0.1785
-4.2294 Sockel	-0.1439
-4.2294 Sonderquadrat	-0.1780
-3.1482 Spalte	-0.4794
-4.2294 Spitze	-0.1801
-3.9263 Stab	-0.3278
-3.6253 Stange	-0.2169
-3.3823 Stein	-0.1896
-4.2294 Steinchen	-0.1844
-3.1482 Steine	-0.1520
-3.6253 Steinen	-0.1379
-3.2274 Stelle	-0.1563
-4.2294 Stern	-0.1439
-3.9263 Strich	-0.3278
-4.2294 Stufe	-0.1439
-4.2294 Stufenabsatz	-0.1439
-4.2294 Stuhl	-0.1826
-3.9263 Stück	-0.1439
-3.7503 Säule	-0.2546
-3.9263 T	-0.1366
-3.7503 Tei	-0.1527
-1.6510 Teil	-0.7056
-4.2294 Teilbaustein	-0.1775
-3.1860 Teile	-0.2264
-3.1482 Teilen	-0.2441
-3.1482 Teils	-0.1637
-4.2294 Tetris	-0.1847
-3.7503 Tier	-0.1296
-3.9263 Tierchen	-0.1324
-3.2731 Tieres	-0.3644
-4.2294 Tor	-0.1439
-4.2294 Trepp	-0.1439
-2.8849 Treppe	-0.7406
-4.2294 Treppenstufe	-0.1844
-4.2294 Uhrzeigersinn	-0.1780
-4.2294 Unterbauch	-0.1801
-3.5284 Unterkante	-0.6690
-3.5284 Unterseite	-0.3085
-3.7503 Unterteil	-0.1725
-3.3243 Vier	-0.4227
-3.0233 Viereck	-0.3167
-3.3243 Vierecke	-0.4770
-4.2294 Vierecks	-0.1853
-4.2294 Viererblock	-0.1701
-4.2294 Viererkette	-0.1439
-4.2294 Vogel	-0.1849
-3.9263 Vorderbein	-0.3639
-4.2294 Vorderbeins	-0.1853
-3.7503 Vorderfuß	-0.2856
-3.9263 Wand	-0.3628
-4.2294 Wasserhahn	-0.1439
-3.3823 Weise	-0.3944
-3.2274 Winkel	-0.3478
-2.8472 Würfel	-0.3969
-3.9263 Würfels	-0.1747
-3.0812 Zielfigur	-0.3658
-4.2294 Zielobjekt	-0.1780
-4.2294 Zweierriegel	-0.1847
-4.2294 Zweierriegels	-0.1439
-3.5284 a	-0.2208
-3.0513 aber	-0.1919
-4.2294 abgebissen	-0.1824
-4.2294 abgebrochen	-0.1824
-4.2294 abgehen	-0.1439
-4.2294 abgeht	-0.1439
-4.2294 abgeschlossen	-0.1824
-4.2294 abgeteilt	-0.1826
-4.2294 abschließende	-0.1854
-2.9969 abschließt	-1.2373
-4.2294 abseits	-0.1854
-3.9263 abstehen	-0.3604
-4.2294 abstehende	-0.1852
-4.2294 absteht	-0.1775
-4.2294 abstößt	-0.1828
-3.3823 ach	-0.4688
-3.7503 ah	-0.1842
-3.7503 alle	-0.1831
-3.7503 aller	-0.1668
-3.6253 allerdings	-0.1796
-4.2294 allerrecht	-0.1788
-3.2731 als	-0.2038
-2.2145 also	-0.2165
-2.4950 am	-0.3776
-1.8329 an	-0.9048
-3.7503 andere	-0.1807
-3.1482 anderen	-0.4019
-4.2294 anderes	-0.1853
-4.2294 anders	-0.1670
-4.2294 andersrum	-0.1439
-4.2294 aneinandergereihten	-0.1853
-4.2294 anfange	-0.1439
-3.7503 angebracht	-0.1772
-4.2294 angefang	-0.1439
-3.4492 angeordnet	-0.3926
-4.2294 angesc	-0.1854
-3.7503 angesetzt	-0.2971
-3.4492 angrenzen	-0.2439
-4.2294 angrenzend	-0.1439
-3.2731 angrenzt	-0.4847
-3.9263 angucken	-0.1808
-3.9263 anguckt	-0.1624
-3.7503 anliegen	-0.2406
-2.8656 anliegt	-0.7997
-4.2294 ans	-0.1852
-4.2294 anschauen	-0.1853
-4.2294 anschaut	-0.1701
-3.9263 anschließend	-0.1807
-3.3243 anschließt	-0.5693
-3.6253 ansonsten	-0.3669
-4.2294 ao	-0.1790
-2.9721 auch	-0.2983
-2.3189 auf	-1.0060
-4.2294 aufgesetzten	-0.1854
-4.2294 aufgestellte	-0.1853
-4.2294 aufhört	-0.1439
-3.9263 aufliegt	-0.3278
-4.2294 aufsteigende	-0.1849
-2.2145 aus	-0.9202
-4.2294 ausfüllen	-0.1852
-3.7503 ausfüllt	-0.2571
-3.3243 ausgefüllt	-0.6483
-4.2294 ausgefüllte	-0.1849
-4.2294 ausgesehen	-0.1853
-3.9263 ausgesparten	-0.1850
-4.2294 auslaufend	-0.1439
-3.9263 ausläuft	-0.3278
-4.2294 aussah	-0.1854
-3.3243 ausschaut	-0.4566
-3.9263 aussehen	-0.3278
-2.2496 aussieht	-1.5835
-3.5284 außen	-0.1291
-3.7503 außer	-0.1574
-3.9263 bef	-0.1812
-4.2294 befestigt	-0.1439
-4.2294 befinden	-0.1670
-2.9721 befindet	-0.5231
-3.6253 befindlichen	-0.1851
-3.7503 beginnt	-0.2504
-4.2294 begrenzt	-0.1843
-3.3243 bei	-0.4632
-3.2731 beiden	-0.1673
-4.2294 beim	-0.1836
-4.2294 berei	-0.1775
-2.8849 bereits	-0.3372
-3.6253 berühren	-0.2202
-3.1860 berührt	-0.1733
-3.6253 beschreibe	-0.1200
-3.5284 beschreiben	-0.2821
-3.9263 besser	-0.1851
-3.9263 bestehende	-0.1853
-2.7960 besteht	-0.5792
-4.2294 bestimmen	-0.1439
-4.2294 betrachte	-0.1766
-3.9263 betrachten	-0.1730
-4.2294 betrachtet	-0.1854
-3.2274 bewege	-1.0264
-4.2294 bewegen	-0.1439
-3.7503 beziehungsweise	-0.2860
-3.9263 bilden	-0.1409
-3.3243 bildet	-0.3771
-3.5284 bis	-0.2319
-3.3243 bisschen	-0.2141
-3.7503 blaue	-0.1746
-3.0233 blauen	-0.2035
-3.4492 bleiben	-0.9974
-2.9969 bleibt	-0.5243
-3.3243 bloß	-0.1946
-4.2294 br	-0.1439
-4.2294 brauch	-0.1833
-2.9969 bündig	-0.4301
-4.2294 cool	-0.1439
-3.6253 d	-0.2596
-2.7503 da	-0.3173
-3.7503 dabei	-0.1736
-4.2294 dacht	-0.1833
-3.9263 dadrunter	-0.1402
-4.2294 dadrüber	-0.1846
-3.9263 damit	-0.1835
-3.2274 danach	-0.3061
-3.9263 daneben	-0.1836
-1.9969 dann	-0.2387
-4.2294 darstellt	-0.1439
-4.2294 darunter	-0.1439
-3.3823 darüber	-0.1848
-1.3817 das	-0.4399
-2.0287 dass	-0.7647
-3.2731 davon	-0.2706
-4.2294 dazu	-0.1853
-3.9263 dazwischen	-0.1742
-3.5284 de	-0.2110
-2.0370 dem	-0.2290
-1.8208 den	-0.6539
-4.2294 denen	-0.1847
-3.6253 denn	-0.3075
-1.7417 der	-0.5051
-1.9135 des	-0.8432
-1.6959 die	-0.3927
-3.9263 dies	-0.1715
-2.8294 diese	-0.3116
-2.9721 diesem	-0.2608
-3.1134 diesen	-0.1836
-3.1134 dieser	-0.3951
-2.4639 dieses	-0.9012
-2.6476 direkt	-0.4837
-3.5284 dis	-0.2210
-3.4492 doch	-0.1794
-2.9969 dort	-0.1536
-4.2294 dr	-0.1828
-3.1134 dran	-0.3047
-3.5284 drauf	-0.1839
-3.4492 dreh	-0.2814
-2.2361 drehe	-1.5447
-2.9721 drehen	-0.2828
-4.2294 drehst	-0.1439
-4.2294 dreht	-0.1439
-2.2145 drei	-0.5146
-4.2294 dreie	-0.1843
-3.7503 dreimal	-0.2930
-3.6253 drin	-0.1287
-4.2294 drinne	-0.1824
-3.3823 dritte	-0.4481
-3.3243 dritten	-0.3075
-3.5284 drüber	-0.2714
-3.6253 du	-0.1698
-3.7503 durch	-0.1541
-4.2294 dürfte	-0.1847
-4.2294 ebenfalls	-0.1848
-3.5284 egal	-0.2654
-3.4492 eh	-0.1693
-3.9263 ei	-0.1430
-4.2294 eigentlich	-0.1850
-1.6146 ein	-0.6259
-4.2294 einander	-0.1701
-2.4145 eine	-0.2745
-2.7650 einem	-0.2158
-2.9263 einen	-0.1639
-3.1482 einer	-0.1960
-3.3823 einfach	-0.3149
-4.2294 einfügen	-0.1439
-4.2294 einfügt	-0.1439
-3.7503 eingefügt	-0.1394
-3.5284 eingefügten	-0.2393
-4.2294 eingehangen	-0.1846
-3.9263 eingepasst	-0.3278
-3.7503 eingesetzt	-0.2566
-2.3297 einmal	-1.7695
-2.7222 eins	-0.4799
-4.2294 einzelne	-0.1841
-4.2294 einzelner	-0.1849
-4.2294 einzige	-0.1756
-4.2294 einzigen	-0.1850
-4.2294 einzufügendem	-0.1756
-4.2294 end	-0.1801
-4.2294 endet	-0.1833
-3.7503 entfernt	-0.1786
-3.7503 entspricht	-0.2406
-4.2294 entsteht	-0.1439
-3.7503 er	-0.1704
-4.2294 ergibt	-0.1826
-4.2294 erinnert	-0.1854
-3.6253 erste	-0.2563
-4.2294 ersten	-0.1793
-3.7503 erstmal	-0.1430
-1.4707 es	-0.6916
-4.2294 etwas	-0.1854
-3.9263 extra	-0.3619
-3.6253 falsch	-0.2242
-4.2294 falsche	-0.1439
-4.2294 fangen	-0.1836
-3.3243 fast	-0.4079
-4.2294 fehl'n	-0.1439
-4.2294 fehlen	-0.1853
-4.2294 fehlend	-0.1439
-3.9263 fehlende	-0.1831
-3.7503 fehlenden	-0.1714
-3.7503 fehlt	-0.4095
-4.2294 finde	-0.1813
-3.9263 findet	-0.3278
-4.2294 flaches	-0.1844
-3.6253 folgendermaßen	-0.3549
-2.9263 frei	-0.6401
-4.2294 freie	-0.1852
-3.9263 freien	-0.1844
-4.2294 fällt	-0.1854
-4.2294 förmige	-0.1439
-2.3523 füge	-1.8415
-4.2294 fügt	-0.1439
-4.2294 führt	-0.1439
-3.9263 füllt	-0.3278
-2.7650 fünf	-0.4264
-4.2294 fünfer	-0.1846
-4.2294 fünferl	-0.1801
-4.2294 fünferliegenden	-0.1816
-4.2294 fünfundvierzig	-0.1819
-4.2294 für	-0.1851
-3.9263 g	-0.3655
-2.1899 ganz	-1.0436
-4.2294 ganze	-0.1854
-3.7503 gar	-0.2982
-3.9263 ge	-0.1780
-2.7650 gedreht	-0.7183
-3.9263 gedrehte	-0.1825
-4.2294 gedrehten	-0.1850
-3.7503 gedrehtes	-0.2975
-4.2294 gefallenes	-0.1836
-4.2294 gefüllt	-0.1824
-3.7503 gegeneinander	-0.2987
-4.2294 gegenüber	-0.1801
-3.2731 geht	-0.4531
-4.2294 gehört	-0.1790
-4.2294 gekippte	-0.1844
-3.7503 gekipptes	-0.2979
-3.9263 gelegen	-0.3278
-4.2294 gelegten	-0.1854
-2.3083 genau	-0.3891
-4.2294 genommen	-0.1805
-3.5284 gepackt	-0.8009
-3.3823 gerade	-0.1988
-4.2294 gerader	-0.1854
-4.2294 gerutscht	-0.1824
-3.6253 gesagt	-0.1279
-4.2294 gesamte	-0.1851
-3.9263 gesamten	-0.1845
-4.2294 gesch	-0.1785
-3.6253 geschoben	-0.2198
-3.7503 gesehen	-0.1605
-3.2731 gesetzt	-0.5087
-3.1134 gespiegelt	-1.0525
-3.7503 gespiegelte	-0.1595
-4.2294 gespiegelten	-0.1836
-3.5284 gespiegeltes	-0.3214
-4.2294 gestauchtes	-0.1850
-4.2294 gestrecktes	-0.1850
-4.2294 gesucht	-0.1775
-4.2294 geteilt	-0.1824
-4.2294 geteiltes	-0.1841
-4.2294 gezählt	-0.1790
-2.8124 gibt	-0.5837
-4.2294 glatt	-0.1790
-4.2294 gleich	-0.1854
-4.2294 gleiche	-0.1805
-4.2294 gleichlang	-0.1843
-4.2294 gleichschenklige	-0.1836
-3.9263 gleichschenkliger	-0.3690
-4.2294 graden	-0.1756
-4.2294 grenz	-0.1849
-3.7503 grenzen	-0.1735
-2.8849 grenzt	-0.3291
-4.2294 groß	-0.1701
-3.6253 große	-0.2647
-4.2294 großem	-0.1841
-3.7503 großen	-0.1824
-3.5284 großes	-0.6389
-4.2294 grüne	-0.1756
-3.2731 grünen	-0.4352
-3.9263 guckt	-0.1803
-3.4492 gut	-0.2308
-4.2294 gute	-0.1854
-3.7503 hab	-0.2968
-3.3243 haben	-0.5908
-3.9263 halb	-0.3692
-4.2294 halbe	-0.1846
-3.9263 halbes	-0.3684
-2.8124 halt	-0.2216
-3.9263 ham	-0.1747
-2.6146 hat	-0.4565
-4.2294 hatten	-0.1836
-3.9263 heraus	-0.1410
-4.2294 herum	-0.1439
-3.1134 hin	-0.2761
-4.2294 hinausstehende	-0.1850
-3.3823 hinein	-0.5170
-4.2294 hineinpasst	-0.1439
-4.2294 hineinragt	-0.1798
-4.2294 hingelegt	-0.1439
-4.2294 hinten	-0.1798
-4.2294 hintere	-0.1851
-3.9263 hinteren	-0.1843
-2.7222 hm	-0.3009
-4.2294 hoc	-0.1816
-3.9263 hoch	-0.1852
-3.9263 hori	-0.1794
-2.4420 horizontal	-0.8059
-4.2294 horizontale	-0.1826
-4.2294 horizontalen	-0.1851
-3.4492 horizontaler	-0.5993
-3.3823 hundertachtzig	-0.5205
-3.7503 hä	-0.2574
-4.2294 hängen	-0.1844
-4.2294 hätte	-0.1833
-4.2294 hübsche	-0.1838
-3.6253 hübschen	-0.1803
-4.2294 i	-0.1852
-2.3189 ich	-0.5394
-3.9263 ihm	-0.1665
-2.9969 ihn	-0.2116
-2.6146 im	-0.3278
-4.2294 imaginär	-0.1837
-3.9263 immer	-0.1792
-1.6231 in	-1.2905
-3.9263 innerhalb	-0.3639
-3.7503 ins	-0.1743
-4.2294 insg	-0.1826
-3.7503 insgesamt	-0.1738
-4.2294 interessanten	-0.1854
-4.2294 irgendein	-0.1854
-4.2294 irgendeinen	-0.1840
-4.2294 irgendetwas	-0.1439
-3.9263 irgendwas	-0.1439
-3.6253 is	-0.1760
-2.1629 ist	-0.3311
-2.5031 ja	-0.2693
-4.2294 jedenfalls	-0.1843
-4.2294 jetze	-0.1841
-2.8124 jetzt	-0.3062
-3.5284 jeweils	-0.1753
-3.5284 kann	-0.6794
-4.2294 kaputte	-0.1843
-3.9263 kein	-0.1846
-3.5284 keine	-0.2495
-4.2294 keinen	-0.1840
-4.2294 klebt	-0.1439
-4.2294 klei	-0.1747
-3.2274 kleine	-0.2426
-4.2294 kleinem	-0.1841
-3.9263 kleinen	-0.1852
-3.9263 kleiner	-0.1848
-2.9969 kleines	-0.4270
-4.2294 kom	-0.1854
-4.2294 komm	-0.1439
-3.5284 kommen	-0.1629
-2.6041 kommt	-0.3470
-3.7503 komplett	-0.2986
-4.2294 komplette	-0.1853
-4.2294 komplettiert	-0.1843
-4.2294 korrigieren	-0.1439
-4.2294 kurz	-0.1854
-4.2294 könnten	-0.1705
-3.7503 lange	-0.2974
-4.2294 lassen	-0.1849
-3.9263 leer	-0.1426
-4.2294 leere	-0.1853
-3.7503 leeren	-0.4481
-3.9263 leg	-0.1844
-2.3640 lege	-1.3845
-4.2294 lehnt	-0.1844
-4.2294 letzte	-0.1785
-3.5284 letzten	-0.1789
-4.2294 li	-0.1816
-3.1134 liegen	-0.0642
-3.6253 liegend	-0.2170
-3.4492 liegende	-0.2369
-3.5284 liegendem	-0.6726
-3.3823 liegenden	-0.2188
-3.3243 liegendes	-0.4711
-2.6253 liegt	-0.5049
-3.7503 lin	-0.2959
-2.6146 linke	-0.4582
-2.5031 linken	-0.5327
-4.2294 linker	-0.1854
-4.2294 linkere	-0.1851
-1.8508 links	-0.5672
-4.2294 linksbündig	-0.1790
-3.7503 linksseitig	-0.2504
-4.2294 längen	-0.1849
-3.9263 länger	-0.1437
-3.9263 längere	-0.3691
-4.2294 längeren	-0.1854
-4.2294 lösen	-0.1853
-4.2294 m	-0.1843
-3.9263 ma	-0.3692
-3.6253 mal	-0.2630
-2.6711 man	-0.2394
-3.9263 markiert	-0.1433
-4.2294 markierten	-0.1756
-3.5284 mehr	-0.1323
-4.2294 mehrere	-0.1766
-4.2294 mein	-0.1853
-3.7503 mh	-0.1656
-3.4492 mhm	-0.2464
-4.2294 mich	-0.1847
-4.2294 mir	-0.1854
-2.1939 mit	-0.7758
-4.2294 miteinander	-0.1854
-4.2294 mittelsten	-0.1828
-4.2294 mitten	-0.1750
-2.8849 mittig	-0.2813
-4.2294 mittiger	-0.1852
-4.2294 mittigsten	-0.1844
-3.2731 mittlere	-0.5852
-3.6253 mittleren	-0.2615
-2.6711 muss	-0.4124
-3.6253 möglich	-0.1303
-3.9263 müssen	-0.1416
-4.2294 müsste	-0.1439
-4.2294 müssten	-0.1846
-4.2294 n	-0.1838
-3.4492 na	-0.2219
-1.8025 nach	-1.8684
-4.2294 nachempfunden	-0.1824
-3.7503 neben	-0.2946
-4.2294 neben'nander	-0.1701
-3.0233 nebeneinander	-0.2537
-3.1482 nee	-0.2245
-4.2294 nehm	-0.1670
-2.0630 nehme	-1.6606
-2.8124 nehmen	-0.9609
-4.2294 nehmenden	-0.1838
-3.1482 nein	-0.2571
-4.2294 neun	-0.1801
-2.1168 neunzig	-2.2871
-2.7802 nicht	-0.3135
-3.7503 nichts	-0.1720
-2.2980 nimm	-1.3615
-4.2294 nimmt	-0.1701
-2.4950 noch	-0.4390
-3.6253 nochmal	-0.2628
-2.9263 nur	-0.3408
-4.2294 nähesten	-0.1775
-4.2294 o	-0.1816
-1.9072 oben	-0.3748
-2.5742 obere	-0.5549
-2.7089 oberen	-0.2532
-3.5284 oberhalb	-0.6736
-3.9263 oberste	-0.1734
-3.7503 obersten	-0.1399
-4.2294 och	-0.1854
-2.9052 oder	-0.2345
-3.9263 offen	-0.1406
-3.7503 oh	-0.1800
-3.3823 ohne	-0.2543
-3.0233 okay	-0.4045
-3.9263 pack	-0.1693
-3.6253 packe	-1.0001
-2.9263 packen	-0.4342
-4.2294 packt	-0.1853
-4.2294 passe	-0.1705
-4.2294 passförmig	-0.1826
-4.2294 passgenau	-0.1750
-2.7503 passt	-0.4942
-4.2294 plus	-0.1439
-4.2294 positioniert	-0.1843
-4.2294 pra	-0.1828
-2.9486 praktisch	-0.1464
-4.2294 puzzeln	-0.1850
-3.9263 quatsch	-0.1780
-3.9263 quer	-0.3691
-4.2294 querliegende	-0.1850
-4.2294 r	-0.1439
-4.2294 ragt	-0.1439
-3.4492 ran	-0.2495
-4.2294 rangerückt	-0.1843
-3.9263 rangeschoben	-0.1322
-4.2294 rankommt	-0.1439
-3.5284 raus	-0.1896
-4.2294 raussteht	-0.1439
-3.9263 rech	-0.1363
-3.5284 recht	-0.1665
-2.4792 rechte	-0.5331
-2.3761 rechten	-0.5235
-4.2294 rechtere	-0.1852
-4.2294 rechteste	-0.1846
-1.7741 rechts	-0.5437
-4.2294 rechtsbündig	-0.1439
-3.9263 rechtseitig	-0.1682
-4.2294 rechtsseitig	-0.1439
-4.2294 rechtwinkligen	-0.1852
-4.2294 reicht	-0.1701
-2.9486 rein	-0.5870
-3.7503 reingeschoben	-0.1736
-4.2294 reinlegt	-0.1813
-3.9263 reinpassen	-0.1438
-4.2294 reinpasst	-0.1439
-4.2294 reinragt	-0.1439
-4.2294 reinschieben	-0.1750
-4.2294 reinsetzen	-0.1820
-4.2294 reintun	-0.1439
-4.2294 reintut	-0.1810
-4.2294 relativ	-0.1750
-3.9263 richtig	-0.1439
-4.2294 richtigen	-0.1852
-4.2294 rulupp	-0.1845
-4.2294 s	-0.1853
-4.2294 sagen	-0.1837
-4.2294 sagtest	-0.1854
-4.2294 sch	-0.1838
-4.2294 schaut	-0.1828
-4.2294 schenkliges	-0.1854
-3.6253 schiebe	-0.3524
-4.2294 schieben	-0.1439
-4.2294 schiebt	-0.1845
-4.2294 schießt	-0.1810
-3.9263 schließt	-0.1377
-3.3243 schon	-0.2495
-4.2294 schonmal	-0.1439
-4.2294 schräg	-0.1780
-3.9263 schwer	-0.1439
-4.2294 schwierig	-0.1851
-4.2294 schön	-0.1439
-3.9263 schönen	-0.1837
-4.2294 sehen	-0.1439
-4.2294 sehr	-0.1854
-3.9263 sein	-0.1724
-4.2294 senk	-0.1439
-3.3243 senkrecht	-0.3075
-3.9263 senkrechte	-0.1820
-3.9263 setz	-0.3543
-2.5939 setze	-1.2816
-4.2294 setzen	-0.1836
-4.2294 shit	-0.1439
-2.6476 sich	-0.2648
-2.8849 sie	-0.2029
-4.2294 sieben	-0.1849
-4.2294 siehst	-0.1854
-2.5553 sieht	-0.9903
-2.5939 sind	-0.3678
-4.2294 sitzen	-0.1439
-4.2294 sitzt	-0.1439
-1.8889 so	-0.7492
-3.5284 soll	-0.2809
-4.2294 somit	-0.1837
-3.3243 sondern	-0.2295
-4.2294 sonsten	-0.1844
-3.7503 soweit	-0.1648
-4.2294 sowieso	-0.1852
-3.5284 sozusagen	-0.1349
-4.2294 sp	-0.1838
-3.7503 spieg'le	-0.4360
-2.6592 spiegel	-1.2137
-2.4212 spiegele	-1.3705
-3.3243 spiegeln	-0.1969
-3.7503 sprich	-0.2875
-3.7503 stehen	-0.1270
-3.6253 stehende	-0.2650
-4.2294 stehenden	-0.1756
-3.4492 stehendes	-0.2938
-3.4492 steht	-0.2427
-3.7503 stelle	-0.2834
-4.2294 stört	-0.1841
-3.3823 suche	-0.7449
-3.0513 suchen	-1.3530
-4.2294 tangiert	-0.1439
-4.2294 teilt	-0.1439
-3.9263 tiefer	-0.1694
-4.2294 treffen	-0.1844
-2.2188 um	-1.0123
-4.2294 umge	-0.1747
-3.9263 umgedreht	-0.1322
-3.9263 umgedrehte	-0.3681
-3.9263 umgedrehten	-0.1849
-3.2274 umgedrehtes	-0.3203
-4.2294 umgefallene	-0.1849
-4.2294 umgekehr	-0.1805
-3.9263 umgekehrt	-0.1410
-4.2294 umgekehrte	-0.1844
-3.7503 umgekehrtes	-0.1822
-3.4492 umgekipptes	-0.2956
-4.2294 umgestürztes	-0.1801
-4.2294 umrahmt	-0.1846
-3.9263 umschließt	-0.3278
-3.9263 umschlossen	-0.3682
-4.2294 umwickelt	-0.1853
-1.4602 und	-0.6048
-3.5284 uns	-0.1761
-4.2294 unserer	-0.1816
-1.9285 unten	-0.4139
-3.1134 unter	-0.5749
-3.5284 unter'nander	-0.2654
-2.6476 untere	-0.5645
-3.7503 untereinander	-0.2406
-4.2294 unterem	-0.1846
-2.6833 unteren	-0.3224
-3.5284 unterhalb	-0.6705
-3.5284 unterste	-0.3143
-4.2294 unterstem	-0.1439
-3.3243 untersten	-0.2542
-3.9263 v	-0.1788
-4.2294 verbinden	-0.1439
-4.2294 verdreht	-0.1439
-3.9263 vereint	-0.3278
-4.2294 verkehrt	-0.1854
-4.2294 verkehrtrum	-0.1439
-4.2294 verkürzt	-0.1439
-4.2294 verkürztes	-0.1843
-4.2294 verlängerst	-0.1816
-3.7503 verlängert	-0.2563
-4.2294 vermeintlichen	-0.1846
-4.2294 verschieben	-0.1670
-3.5284 verschoben	-0.2797
-3.6253 versetzt	-0.1752
-4.2294 verstanden	-0.1439
-4.2294 versteh	-0.1854
-4.2294 versteht	-0.1853
-4.2294 versuch	-0.1852
-4.2294 vert	-0.1851
-2.2879 vertikal	-1.0544
-3.6253 vertikale	-0.3649
-4.2294 viel	-0.1833
-4.2294 vielleicht	-0.1851
-2.7222 vier	-0.3921
-4.2294 vierte	-0.1841
-4.2294 vierteiligen	-0.1853
-4.2294 vierter	-0.1852
-4.2294 voll	-0.1701
-4.2294 vollkommen	-0.1790
-3.7503 vollständig	-0.1852
-2.8849 vom	-0.2275
-2.1101 von	-1.0726
-4.2294 vorder	-0.1849
-4.2294 vordere	-0.1851
-4.2294 vorderem	-0.1846
-3.5284 vorderen	-0.3140
-4.2294 vorgegebenen	-0.1853
-4.2294 vorhandene	-0.1852
-3.9263 vorhandenen	-0.1846
-4.2294 vorhin	-0.1670
-3.9263 vorne	-0.3628
-3.9263 vorstellt	-0.1820
-3.9263 w	-0.1838
-4.2294 waag	-0.1439
-2.9721 waagerecht	-0.2459
-3.7503 waagerechte	-0.1691
-4.2294 waagerechten	-0.1851
-4.2294 waagerechter	-0.1852
-4.2294 wahrscheinlich	-0.1838
-4.2294 war	-0.1670
-2.4078 was	-0.4283
-3.9263 we	-0.1847
-4.2294 weder	-0.1747
-4.2294 weg	-0.1747
-4.2294 wei	-0.1852
-3.9263 weil	-0.1845
-3.4492 weit	-0.2733
-3.9263 weiter	-0.1783
-3.9263 weiteren	-0.1756
-4.2294 weiteres	-0.1439
-3.2274 weitesten	-0.2933
-3.5284 weiß	-0.3134
-3.7503 weiße	-0.2948
-3.3823 weißen	-0.2761
-4.2294 weißer	-0.1851
-4.2294 weißes	-0.1846
-3.7503 welche	-0.1833
-3.2731 welches	-0.1481
-3.9263 wenig	-0.1834
-2.7960 wenn	-0.9346
-2.7089 werden	-0.9321
-3.9263 wi	-0.1786
-3.7503 wichtig	-0.1361
-1.9441 wie	-1.0009
-3.1134 wieder	-0.2180
-4.2294 winklige	-0.1756
-2.3700 wir	-0.2896
-2.5939 wird	-0.3260
-3.9263 wirklich	-0.1788
-3.1482 wo	-0.1130
-3.7503 wobei	-0.2866
-3.9263 wovon	-0.1809
-4.2294 wurscht	-0.1852
-4.2294 wäre	-0.1766
-4.2294 würd	-0.1833
-3.7503 würde	-0.1429
-4.2294 würden	-0.1840
-3.3243 zeigen	-0.2048
-3.2274 zeigt	-0.2529
-4.2294 zieht	-0.1843
-3.7503 ziemlich	-0.1847
-3.0812 zu	-0.2136
-3.9263 zuerst	-0.1828
-3.9263 zum	-0.1843
-4.2294 zuordnen	-0.1439
-3.7503 zur	-0.1799
-4.2294 zurück	-0.1829
-3.3823 zusammentrifft	-0.6258
-3.9263 zusätzlich	-0.1436
-3.9263 zusätzlichen	-0.1755
-3.5284 zusätzliches	-0.8395
-2.8294 zwar	-0.4289
-2.2879 zwei	-0.4679
-3.0233 zweimal	-0.4852
-2.9486 zweite	-0.8036
-3.9263 zweiteilen	-0.1694
-2.9052 zweiten	-0.4134
-3.9263 zweiter	-0.3690
-3.9263 zweithöchsten	-0.1406
-2.8656 zwischen	-0.5422
-4.2294 zählt	-0.1439
-4.2294 Öffnung	-0.1847
-3.7503 Übergang	-0.2950
-2.0601 äh	-0.0936
-1.9135 ähm	-0.2633
-3.9263 äußere	-0.1423
-4.2294 üb	-0.1849
-2.8849 über	-0.7512
-4.2294 über'nander	-0.1793
-3.3243 übereinander	-0.1910
-4.2294 überhalb	-0.1775
-3.9263 übrig	-0.1839

\2-grams:
-0.2421 $B </s> 2.8996
-0.4396 $C </s> 2.0036
-1.6351 $C also -0.0558
-1.6351 $C grenzt -0.0648
-1.6351 $C in 0.0252
-1.6351 $C oder -0.0628
-1.6351 $C packen -0.0002
-1.6351 $C praktisch -0.0968
-1.6351 $C so -0.1026
-1.6351 $C wenn 0.4234
-1.6351 $C ähm -0.0958
-0.4590 $C's ähm -0.1024
-0.7601 $F </s> 3.0824
-0.7601 $F allerdings -0.0654
-0.7192 $I </s> 2.8996
-1.2372 $I oder -0.0976
-0.7192 $I ohne -0.2101
-1.2372 $I wird -0.0604
-0.4590 $K </s> 3.0824
-0.1639 $L </s> 1.5060
-2.3041 $L also -0.0893
-2.3041 $L aussieht -0.0526
-2.3041 $L entspricht 0.1040
-2.3041 $L genau -0.0988
-1.7861 $L in -0.0991
-2.3041 $L ist -0.1006
-2.3041 $L liegt -0.0925
-1.5578 $L mit -0.0413
-1.7861 $L muss -0.0864
-2.3041 $L nee -0.0613
-2.3041 $L nein -0.0613
-1.5578 $L rechts -0.0921
-2.3041 $L sondern 0.0156
-2.3041 $L was -0.1026
-2.3041 $L wenn 0.4234
-2.3041 $L wie -0.1040
-0.4590 $M </s> 3.0824
-0.4590 $N </s> 3.0824
-0.4590 $O aussieht -0.0526
-0.1326 $S </s> 2.0411
-1.7378 $S aussieht -0.0526
-1.7378 $S das -0.0999
-1.2198 $S muss -0.0324
-1.7378 $S oder -0.0976
-0.2061 $T </s> 1.7401
-2.1123 $T allerdings -0.0654
-2.1123 $T aussieht -0.0526
-2.1123 $T besteht -0.0992
-2.1123 $T bleibt -0.0763
-2.1123 $T bündig -0.0959
-2.1123 $T der -0.1021
-2.1123 $T liegend -0.0654
-1.5943 $T mit -0.0355
-1.5943 $T muss -0.0964
-2.1123 $T und -0.1046
-2.1123 $T unten -0.0826
-2.1123 $T verkehrt 0.0806
-2.1123 $T was -0.1026
-2.1123 $T wie 0.2977
-2.1123 $T wo -0.0921
-0.4590 $T's an -0.0532
-0.1597 $U </s> 1.7559
-2.0501 $U Form -0.0654
-2.0501 $U angrenzen -0.0789
-2.0501 $U aussieht -0.0526
-2.0501 $U beziehungsweise -0.0514
-2.0501 $U drin -0.0654
-2.0501 $U förmige 0.0806
-2.0501 $U im -0.0925
-2.0501 $U liegend 0.0417
-2.0501 $U muss -0.0908
-2.0501 $U rankommt 0.0806
-2.0501 $U und -0.0630
-2.0501 $U ähm -0.0219
-0.0902 $W </s> 2.0733
-1.6632 $W Teil -0.1026
-1.6632 $W dass -0.1039
-1.6632 $W direkt 0.0770
-0.2374 $Z </s> 2.1458
-1.2198 $Z an -0.0036
-1.7378 $Z entspricht -0.0514
-1.7378 $Z und -0.0742
-1.7378 $Z verlängert 0.1040
-1.7378 $Z welches -0.0877
-1.7378 $Z wieder -0.0931
-1.7378 $Z wobei 0.1040
-0.9362 $Z's </s> 3.0824
-0.9362 $Z's am -0.0955
-0.9362 $Z's an -0.0532
-0.7601 'm Boden 0.2279
-0.7601 'm Kopf -0.0904
-1.5382 'n $L 0.3978
-1.5382 'n $S 0.4750
-1.5382 'n $U 0.4071
-1.5382 'n Kreuz -0.1002
-1.5382 'n Kästchen -0.0879
-1.5382 'n Quadrat -0.0675
-1.5382 'n Würfel -0.0845
-1.0202 'n gekipptes 0.1942
-1.5382 'n so -0.0783
-1.5382 'n umgekehr 0.0806
-1.5382 'n umgekehrtes -0.0514
-0.9362 'ne Brücke -0.0827
-0.4182 'ne Treppe 0.5707
-1.4133 's doch -0.0789
-1.4133 's gar -0.0514
-0.6669 's hat -0.0363
-1.4133 's is -0.0654
-1.4133 's nicht -0.0328
-1.4133 's nochmal -0.0654
-1.4133 's wie -0.1040
-0.0003 </s> <s> 0.0857
-2.6296 <s> $L 0.2551
-3.6466 <s> $T -0.1015
-3.6466 <s> $U -0.1009
-3.6466 <s> 'n -0.0921
-2.9002 <s> 's -0.3864
-3.6466 <s> Block -0.0979
-3.6466 <s> Blöcken -0.0745
-2.5560 <s> Brücke 0.0719
-3.6466 <s> Druckbuchstaben -0.0219
-3.6466 <s> Gott -0.0514
-3.6466 <s> Kreuz 0.1584
-3.6466 <s> Krücke 0.2644
-3.1286 <s> Kästchen -0.1730
-3.6466 <s> Nummer -0.0219
-3.6466 <s> Ohrenkästchen 0.0806
-3.6466 <s> Podest 0.0806
-3.6466 <s> Quadrat -0.0675
-3.1286 <s> Rechteck -0.0711
-3.6466 <s> Stufenabsatz 0.0806
-2.6296 <s> Teil -0.1316
-3.6466 <s> Trepp 0.0806
-3.6466 <s> Treppe 0.4787
-3.6466 <s> Unterkante 0.4522
-2.5560 <s> Würfel 0.1735
-3.1286 <s> aber -0.0593
-2.6296 <s> ach 0.0040
-2.9002 <s> ah 0.0806
-3.6466 <s> alle -0.0514
-1.4022 <s> also 0.0517
-3.6466 <s> am -0.0890
-2.5560 <s> an -0.0048
-3.6466 <s> angeordnet 0.0646
-3.6466 <s> auch 0.0131
-2.9002 <s> auf 0.1939
-3.6466 <s> aus -0.0893
-3.6466 <s> auslaufend 0.0806
-3.6466 <s> außer -0.0514
-3.6466 <s> bei 0.2279
-3.6466 <s> besser -0.0219
-2.5560 <s> besteht 0.0940
-3.6466 <s> betrachte 0.0806
-3.6466 <s> bis -0.0735
-3.6466 <s> bleibt -0.0763
-3.6466 <s> cool 0.0806
-2.4510 <s> da 0.0499
-2.6296 <s> danach -0.0537
-1.8653 <s> dann -0.4282
-3.6466 <s> darunter 0.0806
-2.9002 <s> darüber 0.0277
-1.1383 <s> das -0.1707
-2.6296 <s> den -0.2838
-2.5560 <s> der -0.0954
-2.5560 <s> die -0.1439
-3.6466 <s> diese -0.0987
-2.9002 <s> dieses 0.0676
-3.6466 <s> dis -0.0735
-3.6466 <s> dran 0.1009
-2.9002 <s> dreh -0.0936
-1.3882 <s> drehe 0.3208
-2.5560 <s> drehen 0.0084
-1.8865 <s> drei 0.1035
-3.6466 <s> dreie 0.0806
-3.6466 <s> ei -0.0219
-1.4973 <s> ein -0.0148
-2.2333 <s> eine -0.0553
-2.9002 <s> einen -0.0816
-1.6193 <s> es -0.4797
-3.6466 <s> falsch -0.0654
-3.6466 <s> fehlenden -0.0514
-2.2333 <s> füge 0.2218
-2.6296 <s> fünf -0.0708
-2.5560 <s> ganz 0.0221
-2.2333 <s> genau -0.4013
-3.6466 <s> gibt 0.1640
-3.6466 <s> graden 0.0806
-3.1286 <s> gut -0.0514
-3.6466 <s> gute 0.0806
-3.6466 <s> halt -0.0853
-1.8258 <s> hm -0.0171
-3.6466 <s> hä 0.1040
-1.4632 <s> ich -0.4815
-2.5560 <s> in 0.3315
-2.9002 <s> ist -0.0619
-2.0114 <s> ja -0.4932
-3.6466 <s> jedenfalls 0.0806
-2.1083 <s> jetzt -0.2774
-3.6466 <s> kom 0.0806
-3.6466 <s> kommen -0.0735
-3.6466 <s> kommt -0.0444
-3.6466 <s> leg -0.0219
-2.0414 <s> lege 0.3205
-3.1286 <s> letzten -0.0398
-3.6466 <s> liegend -0.0654
-2.9002 <s> liegendes -0.1590
-3.6466 <s> linken -0.0953
-2.4510 <s> links 0.0766
-3.6466 <s> linksseitig -0.0514
-3.6466 <s> mh -0.0514
-2.6296 <s> mhm 0.0649
-3.6466 <s> mir 0.0806
-2.5560 <s> mit 0.0367
-3.1286 <s> mittig -0.0393
-2.2844 <s> muss 0.0174
-3.6466 <s> müssten 0.0806
-3.6466 <s> na -0.0789
-2.4968 <s> nach 1.4696
-2.5560 <s> nee 0.0784
-1.1383 <s> nehme -0.1705
-3.1286 <s> nehmen -0.0931
-3.1286 <s> nein -0.0789
-3.1286 <s> neunzig 1.8229
-1.3125 <s> nimm 0.0845
-3.1286 <s> noch -0.0927
-3.1286 <s> oben -0.0256
-3.6466 <s> oberen -0.1002
-3.6466 <s> och 0.0806
-3.6466 <s> oder -0.0628
-3.1286 <s> oh 0.0096
-2.2844 <s> okay 0.0293
-3.6466 <s> praktisch -0.0778
-3.6466 <s> rech -0.0219
-2.4968 <s> rechts -0.1296
-3.6466 <s> rechtsseitig 0.0806
-3.6466 <s> sch 0.0806
-2.9002 <s> senkrecht 0.1384
-3.1286 <s> setze 0.7437
-2.0114 <s> sieht -0.5460
-2.9002 <s> sind -0.1265
-1.7725 <s> so -0.4606
-3.6466 <s> sondern -0.0855
-3.6466 <s> sozusagen -0.0735
-3.6466 <s> sp 0.0806
-3.1286 <s> spieg'le 0.1633
-1.8653 <s> spiegel -0.4214
-1.6312 <s> spiegele 0.1668
-3.6466 <s> spiegeln -0.0855
-2.9002 <s> sprich 0.0812
-3.6466 <s> steht 0.0646
-3.6466 <s> um -0.1033
-3.6466 <s> umgedreht -0.0219
-3.6466 <s> umgedrehtes -0.0520
-3.6466 <s> umgekehrt -0.0219
-3.6466 <s> umgestürztes 0.0806
-0.7104 <s> und -0.2333
-2.5560 <s> unten -0.0562
-2.9002 <s> unter 0.2284
-3.6466 <s> unter'nander 0.1081
-3.6466 <s> untereinander 0.1040
-3.6466 <s> unterhalb 0.4522
-3.6466 <s> verkürztes 0.0806
-3.6466 <s> versteht 0.0806
-3.6466 <s> vertikal -0.1031
-3.6466 <s> vielleicht 0.0806
-2.4510 <s> vier 0.0638
-3.6466 <s> vom -0.0979
-2.9002 <s> von 0.0680
-2.9002 <s> waagerecht 0.0113
-3.6466 <s> was -0.0269
-3.6466 <s> weil -0.0219
-2.4968 <s> wenn 0.4145
-2.1875 <s> wie 0.2812
-3.6466 <s> wieder -0.0931
-3.6466 <s> wir -0.1027
-3.1286 <s> wird -0.2432
-3.6466 <s> ziemlich -0.0514
-3.6466 <s> zu -0.0939
-3.6466 <s> zuerst -0.0219
-3.6466 <s> zum -0.0219
-2.4510 <s> zwei -0.1775
-3.6466 <s> zweite 0.0061
-3.1286 <s> zwischen 0.0213
-1.7896 <s> äh -0.1223
-1.2190 <s> ähm -0.3634
-2.6296 <s> über 0.0469
-3.6466 <s> übrig -0.0219
-0.4590 Abschluss der -0.0694
-0.4590 Abschnitt des -0.0810
-1.3041 Abstand bleibt 0.1962
-1.3041 Abstand das -0.0999
-1.3041 Abstand ein -0.0810
-0.7861 Abstand hat 0.2174
-1.3041 Abstand nach -0.0379
-1.3041 Abstand zu -0.0939
-0.2421 Ahnung wie -0.1014
-1.3621 Art $T 0.3179
-0.2124 Art und -0.6306
-0.4590 Aus ein -0.1028
-0.2421 Ausbeulung nach 0.3805
-0.4590 Ausbuchtung nach 0.0820
-0.4590 Ausläufer mit 0.0594
-0.6158 Ausrichtung hat -0.1216
-1.3621 Ausrichtung nach 0.0820
-0.6158 Ausrichtung und -0.0939
-1.3621 Ausrichtung zeigt -0.0113
-0.4590 Auswahlfeld und -0.0913
-0.4590 Auswahlfeldes als -0.0877
-0.4590 Auswuchtung an -0.0532
-0.7601 Außenkante ein -0.0898
-0.7601 Außenkante mittig -0.0816
-0.7541 Balken </s> 2.6956
-1.5004 Balken an -0.0816
-0.9824 Balken aus -0.0878
-1.5004 Balken der -0.1043
-1.5004 Balken länger -0.0219
-1.5004 Balken oben -0.1041
-0.9824 Balken und -0.2850
-0.4590 Basis ein -0.0990
-1.9642 Bauch </s> 3.0824
-1.9642 Bauch also -0.0893
-1.9642 Bauch auch -0.0964
-1.9642 Bauch beginnt 0.1040
-0.1829 Bauch des -0.4103
-1.9642 Bauch mit 0.0594
-1.9642 Bauch rein 0.2931
-1.9642 Bauch so 0.1749
-1.4462 Bauch und -0.0952
-1.9642 Bauch von -0.0368
-1.9642 Bauch ähm -0.1041
-0.4590 Bauchdecke entfernt -0.0514
-0.4590 Bauchlinie des -0.0005
-0.7601 Bauchraumes bündig -0.0523
-0.7601 Bauchraumes ein -0.0240
-0.4590 Baukästen übereinander 0.0156
-1.4182 Baustein </s> 2.8996
-1.9362 Baustein also -0.0893
-1.4182 Baustein an 0.0031
-1.9362 Baustein br 0.0806
-1.9362 Baustein dazwischen -0.0219
-1.9362 Baustein den -0.1029
-0.5229 Baustein der -0.3090
-1.9362 Baustein drin -0.0654
-1.4182 Baustein frei -0.0895
-1.9362 Baustein gesucht 0.0806
-1.9362 Baustein hat -0.0131
-1.9362 Baustein klebt 0.0806
-1.9362 Baustein links -0.0982
-1.9362 Baustein noch -0.1020
-1.9362 Baustein oben -0.0474
-1.9362 Baustein praktisch -0.0581
-1.9362 Baustein rechts 0.0136
-1.9362 Baustein um -0.1033
-1.9362 Baustein von -0.0368
-1.0137 Bausteine </s> 2.6956
-1.0137 Bausteine an -0.0799
-1.7601 Bausteine angrenzen 0.0646
-1.7601 Bausteine angrenzt 0.2994
-1.7601 Bausteine anliegt 0.4303
-0.7431 Bausteine die -0.1843
-1.7601 Bausteine müssen -0.0219
-1.2421 Bausteine nach 0.1897
-1.7601 Bausteine oder -0.0976
-1.0137 Bausteine und -0.0987
-1.7601 Bausteinen </s> 3.0824
-1.7601 Bausteinen abschließt 1.1739
-1.7601 Bausteinen anliegt -0.0985
-1.7601 Bausteinen auf 0.1702
-1.0137 Bausteinen besteht -0.1336
-1.0137 Bausteinen dann -0.0903
-1.7601 Bausteinen grenzt -0.0108
-1.7601 Bausteinen in 0.0108
-1.7601 Bausteinen ist -0.1035
-1.7601 Bausteinen nehmen 0.7081
-1.7601 Bausteinen oben -0.0682
-1.7601 Bausteinen passt 0.1078
-1.7601 Bausteinen suchen 1.0713
-1.2421 Bausteinen und -0.0956
-1.7601 Bausteinen weil -0.0219
-0.7601 Bausteines unten -0.0826
-0.7601 Bausteines unterhalb -0.0735
-0.4590 Bausteinkomplex anliegt 0.4303
-1.6052 Bein </s> 3.0824
-1.6052 Bein ausgefüllt 0.2279
-0.4554 Bein des 0.0346
-1.6052 Bein genau -0.0988
-1.0872 Bein oder -0.2456
-1.6052 Bein ragt 0.0806
-1.6052 Bein von -0.0368
-0.7601 Beine des -0.0788
-0.7601 Beine ein -0.0898
-0.7601 Beinen da -0.0273
-0.7601 Beinen hin -0.0931
-0.4590 Beines abschließt 1.1739
-0.4590 Berg </s> 3.0824
-0.7601 Bild angucken -0.0219
-0.7601 Bild ziemlich -0.0514
-0.4590 Bildes </s> 3.0824
-0.4590 Bio </s> 3.0824
-0.6517 Block </s> 2.5530
-1.8015 Block Abstand -0.0827
-1.8015 Block an -0.0532
-1.8015 Block anschließend -0.0219
-1.8015 Block dran 0.1009
-1.8015 Block in 0.0108
-1.2835 Block ist -0.0962
-1.8015 Block liegt -0.1011
-1.0551 Block raus -0.0638
-1.8015 Block raussteht 0.0806
-1.8015 Block steht -0.0789
-1.8015 Block und -0.0951
-1.8015 Block unten -0.0826
-0.1666 Blöcke </s> 2.0036
-1.3621 Blöcke nach -0.0263
-1.3621 Blöcke und -0.1012
-0.1165 Blöcken </s> 2.0733
-1.1715 Blöcken auf -0.0127
-1.1715 Blöcken und -0.0980
-0.2715 Boden des -0.1465
-1.3621 Boden ganz -0.0264
-1.3621 Boden gesetzt 0.0005
-1.3621 Boden keine 0.0082
-0.5578 Brücke </s> 2.6956
-1.3041 Brücke liegend 0.0417
-1.3041 Brücke umgekehrt -0.0219
-1.3041 Brücke verkehrtrum 0.0806
-1.3041 Brücke ähm -0.1024
-0.4590 Buchstabe $L 0.3978
-0.1898 Croissant </s> 2.6956
-0.7601 Diagonale geteiltes 0.0806
-0.7601 Diagonale wie 0.2977
-0.4590 Ding was 0.0137
-0.4590 Dreieck darstellt 0.0806
-0.4590 Dreier Riegel -0.0219
-0.2421 Dreierriegel des -0.2638
-0.4590 Dreiers und -0.1017
-0.4590 Dromedar ein -0.0843
-1.5382 Dromedars </s> 3.0824
-1.5382 Dromedars ausfüllt 0.1040
-0.3427 Dromedars ein -1.1028
-1.5382 Dromedars eingefügt -0.0514
-1.5382 Dromedars oben -0.0934
-1.5382 Dromedars und -0.1017
-1.5382 Dromedars zwischen -0.0306
-0.4590 Dromedarzielobjektes ein -0.0240
-0.7601 Druckbuchstaben $L 0.3978
-0.7601 Druckbuchstaben </s> 3.0824
-0.4590 Ec rechten -0.0821
-0.6072 Ecke </s> 1.8650
-2.3885 Ecke abgebissen 0.0806
-1.6421 Ecke an 0.0636
-2.3885 Ecke befindet 0.2708
-2.3885 Ecke beginnt 0.1040
-2.3885 Ecke bündig -0.0523
-2.3885 Ecke das -0.0967
-2.3885 Ecke der -0.0785
-0.6507 Ecke des -0.3661
-0.9752 Ecke ein -0.8734
-2.3885 Ecke einen -0.0972
-1.8705 Ecke fehlt 0.1633
-2.3885 Ecke genau -0.0608
-1.8705 Ecke gepackt 0.5547
-2.3885 Ecke halt -0.0990
-1.8705 Ecke hinein 0.0277
-2.3885 Ecke ist 0.0657
-2.3885 Ecke kommt -0.1012
-2.3885 Ecke liegt 0.3319
-1.8705 Ecke mit 0.1504
-2.3885 Ecke packt 0.0806
-2.3885 Ecke passt 0.1078
-1.8705 Ecke rein 0.1103
-2.3885 Ecke so 0.1749
-2.3885 Ecke soweit -0.0514
-2.3885 Ecke und -0.0913
-2.3885 Ecke unterhalb 0.4522
-1.6421 Ecke vom -0.0837
-2.3885 Ecke von -0.1037
-2.3885 Ecke was -0.0973
-0.4590 Ele ach -0.0827
-1.1155 Elefanten </s> 2.5530
-2.2652 Elefanten abschließt 1.1739
-1.2482 Elefanten an 0.0153
-2.2652 Elefanten anliegen -0.0514
-2.2652 Elefanten anschließt 0.3920
-2.2652 Elefanten auf 0.1702
-2.2652 Elefanten befindet -0.0968
-1.7472 Elefanten dass -0.0915
-0.7270 Elefanten ein -0.4169
-2.2652 Elefanten einfügen 0.0806
-2.2652 Elefanten füllt 0.2644
-2.2652 Elefanten ganz -0.0119
-1.5188 Elefanten gepackt 0.3507
-2.2652 Elefanten halt -0.0990
-2.2652 Elefanten hineinragt 0.0806
-2.2652 Elefanten in 0.0252
-2.2652 Elefanten komplett 0.1040
-1.5188 Elefanten liegendem 0.4646
-2.2652 Elefanten liegenden -0.0272
-2.2652 Elefanten praktisch -0.0778
-2.2652 Elefanten rechte -0.0379
-2.2652 Elefanten rechts -0.0514
-2.2652 Elefanten rein 0.2931
-2.2652 Elefanten reinragt 0.0806
-0.8062 Elefanten so -0.7814
-2.2652 Elefanten und -0.0860
-2.2652 Elefanten unten -0.0468
-2.2652 Elefanten zu -0.0678
-2.2652 Elefanten zusammentrifft 0.2105
-2.2652 Elefanten ähm -0.0932
-0.4590 Elefantenbauches und -0.1034
-0.4590 Elefantenfigur im -0.1011
-0.4590 Elefantenfuß gesetzt 0.0005
-1.0611 Elefantens aber -0.0946
-1.0611 Elefantens auf -0.0537
-1.0611 Elefantens gesetzt 0.0005
-1.0611 Elefantens in 0.0180
-1.1580 Elefantenzielfigur ein -0.0843
-1.1580 Elefantenzielfigur links -0.0948
-1.1580 Elefantenzielfigur rechts -0.0497
-0.6400 Elefantenzielfigur so -0.2611
-0.4590 Element direkt -0.1008
-1.4133 Ende der -0.1043
-0.2177 Ende des 0.0387
-1.4133 Ende nach -0.0379
-1.4133 Ende oben -0.0934
-0.4590 Enden jeweils -0.0735
-0.4590 Exoten von -0.1037
-0.4590 F über -0.0269
-0.7601 Fantasie eine -0.0668
-0.7601 Fantasie wie -0.0442
-1.1580 Feld an -0.0532
-1.1580 Feld direkt -0.1008
-0.4116 Feld frei -0.2698
-1.0611 Felder frei 0.0334
-1.0611 Felder nach 0.0820
-1.0611 Felder von -0.0483
-1.0611 Felder zur -0.0514
-0.7601 Feldes an -0.0552
-0.7601 Feldes links -0.0649
-0.4590 Fi der -0.1043
-0.4590 Figu mit -0.0970
-0.8519 Figur </s> 2.2330
-1.7472 Figur an -0.0514
-2.2652 Figur auch -0.0964
-1.7472 Figur auf -0.0127
-2.2652 Figur befindet 0.2708
-2.2652 Figur befindlichen -0.0654
-0.7648 Figur die -0.1971
-1.7472 Figur ein -0.0822
-1.7472 Figur ganz 0.0634
-2.2652 Figur gar 0.1040
-2.2652 Figur gesetzt -0.0877
-2.2652 Figur grenzt -0.0816
-1.7472 Figur hin 0.0530
-1.5188 Figur in 0.0768
-2.2652 Figur ist -0.1035
-2.2652 Figur keinen 0.0806
-2.2652 Figur links -0.1027
-2.2652 Figur mit 0.0594
-2.2652 Figur nehmen 0.7081
-2.2652 Figur oben -0.0682
-2.2652 Figur oder -0.0805
-2.2652 Figur rechts -0.0514
-1.7472 Figur rein 0.4136
-1.7472 Figur sind 0.0064
-1.1746 Figur so 0.1692
-1.7472 Figur und -0.2688
-2.2652 Figur unten -0.0468
-2.2652 Figur wo -0.0921
-2.2652 Figur zweite 0.0061
-2.2652 Figur zweiteilen -0.0219
-2.2652 Figur äh -0.0885
-2.2652 Figur ähm -0.1024
-0.9362 Figuren die -0.1002
-0.9362 Figuren oben -0.1025
-0.9362 Figuren untereinander -0.0514
-0.4590 Fläch ein -0.1010
-0.4590 Flächen frei 0.0334
-1.0611 Form </s> 3.0824
-1.0611 Form genau -0.0784
-1.0611 Form hinein -0.0827
-1.0611 Form rechts -0.0514
-0.4590 Frage kann 0.4522
-0.7601 Freiraum des -0.0005
-0.7601 Freiraum ist 0.0657
-0.4590 Fu in 0.0180
-1.4596 Fuß </s> 2.8996
-1.9776 Fuß Hinterfuß -0.0514
-1.9776 Fuß bis 0.0082
-1.4596 Fuß bündig -0.2574
-0.3424 Fuß des -0.2162
-1.9776 Fuß ein -0.0810
-1.4596 Fuß ganz 0.0518
-1.9776 Fuß in 0.0180
-1.9776 Fuß nach 0.0648
-1.9776 Fuß packen -0.0972
-1.9776 Fuß passt -0.0999
-1.9776 Fuß rechtseitig -0.0219
-1.9776 Fuß und -0.1040
-1.9776 Fuß unten -0.0662
-1.4596 Fuß von 0.0440
-0.4590 Fußboden </s> 3.0824
-0.7601 Fußes </s> 3.0824
-0.7601 Fußes anliegen 0.1040
-0.7601 Gebilde das -0.0667
-0.7601 Gebilde den -0.1042
-0.2202 Gerade </s> 2.3698
-1.2372 Gerade aus -0.0836
-1.2372 Gerade besteht -0.0424
-0.7601 Geraden besteht -0.0860
-0.7601 Geraden liegt 0.3319
-1.8219 Gnubbel </s> 2.8996
-1.5935 Gnubbel an -0.1483
-2.3399 Gnubbel angrenzen -0.0789
-2.3399 Gnubbel anliegen 0.1040
-1.8219 Gnubbel dann -0.1010
-1.8219 Gnubbel das -0.1039
-1.8219 Gnubbel der -0.1027
-0.8394 Gnubbel die -0.1773
-2.3399 Gnubbel direkt -0.0915
-2.3399 Gnubbel genau -0.0608
-1.8219 Gnubbel grenzen 0.0096
-1.5935 Gnubbel grenzt 0.0491
-2.3399 Gnubbel haben -0.0855
-1.5935 Gnubbel horizontal -0.0975
-2.3399 Gnubbel in 0.0108
-2.3399 Gnubbel kommen -0.0735
-1.8219 Gnubbel kommt -0.2757
-2.3399 Gnubbel links -0.1013
-2.3399 Gnubbel man -0.1006
-1.5935 Gnubbel nach 0.0767
-1.3229 Gnubbel nebeneinander -0.0654
-2.3399 Gnubbel noch -0.0890
-1.5935 Gnubbel oben -0.0669
-2.3399 Gnubbel ran -0.0789
-2.3399 Gnubbel rechts -0.0514
-2.3399 Gnubbel sein -0.0219
-2.3399 Gnubbel so 0.1749
-1.3229 Gnubbel und -0.3239
-1.8219 Gnubbel unten -0.0799
-2.3399 Gnubbel vom -0.0979
-1.3229 Gnubbel von 0.0612
-1.2492 Gnubbel waagerecht -0.1526
-2.3399 Gnubbel wo -0.0921
-2.3399 Gnubbel zeigt -0.0895
-2.3399 Gnubbel ähm -0.0932
-2.3399 Gnubbel über -0.0979
-1.0611 Gnubbeln an -0.0014
-1.0611 Gnubbeln den -0.0675
-1.0611 Gnubbeln grenzt -0.0979
-1.0611 Gnubbeln und -0.1046
-1.0611 Gnubbels an -0.0014
-1.0611 Gnubbels direkt -0.0915
-1.0611 Gnubbels nach 0.0820
-1.0611 Gnubbels und -0.1008
-0.4590 Golfschläger </s> 3.0824
-0.9362 Gott </s> 3.0824
-0.9362 Gott drei -0.1034
-0.9362 Gott sind -0.0853
-1.3970 Grad </s> 2.0036
-2.0746 Grad Winkel 0.2187
-1.5020 Grad gedreht 0.3848
-1.0196 Grad links -0.6886
-0.1468 Grad nach -1.3017
-2.5926 Grad nein -0.0283
-2.5926 Grad oder -0.0976
-1.1335 Grad rechts -0.6300
-2.5926 Grad und -0.0742
-1.5004 Hals also -0.1000
-1.5004 Hals ausfüllt 0.1040
-1.5004 Hals ausgefüllt 0.2279
-0.4098 Hals des -0.3949
-1.5004 Hals hinein 0.2105
-1.5004 Hals und -0.0989
-1.5004 Hals von -0.0703
-0.9362 Halses </s> 3.0824
-0.9362 Halses ein -0.0240
-0.9362 Halses mh -0.0514
-0.4590 Han Rand -0.0955
-0.7601 Haufen in 0.0108
-0.7601 Haufen und -0.0959
-0.4182 Hinterbein des 0.0329
-0.9362 Hinterbein ein -0.0240
-0.4182 Hinterfuß des 0.0005
-0.9362 Hinterfuß oder -0.0805
-0.9362 Hintern bündig -0.0959
-0.4182 Hintern des -0.1833
-1.4133 Hinterteil </s> 3.0824
-0.2636 Hinterteil des -0.1717
-1.4133 Hinterteil oben -0.1041
-0.4590 Hobel nachempfunden 0.0806
-0.2421 Hockeyschläger </s> 2.8996
-1.1580 Hälfte betrachtet 0.0806
-1.1580 Hälfte bleibt -0.0964
-1.1580 Hälfte fehlt 0.3461
-1.1580 Hälfte ist -0.1035
-1.1580 Hälfte und -0.0742
-0.7601 Hälften geteilt 0.0806
-0.7601 Hälften teilt 0.0806
-1.3621 Höcker ausfüllen 0.0806
-0.2715 Höcker des -0.4168
-1.3621 Höcker genau -0.1030
-1.3621 Höcker praktisch -0.0968
-0.4590 Höckers des -0.0788
-0.4590 Höckerteil des -0.0005
-0.4590 Höhe des -0.1007
-1.4133 Kamel </s> 3.0824
-1.4133 Kamel auf -0.0537
-1.4133 Kamel das -0.1026
-0.6669 Kamel dass -0.0122
-1.4133 Kamel gesetzt 0.1756
-1.4133 Kamel liegendem 0.4522
-1.4133 Kamel liegenden -0.0272
-0.9528 Kamels </s> 2.5530
-2.1025 Kamels abschließt 1.1739
-2.1025 Kamels allerdings -0.0654
-2.1025 Kamels an -0.0816
-2.1025 Kamels anliegt 0.4303
-2.1025 Kamels auf 0.1702
-2.1025 Kamels aufhört 0.0806
-2.1025 Kamels das -0.0999
-2.1025 Kamels durch -0.0514
-1.0119 Kamels ein -0.2993
-2.1025 Kamels eingefügt -0.0514
-2.1025 Kamels eingepasst 0.2644
-1.5845 Kamels ganz 0.0693
-2.1025 Kamels gesetzt 0.1756
-2.1025 Kamels in 0.0108
-1.5845 Kamels liegt 0.3420
-2.1025 Kamels nur -0.0606
-1.5845 Kamels oben -0.0633
-2.1025 Kamels oder -0.0805
-0.6435 Kamels so -0.7814
-2.1025 Kamels und -0.1008
-2.1025 Kamels wie -0.0670
-1.4133 Kante an -0.0552
-1.4133 Kante aufliegt 0.2644
-1.4133 Kante der -0.1043
-0.8953 Kante des -0.0620
-1.4133 Kante in -0.0459
-1.4133 Kante nicht -0.0328
-1.4133 Kante oder -0.0805
-1.4133 Kante ran -0.0128
-0.4590 Kasten umschließt 0.2644
-0.4590 Kis oberen -0.1002
-0.4590 Kiste sind -0.0853
-0.7601 Kisten auch -0.0964
-0.7601 Kisten übereinander -0.0855
-0.4590 Klotz an -0.0591
-0.4590 Knick </s> 3.0824
-0.4590 Kombination von -0.1037
-1.4851 Kopf </s> 2.8996
-2.0031 Kopf betrachten -0.0219
-2.0031 Kopf bildet -0.0855
-0.3680 Kopf des -0.1118
-2.0031 Kopf drin -0.0654
-2.0031 Kopf ganz -0.0119
-2.0031 Kopf links -0.1027
-1.4851 Kopf stehende -0.0219
-0.9861 Kopf stehendes 0.0642
-2.0031 Kopf steht 0.0646
-1.2567 Kopf und -0.2167
-1.4851 Kopf von 0.0168
-2.0031 Kopf zu -0.0939
-1.1580 Kopfes also -0.0864
-1.1580 Kopfes bisschen -0.0855
-1.1580 Kopfes des -0.0005
-1.1580 Kopfes ein -0.0909
-1.1580 Kopfes so 0.1749
-0.4590 Kopfseite des -0.1007
-0.4590 Kopfteil mit -0.0445
-0.4590 Kreu die -0.0993
-0.3424 Kreuz </s> 2.0111
-1.4596 Kreuz am -0.0648
-1.2312 Kreuz an -0.4459
-1.9776 Kreuz aussieht -0.0526
-1.9776 Kreuz das -0.1026
-1.9776 Kreuz ein -0.1045
-1.9776 Kreuz entsteht 0.0806
-1.9776 Kreuz im -0.0925
-1.9776 Kreuz ist 0.0657
-1.9776 Kreuz nach -0.0263
-1.9776 Kreuz oder -0.0976
-1.9776 Kreuz plus 0.0806
-1.9776 Kreuz und -0.1017
-1.4596 Kreuz wo -0.0789
-1.9776 Kreuz zwei -0.1031
-0.7601 Kreuzes </s> 3.0824
-0.7601 Kreuzes positioniert 0.0806
-0.7601 Kreuzfigur rein -0.0972
-0.7601 Kreuzfigur reinpassen -0.0219
-0.2421 Krücke </s> 2.8996
-0.4590 Kurbel aussieht -0.0526
-0.4590 Käst </s> 3.0824
-0.6342 Kästchen </s> 1.7723
-1.7619 Kästchen Abstand -0.1136
-2.5083 Kästchen Freiraum -0.0219
-2.5083 Kästchen abschließt 1.1739
-2.5083 Kästchen als 0.0005
-2.5083 Kästchen an -0.0816
-2.5083 Kästchen angebracht -0.0514
-2.5083 Kästchen angesetzt -0.0514
-2.5083 Kästchen anliegt -0.0683
-2.5083 Kästchen anschließt 0.3920
-2.5083 Kästchen auf 0.1702
-2.5083 Kästchen befindet -0.0778
-2.5083 Kästchen begrenzt 0.0806
-2.5083 Kästchen dann -0.1039
-2.5083 Kästchen der -0.1021
-2.5083 Kästchen des -0.1041
-2.5083 Kästchen dran -0.0931
-2.5083 Kästchen drüber -0.0735
-2.5083 Kästchen ein -0.0898
-2.5083 Kästchen frei -0.0792
-1.0950 Kästchen gibt -0.6854
-2.5083 Kästchen horizontal 0.3865
-2.5083 Kästchen im -0.0648
-1.9903 Kästchen in -0.2856
-1.3127 Kästchen ist -0.4068
-2.5083 Kästchen längen 0.0806
-2.5083 Kästchen muss -0.1006
-1.4177 Kästchen nach -0.3945
-1.1461 Kästchen nebeneinander -0.4228
-1.7619 Kästchen rechts -0.0388
-2.5083 Kästchen senkrecht -0.0855
-2.5083 Kästchen umschließt 0.2644
-1.9903 Kästchen umschlossen 0.0816
-1.0950 Kästchen und -0.1590
-2.5083 Kästchen unter'nander 0.1081
-2.5083 Kästchen untereinander 0.1040
-1.4177 Kästchen vertikal -0.4524
-1.9903 Kästchen vom -0.0743
-2.5083 Kästchen von -0.0483
-2.5083 Kästchen äh -0.1038
-1.9903 Kästchen ähm -0.0678
-1.9903 Kästchen übereinander -0.1672
-0.4590 Körper ein -0.0240
-0.4590 Körpermitte ein -0.0240
-0.4590 Leerstelle ein -0.0240
-1.0202 Linie </s> 2.8996
-1.5382 Linie bilden -0.0219
-1.5382 Linie des -0.1041
-1.5382 Linie nach 0.0648
-1.5382 Linie und -0.0913
-1.0202 Linie vereint 0.0816
-1.5382 Linie verlängerst 0.0806
-1.0202 Linie von -0.2349
-1.5382 Linie vorstellt -0.0219
-1.1106 Loch </s> 2.6956
-1.1106 Loch an -0.0491
-1.3390 Loch angrenzt 0.1165
-1.8570 Loch berühren 0.0417
-1.8570 Loch das -0.0999
-1.8570 Loch ein -0.0240
-1.8570 Loch ist 0.0657
-1.3390 Loch kommt -0.0805
-1.8570 Loch mehr -0.0735
-1.1106 Loch nehmen 0.3212
-1.3390 Loch rechts -0.2342
-1.8570 Loch sieht -0.0941
-1.8570 Loch und -0.1022
-1.8570 Loch was -0.1026
-1.8570 Loch welches -0.0877
-1.8570 Loch zwischen -0.0154
-0.4590 Länge </s> 3.0824
-1.0611 Löcher </s> 3.0824
-1.0611 Löcher rechts -0.0497
-0.5431 Löcher und -0.1014
-0.6158 Lücke </s> 2.6956
-1.3621 Lücke anschließt 0.3920
-1.3621 Lücke im -0.0648
-0.8441 Lücke zwischen 0.0120
-1.3621 Lücke ähm -0.0932
-0.4590 M Schenkel -0.0789
-0.4590 Maul des -0.0005
-0.6941 Mitte </s> 1.9320
-2.4084 Mitte aber -0.0703
-2.4084 Mitte abgeht 0.0806
-1.8904 Mitte am -0.0717
-1.8904 Mitte an -0.1842
-2.4084 Mitte auf -0.0537
-1.8904 Mitte aus -0.0821
-2.4084 Mitte ausgesehen 0.0806
-2.4084 Mitte befindet 0.2708
-2.4084 Mitte den -0.0910
-2.4084 Mitte der -0.0785
-1.2129 Mitte des -0.0808
-2.4084 Mitte dran -0.0931
-2.4084 Mitte drei -0.0864
-1.6621 Mitte ein -0.0053
-2.4084 Mitte einen -0.0972
-2.4084 Mitte eins 0.0993
-2.4084 Mitte fast 0.1562
-2.4084 Mitte ich -0.1030
-1.6621 Mitte in 0.0876
-2.4084 Mitte is -0.0654
-1.2129 Mitte ist -0.2653
-2.4084 Mitte jeweils -0.0735
-1.2587 Mitte liegt 0.1206
-1.6621 Mitte links -0.0935
-2.4084 Mitte linksseitig 0.1040
-2.4084 Mitte markiert -0.0219
-1.3178 Mitte nach 0.1392
-1.8904 Mitte oben -0.0833
-2.4084 Mitte rechtseitig -0.0219
-2.4084 Mitte sitzt 0.0806
-1.8904 Mitte so -0.0079
-2.4084 Mitte umrahmt 0.0806
-1.8904 Mitte und -0.0540
-1.8904 Mitte unten -0.0961
-1.6621 Mitte von -0.0962
-2.4084 Mitte zweiteilen -0.0219
-0.7601 Mittelkante anliegt 0.4303
-0.7601 Mittelkante oder -0.0976
-0.9362 Mittellinie </s> 3.0824
-0.9362 Mittellinie liegen -0.0931
-0.9362 Mittellinie rangerückt 0.0806
-0.4590 Mittelteil auf 0.0113
-0.7601 Nummer sieben 0.0806
-0.7601 Nummer zwei -0.0829
-1.1580 Oberkante anschließt -0.0855
-0.4116 Oberkante des -0.1713
-1.1580 Oberkante mit -0.1034
-0.9362 Oberseite mit 0.0594
-0.9362 Oberseite von -0.0368
-0.9362 Oberseite zusammentrifft 0.2105
-0.4590 Objekt auf 0.1702
-0.7601 Ohr am -0.0955
-0.7601 Ohr des -0.0788
-0.7601 Ohren Kopf -0.1005
-0.7601 Ohren abschließt 1.1739
-0.4590 Ohrenkästchen gibt 0.1640
-0.4590 Orientierungspunkt und -0.1046
-0.4590 Passbild haben 0.3920
-0.4182 Passform </s> 2.8996
-0.9362 Passform uns -0.0735
-0.4182 Platz findet 0.0816
-0.9362 Platz und -0.0742
-0.0441 Plus </s> 2.3698
-0.7601 Pluszeichen </s> 3.0824
-0.7601 Pluszeichen auf 0.1702
-0.9362 Po ausgefüllt 0.2279
-0.9362 Po bildet 0.1562
-0.9362 Po ran -0.0789
-0.4590 Podest ähm -0.0219
-0.7601 Popo </s> 3.0824
-0.7601 Popo von -0.0368
-0.8441 Position </s> 2.8996
-1.3621 Position genau -0.1030
-0.8441 Position nach 0.3805
-0.6158 Position von -0.1005
-0.4590 Prinzip in -0.1036
-0.4182 Punkt </s> 2.8996
-0.9362 Punkt mit 0.0594
-0.4590 Punktes des -0.0932
-0.7601 Puzzle da -0.0998
-0.7601 Puzzle lösen 0.0806
-0.4590 Pömpel an -0.0532
-0.2421 Qua in -0.2288
-1.7143 Quader </s> 3.0824
-1.7143 Quader an -0.0014
-1.7143 Quader angesc 0.0806
-1.7143 Quader bereits -0.0979
-1.7143 Quader das -0.0999
-1.7143 Quader die -0.1023
-1.1963 Quader ein -0.0894
-1.7143 Quader frei -0.0972
-1.7143 Quader genau 0.0361
-1.7143 Quader hinein -0.0272
-1.7143 Quader in 0.0108
-1.7143 Quader ist -0.0912
-1.7143 Quader mit -0.0445
-1.1963 Quader noch 0.0755
-1.7143 Quader rechts -0.0514
-1.7143 Quader über -0.0269
-1.0611 Quadern besteht -0.0860
-1.0611 Quadern füllt 0.2644
-1.0611 Quadern im -0.0838
-1.0611 Quadern in -0.1027
-0.4590 Quadra Quadrat -0.0735
-0.7160 Quadrat </s> 2.1872
-1.6570 Quadrat an 0.1000
-2.1750 Quadrat auf 0.1702
-2.1750 Quadrat befindlichen -0.0654
-1.6570 Quadrat besteht 0.2701
-2.1750 Quadrat dass -0.1017
-1.6570 Quadrat dran -0.0519
-0.9795 Quadrat ein -0.2058
-2.1750 Quadrat eine -0.1025
-2.1750 Quadrat frei 0.1170
-1.6570 Quadrat hat -0.0976
-1.6570 Quadrat in -0.0398
-1.0844 Quadrat mit -0.0367
-2.1750 Quadrat nach 0.0820
-1.1581 Quadrat oben -0.1047
-1.4287 Quadrat rechts 0.0214
-2.1750 Quadrat rein 0.2931
-1.6570 Quadrat so 0.2270
-1.4287 Quadrat und -0.0925
-2.1750 Quadrat unten -0.0662
-2.1750 Quadrat von -0.0557
-0.7601 Quadrate an -0.0270
-0.7601 Quadrate tangiert 0.0806
-1.2372 Quadraten </s> 3.0824
-0.4908 Quadraten besteht -0.0603
-1.2372 Quadraten dann -0.1039
-1.2372 Quadraten ähm -0.0219
-1.1580 Quadrates abschließt 1.1739
-0.6400 Quadrates ein -0.0235
-1.1580 Quadrates so 0.1749
-1.1580 Quadrates zusammentrifft 0.2105
-0.4590 Quadratfläche frei -0.0792
-0.4590 Quadratreihe an -0.0552
-1.2372 Quadrats </s> 3.0824
-0.4908 Quadrats ein -0.4108
-1.2372 Quadrats so 0.1749
-1.2372 Quadrats und -0.1022
-0.4590 R den -0.0785
-0.4590 Ra Rand -0.1020
-1.1745 Rand </s> 2.3698
-0.7324 Rand an -0.0428
-2.1914 Rand angrenzen 0.0646
-1.4451 Rand angrenzt 0.3940
-2.1914 Rand angucken -0.0219
-2.1914 Rand anguckt -0.0219
-1.6734 Rand anliegt 0.4524
-2.1914 Rand außer -0.0514
-1.6734 Rand berühren -0.0219
-1.4451 Rand berührt -0.1167
-1.6734 Rand der -0.0647
-0.9959 Rand des -0.1736
-1.6734 Rand die -0.0919
-2.1914 Rand ein -0.0990
-2.1914 Rand entfernt -0.0514
-1.6734 Rand hin 0.0530
-2.1914 Rand ist 0.0657
-2.1914 Rand ja -0.0955
-1.6734 Rand liegen -0.0810
-2.1914 Rand passt -0.0999
-2.1914 Rand ran -0.0128
-1.6734 Rand so -0.0079
-2.1914 Rand und -0.1022
-2.1914 Rand vom -0.0816
-2.1914 Rand zwischen -0.0306
-2.1914 Rand äh -0.1038
-0.4590 Raum </s> 3.0824
-0.4590 Recht in 0.0180
-1.7601 Rechteck abschließt 1.1739
-1.2421 Rechteck bei 0.0450
-0.6695 Rechteck ein -0.2062
-1.7601 Rechteck im -0.1011
-1.2421 Rechteck in 0.0269
-1.7601 Rechteck liegenden -0.0827
-1.2421 Rechteck mit -0.0429
-1.7601 Rechteck mittig -0.0648
-1.7601 Rechteck rechts -0.0514
-1.7601 Rechteck rein -0.0972
-1.7601 Rechteck so -0.0783
-1.2421 Rechteck und -0.0817
-1.7378 Rechtecks </s> 3.0824
-1.7378 Rechtecks aber -0.0946
-1.7378 Rechtecks an -0.0014
-1.7378 Rechtecks anschließt -0.0855
-1.7378 Rechtecks auf 0.1702
-1.7378 Rechtecks dass -0.0948
-0.3245 Rechtecks ein -0.5036
-1.7378 Rechtecks nur -0.0606
-1.2198 Rechtecks so -0.0079
-1.7378 Rechtecks und -0.1034
-0.7208 Reihe </s> 2.3698
-1.7378 Reihe da -0.0273
-1.7378 Reihe damit -0.0219
-1.7378 Reihe dritte 0.2105
-1.7378 Reihe frei 0.1170
-1.7378 Reihe komplett 0.1040
-1.7378 Reihe links 0.0641
-1.7378 Reihe praktisch -0.0968
-1.2198 Reihe sind 0.0220
-0.7208 Reihe von -0.0624
-1.7378 Reihe zwei -0.0286
-1.7378 Reihe über -0.0979
-0.4590 Reihen frei 0.0334
-0.7601 Rest des -0.0957
-0.7601 Rest guckt -0.0219
-0.7601 Richtung </s> 3.0824
-0.7601 Richtung und -0.1017
-0.7601 Riegel treffen 0.0806
-0.7601 Riegel und -0.1022
-0.4590 Riegels genau -0.0988
-1.0611 Rumpf an -0.1042
-0.5431 Rumpf des -0.1833
-1.0611 Rumpf und -0.1008
-0.4590 Rumpfes an -0.0816
-1.1440 Rücken </s> 2.6956
-1.8904 Rücken Platz 0.1040
-1.8904 Rücken a 0.0082
-1.8904 Rücken an -0.0014
-1.8904 Rücken bildet 0.1562
-0.6949 Rücken des -0.2657
-1.8904 Rücken entfernt -0.0514
-1.3724 Rücken ganz 0.0693
-1.8904 Rücken gefallenes 0.0806
-1.8904 Rücken gelegten 0.0806
-1.8904 Rücken genau -0.0818
-1.8904 Rücken liegendes 0.2279
-1.3724 Rücken mit -0.2830
-1.8904 Rücken praktisch -0.0581
-1.8904 Rücken rangeschoben -0.0219
-1.8904 Rücken und -0.0989
-1.8904 Rücken vollständig -0.0514
-1.8904 Rücken vom -0.0816
-0.4590 Rückenlinie des -0.0005
-0.4182 Rückens des -0.1833
-0.9362 Rückens ähm -0.1024
-0.4590 Rückenteil anliegt 0.4303
-1.0611 Rüssel befindet -0.0778
-1.0611 Rüssel des -0.0005
-1.0611 Rüssel eingepasst 0.2644
-1.0611 Rüssel hinein -0.0272
-0.4590 S also -0.0893
-0.4590 Schen der -0.0970
-1.2372 Schenkel der -0.1043
-1.2372 Schenkel genau -0.0608
-1.2372 Schenkel gleichlang 0.0806
-1.2372 Schenkel muss 0.1504
-1.2372 Schenkel nur -0.0606
-1.2372 Schenkel vom -0.0979
-0.7601 Schlange die -0.1044
-0.7601 Schlange oder -0.0628
-0.2421 Schnauze und -0.1043
-0.2421 Schulter und -0.2836
-0.4590 Schwanz oder -0.0805
-0.6264 Seite </s> 2.0733
-2.1994 Seite Platz 0.1040
-2.1994 Seite am -0.1020
-2.1994 Seite an -0.0270
-2.1994 Seite anguckt -0.0219
-2.1994 Seite anliegt 0.4303
-2.1994 Seite aus -0.0836
-2.1994 Seite den -0.0910
-2.1994 Seite der -0.0919
-0.8373 Seite des -0.1403
-1.4530 Seite die -0.0945
-2.1994 Seite direkt 0.0770
-1.1824 Seite ein -0.0820
-2.1994 Seite es -0.0987
-2.1994 Seite frei 0.0334
-2.1994 Seite gekipptes 0.1040
-2.1994 Seite glatt 0.0806
-1.6814 Seite in -0.1720
-1.6814 Seite liegt 0.1490
-2.1994 Seite nein -0.0921
-1.4530 Seite oben -0.0891
-2.1994 Seite passgenau 0.0806
-2.1994 Seite rechts -0.1043
-2.1994 Seite und -0.0867
-2.1994 Seite zusammentrifft 0.0359
-2.1994 Seite zwei -0.1031
-2.1994 Seite ähm -0.0932
-0.4590 Senkrechte mit -0.0445
-0.4590 Sessel </s> 3.0824
-0.4182 Sieben </s> 2.8996
-0.9362 Sieben eine -0.1025
-0.4590 Sitz Sitzfläche 0.0806
-0.4590 Sitze die -0.0985
-0.4590 Sitzfläche nach 0.0820
-0.4590 Sockel </s> 3.0824
-0.4590 Sonderquadrat rechts -0.0514
-0.7918 Spalte </s> 2.6956
-1.0202 Spalte in -0.1720
-1.0202 Spalte sozusagen -0.0398
-0.4476 Spalte von -0.2854
-0.4590 Spitze des -0.1041
-0.2421 Stab </s> 2.8996
-0.5431 Stange </s> 2.8996
-1.0611 Stange mit 0.0594
-1.0611 Stange so -0.1041
-1.3041 Stein das -0.1046
-1.3041 Stein den -0.0675
-1.3041 Stein in 0.0108
-1.3041 Stein verschoben -0.0735
-1.3041 Stein vom -0.0979
-0.7861 Stein von -0.0545
-0.4590 Steinchen hat -0.1012
-1.0202 Steine </s> 2.8996
-1.5382 Steine an -0.0816
-1.5382 Steine direkt 0.0770
-1.5382 Steine nach -0.0379
-1.5382 Steine oben -0.0793
-1.5382 Steine senkrecht 0.0156
-1.5382 Steine und -0.1034
-1.5382 Steine von -0.0557
-1.0202 Steine waagerecht -0.2382
-1.5382 Steine übereinander -0.0855
-1.0611 Steinen </s> 3.0824
-1.0611 Steinen abschließt 1.1739
-1.0611 Steinen beziehungsweise 0.1040
-1.0611 Steinen wie -0.1022
-1.4590 Stelle </s> 3.0824
-1.4590 Stelle ein -0.0240
-1.4590 Stelle liegt 0.3319
-1.4590 Stelle mitten 0.0806
-1.4590 Stelle sind 0.0071
-1.4590 Stelle steht 0.0646
-0.9410 Stelle von -0.0344
-1.4590 Stelle weiter -0.0219
-1.4590 Stelle wo -0.0921
-0.4590 Stern </s> 3.0824
-0.2421 Strich </s> 2.8996
-0.4590 Stufe </s> 3.0824
-0.4590 Stufenabsatz </s> 3.0824
-0.4590 Stuhl mit -0.0399
-0.7601 Stück </s> 3.0824
-0.7601 Stück schießt 0.0806
-0.9362 Säule </s> 3.0824
-0.4182 Säule aus -0.0320
-0.7601 T </s> 3.0824
-0.7601 T den -0.0910
-0.9362 Tei Teil -0.1035
-0.9362 Tei das -0.0967
-0.9362 Tei äh -0.1038
-1.1996 Teil </s> 1.8070
-3.0388 Teil aber -0.0703
-3.0388 Teil abschließt 1.1739
-3.0388 Teil am -0.0747
-2.2924 Teil an 0.0442
-3.0388 Teil angebracht -0.0514
-1.9482 Teil anliegt 0.1213
-3.0388 Teil anschließt 0.3920
-1.9482 Teil auf -0.1775
-3.0388 Teil aufliegt 0.2644
-1.5006 Teil aus -0.7110
-3.0388 Teil berührt -0.0909
-1.9482 Teil besteht -0.2440
-3.0388 Teil da -0.0177
-3.0388 Teil dann -0.0505
-0.5669 Teil das -0.5272
-3.0388 Teil dass -0.1039
-3.0388 Teil den -0.0910
-1.8891 Teil der -0.0429
-1.9482 Teil des 0.0618
-3.0388 Teil die -0.1044
-3.0388 Teil dies -0.0219
-3.0388 Teil dieser -0.0931
-3.0388 Teil direkt 0.0770
-1.9482 Teil einmal 1.5026
-1.2788 Teil ganz -0.0447
-3.0388 Teil gehört 0.0806
-2.2924 Teil genau 0.0470
-1.6255 Teil hat 0.0423
-3.0388 Teil hori -0.0219
-2.2924 Teil horizontal -0.0003
-1.6767 Teil in -0.2369
-3.0388 Teil ins -0.0514
-3.0388 Teil insgesamt -0.0514
-2.2924 Teil ist -0.0949
-2.2924 Teil kommt -0.0186
-2.2924 Teil links 0.1563
-3.0388 Teil mit -0.0445
-2.2924 Teil muss 0.0451
-2.5208 Teil neunzig 1.8229
-1.8433 Teil oben -0.3040
-3.0388 Teil oberhalb 0.4522
-3.0388 Teil passt -0.0768
-2.5208 Teil rechts -0.2342
-1.3493 Teil sieht -0.5126
-2.0218 Teil so -0.3072
-1.5798 Teil um -0.1955
-2.0218 Teil und -0.1659
-1.9482 Teil unten 0.0675
-3.0388 Teil verlängert -0.0514
-1.8433 Teil vertikal -0.6009
-1.5798 Teil von -0.0571
-0.9363 Teil was -0.3014
-1.8891 Teil welches 0.0320
-3.0388 Teil wo -0.0921
-3.0388 Teil zu -0.0939
-3.0388 Teil zurück 0.0806
-2.2924 Teil äh -0.0946
-2.0218 Teil ähm -0.0172
-3.0388 Teil über 0.2834
-0.4590 Teilbaustein der -0.0987
-0.9824 Teile </s> 2.8996
-0.9824 Teile des -0.0847
-0.9824 Teile in -0.0985
-1.5004 Teile oben -0.0793
-0.9824 Teile sich -0.0968
-1.5004 Teile und -0.0742
-1.5004 Teile zusammentrifft 0.0359
-1.5382 Teilen </s> 3.0824
-0.7918 Teilen abschließt 0.7871
-0.7918 Teilen das -0.0884
-1.0202 Teilen die -0.1029
-1.5382 Teilen oben -0.0636
-1.5382 Teilen rechts -0.1031
-1.5382 Teilen sitzen 0.0806
-1.5382 Teils bis -0.0735
-1.5382 Teils dann -0.1019
-1.0202 Teils den -0.0779
-1.5382 Teils die -0.0744
-1.5382 Teils endet 0.0806
-1.5382 Teils genau -0.0988
-1.5382 Teils in 0.0252
-1.5382 Teils ist -0.0841
-1.5382 Teils markiert -0.0219
-1.5382 Teils mit 0.0594
-1.5382 Teils nach 0.0648
-0.4590 Tetris wenn 0.4234
-0.9362 Tier </s> 3.0824
-0.9362 Tier aussieht -0.0526
-0.9362 Tier in 0.0180
-0.7601 Tierchen </s> 3.0824
-0.7601 Tierchen in 0.0180
-0.3227 Tieres </s> 2.6880
-1.4133 Tieres an -0.0816
-1.4133 Tieres ein -0.0240
-1.4133 Tieres passt 0.1078
-1.4133 Tieres ähm -0.1041
-0.4590 Tor </s> 3.0824
-0.4590 Trepp </s> 3.0824
-0.1313 Treppe </s> 1.9568
-1.3028 Treppe aussieht -0.2354
-1.8208 Treppe das -0.1036
-1.8208 Treppe die -0.0985
-1.8208 Treppe dran -0.0648
-1.8208 Treppe unten -0.1041
-0.4590 Treppenstufe im -0.0925
-0.4590 Uhrzeigersinn rechts -0.0497
-0.4590 Unterbauch des -0.0005
-1.1580 Unterkante der -0.0919
-0.1410 Unterkante des -0.0661
-1.1580 Unterseite der -0.0919
-0.4116 Unterseite des -0.0736
-1.1580 Unterseite mit 0.0594
-0.9362 Unterteil auf 0.1702
-0.9362 Unterteil der -0.1021
-0.9362 Unterteil mit 0.0594
-0.2124 Vier </s> 2.5530
-1.3621 Vier aussehen 0.2644
-1.1452 Viereck </s> 2.8996
-1.6632 Viereck direkt -0.0915
-1.1452 Viereck eine -0.0947
-0.9168 Viereck eins -0.2876
-0.6462 Viereck in 0.1912
-1.6632 Viereck nach -0.0379
-1.6632 Viereck so -0.0939
-1.6632 Viereck von -0.0557
-1.6632 Viereck äh -0.0991
-1.3621 Vierecke hat -0.0131
-1.3621 Vierecke horizontal -0.1024
-0.3452 Vierecke in -0.8115
-0.8441 Vierecke nach -0.0256
-0.4590 Vierecks wobei 0.1040
-0.4590 Viererblock und -0.0951
-0.4590 Viererkette </s> 3.0824
-0.4590 Vogel rein -0.0972
-0.2421 Vorderbein des 0.1372
-0.4590 Vorderbeins eingefügt -0.0514
-0.9362 Vorderfuß der -0.0997
-0.4182 Vorderfuß des -0.1833
-0.2421 Wand an -0.0530
-0.4590 Wasserhahn </s> 3.0824
-0.2872 Weise </s> 2.3698
-1.3041 Weise die -0.1044
-1.3041 Weise in -0.0989
-1.3041 Weise und -0.0742
-0.3093 Winkel </s> 2.5530
-1.4590 Winkel also -0.1034
-1.4590 Winkel entspricht 0.1040
-1.4590 Winkel ergibt 0.0806
-0.3565 Würfel </s> 2.1458
-1.8570 Würfel als -0.0877
-1.3390 Würfel angeordnet -0.1183
-1.8570 Würfel berührt -0.0207
-1.8570 Würfel das -0.1026
-1.8570 Würfel drauf -0.0735
-1.8570 Würfel eingesetzt 0.1040
-1.8570 Würfel fehlend 0.0806
-1.8570 Würfel nebeneinander -0.0953
-1.3390 Würfel und -0.0965
-1.8570 Würfel unter'nander -0.0735
-1.8570 Würfel versetzt -0.0654
-1.8570 Würfel von -0.0368
-0.7601 Würfels ein -0.0240
-0.7601 Würfels eingesetzt -0.0514
-1.6052 Zielfigur am -0.1020
-0.5146 Zielfigur ein -0.5337
-1.0872 Zielfigur ganz 0.0693
-1.6052 Zielfigur im -0.0925
-1.6052 Zielfigur mit -0.0900
-1.6052 Zielfigur so -0.0783
-1.6052 Zielfigur vollständig -0.0514
-1.0872 Zielfigur zusammentrifft 0.5794
-0.4590 Zielobjekt rechts -0.0983
-0.4590 Zweierriegel besteht -0.0725
-0.4590 Zweierriegels </s> 3.0824
-0.6400 a an -0.0510
-1.1580 a ao 0.0806
-1.1580 a das -0.1022
-1.1580 a äh -0.1038
-1.6351 aber an -0.0270
-1.6351 aber auf 0.0113
-1.1171 aber das -0.0971
-1.6351 aber die -0.1044
-1.6351 aber egal 0.1081
-1.6351 aber ein -0.0810
-1.6351 aber genau -0.1030
-1.6351 aber ich -0.0943
-1.6351 aber keine -0.0735
-1.1171 aber mit -0.0429
-1.1171 aber nicht -0.0678
-1.6351 aber nur -0.0972
-0.4590 abgebissen ist 0.0657
-0.4590 abgebrochen ist 0.0657
-0.4590 abgehen </s> 3.0824
-0.4590 abgeht </s> 3.0824
-0.4590 abgeschlossen ist 0.0657
-0.4590 abgeteilt mit 0.0594
-0.4590 abschließende grüne 0.0806
-0.0235 abschließt </s> 1.9320
-0.4590 abseits gelegen 0.2644
-0.2421 abstehen die -0.2862
-0.4590 abstehende kleine -0.0895
-0.4590 absteht der -0.1043
-0.4590 abstößt also -0.0558
-1.3041 ach Gott -0.0514
-1.3041 ach nee -0.0921
-1.3041 ach nein -0.0921
-0.2872 ach so -0.3467
-0.9362 ah doch -0.0789
-0.9362 ah jetzt -0.0990
-0.9362 ah okay -0.0953
-0.9362 alle Gnubbel -0.0982
-0.9362 alle Vierecke 0.1562
-0.9362 alle na -0.0128
-0.9362 aller das 0.0731
-0.9362 aller obersten -0.0514
-0.9362 aller unterste 0.1081
-1.0611 allerdings auf 0.0113
-1.0611 allerdings aus -0.0893
-1.0611 allerdings nicht -0.0994
-1.0611 allerdings wieder -0.0931
-0.4590 allerrecht den -0.1042
-1.4133 als </s> 3.0824
-1.4133 als Balken -0.0571
-1.4133 als Orientierungspunkt 0.0806
-1.4133 als der -0.1021
-1.4133 als eine -0.0752
-1.4133 als leer -0.0219
-0.6669 als oberen -0.4654
-1.4549 also </s> 2.3698
-2.4719 also als 0.0005
-2.4719 also also -0.0966
-1.4549 also an 0.1040
-2.4719 also aus -0.0315
-2.4719 also außen -0.0735
-2.4719 also bündig -0.0745
-1.7255 also da -0.0151
-0.9714 also das 0.1245
-2.4719 also dass -0.0615
-1.9539 also den -0.0833
-1.3813 also die -0.0735
-2.4719 also dies -0.0219
-2.4719 also diese -0.0698
-1.9539 also dieses 0.4640
-2.4719 also direkt -0.0448
-1.7255 also drei -0.3819
-2.4719 also dreimal 0.1040
-2.4719 also ein -0.0920
-2.4719 also eine -0.1025
-2.4719 also einfach -0.0272
-2.4719 also eins -0.0890
-0.9714 also es -0.1429
-1.9539 also ganz 0.0634
-1.7255 also genau 0.1083
-2.4719 also haben 0.3920
-2.4719 also im -0.0838
-1.4549 also in 0.2473
-2.4719 also ja -0.0955
-2.4719 also links -0.1042
-1.9539 also nehme 1.3918
-2.4719 also neunzig 2.0058
-2.4719 also nicht -0.0867
-1.4549 also oben -0.1220
-2.4719 also praktisch -0.0968
-1.7255 also rechts -0.1014
-2.4719 also sie -0.0979
-2.4719 also um -0.0965
-2.4719 also und -0.0989
-2.4719 also unten -0.1041
-1.4549 also von -0.2367
-2.4719 also w -0.0219
-2.4719 also weder 0.0806
-2.4719 also wenn 0.4234
-2.4719 also zwei -0.0042
-2.4719 also zweite -0.0778
-1.9539 also zwischen -0.0041
-1.7255 also äh -0.0946
-2.4719 also ähm -0.1024
-2.1914 am </s> 3.0824
-1.6734 am Bauch 0.3729
-1.6734 am Ende 0.3441
-1.6734 am Kopf 0.1638
-2.1914 am Maul 0.0806
-1.0417 am Rand -0.0092
-2.1914 am Rumpf -0.0654
-1.6734 am Rücken 0.0002
-2.1914 am Rückenteil 0.0806
-1.6734 am dritten -0.1672
-2.1914 am ganz -0.0119
-2.1914 am grünen -0.0877
-2.1914 am hinteren -0.0219
-2.1914 am mittigsten 0.0806
-2.1914 am nein -0.0921
-2.1914 am nähesten 0.0806
-2.1914 am oberen -0.1002
-1.1745 am rechten 0.0130
-1.6734 am unteren -0.0527
-1.4451 am untersten -0.0442
-2.1914 am wei 0.0806
-0.7782 am weitesten 0.1074
-1.4451 am zweiten -0.1858
-1.6734 am zweithöchsten 0.0806
-2.1914 am Übergang 0.1040
-2.1914 am äh -0.0885
-0.9666 an </s> 1.7559
-2.8570 an a 0.0082
-1.6614 an an 0.1532
-1.3979 an das -0.1640
-2.1106 an dass -0.0835
-1.0000 an dem -0.1106
-0.6737 an den -0.1724
-0.9508 an der -0.1902
-0.7852 an die -0.1093
-1.7664 an diese -0.1776
-2.8570 an diesem -0.0964
-2.3390 an diesen -0.0810
-2.1106 an dieser 0.1732
-1.7664 an dieses -0.2555
-2.8570 an eine -0.1025
-2.8570 an einen -0.0972
-2.8570 an einer -0.0921
-2.8570 an ganz -0.0970
-2.8570 an in 0.0252
-2.8570 an irgendeinen 0.0806
-2.8570 an irgendetwas 0.0806
-2.3390 an mit 0.0310
-2.8570 an mittig -0.0269
-2.8570 an rechts -0.0497
-1.2840 an so -0.8342
-2.8570 an sonsten 0.0806
-2.1106 an und -0.0894
-2.8570 an unten -0.0291
-2.8570 an vierter 0.0806
-2.3390 an von -0.2196
-2.8570 an welche -0.0514
-2.3390 an zweiter 0.0816
-2.8570 an äh -0.1015
-1.8400 an ähm -0.1665
-0.9362 andere Figur -0.1025
-0.9362 andere Hälfte -0.0735
-0.9362 andere ist -0.0841
-1.5382 anderen Baustein -0.0879
-1.5382 anderen Bausteine -0.0972
-0.5212 anderen Bausteinen -0.0735
-1.0202 anderen Steinen -0.0219
-1.0202 anderen Teile -0.2399
-1.5382 anderen grünen 0.1181
-1.5382 anderen zwei -0.1031
-0.4590 anderes außer -0.0514
-0.4590 anders das 0.0731
-0.4590 andersrum </s> 3.0824
-0.4590 aneinandergereihten Quadraten 0.0646
-0.4590 anfange </s> 3.0824
-0.9362 angebracht dass -0.0995
-0.9362 angebracht hat 0.0713
-0.9362 angebracht ist 0.0657
-0.4590 angefang </s> 3.0824
-0.4908 angeordnet </s> 2.6956
-0.4908 angeordnet und -0.2028
-0.4590 angesc rangeschoben -0.0219
-0.9362 angesetzt hat 0.0713
-0.4182 angesetzt werden 0.2052
-0.4908 angrenzen </s> 2.6956
-1.2372 angrenzen an -0.0014
-1.2372 angrenzen dass -0.0492
-1.2372 angrenzen hat -0.1012
-0.4590 angrenzend </s> 3.0824
-0.2177 angrenzt </s> 2.0036
-1.4133 angrenzt dann -0.1039
-1.4133 angrenzt links -0.0948
-1.4133 angrenzt und -0.1008
-0.7601 angucken dann -0.1039
-0.7601 angucken haben 0.3920
-0.7601 anguckt dann -0.1039
-0.7601 anguckt das -0.1022
-0.9362 anliegen </s> 3.0824
-0.4182 anliegen und -0.0948
-0.1498 anliegt </s> 1.9568
-1.8393 anliegt an -0.0552
-1.8393 anliegt hin 0.0366
-1.3213 anliegt oben -0.0256
-1.0929 anliegt und -0.0909
-0.4590 ans Ende 0.2994
-0.4590 anschauen kann 0.4522
-0.4590 anschaut und -0.1008
-0.7601 anschließend aus -0.0893
-0.7601 anschließend einmal 0.0713
-0.1666 anschließt </s> 2.0036
-1.3621 anschließt an -0.0532
-1.3621 anschließt und -0.0989
-0.3147 ansonsten berührt -0.1545
-1.0611 ansonsten halt -0.0990
-0.4590 ao an -0.0953
-1.7143 auch an -0.0591
-1.7143 auch anliegt 0.4303
-1.7143 auch bloß -0.0855
-0.6237 auch ein -0.2032
-1.7143 auch fast -0.0855
-1.7143 auch genau -0.0818
-1.7143 auch immer -0.0219
-1.7143 auch nach -0.0379
-0.9679 auch noch -0.0375
-1.7143 auch unten -0.0940
-1.7143 auch vertikal 0.4779
-1.7143 auch wieder -0.0931
-1.8495 auf 'm 0.0806
-2.3675 auf Sockel 0.0806
-1.8495 auf das -0.1034
-2.3675 auf de -0.0735
-0.6297 auf dem -0.3442
-0.9542 auf den -0.2118
-0.3287 auf der -0.6945
-1.6212 auf die -0.4613
-1.6212 auf diese -0.4566
-2.3675 auf eine -0.0971
-2.3675 auf einen -0.0972
-2.3675 auf unter 0.3101
-0.4590 aufgesetzten Quadra 0.0806
-0.4590 aufgestellte Säule 0.1040
-0.4590 aufhört </s> 3.0824
-0.2421 aufliegt </s> 2.8996
-0.4590 aufsteigende Treppe 0.4787
-1.4549 aus </s> 2.3698
-2.4719 aus also -0.1034
-2.4719 aus bisschen -0.0377
-1.7255 aus dem -0.0849
-0.8087 aus der -0.0028
-1.3222 aus drei -0.2331
-1.4549 aus einem -0.0577
-1.9539 aus einer -0.0789
-0.9714 aus fünf -0.4891
-2.4719 aus gezählt 0.0806
-2.4719 aus jeweils -0.0735
-2.4719 aus linksbündig 0.0806
-2.4719 aus nach -0.0263
-1.4549 aus vier 0.0587
-0.4001 aus wie -0.4838
-1.4549 aus zwei -0.1604
-2.4719 aus ähm -0.1041
-0.4590 ausfüllen sondern -0.0855
-0.4182 ausfüllt </s> 2.8996
-0.9362 ausfüllt aber -0.0703
-0.2715 ausgefüllt ist -0.3287
-0.6158 ausgefüllt wird -0.3797
-0.4590 ausgefüllte Reihe -0.0968
-0.4590 ausgesehen linksseitig 0.1040
-0.7601 ausgesparten Punktes 0.0806
-0.7601 ausgesparten Viereck 0.0063
-0.4590 auslaufend </s> 3.0824
-0.2421 ausläuft </s> 2.8996
-0.4590 aussah schön 0.0806
-1.3621 ausschaut drei 0.0049
-0.2124 ausschaut wie -0.3692
-0.2421 aussehen </s> 2.8996
-0.9454 aussieht </s> 2.1458
-1.9278 aussieht es -0.1006
-2.4458 aussieht wenn -0.0992
-0.0730 aussieht wie -1.3381
-2.4458 aussieht äh -0.1038
-1.1580 außen </s> 3.0824
-1.1580 außen hinten 0.0806
-1.1580 außen mittig -0.0979
-1.1580 außen oben -0.1041
-1.1580 außen rechts -0.0861
-0.9362 außer das -0.0999
-0.9362 außer die -0.0945
-0.9362 außer wieder 0.0366
-0.7601 bef dort -0.0745
-0.7601 bef äh -0.1038
-0.4590 befestigt </s> 3.0824
-0.4590 befinden das -0.1046
-0.2374 befindet </s> 2.1458
-1.7378 befindet also -0.0558
-1.7378 befindet an -0.0816
-1.7378 befindet davon -0.0457
-1.7378 befindet mittig -0.0269
-1.2198 befindet sich -0.0874
-1.7378 befindet und -0.0742
-1.7378 befindet ähm -0.0722
-1.0611 befindlichen Leerstelle 0.0806
-1.0611 befindlichen Objekt 0.0806
-1.0611 befindlichen Sonderquadrat 0.0806
-1.0611 befindlichen Teile -0.0571
-0.4182 beginnt </s> 2.8996
-0.9362 beginnt an -0.1042
-0.4590 begrenzt wird 0.0071
-1.3621 bei Tetris 0.0806
-0.2715 bei dem -0.1382
-1.3621 bei der -0.1043
-1.3621 bei dieser 0.1313
-1.4133 beiden </s> 3.0824
-1.4133 beiden Enden 0.0806
-1.4133 beiden Kästchen -0.1035
-1.4133 beiden Ohren -0.0219
-0.8953 beiden Teilen -0.0471
-1.4133 beiden blauen -0.0953
-1.4133 beiden linken -0.1020
-1.4133 beiden unten -0.1041
-0.4590 beim rechten -0.0928
-0.4590 berei der -0.1043
-1.8015 bereits </s> 3.0824
-1.8015 bereits bef -0.0219
-1.8015 bereits bestehende -0.0219
-1.8015 bereits dort -0.0959
-0.7109 bereits eingefügten 0.0809
-1.8015 bereits fast -0.0855
-0.6517 bereits im -0.2305
-1.8015 bereits in 0.0180
-1.8015 bereits sich -0.0915
-1.8015 bereits vorgegebenen 0.0806
-1.2835 bereits vorhandenen 0.0806
-0.5431 berühren </s> 2.8996
-1.0611 berühren insgesamt -0.0514
-1.0611 berühren ähm -0.1041
-0.7541 berührt </s> 2.6956
-1.5004 berührt dann -0.1039
-0.9824 berührt die -0.2490
-1.5004 berührt es -0.1046
-1.5004 berührt halt -0.0990
-1.5004 berührt mit -0.0900
-1.5004 berührt und -0.1022
-1.5004 berührt ähm -0.1041
-1.0611 beschreibe </s> 3.0824
-1.0611 beschreibe dass -0.0492
-1.0611 beschreibe ich -0.0746
-1.0611 beschreibe und -0.1040
-0.6400 beschreiben </s> 2.8996
-0.6400 beschreiben soll -0.0747
-1.1580 beschreiben wir -0.0256
-0.7601 besser geht -0.0457
-0.7601 besser gesagt -0.0654
-0.7601 bestehende Quadrate -0.0219
-0.7601 bestehende freie 0.0806
-1.1440 besteht </s> 2.6956
-1.8904 besteht allerdings -0.0654
-0.3522 besteht aus -0.6123
-1.8904 besteht dann -0.0921
-1.8904 besteht der -0.1032
-1.3724 besteht die -0.2862
-0.8734 besteht und -0.0812
-1.3724 besteht wovon 0.0806
-1.8904 besteht äh -0.0584
-0.4590 bestimmen </s> 3.0824
-0.4590 betrachte die -0.1044
-0.7601 betrachten in 0.0252
-0.7601 betrachten wir -0.1027
-0.4590 betrachtet jetze 0.0806
-0.0414 bewege es -0.3226
-0.4590 bewegen </s> 3.0824
-0.9362 beziehungsweise ein -0.0963
-0.4182 beziehungsweise zwei -0.0020
-0.7601 bilden </s> 3.0824
-0.7601 bilden mit 0.0594
-0.3452 bildet </s> 2.3698
-1.3621 bildet praktisch -0.0968
-1.3621 bildet sich -0.1008
-1.3621 bildet so -0.0824
-1.3621 bildet somit 0.0806
-1.1580 bis es -0.0964
-0.6400 bis ganz -0.2234
-1.1580 bis ran -0.0128
-1.1580 bis zum -0.0219
-1.3621 bisschen Fantasie -0.0219
-0.8441 bisschen aus -0.0672
-1.3621 bisschen länger -0.0219
-1.3621 bisschen mehr -0.0735
-1.3621 bisschen mittig -0.0816
-1.3621 bisschen nach -0.0263
-1.3621 bisschen raus -0.0735
-0.9362 blaue $U -0.1009
-0.9362 blaue Quadratreihe 0.0806
-0.9362 blaue Teil -0.1026
-1.1452 blauen Balken -0.0765
-1.6632 blauen Bausteinen -0.0972
-1.6632 blauen Kreuz -0.1002
-1.6632 blauen Kästchen -0.1035
-1.6632 blauen Quadraten -0.0789
-1.6632 blauen S 0.0806
-1.1452 blauen Steine -0.0789
-1.6632 blauen Teil -0.1007
-1.6632 blauen Teile -0.0571
-1.1452 blauen an 0.0213
-1.6632 blauen fünferliegenden 0.0806
-1.6632 blauen und -0.1046
-1.6632 blauen äh -0.1038
-0.0416 bleiben </s> 2.0036
-0.3010 bleibt </s> 2.2330
-1.7143 bleibt also -0.0966
-1.7143 bleibt dann -0.1039
-1.7143 bleibt eine -0.1025
-1.1963 bleibt so -0.2653
-0.9679 bleibt und -0.0973
-1.7143 bleibt weiß 0.0082
-1.3621 bloß auf -0.0943
-1.3621 bloß den -0.0803
-0.8441 bloß drei -0.0951
-1.3621 bloß ein -0.1036
-1.3621 bloß fünf -0.0748
-1.3621 bloß passt -0.0768
-1.3621 bloß so -0.0939
-0.4590 br </s> 3.0824
-0.4590 brauch ich -0.0746
-1.6895 bündig abschließt 1.1739
-0.9431 bündig an 0.1825
-1.6895 bündig anschließt 0.3920
-1.1715 bündig ein -0.2068
-1.1715 bündig in 0.0980
-0.5989 bündig mit -0.1430
-0.9431 bündig passt 0.0028
-0.4590 cool </s> 3.0824
-0.5431 d d 0.0981
-1.0611 d der -0.1021
-1.0611 d hineinpasst 0.0806
-1.4182 da abstehen 0.0816
-1.9362 da dacht 0.0806
-1.9362 da das -0.0986
-1.9362 da drüber -0.0735
-1.9362 da einfach -0.0272
-1.9362 da ganz -0.0264
-1.4182 da genau -0.1012
-1.9362 da in -0.1009
-0.7864 da ist -0.1041
-1.9362 da kommen -0.0735
-1.9362 da liegt -0.1011
-1.9362 da noch -0.1020
-0.7406 da sind 0.1765
-1.9362 da von -0.0703
-1.9362 da wenn 0.4234
-1.9362 da wo -0.0921
-1.9362 da äh -0.0807
-0.9362 dabei ganz -0.0312
-0.9362 dabei links -0.1042
-0.9362 dabei mit 0.0594
-0.4590 dacht ich -0.1030
-0.7601 dadrunter </s> 3.0824
-0.7601 dadrunter von -0.0594
-0.4590 dadrüber eins -0.0528
-0.7601 damit komplettiert 0.0806
-0.7601 damit wir -0.1027
-0.9410 danach einmal -0.1116
-0.9410 danach horizontal 0.2037
-1.4590 danach in -0.0459
-1.4590 danach lege 0.9134
-0.9410 danach vertikal 0.2951
-0.9410 danach wird -0.2762
-0.7601 daneben auch -0.0964
-0.7601 daneben noch -0.0690
-1.9431 dann </s> 2.6956
-2.6895 dann als -0.0877
-2.6895 dann am -0.0890
-1.5398 dann an 0.0026
-2.6895 dann auch -0.0964
-2.1715 dann auf -0.2365
-2.6895 dann aus 0.1156
-2.6895 dann betrachten -0.0219
-2.6895 dann bildet -0.0855
-2.6895 dann bloß -0.0377
-2.1715 dann das 0.0777
-2.6895 dann davon -0.0457
-2.6895 dann den -0.0785
-2.1715 dann der -0.1016
-2.1715 dann die -0.2707
-2.6895 dann drehe -0.0221
-2.6895 dann drei -0.1034
-2.6895 dann eh -0.0789
-2.1715 dann ein -0.0944
-1.5398 dann einmal -0.1500
-2.6895 dann eins 0.0993
-1.6725 dann ganz -0.2925
-2.6895 dann gefüllt 0.0806
-1.9431 dann genau -0.0685
-2.6895 dann haben 0.3920
-1.6725 dann halt 0.0381
-2.6895 dann hat -0.1012
-1.5989 dann horizontal -0.0556
-2.6895 dann hätte 0.0806
-2.6895 dann im -0.1011
-0.9294 dann in 0.1887
-2.6895 dann kein -0.0219
-2.6895 dann kommen -0.0735
-1.3274 dann kommt -0.1800
-2.6895 dann li 0.0806
-2.6895 dann liegt -0.1011
-2.6895 dann links -0.0649
-2.6895 dann mit -0.0399
-2.6895 dann miteinander 0.0806
-2.6895 dann mittig -0.0648
-1.9431 dann nach 0.2675
-1.4939 dann nehmen -0.3708
-2.6895 dann neunzig 2.0058
-2.1715 dann noch -0.0725
-2.1715 dann nochmal -0.1412
-2.6895 dann oben -0.0793
-1.9431 dann packen -0.3871
-2.6895 dann passt -0.0999
-2.6895 dann praktisch -0.0968
-1.5989 dann rechts -0.0358
-2.6895 dann schließt -0.0219
-1.6725 dann setze 0.9276
-2.6895 dann setzen 0.0806
-2.6895 dann sieht -0.0865
-2.6895 dann sind -0.0177
-1.5989 dann so -0.1163
-2.6895 dann spiegel 0.8613
-2.1715 dann spiegeln -0.2206
-1.9431 dann suche 0.1635
-1.4939 dann suchen -0.0076
-2.6895 dann um 0.6997
-1.4939 dann vertikal 0.5460
-2.6895 dann voll 0.0806
-2.6895 dann von -0.0368
-2.6895 dann wenn -0.0992
-2.1715 dann wird -0.0979
-2.1715 dann zwei -0.1870
-2.6895 dann zweimal 0.0542
-2.6895 dann zwischen 0.0127
-2.1715 dann äh -0.0875
-1.6725 dann ähm -0.0915
-2.6895 dann über 0.2834
-0.4590 darstellt </s> 3.0824
-0.4590 darunter </s> 3.0824
-0.7861 darüber </s> 2.8996
-1.3041 darüber gibt 0.1640
-1.3041 darüber noch -0.0690
-1.3041 darüber sind -0.0177
-1.3041 darüber versetzt -0.0654
-1.3041 darüber über -0.0269
-3.3054 das $B 0.2644
-2.7874 das $C -0.0842
-2.5590 das $I 0.0543
-1.8463 das $L 0.2971
-3.3054 das $N 0.0806
-1.9432 das $S 0.3623
-2.5590 das $T 0.2139
-2.1557 das $U 0.1917
-2.7874 das $W 0.4393
-3.3054 das $Z -0.0778
-2.2148 das </s> 2.6880
-3.3054 das Bein 0.0825
-3.3054 das Ding 0.0806
-3.3054 das Dromedar 0.0806
-3.3054 das Ende -0.0877
-2.7874 das Gebilde 0.0806
-2.7874 das Hinterbein -0.0788
-2.2884 das Hinterteil -0.4754
-2.2148 das Kamel -0.1442
-1.9432 das Kreuz -0.0094
-3.3054 das Kästchen -0.1035
-1.9432 das Loch 0.0039
-2.7874 das Plus 0.7273
-3.3054 das Pluszeichen -0.0219
-3.3054 das Quader -0.0964
-1.6159 das Quadrat -0.1921
-3.3054 das Recht 0.0806
-1.7672 das Rechteck -0.0429
-2.7874 das T 0.0806
-0.4734 das Teil -0.3335
-3.3054 das Teilbaustein 0.0806
-3.3054 das Unterteil -0.0514
-2.7874 das Viereck 0.0485
-3.3054 das abschließende 0.0806
-2.7874 das aller 0.0096
-3.3054 das also -0.0893
-2.2884 das am -0.0929
-3.3054 das auch 0.0131
-2.2148 das auf 0.2551
-2.1557 das aus -0.1381
-1.0755 das aussieht -0.9602
-2.7874 das beschreiben -0.1747
-2.7874 das blaue 0.0096
-3.3054 das da -0.0998
-3.3054 das dann -0.0938
-2.2148 das das -0.0888
-3.3054 das dem -0.1039
-3.3054 das den -0.1029
-2.7874 das denn -0.1412
-2.7874 das der -0.1038
-3.3054 das des -0.1041
-2.2884 das die -0.0629
-3.3054 das diese -0.0987
-2.7874 das direkt -0.0779
-2.7874 das drehen -0.1903
-2.2884 das dritte 0.2284
-3.3054 das dürfte 0.0806
-3.3054 das ein -0.1036
-2.5590 das einem -0.0889
-3.3054 das einzelne 0.0806
-3.3054 das einzige 0.0806
-1.9432 das es -0.1085
-3.3054 das falsche 0.0806
-2.5590 das folgendermaßen -0.2039
-2.5590 das fünf -0.1949
-3.3054 das fünferl 0.0806
-1.9432 das ganz -0.0646
-3.3054 das gekippte 0.0806
-3.3054 das genau -0.1030
-3.3054 das gerade -0.0827
-3.3054 das gesamte 0.0806
-3.3054 das gespiegelte -0.0514
-3.3054 das gleiche 0.0806
-3.3054 das gleichschenklige 0.0806
-3.3054 das grenzt -0.0816
-2.5590 das große -0.0149
-3.3054 das halt -0.0026
-3.3054 das hatten 0.0806
-3.3054 das hintere 0.0806
-3.3054 das im -0.1011
-2.1557 das in 0.1231
-2.1098 das ist -0.1203
-3.3054 das jetzt -0.0990
-3.3054 das kaputte 0.0806
-2.2148 das kleine -0.1114
-2.1098 das kommt -0.1286
-3.3054 das komplett -0.0514
-3.3054 das korrigieren 0.0806
-3.3054 das kurz 0.0806
-3.3054 das leere 0.0806
-3.3054 das lehnt 0.0806
-3.3054 das letzte 0.0806
-1.9432 das linke 0.0292
-3.3054 das linkere 0.0806
-3.3054 das links -0.1042
-2.1557 das mittlere -0.3248
-3.3054 das muss -0.1006
-2.5590 das nach 0.0965
-2.7874 das nehme 1.1777
-2.7874 das nehmen 0.5252
-2.7874 das nicht 0.0043
-3.3054 das noch -0.1020
-3.3054 das o 0.0806
-3.3054 das oben -0.1041
-1.8463 das obere 0.0512
-3.3054 das oberste -0.0219
-3.3054 das packen -0.0002
-2.1098 das passt -0.1082
-3.3054 das querliegende 0.0806
-3.3054 das recht -0.0735
-1.7672 das rechte -0.0050
-3.3054 das rechtere 0.0806
-3.3054 das schräg 0.0806
-3.3054 das senkrecht -0.0377
-2.2884 das sich -0.0528
-2.7874 das sie -0.0909
-2.1098 das sieht 0.6698
-3.3054 das sind -0.1014
-2.5590 das so -0.0855
-3.3054 das sowieso 0.0806
-3.3054 das stört 0.0806
-3.3054 das um -0.1033
-2.7874 das umgedrehte 0.0816
-3.3054 das umgekehrte 0.0806
-3.3054 das und -0.1040
-2.7874 das unten -0.0818
-1.8463 das untere -0.2643
-2.7874 das unterste -0.0747
-3.3054 das vertikal -0.1031
-3.3054 das von -0.0483
-3.3054 das vordere 0.0806
-2.7874 das waagerecht -0.2382
-3.3054 das war 0.0806
-2.7874 das was -0.0694
-3.3054 das wenn 0.4234
-2.2884 das wie 0.4059
-1.8463 das wird -0.0980
-3.3054 das wäre 0.0806
-3.3054 das zeigt -0.0113
-3.3054 das zuordnen 0.0806
-3.3054 das zweimal 0.0542
-1.7324 das zweite -0.5236
-1.9432 das äh -0.0381
-1.8463 das ähm -0.0755
-2.6577 dass also -0.0558
-2.6577 dass aussieht 0.7059
-2.6577 dass dann -0.1039
-2.6577 dass darüber -0.0827
-1.0226 dass das 0.0537
-2.6577 dass dass 0.1253
-1.1573 dass der -0.0920
-0.9199 dass die -0.0909
-2.6577 dass dieser -0.0931
-1.9113 dass drei -0.1018
-2.6577 dass du -0.0654
-1.6407 dass ein -0.1646
-2.1397 dass er 0.0096
-0.3857 dass es -0.3252
-2.6577 dass hm -0.0895
-2.6577 dass ist -0.1006
-2.6577 dass ja 0.0365
-2.1397 dass links -0.1021
-2.1397 dass mit -0.0227
-2.6577 dass passt -0.0768
-2.6577 dass praktisch -0.0968
-2.6577 dass rechts -0.1019
-1.6407 dass sich -0.0931
-1.9113 dass sie -0.0669
-2.6577 dass sieht -0.1016
-2.6577 dass untere 0.0278
-2.1397 dass vom -0.0743
-2.1397 dass von 0.0257
-2.6577 dass wenn 0.4234
-2.6577 dass zwei -0.0991
-1.6407 dass äh -0.1535
-1.9113 dass ähm -0.0658
-0.6669 davon </s> 2.6956
-0.8953 davon das -0.0910
-1.4133 davon der -0.1043
-1.4133 davon gibt 0.1640
-0.8953 davon noch 0.1262
-0.4590 dazu nichts -0.0514
-0.7601 dazwischen ein -0.0240
-0.7601 dazwischen frei -0.0972
-1.1580 de das -0.0942
-1.1580 de der -0.1032
-0.6400 de in -0.0414
-1.1580 de liegt -0.1011
-2.6494 dem $K 0.0806
-2.6494 dem $L -0.1027
-2.6494 dem $T 0.3179
-2.6494 dem $W -0.0953
-2.1314 dem </s> 2.8996
-2.6494 dem Auswahlfeld 0.0806
-2.6494 dem Bauch 0.3589
-2.6494 dem Bein 0.0825
-2.1314 dem Boden 0.2705
-1.2872 dem Elefanten 0.0765
-2.6494 dem Ende 0.2994
-2.1314 dem Fuß -0.0956
-2.6494 dem Hals -0.0909
-2.6494 dem Haufen -0.0219
-2.1314 dem Hintern 0.1942
-2.6494 dem Höckerteil 0.0806
-1.4538 dem Kopf -0.3712
-2.6494 dem Kreuz -0.0895
-2.1314 dem Loch -0.2673
-2.6494 dem Mittelteil 0.0806
-2.6494 dem Ohr -0.0219
-2.6494 dem Pömpel 0.0806
-2.6494 dem Rand -0.0159
-2.6494 dem Rechteck -0.0972
-2.1314 dem Rücken -0.0935
-2.6494 dem Schwanz 0.0806
-2.1314 dem Teil 0.0718
-2.6494 dem Tier -0.0514
-2.6494 dem Unterbauch 0.0806
-2.6494 dem Unterteil -0.0514
-2.6494 dem an -0.0532
-2.6494 dem aus -0.1034
-2.6494 dem ausgesparten -0.0219
-1.4997 dem bereits -0.2136
-2.1314 dem blauen -0.0855
-2.6494 dem den -0.1042
-1.9030 dem die -0.1991
-1.4538 dem dritten 0.1573
-2.1314 dem ein -0.0866
-2.6494 dem eine -0.1025
-2.1314 dem einen -0.0895
-2.6494 dem einzufügendem 0.0806
-2.1314 dem genau 0.0982
-2.6494 dem gesamten -0.0219
-1.9030 dem grünen -0.0055
-2.1314 dem in -0.0935
-2.1314 dem leeren 0.1633
-1.4997 dem linken -0.0734
-2.6494 dem links -0.0669
-2.6494 dem markierten 0.0806
-1.9030 dem mit 0.1722
-1.6324 dem mittleren 0.0810
-2.6494 dem oben -0.0659
-1.5588 dem oberen -0.1030
-2.1314 dem obersten 0.0096
-1.0442 dem rechten -0.2205
-2.6494 dem rechts -0.1043
-2.6494 dem so 0.1749
-2.6494 dem stehenden 0.0806
-2.6494 dem und -0.1046
-2.6494 dem unterem 0.0806
-1.9030 dem unteren -0.0814
-2.6494 dem unterstem 0.0806
-1.6324 dem untersten -0.2123
-2.1314 dem von 0.0038
-2.6494 dem vorderem 0.0806
-2.1314 dem was -0.1003
-2.6494 dem weißen -0.0272
-2.6494 dem zusätzlichen -0.0219
-2.6494 dem zwei -0.1031
-1.9030 dem zweiten -0.0827
-1.5588 dem äh -0.0902
-2.6494 dem ähm -0.0789
-2.8656 den Abschluss 0.0806
-2.8656 den Balken -0.0207
-1.0641 den Bauch -0.0513
-1.5035 den Baustein -0.1305
-2.8656 den Bausteinen -0.0972
-2.3476 den Beinen 0.0806
-1.7750 den Boden 0.1281
-1.6700 den Elefanten 0.0623
-2.8656 den F 0.0806
-2.8656 den Fu 0.0806
-1.3651 den Fuß -0.3799
-2.8656 den Fußboden 0.0806
-1.6700 den Hals 0.0308
-2.8656 den Hintern 0.1040
-1.7159 den Höcker 0.0764
-2.8656 den Kamel -0.0877
-2.8656 den Klotz 0.0806
-1.1761 den Kopf -0.3141
-2.8656 den Po -0.0514
-2.3476 den Popo 0.0806
-2.3476 den Qua 0.0816
-1.8486 den Quader -0.1399
-2.8656 den Quadrat -0.0952
-2.8656 den R 0.0806
-1.0843 den Rand -0.0147
-2.8656 den Rumpf -0.0654
-1.2304 den Rücken -0.0925
-2.3476 den Rüssel -0.0219
-2.3476 den Stab 0.0816
-2.3476 den Vorderfuß -0.0788
-2.3476 den Winkel 0.0052
-2.8656 den Würfel -0.0987
-2.8656 den aller -0.0514
-2.8656 den allerrecht 0.0806
-2.8656 den am -0.0955
-2.8656 den an -0.0270
-1.7159 den anderen -0.2195
-1.6700 den beiden -0.0140
-2.3476 den bereits 0.0137
-1.7750 den blauen -0.0034
-2.8656 den den -0.1029
-2.3476 den der -0.0992
-2.8656 den drehen -0.0763
-1.6700 den drei -0.0845
-2.3476 den einmal -0.1716
-2.8656 den freien -0.0219
-2.3476 den ganz -0.0161
-2.8656 den genau -0.1030
-1.8486 den grünen -0.0316
-2.8656 den hinteren -0.0219
-2.8656 den lege 0.9134
-2.8656 den letzten -0.0735
-1.3274 den linken -0.2927
-2.8656 den mit 0.0594
-2.8656 den nach -0.0379
-2.3476 den nehmen 0.5252
-1.7159 den oberen -0.2277
-2.8656 den recht -0.0735
-1.2604 den rechten -0.1546
-1.7159 den unteren -0.2071
-1.8486 den vorderen -0.0931
-2.8656 den was -0.1026
-2.8656 den wir -0.1027
-2.8656 den zu -0.0939
-2.3476 den zwei -0.0973
-2.8656 den zweiten -0.0976
-2.3476 den Übergang 0.1942
-2.8656 den ähm -0.1041
-0.4590 denen nehmen 0.7081
-0.5431 denn </s> 2.8996
-0.5431 denn das -0.0991
-2.9448 der </s> 3.0824
-2.1984 der Art -0.0792
-2.9448 der Auswuchtung 0.0806
-2.9448 der Außenkante -0.0219
-2.1984 der Bauch 0.2599
-2.9448 der Bauchdecke 0.0806
-2.9448 der Bauchlinie 0.0806
-2.1984 der Baustein -0.0557
-2.9448 der Buchstabe 0.0806
-2.9448 der Dreierriegel 0.2644
-1.2553 der Ecke -0.3198
-2.9448 der Elefantenfigur 0.0806
-1.9278 der Elefantenzielfigur 0.0126
-2.9448 der Fi 0.0806
-1.2304 der Figur 0.0084
-2.9448 der Geraden -0.0219
-2.9448 der Hals -0.0909
-2.9448 der Höcker -0.0855
-1.9278 der Kante 0.0161
-2.9448 der Kopf 0.1382
-2.9448 der Kopfseite 0.0806
-2.9448 der Linie -0.0921
-2.9448 der M 0.0806
-0.7149 der Mitte 0.0214
-2.9448 der Mittelkante -0.0219
-2.9448 der Mittellinie -0.0514
-1.9278 der Oberkante 0.1381
-2.1984 der Oberseite 0.0806
-2.9448 der Po -0.0514
-2.9448 der Rest -0.0219
-2.9448 der Rücken -0.0992
-2.9448 der Rüssel -0.0654
-2.4268 der Seite -0.2785
-2.9448 der Sitz 0.0806
-2.9448 der Stelle -0.0895
-2.9448 der Treppe -0.0982
-2.1984 der Unterkante 0.4646
-2.4268 der Unterseite -0.0398
-2.9448 der Unterteil -0.0514
-1.5315 der Zielfigur -0.0294
-2.9448 der abstehende 0.0806
-2.9448 der an -0.0591
-2.9448 der andere -0.0514
-2.9448 der anderen -0.0921
-2.9448 der aus -0.0558
-2.9448 der bei 0.2279
-2.9448 der berei 0.0806
-2.4268 der das -0.1024
-2.4268 der dort -0.0867
-2.9448 der eine -0.1025
-2.9448 der einen -0.0972
-2.9448 der einzigen 0.0806
-2.9448 der erste -0.0654
-1.9278 der ganz 0.0192
-2.9448 der grenzt -0.0648
-2.9448 der halt -0.0712
-2.9448 der hinausstehende 0.0806
-2.9448 der hm -0.1002
-2.4268 der hübschen -0.0219
-2.4268 der in 0.0305
-2.9448 der ist -0.0886
-2.9448 der letzten -0.0735
-2.9448 der lin -0.0514
-1.7492 der linke -0.0914
-1.1055 der linken -0.7399
-2.4268 der längere 0.0816
-2.4268 der mit 0.1577
-2.9448 der nach 0.0648
-2.1984 der obere -0.0471
-1.9278 der oberen -0.0861
-2.9448 der passt -0.0403
-2.9448 der rechte -0.1021
-1.1847 der rechten -0.4538
-2.9448 der rechteste 0.0806
-2.1984 der rechts -0.4365
-2.9448 der richtigen 0.0806
-2.9448 der schaut 0.0806
-2.4268 der schon -0.0654
-1.8542 der so -0.5359
-2.9448 der und -0.1008
-2.1984 der untere -0.0927
-1.5826 der unteren -0.0919
-2.9448 der unterste -0.0735
-2.9448 der untersten -0.0855
-2.9448 der vorder 0.0806
-2.4268 der wird -0.0250
-2.9448 der wo -0.0921
-2.4268 der zeigt 0.0079
-2.9448 der zu -0.0939
-2.9448 der zwei -0.1031
-2.9448 der zweite -0.0968
-1.3396 der zweiten -0.0879
-2.9448 der Öffnung 0.0806
-2.9448 der äh -0.1038
-2.7729 des $C's 0.0806
-2.0265 des $T 0.3361
-2.0265 des $Z's 0.0806
-2.7729 des Auswahlfeldes 0.0806
-2.2549 des Bauchraumes 0.0806
-2.7729 des Bausteines -0.0219
-2.7729 des Beines 0.0806
-2.7729 des Bildes 0.0806
-2.7729 des Bio 0.0806
-2.7729 des Dreiers 0.0806
-1.2347 des Dromedars 0.0584
-2.7729 des Dromedarzielobjektes 0.0806
-2.7729 des Ele 0.0806
-0.6704 des Elefanten -0.0099
-2.7729 des Elefantenbauches 0.0806
-1.7559 des Elefantens 0.0806
-2.7729 des Fußes -0.0219
-2.0265 des Halses 0.0806
-2.7729 des Höckers 0.0806
-0.6704 des Kamels 0.0767
-1.6823 des Kopfes 0.0806
-2.2549 des Kreuzes 0.0806
-1.6823 des Quadrates 0.0809
-1.5774 des Quadrats 0.0417
-1.0351 des Rechtecks 0.0807
-2.7729 des Rumpfes 0.0806
-2.0265 des Rückens 0.0812
-1.2725 des Teils 0.0583
-1.3596 des Tieres 0.1522
-2.7729 des Vierecks 0.0806
-2.7729 des Vorderbeins 0.0806
-2.2549 des Würfels 0.0806
-2.7729 des Zweierriegels 0.0806
-2.7729 des der -0.0785
-2.7729 des dis -0.0735
-2.7729 des ersten 0.0806
-2.7729 des linken -0.1020
-2.7729 des längeren 0.0806
-2.7729 des sieht 0.6130
-2.7729 des so 0.1749
-2.7729 des umgedrehten -0.0219
-2.7729 des unteren -0.0904
-2.7729 des vorderen -0.0735
-2.2549 des weißen -0.2101
-2.7729 des äh -0.1038
-2.4725 die </s> 2.8996
-2.9905 die Basis 0.0806
-2.9905 die Bausteine -0.0972
-2.4725 die Beine 0.0806
-1.3274 die Ecke 0.2864
-2.9905 die Elefantenzielfigur -0.0735
-1.0691 die Figur -0.0479
-2.9905 die Figuren -0.0514
-2.9905 die Gerade 0.2956
-2.9905 die Gnubbel -0.1028
-2.9905 die Körpermitte 0.0806
-2.2441 die Lücke 0.1384
-1.1513 die Mitte -0.0406
-2.9905 die Mittelkante -0.0219
-2.4725 die Mittellinie 0.0096
-2.9905 die Nummer -0.0219
-2.9905 die Oberkante 0.1081
-2.2441 die Passform 0.0812
-2.9905 die Position -0.0855
-2.9905 die Quadrate -0.0219
-2.9905 die Rückenlinie 0.0806
-2.9905 die Schenkel -0.0789
-2.9905 die Schnauze 0.2644
-2.4725 die Schulter 0.0816
-2.9905 die Spitze 0.0806
-1.9735 die Stange 0.0810
-2.9905 die Steine -0.0921
-2.9905 die Stelle -0.0895
-1.9735 die Treppe -0.2339
-2.9905 die Unterkante 0.4522
-2.2441 die Unterseite -0.2787
-2.4725 die Vier 0.1248
-2.9905 die Viererkette 0.0806
-2.9905 die Wand 0.2644
-1.8999 die Zielfigur -0.3407
-2.9905 die a -0.0735
-2.9905 die alle -0.0514
-2.9905 die am -0.0955
-1.8999 die an 0.0656
-2.9905 die andere -0.0514
-2.2441 die anderen -0.1601
-2.9905 die auch -0.0964
-2.9905 die auf 0.1702
-2.9905 die aussieht 0.7059
-2.9905 die bei -0.0855
-2.2441 die bereits 0.0444
-1.7950 die blauen -0.0562
-1.9735 die da -0.1467
-2.9905 die das -0.1046
-2.9905 die dass -0.0492
-2.9905 die den -0.0675
-1.4175 die die -0.1460
-2.4725 die diese -0.0926
-2.9905 die diesen -0.0931
-2.4725 die dieses -0.0556
-2.9905 die dort -0.0959
-2.9905 die drehen -0.0075
-1.6284 die drei -0.1921
-2.9905 die dritte -0.0827
-2.9905 die eine -0.0752
-2.9905 die einmal 0.0713
-2.2441 die erste -0.0149
-2.4725 die fehlende 0.0806
-2.9905 die folgendermaßen -0.0654
-2.9905 die fünf -0.0748
-2.4725 die ganz -0.0122
-2.9905 die ganze 0.0806
-2.4725 die gegeneinander -0.0788
-2.2441 die genau -0.1671
-2.9905 die gerade -0.0827
-2.4725 die grenzt -0.0572
-2.9905 die horizontalen 0.0806
-2.4725 die ich -0.0924
-1.7950 die in -0.2687
-2.9905 die kommt 0.0133
-2.2441 die lange 0.0812
-1.3274 die linke -0.2301
-2.2441 die linken -0.2054
-2.4725 die links -0.2477
-2.4725 die mittlere -0.2286
-1.8408 die nach 1.4334
-2.9905 die nebeneinander -0.0726
-2.9905 die noch -0.1020
-1.3854 die obere -0.4675
-2.9905 die oberen -0.1002
-2.9905 die oberste -0.0219
-2.9905 die pack -0.0219
-2.9905 die passt -0.0403
-2.9905 die praktisch -0.0968
-2.9905 die recht -0.0735
-1.1698 die rechte -0.1344
-2.9905 die rechten -0.1027
-2.9905 die rechts -0.0514
-2.9905 die schiebt 0.0806
-2.4725 die schon -0.2206
-2.9905 die schwierig 0.0806
-2.9905 die sich -0.0376
-2.9905 die sind -0.0853
-1.8999 die so -0.2251
-1.6284 die untere -0.1100
-1.9735 die unteren -0.1419
-2.9905 die unterste -0.0735
-2.9905 die vertikal -0.1031
-2.9905 die vier -0.0777
-2.4725 die waagerecht -0.0459
-2.9905 die we -0.0219
-2.9905 die wir -0.1027
-2.4725 die zeigen -0.0654
-2.9905 die ziemlich -0.0514
-1.9735 die zwei 0.0283
-2.4725 die zweite -0.0693
-1.8999 die äh -0.1482
-2.4725 die ähm -0.1034
-2.9905 die übrig -0.0219
-0.7601 dies die -0.0879
-0.7601 dies wie -0.1040
-1.1106 diese Art -0.0792
-0.8400 diese Bausteine -0.2172
-1.8570 diese Ecke -0.0989
-1.8570 diese Figur -0.1025
-1.3390 diese Form -0.0219
-1.8570 diese Kreuzfigur -0.0219
-1.8570 diese Linie -0.0921
-1.8570 diese Löcher -0.0654
-1.8570 diese Lücke 0.0156
-1.8570 diese Riegel -0.0219
-1.8570 diese bereits -0.0816
-1.8570 diese drei 0.0049
-1.8570 diese halt -0.0853
-1.8570 diese hübsche 0.0806
-1.8570 diese kleine -0.0895
-1.8570 diese vier -0.0890
-1.1106 diese zwei -0.0893
-1.7143 diesem $W -0.0953
-1.7143 diesem Baustein -0.0879
-1.1963 diesem Loch -0.0781
-1.7143 diesem Passbild 0.0806
-1.7143 diesem Quadrat -0.1019
-1.7143 diesem Rechteck -0.0792
-1.7143 diesem Strich 0.2644
-0.9679 diesem Viereck -0.0518
-1.7143 diesem gedrehten 0.0806
-1.1963 diesem hübschen -0.0219
-1.1963 diesem in 0.0232
-1.7143 diesem rechten -0.0737
-1.7143 diesem schönen -0.0219
-1.5730 diesen Baustein 0.0501
-1.5730 diesen Po -0.0514
-1.5730 diesen Rücken -0.0992
-1.5730 diesen Stein -0.0827
-1.5730 diesen Vogel 0.0806
-1.5730 diesen drehen -0.0075
-1.0550 diesen drei -0.0916
-1.5730 diesen fünf -0.0996
-1.5730 diesen neben -0.0514
-1.5730 diesen rechten -0.0978
-1.5730 diesen und -0.0867
-1.5730 diesen zwei -0.0864
-0.3774 dieser Figur 0.0017
-1.5730 dieser Linie -0.0921
-1.5730 dieser Stelle -0.0895
-1.5730 dieser also -0.1034
-1.5730 dieser dieses -0.1022
-1.5730 dieser großen -0.0514
-1.5730 dieser schönen -0.0219
-1.5730 dieser von -0.0927
-1.4761 dieses $C -0.0735
-2.2225 dieses $I -0.0128
-2.2225 dieses $U -0.1009
-2.2225 dieses $Z -0.0778
-2.2225 dieses Bild -0.0219
-1.1319 dieses Loch -0.0979
-2.2225 dieses Tei -0.0514
-0.1402 dieses Teil -0.1795
-2.2225 dieses dieses -0.0901
-2.2225 dieses dis 0.0082
-2.2225 dieses um 0.6997
-0.4658 direkt an 0.1871
-2.0388 direkt auf 0.1702
-2.0388 direkt drauf -0.0735
-2.0388 direkt ganz -0.0119
-2.0388 direkt hin 0.0366
-0.8891 direkt in 0.3884
-1.5208 direkt links -0.0761
-2.0388 direkt mit -0.1034
-2.0388 direkt passförmig 0.0806
-1.2924 direkt so -0.4693
-1.5208 direkt unten -0.0443
-1.5208 direkt unter -0.0810
-1.5208 direkt äh -0.0875
-2.0388 direkt über 0.2834
-1.1580 dis Teil -0.1007
-1.1580 dis d 0.0417
-0.6400 dis das -0.0996
-1.1580 dis dis 0.0082
-1.2372 doch er -0.0514
-1.2372 doch horizontal -0.0738
-1.2372 doch muss 0.1504
-1.2372 doch nicht -0.0328
-1.2372 doch richtig -0.0219
-1.2372 doch um 0.6997
-1.1715 dort </s> 2.8996
-1.6895 dort an -0.1042
-1.6895 dort anschaut 0.0806
-1.1715 dort befindlichen -0.0219
-1.6895 dort die -0.1002
-1.6895 dort drei 0.0049
-1.6895 dort in -0.1009
-1.6895 dort innerhalb 0.2644
-1.6895 dort ist -0.0841
-1.6895 dort liegendem 0.4522
-1.6895 dort noch -0.1020
-1.1715 dort passt -0.0751
-1.6895 dort sind -0.0934
-1.6895 dort so -0.1041
-0.4590 dr drei 0.0049
-0.4233 dran </s> 2.5530
-1.0550 dran hat 0.2174
-1.5730 dran hängen 0.0806
-1.5730 dran ist 0.0657
-1.5730 dran liegt 0.3319
-1.5730 dran und -0.1046
-0.6400 drauf </s> 2.8996
-1.1580 drauf an -0.1042
-1.1580 drauf gesetzt 0.1756
-1.1580 drauf und -0.1008
-1.2372 dreh dieses 0.4545
-0.7192 dreh es -0.0742
-1.2372 dreh ihn -0.0959
-0.7192 dreh sie -0.0909
-1.9323 drehe das -0.1097
-0.7608 drehe dieses -0.4557
-0.1162 drehe es -1.0843
-1.7039 drehe ihn -0.1309
-2.4503 drehe sie -0.0979
-1.7143 drehen an -0.0014
-1.1963 drehen das -0.1044
-1.1963 drehen den -0.2857
-1.7143 drehen doch -0.0789
-1.1963 drehen es -0.0593
-1.7143 drehen ihn -0.0523
-1.7143 drehen in 0.0252
-1.7143 drehen ist -0.0912
-1.7143 drehen sie -0.0979
-1.1963 drehen und -0.2571
-0.6973 drehen wir -0.2736
-0.4590 drehst </s> 3.0824
-0.4590 dreht </s> 3.0824
-2.4719 drei </s> 3.0824
-1.9539 drei Bausteine -0.2434
-1.7255 drei Bausteinen -0.0629
-1.4549 drei Blöcke 0.2021
