#############################################################################
## Copyright (c) 1996, Carnegie Mellon University, Cambridge University,
## Ronald Rosenfeld and Philip Clarkson
## Version 3, Copyright (c) 2006, Carnegie Mellon University 
## Contributors includes Wen Xu, Ananlada Chotimongkol, 
## David Huggins-Daines, Arthur Chan and Alan Black 
#############################################################################
=============================================================================
===============  This file was produced by the CMU-Cambridge  ===============
===============     Statistical Language Modeling Toolkit     ===============
=============================================================================
This is a 3-gram language model, based on a vocabulary of 2350 words,
  which begins "$B", "$C", "$C's"...
This is an OPEN-vocabulary model (type 1)
  (OOVs were mapped to UNK, which is treated as any other vocabulary word)
Good-Turing discounting was applied.
1-gram frequency of frequency : 971 
2-gram frequency of frequency : 12478 2403 1018 597 381 254 186 
3-gram frequency of frequency : 29677 2921 899 450 254 187 97 
1-gram discounting ratios : 1.00 
2-gram discounting ratios : 0.33 0.60 0.76 0.78 0.78 0.84 0.83 
3-gram discounting ratios : 0.18 0.45 0.66 0.70 0.88 0.60 0.91 
This file is in the ARPA-standard format introduced by Doug Paul.

p(wd3|wd1,wd2)= if(trigram exists)           p_3(wd1,wd2,wd3)
                else if(bigram w1,w2 exists) bo_wt_2(w1,w2)*p(wd3|wd2)
                else                         p(wd3|w2)

p(wd2|wd1)= if(bigram exists) p_2(wd1,wd2)
            else              bo_wt_1(wd1)*p_1(wd2)

All probs and back-off weights (bo_wt) are given in log10 form.

Data formats:

Beginning of data mark: \data\
ngram 1=nr            # number of 1-grams
ngram 2=nr            # number of 2-grams
ngram 3=nr            # number of 3-grams

\1-grams:
p_1     wd_1 bo_wt_1
\2-grams:
p_2     wd_1 wd_2 bo_wt_2
\3-grams:
p_3     wd_1 wd_2 wd_3 

end of data mark: \end\

\data\
ngram 1=2350
ngram 2=18343
ngram 3=35049

\1-grams:
-4.7290 $B	-0.1281
-3.2367 $C	-0.2913
-4.7290 $C's	-0.1674
-3.7739 $E	-0.2558
-3.7281 $F	-0.3033
-3.7739 $I	-0.3451
-4.7290 $K	-0.1281
-2.5758 $L	-0.2350
-3.2657 $M	-0.1418
-4.7290 $N	-0.1281
-4.7290 $P	-0.1701
-3.0654 $S	-0.3925
-2.8143 $T	-0.2964
-4.1261 $T's	-0.1613
-3.0847 $U	-0.5125
-2.7596 $W	-0.3098
-4.7290 $W's	-0.1669
-3.0654 $Y	-1.4253
-2.4728 $Z	-0.4446
-4.2510 $Z's	-0.1221
-4.7290 'es	-0.1706
-3.5520 'is	-0.0870
-3.6489 'm	-0.2445
-2.1587 'n	-0.4459
-2.7325 'ne	-0.3681
-3.6489 'nem	-0.2272
-3.4728 'nen	-0.3421
-4.2510 'ner	-0.1662
-2.1966 's	-0.2206
-1.0232 </s>	-3.7050
-99.0000 <s>	-0.8735
-4.7290 Abbildung	-0.1712
-4.7290 Abmessung	-0.1699
-4.4271 Abschluss	-0.1640
-4.2510 Abschnitt	-0.1252
-4.7290 Abschnitte	-0.1593
-3.8250 Abstand	-0.1778
-4.7290 Abzweig	-0.1281
-4.7290 Abzweigungen	-0.1706
-4.7290 Acht	-0.1688
-4.0291 Ahnung	-0.1940
-4.1261 Anfang	-0.2573
-4.4271 Angebot	-0.1500
-4.7290 Anordnung	-0.1680
-4.4271 Anzahl	-0.1678
-3.5520 Art	-0.3399
-4.7290 Aus	-0.1669
-4.4271 Ausbuchtung	-0.1660
-4.7290 Ausbuchtungen	-0.1711
-4.4271 Ausläufer	-0.1662
-4.1261 Ausrichtung	-0.2522
-4.7290 Ausschnitt	-0.1665
-4.7290 Auswahlfeld	-0.1593
-4.7290 Auswahlfeldes	-0.1708
-4.2510 Auswuchs	-0.1223
-4.7290 Auswuchtung	-0.1669
-4.7290 Auswählen	-0.1281
-4.7290 Auß'dings	-0.1663
-4.4271 Außenkante	-0.1667
-4.7290 Außenwände	-0.1680
-3.0121 Balken	-0.6693
-4.7290 Basis	-0.1669
-2.8893 Bauch	-0.4984
-4.4271 Bauchdecke	-0.1713
-4.7290 Bauchlinie	-0.1691
-4.4271 Bauchnabel	-0.1280
-4.7290 Bauchquadrat	-0.1281
-4.4271 Bauchraumes	-0.1668
-4.2510 Bauchseite	-0.1221
-4.7290 Bauchstück	-0.1281
-4.7290 Bauchteil	-0.1685
-4.7290 Bauchteile	-0.1685
-4.7290 Baukästen	-0.1711
-3.2967 Baustein	-0.2795
-3.4271 Bausteine	-0.3643
-3.5240 Bausteinen	-0.2057
-4.4271 Bausteines	-0.1682
-4.7290 Bausteinkomplex	-0.1711
-4.2510 Bauteil	-0.1588
-4.1261 Bayonett	-0.6109
-4.4271 Bedrängnis	-0.3925
-4.7290 Begriffe	-0.1704
-2.9500 Bein	-0.3394
-4.4271 Beinchen	-0.1257
-3.6867 Beine	-0.0971
-3.9500 Beinen	-0.1843
-4.7290 Beines	-0.1711
-4.1261 Beins	-0.3417
-4.2510 Bereich	-0.3065
-4.7290 Beschreibung	-0.1281
-4.7290 Bett	-0.1712
-4.2510 Bild	-0.1591
-4.7290 Bildes	-0.1281
-4.2510 Bildschirm	-0.2628
-4.7290 Bio	-0.1281
-3.7281 Blatt	-0.1720
-4.7290 Blattes	-0.1281
-4.7290 Blattteilen	-0.1713
-4.7290 Bleistiftstriche	-0.1702
-4.4271 Blitz	-0.1703
-2.9500 Block	-0.4181
-4.7290 Blockbuchstaben	-0.1520
-4.7290 Blocks	-0.1711
-4.4271 Blättchen	-0.1699
-3.4977 Blöcke	-0.3381
-3.7281 Blöcken	-0.4447
-4.7290 Blödsinn	-0.1688
-3.8250 Boden	-0.4050
-4.2510 Bogen	-0.1090
-4.2510 Breite	-0.1648
-4.4271 Breitseite	-0.3911
-4.7290 Brille	-0.1713
-4.4271 Brust	-0.1657
-3.7281 Brücke	-0.3895
-4.7290 Buchstabe	-0.1702
-4.7290 Buchstaben	-0.1713
-4.2510 Bumerang	-0.1621
-4.4271 Croissant	-0.3551
-3.4728 Daumen	-0.2887
-4.4271 Delle	-0.1190
-4.7290 Dete	-0.1697
-4.2510 Diagonale	-0.1554
-3.3857 Ding	-0.1959
-4.4271 Dinger	-0.1693
-4.7290 Dingern	-0.1686
-4.4271 Dings	-0.1689
-4.7290 Dozentin	-0.1281
-4.7290 Drei	-0.1281
-3.7281 Dreieck	-0.2148
-4.7290 Dreier	-0.1713
-4.7290 Dreierlinie	-0.1711
-3.7281 Dreierreihe	-0.3842
-4.4271 Dreierriegel	-0.3961
-4.7290 Dreiers	-0.1593
-4.2510 Dreierstück	-0.1614
-4.7290 Dreiersäule	-0.1671
-4.7290 Drittel	-0.1680
-4.7290 Dromedar	-0.1669
-3.6489 Dromedars	-0.3133
-4.7290 Dromedarzielobjektes	-0.1669
-4.7290 Druckbuchstaben	-0.1702
-4.7290 Druckschrift	-0.1704
-4.7290 Ec	-0.1704
-4.7290 Eck	-0.1707
-2.6987 Ecke	-0.3996
-4.2510 Ecken	-0.3083
-4.4271 Eckstück	-0.1624
-4.7290 Eindruck	-0.1281
-3.9500 Einheit	-0.1265
-3.9500 Einheiten	-0.1616
-4.7290 Einkerbung	-0.1680
-3.6489 Eins	-0.2999
-4.7290 Einserteil	-0.1712
-4.7290 Einzel	-0.1713
-4.4271 Einzelstück	-0.1278
-4.4271 Einzelteil	-0.1661
-4.7290 Ele	-0.1707
-3.3664 Elefant	-0.1976
-2.6108 Elefanten	-0.3271
-4.7290 Elefantenbauches	-0.1593
-4.7290 Elefantenfigur	-0.1707
-4.4271 Elefantenfuß	-0.1712
-4.7290 Elefantenkopf	-0.1713
-4.1261 Elefantens	-0.1626
-4.0291 Elefantenzielfigur	-0.2272
-4.0291 Element	-0.1510
-4.2510 Elf	-0.1585
-3.4271 Ende	-0.2771
-4.7290 Enden	-0.1713
-4.4271 Ente	-0.1619
-4.1261 Entschuldigung	-0.1160
-4.7290 Euter	-0.1712
-4.7290 Exoten	-0.1680
-4.7290 Extraquadrat	-0.1713
-4.4271 F	-0.1705
-4.7290 Fa	-0.1700
-3.9500 Fall	-0.0978
-4.4271 Fantasie	-0.1239
-4.7290 Farbe	-0.1281
-4.4271 Farben	-0.1712
-4.2510 Faust	-0.6186
-4.2510 Fehler	-0.1710
-3.2967 Feld	-0.2541
-3.6867 Felder	-0.2797
-4.4271 Feldes	-0.1625
-4.7290 Fenster	-0.1711
-4.7290 Fi	-0.1641
-4.7290 Figu	-0.1685
-2.8830 Figur	-0.2825
-4.1261 Figuren	-0.1581
-4.4271 Finger	-0.1640
-4.7290 Fingern	-0.1707
-4.7290 Fleck	-0.1281
-4.7290 Fläch	-0.1669
-4.2510 Fläche	-0.3055
-4.7290 Flächen	-0.1708
-3.5520 Flügel	-0.1363
-4.7290 Flügeln	-0.1665
-3.3664 Form	-0.1737
-4.4271 Frage	-0.1670
-4.7290 Franziska	-0.1281
-4.4271 Freikästchen	-0.1247
-4.2510 Freiraum	-0.1633
-4.7290 Fu	-0.1662
-2.9357 Fuß	-0.3751
-4.7290 Fußboden	-0.1281
-4.7290 Fußes	-0.1281
-4.4271 Fünf	-0.1668
-3.9500 Füße	-0.1119
-4.1261 Füßen	-0.1674
-4.2510 Ganze	-0.3069
-4.2510 Ganzes	-0.1245
-4.4271 Gebilde	-0.1482
-4.7290 Gedankengang	-0.1704
-4.7290 Geometrie	-0.1281
-3.8830 Gerade	-0.3264
-4.4271 Geraden	-0.1696
-4.7290 Geschmack	-0.1713
-4.7290 Geste	-0.1703
-3.6867 Gewehr	-1.1858
-2.8648 Gnubbel	-0.2764
-4.1261 Gnubbeln	-0.1507
-4.1261 Gnubbels	-0.1489
-4.7290 Golfschläger	-0.1281
-3.4271 Gott	-0.5687
-4.7290 Gottes	-0.1713
-2.5608 Grad	-1.0018
-4.4271 Grund	-0.1591
-4.4271 Grundform	-0.1671
-4.7290 Grundlinie	-0.1665
-4.4271 Grundquadrate	-0.3983
-4.7290 Grundquadraten	-0.1711
-4.7290 Grundraster	-0.1707
-3.9500 Grundrasters	-0.1883
-4.7290 Grundriss	-0.1707
-4.7290 Güte	-0.1281
-4.4271 Haken	-0.1619
-3.9500 Hakenkreuz	-0.2088
-3.5820 Hals	-0.3016
-4.2510 Halses	-0.1232
-4.7290 Han	-0.1708
-3.4977 Hand	-0.2328
-4.4271 Handstand	-0.1280
-3.2096 Handy	-1.2304
-4.7290 Hase	-0.1712
-4.4271 Haufen	-0.1540
-4.4271 Herz	-0.1712
-4.7290 Hinter	-0.1713
-4.7290 Hinterbauch	-0.1642
-3.7281 Hinterbein	-0.1650
-4.1261 Hinterbeine	-0.1239
-4.7290 Hinterbeinen	-0.1694
-4.7290 Hinterbeins	-0.1710
-4.0291 Hinterfuß	-0.1672
-3.5820 Hinterkopf	-0.2092
-3.8250 Hinterlauf	-0.1568
-4.7290 Hinterläufe	-0.1702
-4.1261 Hintern	-0.2628
-4.7290 Hinterpfote	-0.1281
-4.4271 Hinterseite	-0.3961
-3.1599 Hinterteil	-0.2857
-4.7290 Hinterteils	-0.1520
-4.7290 Hitlerhakenkreuz	-0.1708
-4.7290 Hitlers	-0.1713
-4.7290 Hobel	-0.1713
-4.4271 Hockeyschläger	-0.3551
-4.4271 Hufeisen	-0.1186
-4.7290 Hä	-0.1713
-3.3857 Hälfte	-0.3797
-4.7290 Hälften	-0.1713
-4.7290 Hände	-0.1663
-3.8250 Höcker	-0.4028
-4.7290 Höckers	-0.1691
-4.7290 Höckerteil	-0.1691
-3.7739 Höhe	-0.2667
-4.7290 I	-0.1713
-3.9500 Idee	-0.3334
-4.7290 Inhalt	-0.1281
-4.7290 Innenseite	-0.1593
-4.7290 Insel	-0.1713
-4.7290 Jana	-0.1713
-4.7290 Job	-0.1281
-4.7290 Jonas	-0.1281
-3.7739 Kamel	-0.2065
-3.1049 Kamels	-0.3376
-3.4494 Kante	-0.2120
-4.7290 Kanten	-0.1631
-3.7739 Karo	-0.1891
-3.7739 Karos	-0.1905
-4.4271 Kasten	-0.1701
-4.7290 Keile	-0.1713
-4.7290 Kis	-0.1709
-4.7290 Kiste	-0.1702
-4.4271 Kisten	-0.1698
-4.7290 Klotz	-0.1669
-4.4271 Knick	-0.1270
-4.0291 Kolibri	-0.0912
-4.7290 Kombination	-0.1680
-4.4271 Koordinaten	-0.1700
-2.8416 Kopf	-0.3506
-3.9500 Kopfes	-0.1480
-4.0291 Kopfteil	-0.1450
-4.7290 Korsika	-0.1675
-4.4271 Kreu	-0.1582
-2.6526 Kreuz	-0.3651
-4.1261 Kreuzes	-0.1259
-4.4271 Kreuzfigur	-0.1707
-3.7739 Krücke	-0.4798
-4.7290 Kuh	-0.1713
-4.4271 Käse	-0.1666
-2.4951 Kästchen	-0.3374
-3.9500 Körper	-0.1840
-4.7290 Körpermitte	-0.1669
-4.7290 Körperteile	-0.1701
-4.7290 Leerstelle	-0.1669
-4.7290 Legespiel	-0.1710
-4.0291 Lehne	-0.1939
-4.7290 Liegen	-0.1712
-3.4494 Linie	-0.2438
-4.7290 Linien	-0.1702
-3.2510 Loch	-0.2282
-4.2510 Länge	-0.2619
-4.7290 Längsseite	-0.1713
-4.1261 Löcher	-0.2078
-3.3302 Lücke	-0.3886
-4.1261 Lücken	-0.2260
-4.7290 M	-0.1712
-4.7290 Mann	-0.1281
-4.7290 Manu	-0.1281
-4.4271 Markierungen	-0.1697
-4.7290 Martha	-0.1281
-3.4494 Mast	-0.8571
-4.7290 Mathematik	-0.1700
-4.7290 Maul	-0.1691
-4.1261 Maus	-0.6517
-4.2510 Mensch	-0.2652
-4.7290 Mikro	-0.1281
-4.7290 Millimeter	-0.1663
-4.7290 Minuten	-0.1713
-4.7290 Mist	-0.1628
-2.6674 Mitte	-0.3781
-4.7290 Mittelfuß	-0.1691
-4.4271 Mittelkante	-0.1701
-4.2510 Mittellinie	-0.1276
-4.7290 Mittelstrang	-0.1680
-4.7290 Mittelstrich	-0.1712
-4.2510 Mittelteil	-0.1694
-4.4271 Mittelzunge	-0.3982
-3.5520 Moment	-0.2037
-4.0291 Männchen	-0.1649
-4.1261 Männeken	-0.1585
-4.0291 Möglichkeit	-0.1795
-4.4271 Möglichkeiten	-0.1700
-4.7290 Müll	-0.1663
-4.2510 Nacken	-0.1638
-4.7290 Namen	-0.1694
-4.2510 Neun	-0.1450
-4.7290 Norden	-0.1712
-3.0560 Nummer	-0.6289
-4.7290 Nummerierung	-0.1685
-4.0291 Oberkante	-0.3788
-4.2510 Oberseite	-0.1682
-4.1261 Oberstrich	-0.4535
-4.7290 Oberteilen	-0.1694
-4.7290 Objekt	-0.1698
-3.8830 Ohr	-0.1420
-4.2510 Ohren	-0.1695
-4.7290 Ordnung	-0.1712
-4.4271 Orientierungspunkt	-0.1567
-4.7290 Papierhälfte	-0.1710
-4.7290 Pardon	-0.1281
-4.7290 Partie	-0.1693
-4.7290 Passbild	-0.1710
-4.2510 Passform	-0.2654
-4.4271 Pfeil	-0.1668
-4.7290 Pforte	-0.1711
-3.0205 Pistole	-1.5059
-4.7290 Pixeln	-0.1713
-4.4271 Plan	-0.1679
-3.5820 Platz	-0.2086
-3.5240 Plus	-0.3648
-4.1261 Pluszeichen	-0.3940
-4.7290 Plättchen	-0.1708
-4.4271 Po	-0.1710
-4.0291 Popo	-0.1880
-3.6489 Position	-0.3171
-4.4271 Preis	-0.1713
-3.6142 Prinzip	-0.2382
-3.7281 Problem	-0.2205
-4.2510 Probleme	-0.1581
-4.2510 Punkt	-0.2624
-4.7290 Punktes	-0.1691
-4.2510 Puzzle	-0.1481
-4.7290 Puzzlebrett	-0.1281
-4.2510 Puzzleteil	-0.1487
-4.4271 Puzzleteile	-0.1696
-4.7290 Puzzleteils	-0.1281
-4.7290 Pömpel	-0.1669
-4.4271 Qu	-0.1660
-4.1261 Qua	-0.2636
-3.4728 Quader	-0.0989
-4.1261 Quadern	-0.1652
-4.7290 Quadra	-0.1700
-2.5213 Quadrat	-0.3211
-2.9647 Quadrate	-0.2870
-3.2967 Quadraten	-0.2101
-4.0291 Quadrates	-0.2367
-4.7290 Quadratfläche	-0.1708
-4.7290 Quadratreihe	-0.1669
-3.9500 Quadrats	-0.2707
-4.4271 Quartal	-0.1704
-4.7290 Querbalken	-0.1713
-4.7290 Querstrich	-0.1677
-4.7290 R	-0.1677
-4.7290 Ra	-0.1708
-2.8956 Rand	-0.3345
-4.4271 Raum	-0.1280
-4.7290 Rech	-0.1709
-4.7290 Recht	-0.1662
-3.0379 Rechteck	-0.2028
-4.2510 Rechtecke	-0.1629
-4.4271 Rechtecken	-0.1516
-3.4728 Rechtecks	-0.4334
-4.7290 Rei	-0.1676
-2.9722 Reihe	-0.3881
-4.1261 Reihen	-0.1647
-3.8250 Reihenfolge	-0.1072
-3.9500 Rest	-0.1646
-3.5820 Richtung	-0.1763
-4.4271 Richtungen	-0.1591
-4.4271 Riegel	-0.1593
-4.7290 Riegels	-0.1676
-4.7290 Rotes	-0.1703
-3.7739 Rucksack	-0.1056
-4.1261 Rumpf	-0.2512
-4.7290 Rumpfes	-0.1669
-2.8956 Rücken	-0.2814
-4.2510 Rückenlehne	-0.2647
-4.4271 Rückenlinie	-0.1658
-4.1261 Rückens	-0.2620
-4.1261 Rückenteil	-0.1635
-4.7290 Rückenteilchen	-0.1682
-3.0654 Rüssel	-0.2591
-4.7290 S	-0.1665
-4.4271 Sachen	-0.1640
-4.4271 Sattel	-0.1634
-4.2510 Schachbrett	-0.2655
-4.7290 Schen	-0.1641
-3.7739 Schenkel	-0.1926
-4.7290 Schenkeln	-0.1281
-3.8250 Schlange	-0.1945
-4.4271 Schnauze	-0.3863
-3.7739 Schornstein	-0.2010
-4.7290 Schrift	-0.1698
-4.4271 Schräge	-0.3551
-4.4271 Schulter	-0.3863
-4.2510 Schwanz	-0.1269
-4.7290 Schwierigkeiten	-0.1685
-4.7290 Schädel	-0.1713
-4.4271 Sechs	-0.3944
-2.6562 Seite	-0.2986
-3.9500 Seiten	-0.1218
-4.7290 Sessel	-0.1281
-4.7290 Sicherheit	-0.1701
-3.0291 Sieben	-0.5060
-4.7290 Sinn	-0.1711
-4.7290 Sitz	-0.1713
-4.7290 Sitze	-0.1631
-4.7290 Sitzfläche	-0.1663
-4.7290 Sonderquadrat	-0.1662
-3.2510 Spalte	-0.6285
-4.2510 Spalten	-0.1513
-4.7290 Spiegelachse	-0.1694
-4.4271 Spiel	-0.1280
-4.0291 Spielplan	-0.1546
-4.7290 Spielplans	-0.1593
-4.7290 Spielregeln	-0.1686
-4.7290 Spielteile	-0.1705
-3.7739 Spitze	-0.1837
-4.7290 Sprechstunde	-0.1680
-3.8830 Stab	-0.0933
-4.1261 Stange	-0.2158
-4.7290 Steffi	-0.1713
-3.2367 Stein	-0.0986
-4.4271 Steinchen	-0.1658
-3.5520 Steine	-0.0796
-4.1261 Steinen	-0.1236
-3.5820 Stelle	-0.1658
-4.4271 Stern	-0.1228
-4.7290 Sternzacken	-0.1698
-4.1261 Stirn	-0.2631
-4.7290 Streifen	-0.1663
-3.4977 Strich	-0.2691
-4.1261 Striche	-0.1620
-4.7290 Struktur	-0.1710
-3.4494 Stufe	-0.1795
-3.8830 Stufen	-0.2587
-4.7290 Stufenabsatz	-0.1281
-4.7290 Stufenhöhe	-0.1706
-3.4977 Stuhl	-0.1675
-4.7290 Stuhllehne	-0.1704
-4.7290 Stäbe	-0.1711
-4.4271 Stü	-0.1576
-2.9877 Stück	-0.2798
-3.8830 Stückchen	-0.2842
-4.1261 Stücke	-0.1610
-4.7290 Symbol	-0.1281
-3.8830 Säule	-0.5563
-4.4271 Säulen	-0.1688
-4.4271 T	-0.1629
-4.7290 Talkis	-0.1685
-4.4271 Tei	-0.1457
-1.8612 Teil	-0.4902
-4.7290 Teilbaustein	-0.1641
-4.2510 Teilchen	-0.1250
-2.8360 Teile	-0.3885
-3.3302 Teilen	-0.2769
-3.6142 Teils	-0.1613
-4.7290 Teilung	-0.1641
-4.4271 Tetris	-0.1267
-4.2510 Tier	-0.1223
-4.1261 Tierchen	-0.2078
-3.7739 Tieres	-0.3169
-4.7290 Tor	-0.1281
-4.7290 Toreinfahrt	-0.1703
-2.6075 Treppe	-0.3083
-4.4271 Treppenabsatz	-0.1699
-4.7290 Treppendinger	-0.1682
-4.7290 Treppenform	-0.1705
-4.7290 Treppenstufe	-0.1707
-4.7290 Treppenteil	-0.1674
-4.7290 Treppenähnliches	-0.1687
-4.2510 Tschuldigung	-0.5782
-4.7290 Uhrzeiger	-0.1281
-3.7281 Uhrzeigersinn	-0.3214
-3.8830 Umriss	-0.2035
-4.4271 Umrissmodell	-0.1660
-4.7290 Umschreibung	-0.1705
-4.7290 Unterbauch	-0.1691
-4.0291 Unterkante	-0.4961
-3.6142 Unterseite	-0.2748
-4.2510 Unterteil	-0.1597
-4.7290 Verbindung	-0.1665
-4.2510 Verlängerung	-0.1536
-4.7290 Version	-0.1685
-3.5520 Vier	-0.5338
-3.5520 Viereck	-0.2871
-4.1261 Vierecke	-0.2207
-4.7290 Vierecken	-0.1685
-4.7290 Vierecks	-0.1713
-4.7290 Viererkette	-0.1281
-4.7290 Viererlinie	-0.1685
-3.9500 Viertel	-0.1771
-4.4271 Vorder	-0.1684
-4.7290 Vorderbei	-0.1665
-3.3479 Vorderbein	-0.2162
-3.6867 Vorderbeins	-0.2337
-3.5520 Vorderfuß	-0.2162
-4.7290 Vorderfußes	-0.1712
-4.7290 Vorderkante	-0.1691
-4.4271 Vorderkopf	-0.1511
-4.0291 Vorderlauf	-0.0958
-4.7290 Vorderläufen	-0.1281
-4.7290 Vorderseite	-0.1691
-4.7290 Vorstellung	-0.1693
-4.7290 Vortrag	-0.1713
-4.7290 Walki	-0.1713
-4.7290 Wand	-0.1669
-4.7290 Wasserhahn	-0.1281
-4.7290 Weg	-0.1707
-3.8250 Weise	-0.2770
-4.4271 Willen	-0.1275
-4.7290 Win	-0.1281
-2.7987 Winkel	-0.4620
-4.4271 Winkelteil	-0.1691
-4.4271 Worten	-0.1498
-3.5240 Würfel	-0.4622
-4.4271 Würfels	-0.1669
-4.7290 Ypsilon	-0.1702
-4.4271 Zacken	-0.1657
-4.2510 Zahlen	-0.2640
-4.7290 Zehn	-0.1631
-4.7290 Zeichen	-0.1711
-4.7290 Zeichnung	-0.1693
-4.7290 Zeilchen	-0.1712
-3.4494 Zeile	-0.2295
-4.0291 Zeilen	-0.3670
-4.1261 Zeit	-0.1680
-4.7290 Zettel	-0.1593
-4.7290 Zettels	-0.1281
-4.7290 Zickzack	-0.1281
-4.7290 Zickzackeecke	-0.1682
-4.7290 Zickzacklinie	-0.1710
-3.6489 Zielfigur	-0.3408
-4.7290 Zielobjekt	-0.1662
-4.7290 Zipfel	-0.1682
-4.7290 Zusatzteil	-0.1671
-3.6867 Zwei	-0.1645
-4.7290 Zweierding	-0.1281
-4.0291 Zweierreihe	-0.1643
-4.7290 Zweierriegel	-0.1710
-4.7290 Zweierriegels	-0.1281
-4.7290 Zweierteil	-0.1708
-4.7290 Zwölf	-0.1631
-3.7739 a	-0.3396
-3.1483 ab	-0.5049
-4.7290 abdecke	-0.1677
-2.3608 aber	-0.2795
-4.7290 abfällt	-0.1682
-4.7290 abgebissen	-0.1688
-4.7290 abgebrochen	-0.1688
-4.7290 abgeh'n	-0.1631
-4.7290 abgehen	-0.1281
-4.7290 abgehend	-0.1712
-4.7290 abgeht	-0.1281
-4.7290 abgelegt	-0.1281
-4.4271 abgeschlossen	-0.1657
-4.7290 abgeschnitten	-0.1705
-4.7290 abgeteilt	-0.1685
-4.7290 abschließ'n	-0.1593
-3.6142 abschließen	-0.6402
-4.2510 abschließende	-0.3085
-3.3302 abschließt	-0.8244
-4.7290 abseits	-0.1713
-4.4271 abstehen	-0.3901
-4.7290 abstehende	-0.1710
-4.7290 absteht	-0.1641
-4.7290 abstößt	-0.1665
-4.4271 abwechselnd	-0.1713
-4.7290 abweichen	-0.1281
-4.7290 abweichenden	-0.1713
-4.7290 abwärts	-0.1281
-4.0291 abzähl'n	-0.1163
-4.7290 abzählt	-0.1708
-2.8250 ach	-0.5902
-3.8250 acht	-0.0816
-4.7290 achte	-0.1692
-4.7290 achten	-0.1711
-2.9500 ah	-0.2762
-3.4728 aha	-0.3368
-3.1261 alle	-0.7578
-4.7290 alleinstehende	-0.1713
-4.2510 aller	-0.1518
-4.0291 allerdings	-0.1619
-4.1261 allererste	-0.2603
-4.4271 allerersten	-0.1616
-4.7290 alleroberste	-0.1711
-4.7290 allerrecht	-0.1677
-3.0379 alles	-0.5279
-2.9219 als	-0.2515
-1.9595 also	-0.2792
-2.6489 am	-0.4508
-1.9933 an	-0.8320
-4.7290 anatomisch	-0.1712
-4.7290 and're	-0.1707
-3.8250 and'res	-0.3399
-4.4271 ander	-0.3935
-4.4271 ander'm	-0.1654
-3.4728 ander'n	-0.3043
-3.2967 andere	-0.2427
-3.5240 anderen	-0.3821
-3.6142 anderes	-0.3531
-3.5820 anders	-0.1410
-3.7281 andersrum	-0.3005
-4.7290 andocken	-0.1642
-4.7290 aneinander	-0.1709
-4.7290 aneinandergereihten	-0.1711
-4.7290 anenander	-0.1669
-4.4271 anfang'n	-0.1273
-4.1261 anfange	-0.1172
-3.8250 anfangen	-0.2279
-4.4271 anfängst	-0.1602
-4.4271 angebracht	-0.1677
-4.7290 angefang	-0.1281
-4.4271 angefangen	-0.1686
-4.7290 angefügt	-0.1707
-4.7290 angekommen	-0.1281
-3.5820 angelegt	-0.3128
-4.7290 angenommen	-0.1713
-3.8250 angeordnet	-0.4962
-4.7290 angesc	-0.1713
-4.7290 angeschlossen	-0.1631
-4.0291 angesetzt	-0.3392
-3.9500 angrenzen	-0.2883
-4.7290 angrenzend	-0.1281
-3.7739 angrenzt	-0.4128
-4.4271 angucken	-0.1661
-4.7290 anguckst	-0.1664
-4.2510 anguckt	-0.1457
-4.4271 anklicken	-0.1280
-3.6489 anlegen	-0.3154
-3.8250 anliegen	-0.2641
-3.3302 anliegt	-0.8369
-4.7290 anordnen	-0.1711
-3.5520 ans	-0.3048
-4.7290 anschauen	-0.1708
-4.7290 anschaut	-0.1593
-4.4271 anscheinend	-0.1712
-4.0291 anschließen	-0.0873
-4.2510 anschließend	-0.1678
-3.7739 anschließt	-0.4840
-4.7290 ansetzen	-0.1652
-4.1261 ansonsten	-0.4582
-4.7290 anzubringen	-0.1593
-4.7290 ao	-0.1669
-4.7290 are	-0.1713
-4.4271 argh	-0.1274
-4.7290 au	-0.1705
-2.5213 auch	-0.2384
-2.4609 auf	-0.7640
-4.7290 aufgeht	-0.1281
-4.4271 aufgemalten	-0.1699
-4.7290 aufgesetzten	-0.1713
-4.7290 aufgeteilt	-0.1662
-4.7290 aufgetreten	-0.1281
-4.7290 aufgezeichnet	-0.1641
-4.7290 aufhöre	-0.1707
-4.7290 aufhören	-0.1703
-4.7290 aufhört	-0.1281
-4.7290 aufkreuze	-0.1710
-4.4271 aufliegt	-0.3551
-4.4271 aufrechte	-0.1634
-4.7290 aufsetzt	-0.1678
-4.7290 aufspaltbar	-0.1628
-2.3389 aus	-0.7525
-4.7290 ausdenken	-0.1281
-4.7290 ausf	-0.1665
-4.4271 ausfüll'n	-0.1706
-4.4271 ausfüllen	-0.1709
-4.0291 ausfüllt	-0.3292
-3.5520 ausgefüllt	-0.4960
-4.7290 ausgefüllte	-0.1708
-4.7290 ausgefüllten	-0.1692
-4.4271 ausgehe	-0.1659
-4.7290 ausgehen	-0.1520
-4.4271 ausgehend	-0.1688
-4.7290 ausgemacht	-0.1675
-4.7290 ausgerutscht	-0.1281
-4.7290 ausgeschnittene	-0.1711
-4.7290 ausgesehen	-0.1713
-4.7290 ausgesparte	-0.1709
-4.4271 ausgesparten	-0.1712
-4.7290 ausgestrecktem	-0.1712
-4.7290 ausgestreckter	-0.1712
-4.7290 ausjefüllt	-0.1685
-4.4271 auslaufend	-0.1257
-4.4271 ausläuft	-0.3551
-4.7290 ausprobieren	-0.1281
-4.7290 ausprobierst	-0.1593
-4.7290 aussah	-0.1712
-4.7290 ausschaun	-0.1708
-3.8250 ausschaut	-0.6212
-4.7290 ausseh'n	-0.1675
-4.0291 aussehen	-0.1053
-2.6418 aussieht	-1.0912
-4.2510 automatisch	-0.1642
-3.5820 außen	-0.1283
-4.0291 außer	-0.1356
-4.4271 b	-0.1673
-4.7290 basteln	-0.1709
-4.7290 bau	-0.1655
-4.4271 bauen	-0.1515
-4.7290 bedauerlicherweise	-0.1712
-4.7290 beeden	-0.1712
-4.4271 bef	-0.1672
-4.7290 befestigt	-0.1281
-4.4271 befinden	-0.1512
-3.4977 befindet	-0.4970
-4.1261 befindlichen	-0.1707
-4.7290 begeben	-0.1669
-4.4271 beginnen	-0.1563
-4.7290 beginnend	-0.1662
-4.0291 beginnt	-0.1736
-4.7290 behaupten	-0.1712
-2.8250 bei	-1.1396
-4.2510 beide	-0.3051
-3.4059 beiden	-0.1923
-3.6142 beim	-0.2327
-4.7290 belegen	-0.1281
-4.2510 belegt	-0.3077
-4.7290 benutzt	-0.1707
-4.7290 benutzten	-0.1711
-4.7290 ber	-0.1711
-4.7290 berei	-0.1641
-3.3857 bereits	-0.3620
-4.4271 berühr'n	-0.1677
-3.8250 berühren	-0.2922
-3.5520 berührt	-0.2450
-4.4271 bescheuert	-0.3935
-3.9500 beschreib	-0.2075
-3.9500 beschreibe	-0.0985
-3.3664 beschreiben	-0.2391
-4.7290 beschreibendes	-0.1653
-3.9500 beschrieben	-0.3933
-4.4271 besetzt	-0.1642
-4.1261 besser	-0.1268
-4.4271 bestehen	-0.1270
-4.7290 bestehend	-0.1593
-4.2510 bestehende	-0.1697
-3.1049 besteht	-0.3437
-4.4271 besten	-0.1704
-4.7290 bestes	-0.1281
-4.7290 bestimmen	-0.1281
-3.7281 bestimmt	-0.2297
-4.7290 bestimmten	-0.1712
-4.4271 betrachte	-0.1631
-4.4271 betrachten	-0.1646
-4.7290 betrachtet	-0.1712
-4.7290 betrifft	-0.1675
-3.7739 bewege	-0.9938
-4.7290 bewegen	-0.1281
-3.7281 bezeichnen	-0.2867
-4.7290 bezeichnest	-0.1281
-4.7290 bezeichnet	-0.1705
-4.7290 beziehen	-0.1705
-3.8830 beziehungsweise	-0.2976
-4.7290 bidirektionale	-0.1713
-3.8250 bilden	-0.2034
-3.3664 bildet	-0.2556
-3.5520 bin	-0.2715
-3.3664 bis	-0.3448
-4.7290 biss'n	-0.1662
-2.8893 bisschen	-0.2151
-4.2510 bist	-0.1217
-3.6489 bitte	-0.2608
-4.2510 blaue	-0.1649
-3.5240 blauen	-0.2121
-3.5820 bleiben	-0.6969
-3.2657 bleibt	-0.4180
-4.7290 blockiert	-0.1688
-3.6142 bloß	-0.2868
-4.7290 blubbern	-0.1713
-4.2510 blöd	-0.3084
-4.7290 boah	-0.1674
-4.4271 br	-0.3551
-4.2510 brauch	-0.3020
-4.4271 brauch'n	-0.1691
-4.7290 brauchen	-0.1697
-4.2510 breit	-0.1676
-4.7290 breit'ste	-0.1704
-3.4271 bündig	-0.4856
-4.7290 clockwise	-0.1708
-3.9500 cool	-0.2600
-3.4728 d	-0.1563
-4.4271 d'	-0.3956
-4.7290 d's	-0.1706
-2.1438 da	-0.2914
-4.2510 dabei	-0.1631
-4.7290 dacht	-0.1655
-4.7290 dachte	-0.1520
-3.8250 dadrunter	-0.1229
-4.1261 dadrüber	-0.1585
-4.7290 dadurch	-0.1685
-3.6867 dahin	-0.2988
-4.4271 dam	-0.1706
-3.7281 damit	-0.1385
-3.6142 danach	-0.2753
-3.5820 daneben	-0.2962
-4.1261 danke	-0.1601
-1.9500 dann	-0.2564
-3.7739 daran	-0.2475
-4.7290 darauf	-0.1713
-3.9500 darf	-0.2490
-4.4271 darfst	-0.1686
-4.7290 darin	-0.1683
-4.7290 darstellt	-0.1281
-4.7290 darum	-0.1704
-4.2510 darunter	-0.1634
-3.7281 darüber	-0.1916
-1.3609 das	-0.3976
-2.1890 dass	-0.6933
-4.7290 dasselbe	-0.1698
-4.4271 dat	-0.1688
-3.4494 davon	-0.1913
-3.8830 davor	-0.1004
-4.7290 davorsitzt	-0.1694
-3.8250 dazu	-0.1711
-3.6489 dazwischen	-0.2638
-3.4977 de	-0.2769
-3.8830 dein	-0.1708
-4.4271 deine	-0.1701
-4.4271 deinem	-0.1713
-4.2510 deinen	-0.1712
-4.4271 deiner	-0.1713
-4.7290 deines	-0.1713
-4.7290 deins	-0.1707
-2.0967 dem	-0.3794
-2.0837 den	-0.5014
-4.7290 denen	-0.1711
-4.2510 denk	-0.2943
-3.8830 denke	-0.3277
-4.1261 denken	-0.1184
-4.1261 denkst	-0.1172
-2.9573 denn	-0.0957
-1.7831 der	-0.4260
-4.7290 derselben	-0.1712
-2.2935 des	-0.6697
-4.7290 deshalb	-0.1710
-4.2510 deswegen	-0.1236
-4.4271 deutlich	-0.1706
-4.7290 diagonal	-0.1713
-3.8250 dich	-0.2448
-4.7290 dicke	-0.1713
-4.7290 dickes	-0.1713
-1.7290 die	-0.2911
-4.0291 dies	-0.1568
-2.7936 diese	-0.3140
-2.9428 diesem	-0.2166
-3.2096 diesen	-0.2162
-3.0654 dieser	-0.2964
-2.3284 dieses	-0.5735
-4.2510 dieset	-0.1712
-2.9722 dir	-0.2311
-2.8893 direkt	-0.4796
-2.2216 dis	-0.1505
-3.0291 dit	-0.3429
-2.6562 doch	-0.1551
-4.7290 doll	-0.1685
-4.7290 doppelt	-0.1713
-4.7290 doppelte	-0.1702
-3.4494 dort	-0.1251
-4.2510 dr	-0.1660
-3.0379 dran	-0.4303
-3.6142 drauf	-0.3159
-4.7290 drechts	-0.1675
-3.4977 dreh	-0.2798
-3.6142 dreh'n	-0.3120
-2.7550 drehe	-1.6042
-3.1153 drehen	-0.3476
-3.4728 drehst	-0.4010
-4.0291 drehste	-0.2241
-3.7739 dreht	-0.1609
-4.7290 drehte	-0.1702
-2.3319 drei	-0.3931
-4.7290 dreien	-0.1709
-4.7290 dreier	-0.1674
-4.2510 dreimal	-0.3067
-4.2510 dreistufige	-0.6204
-3.6142 drin	-0.2770
-4.1261 drinne	-0.2230
-4.7290 dritt	-0.1676
-3.2230 dritte	-0.7291
-3.8250 dritten	-0.2585
-4.7290 drittes	-0.1520
-3.6867 drunter	-0.3461
-3.6489 drüber	-0.3200
-4.7290 drück	-0.1704
-4.7290 drücke	-0.1713
-4.7290 drückst	-0.1712
-2.2122 du	-0.3508
-3.7739 durch	-0.1235
-4.7290 durchaus	-0.1708
-4.7290 durchgehende	-0.1712
-4.7290 durchgeht	-0.1641
-4.7290 durchnummeriert	-0.1281
-4.4271 dürfen	-0.1691
-4.7290 dürfte	-0.1702
-4.7290 dürften	-0.1628
-4.7290 dürftest	-0.1686
-3.6489 eben	-0.1400
-4.4271 ebenfalls	-0.1660
-4.0291 echt	-0.1669
-4.7290 eenen	-0.1713
-3.6489 egal	-0.2501
-3.8250 eh	-0.1598
-4.7290 ehemalige	-0.1712
-3.8250 eher	-0.1653
-3.9500 ei	-0.1155
-4.4271 eigenes	-0.1700
-3.4059 eigentlich	-0.1167
-1.9973 ein	-0.6636
-4.7290 einander	-0.1593
-4.7290 eindeutig	-0.1281
-2.6526 eine	-0.2013
-3.1261 einem	-0.2170
-3.1261 einen	-0.1496
-3.2367 einer	-0.3177
-4.4271 eines	-0.1582
-2.8196 einfach	-0.2717
-4.2510 einfacher	-0.1690
-4.7290 einfachsten	-0.1706
-4.7290 einfüge	-0.1708
-3.9500 einfügen	-0.1869
-4.7290 einfügt	-0.1281
-3.9500 eingefügt	-0.2615
-4.0291 eingefügten	-0.2410
-4.7290 eingehalten	-0.1707
-4.7290 eingehangen	-0.1707
-4.4271 eingepasst	-0.1274
-3.8250 eingesetzt	-0.2803
-4.7290 einhakt	-0.1663
-4.7290 einig	-0.1281
-4.7290 einigen	-0.1685
-4.7290 einiges	-0.1680
-4.7290 einjebaut	-0.1593
-4.7290 einjelegt	-0.1662
-4.4271 einma	-0.1699
-2.5463 einmal	-0.8819
-4.4271 einpasst	-0.1264
-2.5159 eins	-0.3679
-4.4271 einsetzen	-0.1276
-4.4271 einwerfen	-0.1618
-3.6489 einzelne	-0.3248
-3.6142 einzelnen	-0.3022
-4.4271 einzelner	-0.1706
-3.8830 einzelnes	-0.2846
-4.7290 einzige	-0.1653
-4.7290 einzigen	-0.1712
-4.7290 einziges	-0.1699
-4.7290 einzufügendem	-0.1653
-4.7290 einzupassen	-0.1281
-4.4271 einzusetzen	-0.1279
-3.8830 elf	-0.2113
-4.7290 end	-0.1691
-4.0291 endet	-0.1247
-4.7290 endlich	-0.1701
-4.1261 entfernt	-0.1221
-4.7290 entgangen	-0.1281
-4.7290 entlang	-0.1281
-4.7290 entsprechenden	-0.1711
-4.1261 entspricht	-0.2094
-4.2510 entsteht	-0.2612
-4.4271 entweder	-0.1696
-3.4728 er	-0.1190
-4.7290 ergeben	-0.1685
-4.7290 ergibt	-0.1685
-4.7290 erinnert	-0.1669
-4.7290 erkannt	-0.1281
-4.2510 erkennen	-0.1140
-4.7290 erkennt	-0.1665
-4.7290 erkenntlich	-0.1281
-4.0291 erklär	-0.3409
-4.4271 erklär'n	-0.1249
-4.0291 erklären	-0.1913
-3.4728 erst	-0.2630
-3.1049 erste	-0.3881
-3.6867 ersten	-0.2806
-4.7290 erster	-0.1712
-4.4271 erstes	-0.1498
-3.2810 erstma	-0.2415
-3.6867 erstmal	-0.1668
-4.4271 erzähl	-0.1647
-4.7290 erzähle	-0.1713
-1.8513 es	-0.5411
-3.7281 etwa	-0.1184
-4.1261 etwas	-0.1712
-4.7290 exakt	-0.1685
-3.9500 extra	-0.2981
-4.2510 ey	-0.1698
-3.9500 f	-0.1861
-3.4977 fallen	-1.3582
-4.7290 falls	-0.1686
-2.7691 falsch	-0.7471
-4.2510 falsche	-0.2589
-4.7290 falsches	-0.1281
-4.4271 falschrum	-0.1703
-3.6489 fang	-0.2901
-4.7290 fang'n	-0.1685
-4.1261 fangen	-0.3929
-3.4271 fast	-0.2066
-4.7290 fehl'n	-0.1281
-4.4271 fehlen	-0.1639
-4.4271 fehlende	-0.1702
-4.4271 fehlenden	-0.1704
-3.5520 fehlt	-0.2486
-4.2510 fertich	-0.2561
-3.4728 fertig	-0.8005
-4.7290 fertisch	-0.1281
-4.7290 fette	-0.1712
-4.7290 fettes	-0.1712
-4.4271 finde	-0.1249
-4.2510 finden	-0.1269
-4.7290 findest	-0.1520
-4.7290 findeste	-0.1520
-4.4271 findet	-0.3551
-3.4271 flip	-0.5178
-4.2510 flippen	-0.2522
-4.2510 folgendem	-0.6209
-4.2510 folgendermaßen	-0.3027
-4.7290 formen	-0.1593
-4.4271 fort	-0.1666
-4.4271 fortgesetzt	-0.1692
-4.7290 fortsetzt	-0.1281
-4.4271 frag	-0.1702
-4.4271 fragen	-0.1234
-2.9219 frei	-0.4982
-3.7739 freie	-0.2080
-4.1261 freien	-0.1684
-4.7290 freier	-0.1713
-4.2510 freies	-0.1684
-4.7290 früher	-0.1705
-4.7290 funktioniert	-0.1694
-4.4271 fällt	-0.1519
-4.7290 fängst	-0.1701
-4.4271 fängt	-0.1708
-4.4271 förmig	-0.1228
-3.9500 förmige	-0.3853
-4.2510 fü	-0.1552
-2.8648 füge	-1.6615
-4.2510 fügst	-0.1427
-4.7290 fügste	-0.1675
-3.7739 fügt	-0.4947
-4.7290 führenden	-0.1712
-4.0291 führt	-0.4694
-4.7290 fülle	-0.1677
-3.9500 füllt	-0.1788
-2.8530 fünf	-0.2079
-4.7290 fünfer	-0.1679
-4.7290 fünferl	-0.1674
-4.7290 fünferliegenden	-0.1674
-3.7739 fünfte	-0.5232
-4.4271 fünften	-0.1709
-4.1261 fünfundvierzig	-0.6530
-3.4059 für	-0.2978
-4.7290 fürcht	-0.1712
-4.7290 fürchte	-0.1711
-4.1261 g	-0.1651
-4.7290 ga	-0.1707
-4.7290 gab	-0.1685
-4.4271 gan	-0.1660
-2.4271 ganz	-0.5888
-3.9500 ganze	-0.2336
-4.1261 ganzen	-0.2691
-4.7290 ganzes	-0.1712
-3.2967 gar	-0.9402
-3.8250 ge	-0.1551
-4.7290 geb	-0.1712
-4.7290 gebastelt	-0.1281
-4.0291 gedacht	-0.2768
-4.4271 gedachten	-0.1707
-3.0654 gedreht	-0.6318
-4.4271 gedrehte	-0.1695
-4.7290 gedrehten	-0.1698
-4.4271 gedrehtes	-0.3977
-4.7290 geeignet	-0.1711
-4.7290 gefallenes	-0.1702
-3.8830 geflippt	-0.3425
-4.7290 gefragt	-0.1712
-4.2510 gefunden	-0.1251
-4.4271 gefüllt	-0.1679
-4.7290 gefüllten	-0.1707
-3.9500 gegen	-0.4058
-4.2510 gegeneinander	-0.3087
-4.7290 gegenüber	-0.1691
-4.7290 gegriffen	-0.1665
-3.7739 geh	-0.2425
-3.5520 geh'n	-0.2208
-4.7290 gehabt	-0.1712
-4.4271 gehe	-0.1239
-3.8250 gehen	-0.1555
-4.7290 gehend	-0.1692
-4.4271 gehst	-0.1250
-2.6789 geht	-0.3731
-3.7739 gehört	-0.2664
-4.0291 gekippt	-0.2918
-4.4271 gekippte	-0.1695
-4.7290 gekipptes	-0.1710
-4.7290 geklappt	-0.1707
-4.7290 gelassen	-0.1671
-4.4271 gelb	-0.1673
-4.4271 gelegen	-0.3551
-3.4059 gelegt	-0.1985
-4.7290 gelegten	-0.1713
-4.7290 gelogen	-0.1703
-4.7290 gelöst	-0.1520
-3.7281 gemacht	-0.1999
-4.7290 gemeinsame	-0.1713
-4.1261 gen	-0.1223
-2.0739 genau	-0.5493
-4.1261 genauso	-0.1685
-4.2510 genommen	-0.1023
-4.7290 genug	-0.1671
-4.1261 gepackt	-0.6109
-4.4271 gepappt	-0.1640
-3.3479 gerade	-0.1022
-4.7290 geraden	-0.1713
-4.7290 gerader	-0.1712
-4.7290 gern	-0.1281
-4.7290 gerne	-0.1705
-4.7290 gerutscht	-0.1688
-3.4059 gesagt	-0.2405
-4.4271 gesamte	-0.1702
-4.1261 gesamten	-0.1706
-4.7290 gesamtes	-0.1711
-4.7290 gesch	-0.1663
-4.7290 geschickt	-0.1711
-4.0291 geschoben	-0.1968
-4.7290 geschrieben	-0.1707
-4.0291 gesehen	-0.1992
-3.5520 gesetzt	-0.4278
-4.7290 gespannt	-0.1692
-3.4728 gespiegelt	-0.9626
-4.0291 gespiegelte	-0.1523
-4.7290 gespiegelten	-0.1702
-4.1261 gespiegeltes	-0.2669
-4.4271 gesprochen	-0.1712
-4.7290 gestapelte	-0.1708
-4.7290 gestapelten	-0.1711
-4.7290 gestauchtes	-0.1709
-4.4271 gestellt	-0.1587
-4.7290 gestrecktes	-0.1709
-4.7290 gesucht	-0.1641
-4.7290 geteiltes	-0.1700
-4.7290 getroffen	-0.1707
-4.7290 gevierteilt	-0.1713
-4.7290 gewes'n	-0.1281
-4.7290 gewinnen	-0.1712
-4.7290 gewisser	-0.1712
-4.7290 gewöhnen	-0.1710
-4.7290 gezackelt	-0.1703
-4.7290 gezackten	-0.1711
-4.7290 gezeigt	-0.1693
-4.7290 gezählt	-0.1669
-4.7290 gib	-0.1704
-3.1718 gibt	-0.4719
-4.7290 glatt	-0.1669
-2.9288 glaub	-0.6392
-3.8250 glaube	-0.3301
-3.8250 gleich	-0.2615
-4.1261 gleiche	-0.1667
-4.2510 gleichen	-0.6214
-3.9500 gleichlang	-0.5290
-4.7290 gleichlangen	-0.1713
-4.7290 gleichmäßige	-0.1713
-4.7290 gleichschenklige	-0.1702
-4.4271 gleichschenkliger	-0.3976
-4.7290 gleichseitiges	-0.1712
-4.4271 gleichzeitig	-0.1610
-4.7290 gn	-0.1687
-3.8830 grad	-0.1577
-3.9500 grade	-0.2231
-4.7290 graden	-0.1653
-4.7290 great	-0.1281
-4.7290 grenz	-0.1711
-4.1261 grenzen	-0.1569
-3.2657 grenzt	-0.3571
-4.4271 groß	-0.1554
-3.6489 große	-0.3062
-4.4271 großem	-0.3970
-3.8250 großen	-0.4072
-3.8250 großes	-0.3077
-4.2510 größeres	-0.1695
-4.7290 grün	-0.1713
-4.7290 grüne	-0.1653
-3.8250 grünen	-0.4144
-4.7290 guck	-0.1705
-4.1261 gucken	-0.1121
-4.7290 guckst	-0.1708
-3.5520 guckt	-0.1310
-2.7504 gut	-0.4909
-4.7290 gute	-0.1713
-4.7290 gutem	-0.1713
-4.7290 gwai	-0.1693
-4.2510 gänzlich	-0.3006
-4.0291 ha	-0.3395
-2.3267 hab	-0.8037
-4.0291 hab'n	-0.1152
-3.5820 habe	-0.2843
-3.2096 haben	-0.4890
-4.4271 hach	-0.1519
-4.4271 halb	-0.3983
-4.7290 halbe	-0.1703
-4.1261 halbes	-0.3973
-4.7290 halbieren	-0.1712
-4.7290 halbiert	-0.1593
-4.7290 halbierte	-0.1652
-4.1261 hallo	-0.2269
-3.0654 halt	-0.1860
-3.2367 ham	-0.4961
-4.7290 handelt	-0.1705
-4.4271 has	-0.1278
-4.7290 haschte	-0.1677
-2.7111 hast	-0.3688
-3.4728 haste	-0.1187
-2.7596 hat	-0.3511
-4.1261 hatt	-0.6483
-4.2510 hatte	-0.1450
-3.6142 hatten	-0.2261
-4.4271 hattest	-0.1251
-4.4271 hau	-0.1677
-4.7290 hau'n	-0.1631
-3.7739 haut	-0.3814
-3.5520 heißt	-0.2043
-4.4271 hellblau	-0.1279
-4.4271 her	-0.1280
-4.4271 heraus	-0.1258
-4.7290 herrje	-0.1520
-4.4271 herum	-0.1280
-3.9500 hervorragend	-0.3283
-4.7290 hi	-0.1281
-2.9722 hier	-0.1905
-2.7281 hin	-0.3927
-4.7290 hinausstehende	-0.1712
-3.8830 hinein	-0.4192
-4.7290 hineinpasst	-0.1281
-4.7290 hineinragt	-0.1642
-4.4271 hingehört	-0.3551
-3.4494 hingelegt	-0.3156
-4.7290 hinhalten	-0.1628
-4.2510 hinhaut	-0.2624
-4.2510 hinkommen	-0.1454
-4.7290 hinlege	-0.1281
-3.6867 hinlegen	-0.1629
-4.2510 hinlegst	-0.1628
-4.7290 hinlegt	-0.1281
-3.2810 hinten	-0.1841
-4.4271 hinter	-0.1636
-3.4977 hintere	-0.7038
-3.7281 hinteren	-0.2048
-4.4271 hinteres	-0.1648
-4.7290 hinzukriegen	-0.1682
-2.1080 hm	-0.7897
-4.7290 ho	-0.1713
-4.7290 hoc	-0.1674
-3.3664 hoch	-0.3095
-4.4271 hochgeht	-0.1672
-4.7290 hochheben	-0.1593
-4.7290 hochkant	-0.1713
-4.7290 hochkante	-0.1698
-4.7290 hoffen	-0.1705
-4.1261 hoffentlich	-0.1245
-4.4271 hohl	-0.3958
-4.4271 hohles	-0.3983
-4.4271 hori	-0.1667
-2.9219 horizontal	-0.7386
-4.7290 horizontale	-0.1699
-4.2510 horizontaler	-0.2655
-4.4271 huh	-0.1670
-3.7739 hundertachtzig	-0.9988
-4.7290 hups	-0.1520
-4.7290 hurra	-0.1281
-3.9500 hä	-0.3625
-4.7290 häh	-0.1675
-4.7290 hältst	-0.1686
-4.7290 hängen	-0.1706
-3.8250 hängt	-0.2371
-4.1261 hätt	-0.4500
-3.7739 hätte	-0.1783
-4.2510 hätten	-0.1638
-4.7290 hättest	-0.1281
-3.8830 höher	-0.2474
-4.4271 hör	-0.1654
-4.4271 hörst	-0.1666
-4.4271 hört	-0.1674
-4.7290 hübsche	-0.1707
-4.4271 hübschen	-0.1707
-4.7290 i	-0.1707
-1.8744 ich	-0.5014
-2.9152 ick	-0.4190
-4.7290 identifizierbar	-0.1702
-4.4271 identifizieren	-0.1650
-4.2510 ihm	-0.1509
-3.4271 ihn	-0.2316
-4.7290 ihr	-0.1713
-4.7290 ihre	-0.1713
-2.8530 im	-0.4651
-4.7290 imaginär	-0.1703
-3.4977 immer	-0.1976
-1.9336 in	-1.0622
-4.7290 indem	-0.1655
-4.7290 ineinander	-0.1662
-4.7290 innen	-0.1683
-4.1261 inner	-0.4500
-4.0291 innerhalb	-0.3741
-3.5520 ins	-0.3045
-3.5520 insgesamt	-0.1133
-4.7290 interessanten	-0.1713
-4.7290 ir	-0.1713
-4.7290 irgend'ne	-0.1713
-4.4271 irgendein	-0.1713
-4.7290 irgendeinen	-0.1708
-4.4271 irgendwann	-0.1702
-3.8830 irgendwas	-0.1788
-4.7290 irgendwelchen	-0.1711
-3.0205 irgendwie	-0.1473
-3.9500 irgendwo	-0.1641
-4.7290 irritiert	-0.1712
-2.0163 is	-0.3913
-2.2452 ist	-0.3634
-4.1261 it	-0.1657
-4.7290 j	-0.1712
-1.7119 ja	-0.6086
-4.7290 janz	-0.1709
-4.7290 jap	-0.1693
-3.5820 jawohl	-0.5155
-4.2510 je	-0.1610
-3.9500 jeden	-0.7967
-4.2510 jedenfalls	-0.1686
-4.7290 jeh	-0.1693
-4.7290 jeh'n	-0.1708
-4.7290 jemacht	-0.1679
-4.7290 jesagt	-0.1710
-2.7550 jetz	-0.1593
-3.6867 jetze	-0.0880
-2.0607 jetzt	-0.0998
-4.7290 jeweil	-0.1686
-3.8830 jeweils	-0.1548
-4.0291 jo	-0.3399
-4.7290 joa	-0.1663
-4.7290 juhu	-0.1281
-4.1261 jut	-0.4149
-4.7290 k	-0.1674
-2.9357 kann	-0.5608
-3.3302 kannst	-0.4770
-4.0291 kannste	-0.2270
-4.7290 kannstes	-0.1704
-4.7290 kapierst	-0.1686
-4.7290 kapiert	-0.1281
-4.7290 kaputt	-0.1703
-4.7290 kaputte	-0.1706
-4.7290 kay	-0.1662
-4.7290 keen	-0.1712
-3.6867 kein	-0.1959
-3.3479 keine	-0.3077
-4.2510 keinen	-0.1706
-4.7290 kennst	-0.1686
-4.7290 kippen	-0.1684
-4.7290 kippst	-0.1686
-4.4271 klang	-0.1696
-4.7290 klapp	-0.1705
-4.0291 klappt	-0.2165
-3.1840 klar	-0.4136
-4.7290 klebt	-0.1281
-4.2510 klei	-0.1665
-3.2230 kleine	-0.3751
-4.7290 kleinem	-0.1700
-3.6142 kleinen	-0.2222
-4.2510 kleiner	-0.1707
-4.2510 kleinere	-0.1634
-3.2657 kleines	-0.4898
-4.7290 ko	-0.1692
-4.7290 kom	-0.1712
-4.7290 kombiniert	-0.1708
-4.4271 komisch	-0.1623
-4.1261 komische	-0.1705
-4.2510 komischen	-0.1663
-4.0291 komisches	-0.1148
-3.5820 komm	-0.3535
-3.5820 kommen	-0.1368
-2.3199 kommt	-0.3725
-3.8830 komplett	-0.1806
-4.4271 komplette	-0.1712
-4.7290 komplettieren	-0.1281
-4.7290 komplettiert	-0.1707
-3.9500 kompliziert	-0.1536
-4.4271 komplizierter	-0.1212
-4.7290 konzentrier	-0.1712
-4.4271 korrekt	-0.1394
-4.7290 korrigieren	-0.1281
-4.4271 krieg	-0.1627
-4.7290 krieg'n	-0.1707
-4.7290 kriege	-0.1713
-4.7290 krummes	-0.1698
-4.0291 kurz	-0.1193
-3.5820 kurze	-0.3570
-4.0291 kurzen	-0.2358
-4.7290 könn'n	-0.1707
-3.4494 können	-0.5194
-3.8830 könnt	-0.3476
-3.5820 könnte	-0.2384
-4.4271 könnten	-0.1613
-4.7290 kürzer	-0.1281
-4.0291 kürzere	-0.2380
-4.7290 kürzeren	-0.1593
-4.4271 l	-0.1659
-4.7290 la	-0.1713
-4.7290 lag	-0.1593
-3.2230 lang	-0.7874
-3.1370 lange	-0.3555
-3.7739 langen	-0.1622
-4.7290 langer	-0.1712
-4.1261 langes	-0.2263
-4.1261 langsam	-0.2133
-3.9500 lass	-0.2245
-3.1966 lassen	-0.3344
-4.7290 laut	-0.1713
-4.7290 lauter	-0.1713
-4.7290 le	-0.1701
-4.4271 leer	-0.1269
-4.7290 leere	-0.1713
-4.4271 leeren	-0.3969
-3.2657 leg	-0.5842
-2.8648 lege	-1.1963
-3.3857 legen	-0.2411
-3.3131 legst	-0.5323
-4.1261 legste	-0.1451
-4.4271 legt	-0.1655
-4.7290 lehnt	-0.1705
-4.4271 leicht	-0.1661
-4.4271 leid	-0.1628
-4.1261 leider	-0.2672
-4.4271 lesen	-0.1706
-3.3857 letzte	-0.4307
-3.6489 letzten	-0.1167
-4.7290 letztere	-0.1281
-4.2510 li	-0.1579
-4.7290 liege	-0.1707
-3.0291 liegen	-0.3827
-4.1261 liegend	-0.2209
-3.7281 liegende	-0.2422
-4.0291 liegendem	-0.4995
-3.9500 liegenden	-0.2266
-3.9500 liegendes	-0.4354
-2.5133 liegt	-0.3799
-4.1261 lin	-0.2640
-2.8143 linke	-0.5777
-2.8769 linken	-0.5889
-4.7290 linker	-0.1712
-4.7290 linkere	-0.1708
-2.0030 links	-0.5396
-4.7290 linksbündig	-0.1669
-4.2510 linksseitig	-0.2607
-4.4271 logisch	-0.1267
-4.4271 los	-0.1274
-4.7290 losgehen	-0.1281
-4.0291 loslassen	-0.6158
-4.7290 loslegen	-0.1281
-4.7290 lustige	-0.1713
-4.7290 lustiges	-0.1711
-4.7290 läng	-0.1680
-4.7290 längen	-0.1705
-3.9500 länger	-0.2602
-3.6142 längere	-0.4199
-4.4271 längeren	-0.1703
-4.7290 längerer	-0.1713
-4.7290 längeres	-0.1281
-4.4271 länglich	-0.3551
-4.2510 länglichen	-0.1547
-4.7290 längs	-0.1593
-4.7290 längste	-0.1704
-4.7290 längsten	-0.1704
-4.2510 lässt	-0.1241
-4.7290 läufst	-0.1642
-4.7290 lösen	-0.1703
-3.9500 m	-0.1592
-2.7458 ma	-0.2018
-3.4728 mach	-0.2985
-4.7290 mache	-0.1281
-3.1718 machen	-0.4448
-4.1261 machst	-0.2353
-4.7290 machste	-0.1675
-3.7281 macht	-0.2414
-2.7069 mal	-0.2188
-4.4271 malen	-0.1658
-2.6987 man	-0.3329
-4.7290 manchmal	-0.1702
-4.2510 markiert	-0.1253
-4.7290 markierten	-0.1653
-4.7290 massive	-0.1653
-4.7290 massiven	-0.1653
-3.1840 mehr	-0.2210
-4.7290 mehreren	-0.1711
-4.7290 mehrmals	-0.1712
-3.5520 mein	-0.2057
-3.5820 meine	-0.3214
-4.1261 meinen	-0.1663
-4.2510 meiner	-0.1713
-4.7290 meinetwegen	-0.1628
-4.7290 meins	-0.1697
-3.3664 meinst	-0.3530
-4.4271 meinste	-0.1186
-4.4271 meint	-0.3925
-4.7290 meinte	-0.1709
-4.4271 mer	-0.1679
-4.7290 merde	-0.1281
-4.2510 mh	-0.1628
-3.7281 mhm	-0.1874
-3.7739 mich	-0.1487
-4.2510 minus	-0.6213
-2.7596 mir	-0.1790
-4.7290 missverstanden	-0.1655
-4.7290 missversteh'n	-0.1708
-2.1865 mit	-0.7992
-3.8830 miteinander	-0.2858
-4.7290 mittelsten	-0.1693
-4.7290 mitten	-0.1662
-4.4271 mittendrin	-0.1700
-3.2510 mittig	-0.2445
-4.7290 mittiger	-0.1704
-4.7290 mittigsten	-0.1700
-3.6142 mittlere	-0.3439
-3.8250 mittleren	-0.1557
-4.7290 mittleres	-0.1653
-4.7290 mitzähl'n	-0.1679
-3.6142 mm	-0.2350
-4.7290 momentan	-0.1713
-4.7290 mu	-0.1520
-2.3683 muss	-0.2848
-2.9799 musst	-0.5883
-3.6867 musste	-0.1579
-4.7290 muster	-0.1680
-4.7290 möcht	-0.1655
-4.7290 möchtest	-0.1682
-3.8830 möglich	-0.1958
-4.7290 möglichen	-0.1713
-4.7290 mürrisch	-0.1281
-4.7290 müss	-0.1710
-3.2230 müssen	-0.2268
-4.2510 müsst	-0.6153
-4.7290 müsst'n	-0.1664
-3.1718 müsste	-0.2555
-4.2510 müssten	-0.1683
-4.4271 müsstes	-0.1605
-3.7739 müsstest	-0.2959
-3.5520 n	-0.2006
-2.8473 na	-0.3312
-1.9428 nach	-1.3932
-4.4271 nachdem	-0.1613
-4.7290 nachempfunden	-0.1688
-4.4271 nachfragen	-0.1216
-3.9500 nachher	-0.3368
-3.7281 natürlich	-0.2567
-2.9877 ne	-0.6284
-3.3131 neben	-0.5086
-4.0291 neben'nander	-0.2280
-4.7290 nebendran	-0.1281
-3.6489 nebeneinander	-0.2159
-2.4777 nee	-0.3775
-3.9500 nehm	-0.3127
-4.7290 nehm'n	-0.1281
-2.5728 nehme	-1.4831
-3.2967 nehmen	-0.9433
-4.7290 nehmenden	-0.1707
-2.8090 nein	-0.4047
-4.7290 nenn	-0.1520
-4.7290 nennt	-0.1704
-4.1261 neue	-0.3923
-4.7290 neuesten	-0.1707
-3.7281 neun	-0.2042
-2.5978 neunzig	-2.2965
-2.4876 nich	-0.2828
-2.5820 nicht	-0.3478
-3.5520 nichts	-0.3019
-4.7290 niemals	-0.1674
-2.8196 nimm	-1.0152
-3.5240 nimmst	-0.5602
-4.7290 nimmste	-0.1520
-4.0291 nimmt	-0.2273
-4.7290 nirgends	-0.1710
-4.4271 nirgendwo	-0.1704
-4.7290 nischt	-0.1713
-4.7290 nit	-0.1711
-3.8830 nja	-0.1370
-4.4271 no	-0.1704
-4.7290 no'ma	-0.1669
-2.1941 noch	-0.5459
-3.1049 nochma	-0.1997
-3.1483 nochmal	-0.2201
-4.7290 norma	-0.1675
-4.7290 normal	-0.1685
-4.2510 normale	-0.2883
-4.7290 normales	-0.1702
-4.4271 nummeriert	-0.1696
-4.4271 nun	-0.1674
-2.7153 nur	-0.4196
-4.7290 nutz'n	-0.1707
-3.4977 nächste	-0.4436
-4.4271 nächsten	-0.1647
-4.2510 nächstes	-0.1203
-4.4271 näher	-0.1668
-4.7290 nähesten	-0.1641
-3.8250 nämlich	-0.1005
-4.1261 nö	-0.2093
-4.2510 o	-0.1601
-4.7290 oach	-0.1706
-4.7290 oah	-0.1628
-3.5240 ob	-0.3850
-4.7290 ob'ren	-0.1704
-2.0560 oben	-0.3851
-2.8196 obere	-0.5869
-3.0038 oberen	-0.3410
-3.9500 oberhalb	-0.4213
-3.6867 oberste	-0.2382
-3.8830 obersten	-0.2633
-4.7290 obwohl	-0.1699
-3.9500 och	-0.1606
-2.6312 oder	-0.2062
-4.7290 of	-0.1713
-4.4271 offen	-0.1253
-4.7290 offensichtlich	-0.1704
-4.7290 oft	-0.1674
-3.1718 oh	-0.4529
-3.6867 ohne	-0.2612
-4.2510 oje	-0.1242
-2.1803 okay	-0.7240
-4.7290 ordnen	-0.1281
-4.7290 originell	-0.1694
-4.7290 overview	-0.1281
-4.7290 pa	-0.1709
-4.7290 pack	-0.1652
-4.1261 packe	-0.6480
-3.4271 packen	-0.4722
-4.4271 packste	-0.1512
-4.7290 packt	-0.1712
-4.7290 pah	-0.1665
-4.7290 pap	-0.1281
-4.2510 parallel	-0.1706
-4.0291 pass	-0.2448
-4.7290 passe	-0.1652
-3.9500 passen	-0.1555
-4.2510 passend	-0.1190
-4.7290 passgenau	-0.1662
-4.7290 passgerecht	-0.1669
-2.7369 passt	-0.4539
-4.7290 perfect	-0.1713
-3.5520 perfekt	-0.6107
-4.7290 pf	-0.1631
-4.4271 ph	-0.1277
-4.7290 plasst	-0.1676
-4.1261 plus	-0.1212
-4.2510 positionieren	-0.1574
-4.7290 positionierst	-0.1686
-4.2510 positioniert	-0.1513
-4.7290 pra	-0.1665
-3.0379 praktisch	-0.2442
-4.0291 prima	-0.1503
-4.2510 probier	-0.1665
-4.7290 puh	-0.1687
-4.4271 puzzeln	-0.1573
-4.7290 qua	-0.1709
-4.7290 quadratisch	-0.1671
-4.1261 quadratische	-0.2636
-3.7281 quadratischen	-0.3868
-4.7290 quadratisches	-0.1711
-3.4271 quasi	-0.1509
-3.8830 quatsch	-0.1427
-4.0291 quer	-0.2350
-4.7290 querliegende	-0.1706
-4.4271 r	-0.1706
-3.8830 ragt	-0.1015
-3.3131 ran	-0.4532
-4.7290 rangefügt	-0.1281
-4.7290 rangeh'n	-0.1674
-4.7290 rangelegt	-0.1593
-4.7290 rangerückt	-0.1707
-4.1261 rangeschoben	-0.4105
-4.4271 rangesetzt	-0.1274
-4.7290 rankommt	-0.1281
-4.7290 ranlege	-0.1664
-4.7290 ranpass'n	-0.1712
-4.4271 ranpassen	-0.1147
-4.7290 raten	-0.1520
-4.7290 rauf	-0.1713
-4.7290 raufsetze	-0.1281
-3.3664 raus	-0.3359
-4.7290 rausgehen	-0.1665
-4.7290 rausgeschaut	-0.1281
-3.9500 rausguckt	-0.1713
-4.4271 rausjenommen	-0.1662
-4.7290 rauskommt	-0.1281
-4.1261 rausragt	-0.1634
-4.4271 raussteh'n	-0.1691
-4.4271 rausstehenden	-0.1214
-4.2510 raussteht	-0.1217
-4.7290 rauszeigen	-0.1281
-4.7290 rauszeigt	-0.1281
-4.1261 re	-0.2658
-4.1261 rech	-0.1180
-4.7290 rechne	-0.1655
-3.7281 recht	-0.1236
-2.7787 rechte	-0.5393
-2.6750 rechten	-0.6060
-3.8250 rechter	-0.9536
-4.7290 rechtere	-0.1712
-4.7290 rechteste	-0.1711
-1.9329 rechts	-0.4053
-4.7290 rechtsbündig	-0.1281
-4.4271 rechtseitig	-0.1624
-4.7290 rechtwinklig	-0.1711
-4.7290 rechtwinklige	-0.1712
-4.7290 rechtwinkligen	-0.1706
-4.7290 rechtwinkliges	-0.1713
-4.4271 reden	-0.1710
-4.7290 rei	-0.1713
-4.4271 reichen	-0.3932
-3.6142 reicht	-0.1178
-4.4271 reichts	-0.1671
-2.8648 rein	-0.4684
-4.7290 reingeht	-0.1281
-4.4271 reingelegt	-0.1625
-4.4271 reingepasst	-0.3551
-4.1261 reingeschoben	-0.1213
-4.4271 reingesetzt	-0.1269
-4.7290 reingesetztes	-0.1706
-4.7290 reinlege	-0.1670
-4.1261 reinlegen	-0.1175
-4.7290 reinlegt	-0.1685
-3.9500 reinpassen	-0.1833
-4.1261 reinpasst	-0.4021
-4.7290 reinragen	-0.1687
-4.7290 reinragt	-0.1281
-4.7290 reinschau'n	-0.1711
-4.2510 reinschieben	-0.2915
-4.7290 reinsetzen	-0.1593
-4.7290 reinsteckt	-0.1642
-4.2510 reintun	-0.1275
-4.7290 reintut	-0.1664
-3.9500 relativ	-0.4230
-2.8360 richtig	-0.3885
-3.7739 richtige	-0.2043
-4.4271 richtigen	-0.1709
-4.7290 rin	-0.1713
-4.1261 rosa	-0.1671
-4.7290 rot	-0.1705
-4.2510 rotate	-0.1268
-4.4271 rote	-0.1693
-4.7290 roten	-0.1665
-4.7290 rotes	-0.1703
-4.2510 rotieren	-0.1651
-4.2510 rotiert	-0.6209
-4.7290 rulupp	-0.1694
-3.3302 rum	-0.1489
-4.7290 rumliegen	-0.1710
-4.7290 rumpuzzeln	-0.1281
-4.4271 runt	-0.3551
-3.2657 runter	-0.5127
-4.7290 runtergeh'n	-0.1281
-4.4271 runtergeht	-0.1147
-4.7290 runtergesetzt	-0.1655
-4.7290 runterhängt	-0.1281
-4.7290 runterzeigt	-0.1281
-4.7290 rätselhaft	-0.1682
-4.4271 rüber	-0.1592
-4.7290 rüberguckst	-0.1708
-4.7290 rüberschieben	-0.1281
-4.1261 s	-0.1637
-4.7290 sach	-0.1708
-3.5820 sag	-0.3723
-4.2510 sag'n	-0.2649
-3.4271 sagen	-0.2373
-3.9500 sagst	-0.1155
-4.7290 sagt	-0.1704
-4.0291 sch	-0.1458
-4.2510 schaut	-0.3018
-4.7290 scheinbar	-0.1709
-4.4271 scheint	-0.3976
-3.7281 scheiße	-0.3011
-4.7290 schenkligen	-0.1702
-4.7290 schenkliges	-0.1712
-4.2510 schick	-0.2947
-3.8830 schieb	-0.2756
-4.7290 schieb'n	-0.1628
-4.0291 schiebe	-0.2163
-4.2510 schieben	-0.1136
-4.7290 schiebst	-0.1652
-4.4271 schiebt	-0.1697
-4.7290 schießt	-0.1664
-4.7290 schlecht	-0.1281
-4.7290 schlechte	-0.1713
-4.4271 schließe	-0.1627
-3.9500 schließen	-0.3326
-4.7290 schließlich	-0.1708
-2.9152 schließt	-0.1615
-4.7290 schließt'n	-0.1713
-4.7290 schließte	-0.1713
-4.7290 schmalere	-0.1713
-4.7290 schnell	-0.1631
-4.7290 schneller	-0.1712
-2.6599 schon	-0.1819
-4.7290 schonmal	-0.1281
-4.4271 schreiben	-0.1711
-4.1261 schreibt	-0.2662
-4.7290 schrä	-0.1675
-4.0291 schräg	-0.1621
-4.7290 schrägen	-0.1706
-4.7290 schräges	-0.1698
-4.7290 schwarzem	-0.1713
-4.7290 schwarzes	-0.1703
-4.7290 schweizer	-0.1703
-3.8250 schwer	-0.1494
-4.7290 schwere	-0.1671
-4.7290 schwersten	-0.1707
-4.0291 schwierig	-0.2039
-4.4271 schwieriger	-0.1273
-3.5820 schön	-0.5811
-4.4271 schönen	-0.1707
-4.7290 schöner	-0.1707
-4.7290 schönes	-0.1713
-4.7290 se	-0.1628
-3.5520 sechs	-0.0975
-4.7290 sechsmal	-0.1669
-4.4271 sechste	-0.1531
-4.7290 sechsten	-0.1653
-4.7290 see	-0.1281
-3.4271 seh	-0.3950
-4.1261 seh'n	-0.1531
-4.4271 sehe	-0.1276
-3.9500 sehen	-0.1866
-3.5520 sehr	-0.3472
-2.8956 sein	-0.3626
-4.7290 seiner	-0.1713
-4.7290 seit	-0.1713
-4.7290 seitenverkehr	-0.1671
-3.9500 seitenverkehrt	-0.1010
-4.7290 selben	-0.1712
-4.2510 selber	-0.1223
-4.1261 selbst	-0.1277
-4.7290 selektieren	-0.1642
-4.7290 seltsames	-0.1674
-4.7290 senk	-0.1281
-3.1261 senkrecht	-0.2007
-4.2510 senkrechte	-0.1694
-4.2510 senkrechten	-0.1693
-4.0291 setz	-0.2414
-3.1153 setze	-1.2723
-4.2510 setzen	-0.1250
-3.6867 setzt	-0.5355
-4.7290 setzte	-0.1281
-4.2510 shit	-0.1185
-4.7290 si	-0.1708
-2.7504 sich	-0.1341
-4.7290 sicher	-0.1628
-3.3302 sie	-0.2149
-3.4977 sieben	-0.1690
-4.7290 siebte	-0.1653
-3.7739 siehst	-0.1937
-4.7290 siehste	-0.1682
-2.6010 sieht	-0.8125
-4.4271 sin	-0.1519
-2.6043 sind	-0.2877
-4.7290 sitz	-0.1700
-4.7290 sitzen	-0.1281
-4.7290 sitzender	-0.1713
-4.7290 sitzt	-0.1281
-1.7891 so	-0.4638
-4.7290 sofort	-0.1593
-4.7290 sogar	-0.1707
-4.7290 solche	-0.1671
-3.0560 soll	-0.3745
-4.2510 soll'n	-0.1064
-4.4271 sollen	-0.1272
-4.1261 sollst	-0.1093
-4.0291 sollte	-0.3724
-4.7290 solltest	-0.1281
-4.7290 somit	-0.1703
-4.7290 son	-0.1712
-3.3664 sondern	-0.1658
-3.6867 sonst	-0.2518
-4.7290 sonsten	-0.1707
-4.2510 sorry	-0.0984
-4.4271 sowas	-0.1239
-4.1261 soweit	-0.1547
-4.4271 sowieso	-0.1692
-4.4271 sowohl	-0.3940
-2.6712 sozusagen	-0.2370
-4.4271 sp	-0.1668
-4.2510 spieg'le	-0.6153
-3.1599 spiegel	-1.1082
-4.7290 spiegelbildliches	-0.1702
-2.9288 spiegele	-1.2967
-3.4059 spiegeln	-0.2277
-3.6142 spiegelverkehrt	-0.2938
-4.4271 spiegelverkehrtes	-0.1698
-4.7290 spiel'n	-0.1703
-4.4271 sprechen	-0.1650
-4.2510 sprich	-0.2996
-4.7290 sprichst	-0.1680
-3.7739 später	-0.4120
-4.2510 st	-0.1650
-4.4271 stark	-0.3932
-4.2510 stehen	-0.1147
-4.1261 stehende	-0.2664
-4.2510 stehenden	-0.1625
-4.1261 stehendes	-0.2679
-4.7290 stehengeblieben	-0.1281
-3.2810 steht	-0.3207
-4.4271 stell	-0.3979
-4.2510 stelle	-0.3025
-4.4271 stellen	-0.1703
-4.7290 stimmen	-0.1697
-3.2657 stimmt	-0.3287
-4.7290 stinknormales	-0.1711
-3.4728 stopp	-0.2798
-4.7290 stoßen	-0.1710
-4.7290 stufig	-0.1713
-4.7290 stört	-0.1628
-3.8250 stößt	-0.1960
-4.2510 such	-0.1695
-3.7739 suche	-0.5199
-3.5820 suchen	-0.9674
-3.3664 super	-0.4554
-4.7290 supertoll	-0.1281
-4.4271 symmetrisch	-0.1699
-4.7290 symmetrische	-0.1281
-4.7290 symmetrischen	-0.1709
-4.7290 symmetrischer	-0.1665
-4.7290 tangiert	-0.1281
-4.1261 tatsächlich	-0.1599
-4.7290 teilen	-0.1281
-4.7290 teilt	-0.1281
-4.7290 teilweise	-0.1705
-4.4271 theoretisch	-0.1626
-4.4271 tiefer	-0.1581
-4.7290 tiefstmöglichen	-0.1712
-4.7290 tja	-0.1709
-4.1261 toll	-0.1224
-4.0291 total	-0.1712
-4.7290 transportierst	-0.1686
-4.7290 treffen	-0.1705
-4.2510 trotzdem	-0.1696
-4.4271 tschüss	-0.3551
-4.2510 tu	-0.1619
-4.7290 tue	-0.1628
-4.4271 tun	-0.1263
-3.8830 tut	-0.5638
-4.1261 u	-0.1185
-4.7290 uch	-0.1281
-4.4271 uf	-0.1267
-3.9500 uh	-0.7933
-2.6382 um	-0.7954
-3.9500 umdreh'n	-0.2421
-3.8830 umdrehen	-0.2230
-4.7290 umdrehst	-0.1281
-4.7290 umfasst	-0.1281
-4.1261 umgedreht	-0.1242
-4.1261 umgedrehte	-0.2680
-4.4271 umgedrehten	-0.1698
-3.9500 umgedrehtes	-0.1687
-4.7290 umgekehr	-0.1675
-4.2510 umgekehrt	-0.1215
-4.7290 umgekehrte	-0.1710
-4.2510 umgekehrtes	-0.1694
-4.4271 umgekippt	-0.1641
-4.1261 umgekipptes	-0.2692
-4.7290 umgelegt	-0.1675
-4.7290 umgete	-0.1713
-4.7290 umklappen	-0.1281
-4.4271 umlegen	-0.1279
-4.7290 umrahmt	-0.1707
-4.4271 umschließt	-0.3551
-4.4271 umschlossen	-0.3977
-4.7290 umwickelt	-0.1704
-3.4977 un	-0.3965
-4.7290 unabhängig	-0.1680
-4.7290 unangenehm	-0.1652
-4.7290 unbedingt	-0.1693
-1.5629 und	-0.6129
-4.7290 unförmig	-0.1665
-3.7281 ungefähr	-0.1392
-4.4271 uninteressant	-0.1246
-4.4271 unklar	-0.3935
-4.7290 unlogisch	-0.1712
-3.4728 uns	-0.1696
-4.0291 unser	-0.1692
-4.4271 unser'm	-0.1695
-4.7290 unser'n	-0.1705
-4.2510 unsere	-0.6204
-4.4271 unserem	-0.3974
-4.7290 unserer	-0.1674
-4.4271 unseres	-0.1713
-4.7290 unsymmetrischten	-0.1703
-4.7290 unt	-0.1682
-2.1529 unten	-0.4212
-3.2657 unter	-0.5192
-4.1261 unter'nander	-0.4139
-2.9428 untere	-0.4677
-4.1261 untereinander	-0.2134
-4.7290 unterem	-0.1707
-3.0121 unteren	-0.3014
-3.9500 unterhalb	-0.4189
-4.7290 unters	-0.1665
-3.7281 unterste	-0.2534
-4.7290 unterstem	-0.1281
-3.8830 untersten	-0.2164
-4.1261 unterteilt	-0.1212
-4.7290 unterzubringen	-0.1281
-4.2510 ups	-0.1064
-4.1261 v	-0.1575
-4.4271 ver	-0.1712
-4.4271 verbinden	-0.3551
-4.2510 verbunden	-0.1239
-4.7290 verdammt	-0.1281
-4.7290 verdient	-0.1694
-4.2510 verdreht	-0.5782
-4.4271 vereint	-0.3551
-4.7290 verfolge	-0.1705
-4.7290 vergessen	-0.1685
-4.7290 vergiss	-0.1652
-4.7290 verk	-0.1655
-3.7281 verkehrt	-0.5488
-4.2510 verkehrte	-0.2643
-3.8250 verkehrtrum	-0.2898
-4.7290 verkehrtrume	-0.1712
-4.7290 verkehrtrumes	-0.1702
-3.9500 verkrüppelte	-0.7956
-4.7290 verkrüppeltes	-0.1702
-4.7290 verkürzt	-0.1281
-4.7290 verkürzter	-0.1713
-4.7290 verkürztes	-0.1706
-4.7290 verlieren	-0.1712
-4.7290 verlängerst	-0.1674
-4.1261 verlängert	-0.2252
-4.4271 verlängertes	-0.1698
-4.7290 vermeintlichen	-0.1703
-4.7290 vermutlich	-0.1685
-4.7290 verpasst	-0.1694
-4.4271 verschieb	-0.1572
-3.8250 verschieben	-0.1435
-4.7290 verschieden	-0.1712
-4.4271 verschiedene	-0.1712
-4.4271 verschiedenen	-0.1710
-3.5820 verschoben	-0.2938
-4.7290 verschobenes	-0.1706
-4.0291 versetzt	-0.1568
-4.7290 verstand'n	-0.1712
-3.6142 verstanden	-0.2802
-3.5520 versteh	-0.7128
-4.7290 versteh'n	-0.1712
-4.4271 verstehe	-0.1243
-4.1261 verstehste	-0.6109
-4.7290 versteht	-0.1712
-4.7290 verständigen	-0.1665
-3.8250 versuch	-0.3429
-4.7290 versuche	-0.1709
-3.8830 versuchen	-0.0892
-4.4271 versucht	-0.1704
-4.7290 vert	-0.1706
-4.4271 vertauscht	-0.1274
-4.7290 verteilt	-0.1698
-2.8038 vertikal	-1.0210
-4.7290 vertikale	-0.1699
-4.7290 vertikales	-0.1680
-4.7290 verwechselst	-0.1652
-4.7290 verwirrend	-0.1694
-3.6489 viel	-0.1953
-4.0291 viele	-0.1272
-3.2810 vielleicht	-0.0872
-4.4271 vielte	-0.3950
-2.7069 vier	-0.2673
-4.7290 viereckig	-0.1703
-4.7290 vierer	-0.1665
-4.7290 viergeteilt	-0.1710
-3.7281 vierte	-0.2315
-4.7290 vierteil'n	-0.1694
-4.0291 vierteilen	-0.1420
-4.7290 vierteiligen	-0.1713
-4.2510 vierten	-0.1646
-4.7290 vierter	-0.1712
-3.7739 voll	-0.2782
-4.4271 vollkommen	-0.1669
-4.0291 vollständig	-0.1629
-2.7281 vom	-0.4718
-4.7290 vomeim	-0.1713
-2.1239 von	-1.0184
-4.7290 voneinander	-0.1713
-3.1370 vor	-0.7149
-4.7290 vorder	-0.1710
-4.2510 vordere	-0.3077
-4.7290 vorderem	-0.1708
-3.5240 vorderen	-0.4464
-4.4271 vorgegeben	-0.1631
-4.7290 vorgegebenen	-0.1713
-4.7290 vorhandene	-0.1710
-4.4271 vorhandenen	-0.1705
-4.0291 vorher	-0.1699
-4.7290 vorhergehende	-0.1653
-3.5240 vorhin	-0.2485
-4.7290 vorige	-0.1710
-4.7290 vorletzte	-0.1675
-4.7290 vorletztes	-0.1712
-4.0291 vorn	-0.3274
-3.0121 vorne	-0.7400
-4.1261 vorstell'n	-0.1032
-4.4271 vorstelle	-0.1704
-4.7290 vorstellen	-0.1692
-4.7290 vorstellst	-0.1671
-4.4271 vorstellt	-0.1680
-4.2510 völlig	-0.1706
-3.6489 w	-0.2600
-2.8589 wa	-0.2154
-3.3857 waagerecht	-0.2692
-4.4271 waagerechte	-0.1710
-4.4271 waagerechten	-0.1214
-4.7290 waagerechter	-0.1713
-3.8250 waagrecht	-0.1396
-3.5820 wahrscheinlich	-0.1594
-4.2510 wann	-0.1691
-2.7458 war	-0.6189
-3.2510 waren	-1.3547
-3.9500 wart	-0.5234
-3.0749 warte	-0.7179
-4.0291 warum	-0.1231
-2.3148 was	-0.4762
-4.0291 wat	-0.3815
-4.4271 we	-0.1700
-4.7290 weder	-0.1669
-4.0291 weeste	-0.3787
-4.7290 weeß	-0.1699
-3.9500 weg	-0.0965
-4.4271 wei	-0.1698
-4.7290 weia	-0.1675
-3.0946 weil	-0.2683
-3.5240 weit	-0.4170
-2.8473 weiter	-0.5637
-4.7290 weiterdrehen	-0.1281
-4.4271 weiteres	-0.1214
-4.7290 weitergeführt	-0.1665
-4.4271 weiterläuft	-0.1394
-4.1261 weitermachen	-0.4123
-3.7739 weitesten	-0.3717
-3.0847 weiß	-0.5060
-4.1261 weiße	-0.2674
-3.7281 weißen	-0.2412
-4.4271 weißer	-0.1703
-4.4271 weißes	-0.1695
-4.7290 weißt	-0.1686
-3.9500 weißte	-0.3907
-4.7290 welch	-0.1665
-3.7281 welche	-0.4362
-4.7290 welchem	-0.1711
-4.4271 welchen	-0.1712
-4.0291 welcher	-0.2440
-3.4494 welches	-0.1690
-4.7290 wemem	-0.1680
-4.4271 wenig	-0.1687
-2.5434 wenn	-1.1006
-4.7290 wer	-0.1707
-2.8708 werden	-0.6374
-4.4271 wi	-0.1659
-4.2510 wichtig	-0.1222
-4.7290 wichtigste	-0.1688
-2.0625 wie	-0.7424
-2.9573 wieder	-0.2185
-4.7290 wiederholen	-0.1281
-4.2510 wiederum	-0.3069
-4.2510 wieso	-0.1588
-4.7290 wieviel	-0.1699
-4.2510 will	-0.1184
-4.1261 willst	-0.4541
-4.7290 winklige	-0.1653
-2.4271 wir	-0.2826
-2.8530 wird	-0.2906
-4.2510 wirklich	-0.1667
-4.7290 wis	-0.1694
-4.4271 wissen	-0.1228
-2.5638 wo	-0.3235
-4.4271 woanders	-0.1280
-3.8830 wobei	-0.1835
-4.1261 wohin	-0.4150
-4.4271 wohl	-0.1662
-4.4271 woll'n	-0.3967
-4.2510 wollen	-0.3036
-4.7290 wollt	-0.1713
-4.7290 wollte	-0.1693
-4.7290 womit	-0.1655
-4.7290 worum	-0.1685
-4.2510 wovon	-0.1647
-3.9500 wunderbar	-0.7534
-4.7290 wurscht	-0.1707
-4.4271 wusst	-0.3925
-4.7290 wussten	-0.1707
-4.4271 wär	-0.1685
-4.7290 wär'n	-0.1692
-3.9500 wäre	-0.1546
-4.2510 wären	-0.1468
-3.8830 würd	-0.4494
-3.4494 würde	-0.2029
-4.7290 würden	-0.1685
-4.4271 würdest	-0.1685
-4.7290 yeah	-0.1281
-4.7290 yes	-0.1281
-4.7290 you	-0.1713
-4.7290 zackiges	-0.1706
-4.7290 zah	-0.1707
-4.7290 zartgrüne	-0.1713
-3.8830 zehn	-0.1434
-4.7290 zei	-0.1674
-4.7290 zeig	-0.1704
-3.3479 zeigen	-0.4771
-4.7290 zeigende	-0.1653
-3.0038 zeigt	-0.4654
-4.7290 zeiliges	-0.1709
-4.7290 zeitig	-0.1713
-4.7290 zerteilen	-0.1712
-4.7290 zerteilt	-0.1281
-4.7290 zickzackig	-0.1704
-4.7290 zieht	-0.1692
-3.5820 ziemlich	-0.3298
-2.8196 zu	-0.4167
-4.7290 zueinander	-0.1281
-4.7290 zuenander	-0.1713
-4.2510 zuerst	-0.1648
-3.3664 zum	-0.2070
-4.7290 zumindest	-0.1593
-4.7290 zun	-0.1701
-3.7281 zur	-0.2427
-4.0291 zurück	-0.1995
-4.1261 zusammen	-0.1468
-4.7290 zusammengedrücktes	-0.1698
-4.7290 zusammengeklebtes	-0.1698
-4.4271 zusammengesetzt	-0.1685
-4.7290 zusammenliegen	-0.1281
-4.7290 zusammenpasst	-0.1281
-4.7290 zusammensetzt	-0.1281
-4.7290 zusammenstoßen	-0.1281
-3.8830 zusammentrifft	-0.5833
-4.4271 zusätzlich	-0.1276
-4.4271 zusätzliche	-0.1266
-4.2510 zusätzlichen	-0.1212
-2.7413 zwar	-0.2908
-2.3148 zwei	-0.4166
-4.7290 zweikästige	-0.1281
-3.5520 zweimal	-0.4802
-4.7290 zweit	-0.1665
-3.0946 zweite	-0.3457
-4.4271 zweiteilen	-0.1590
-3.0560 zweiten	-0.4605
-4.4271 zweiter	-0.3982
-4.2510 zweites	-0.3021
-4.4271 zweithöchsten	-0.1253
-2.9573 zwischen	-0.5120
-4.4271 zwo	-0.3963
-4.1261 zwölf	-0.2484
-4.1261 zähl	-0.1600
-4.7290 zähl'n	-0.1281
-4.0291 zählen	-0.1954
-4.4271 zählt	-0.1226
-4.7290 Öffnung	-0.1709
-4.2510 Übergang	-0.3051
-2.0433 äh	-0.1211
-2.0487 ähm	-0.2077
-4.1261 ähnlich	-0.2227
-4.7290 ändert	-0.1712
-4.2510 äußere	-0.1270
-4.7290 äußerste	-0.1713
-4.7290 äußersten	-0.1708
-4.7290 äußerstes	-0.1653
-3.9500 öh	-0.1453
-4.4271 ü	-0.1654
-4.7290 üb	-0.1710
-3.0946 über	-0.5099
-3.9500 über'nander	-0.1703
-3.3479 übereinander	-0.1960
-4.7290 übereinanderstehenden	-0.1708
-4.7290 übereinst	-0.1685
-4.7290 übergeordneten	-0.1700
-4.7290 überhalb	-0.1641
-3.6867 überhaupt	-0.3862
-4.7290 überlappen	-0.1685
-4.2510 überlappt	-0.1033
-4.4271 überleg	-0.3983
-4.4271 überlegen	-0.1634
-4.4271 überraschend	-0.1276
-4.4271 überschneiden	-0.1272
-4.7290 überschneidet	-0.1705
-4.7290 übersteh'n	-0.1520
-4.7290 überstehen	-0.1281
-4.7290 übersteht	-0.1281
-3.6489 übrig	-0.1181
-4.7290 übriges	-0.1653

\2-grams:
-0.4868 $B </s> 3.6189
-0.4260 $C </s> 2.6258
-1.9920 $C also -0.0499
-1.9920 $C betrachte -0.0088
-1.9920 $C da -0.0817
-1.4257 $C das -0.0844
-1.9920 $C genau -0.0674
-1.9920 $C grenzt -0.0505
-1.9920 $C in 0.0308
-1.9920 $C kommt -0.0508
-1.9920 $C oder -0.0684
-1.9920 $C packen -0.0126
-1.9920 $C praktisch -0.0832
-1.4257 $C rein 0.0183
-1.9920 $C so -0.0806
-1.9920 $C stell 0.3122
-1.9920 $C und -0.0819
-1.9920 $C vor -0.0825
-1.9920 $C wenn 0.0572
-1.9920 $C ähm -0.0833
-0.4868 $C's ähm -0.0858
-1.4411 $E </s> 3.6189
-1.4411 $E bezeichnet 0.0852
-1.4411 $E das -0.0713
-0.5958 $E dem -0.1895
-1.4411 $E links -0.0851
-0.8748 $E ohne -0.0596
-0.9206 $F </s> 3.4452
-1.4868 $F Strich -0.0777
-1.4868 $F allerdings -0.0568
-1.4868 $F am -0.0747
-0.5068 $F die -0.3340
-1.4868 $F wo -0.0585
-0.5958 $I </s> 3.2360
-0.8748 $I oder -0.0642
-0.8748 $I ohne -0.2096
-1.4411 $I vorstelle -0.0088
-1.4411 $I wird -0.0679
-0.4868 $K </s> 3.6189
-0.4741 $L </s> 2.0238
-2.6422 $L Form -0.0799
-2.6422 $L Stück -0.0835
-2.6422 $L Stückchen 0.0853
-2.0759 $L aber -0.0781
-1.7969 $L also -0.0392
-1.7969 $L an -0.1403
-2.6422 $L anliegt -0.0154
-2.6422 $L auf -0.0853
-2.6422 $L aus -0.0699
-2.0759 $L aussieht -0.0519
-2.6422 $L bezeichnest 0.0852
-1.6621 $L da -0.0741
-2.6422 $L dann -0.0616
-1.4527 $L das -0.1204
-2.6422 $L denn -0.0837
-1.6621 $L die -0.0730
-2.6422 $L dieses -0.0855
-2.6422 $L dis -0.0792
-2.6422 $L eben -0.0741
-2.6422 $L entspricht 0.0689
-2.6422 $L es -0.0832
-2.6422 $L falsch -0.0846
-2.6422 $L förmig -0.0088
-2.6422 $L förmige -0.0618
-2.6422 $L genau -0.0849
-2.6422 $L geschrieben 0.0852
-2.6422 $L hab 0.1915
-2.6422 $L hat -0.0715
-2.6422 $L ich -0.0373
-2.6422 $L in -0.0784
-2.6422 $L irgendwie -0.0833
-2.0759 $L is -0.0723
-1.6621 $L ist -0.0637
-2.6422 $L ja -0.0634
-2.0759 $L kommt -0.0598
-2.6422 $L liegen 0.0774
-2.6422 $L liegt -0.0800
-1.7969 $L mit -0.1851
-2.0759 $L muss -0.0520
-2.0759 $L nach 0.3208
-2.6422 $L nein -0.0798
-2.0759 $L nich -0.0626
-2.6422 $L nur -0.0847
-2.6422 $L rechts -0.0791
-2.6422 $L richtig 0.1394
-2.6422 $L sag -0.0088
-2.6422 $L schiebe -0.0568
-2.0759 $L schreibt 0.1227
-2.6422 $L sein 0.0995
-2.6422 $L sieht -0.0733
-2.6422 $L so -0.0841
-2.6422 $L sondern -0.0229
-2.0759 $L sozusagen -0.0621
-2.0759 $L und -0.0686
-2.6422 $L unten -0.0857
-2.6422 $L verkehrtrum -0.0680
-2.6422 $L vor 0.1248
-2.6422 $L vorher -0.0568
-2.0759 $L was -0.0835
-2.6422 $L wat -0.0568
-2.6422 $L wenn 0.0572
-2.6422 $L wie -0.0850
-2.6422 $L zeigt -0.0069
-2.6422 $L ähm -0.0779
-0.8709 $M </s> 2.7806
-1.9492 $M aber -0.0818
-1.3830 $M auch -0.0820
-1.9492 $M bezeichnen -0.0717
-1.9492 $M das -0.0855
-1.9492 $M eigentlich -0.0793
-1.9492 $M entlang 0.0852
-1.9492 $M grade -0.0618
-1.9492 $M is -0.0741
-1.9492 $M ja -0.0823
-1.9492 $M jetzt -0.0858
-1.9492 $M leg -0.0677
-1.9492 $M liegt -0.0757
-1.9492 $M nach 0.0578
-1.9492 $M reinschau'n 0.0852
-1.9492 $M schon -0.0745
-1.9492 $M so -0.0376
-1.9492 $M stößt -0.0680
-1.1039 $M und -0.1830
-1.9492 $M wie -0.0858
-1.9492 $M wäre -0.0618
-1.9492 $M äh -0.0833
-0.4868 $N </s> 3.6189
-0.4868 $P wenn 0.0572
-0.4416 $S </s> 2.4746
-1.0806 $S Teil -0.0759
-2.1589 $S aber -0.0855
-2.1589 $S das -0.0840
-2.1589 $S die -0.0860
-2.1589 $S einpasst -0.0088
-2.1589 $S förmig -0.0088
-2.1589 $S hier -0.0129
-2.1589 $S hm 0.2233
-1.5927 $S is -0.0808
-1.5927 $S muss -0.2304
-1.3136 $S oder -0.0060
-2.1589 $S okay 0.0720
-2.1589 $S so -0.0796
-2.1589 $S stößt -0.0155
-1.3136 $S und 0.0474
-2.1589 $S von 0.0483
-1.5927 $S was -0.0670
-2.1589 $S wie 0.0055
-2.1589 $S äh -0.0858
-0.4567 $T </s> 2.2426
-2.4059 $T Form -0.0799
-2.4059 $T Strich -0.0235
-1.8396 $T Stück -0.0506
-2.4059 $T Teil -0.0859
-2.4059 $T aber -0.0855
-2.4059 $T allerdings -0.0568
-2.4059 $T also -0.0749
-1.8396 $T aussieht -0.0485
-2.4059 $T besteht -0.0827
-2.4059 $T bleibt -0.0385
-2.4059 $T bündig -0.0790
-2.4059 $T da -0.0795
-1.2165 $T das -0.2224
-2.4059 $T der -0.0836
-2.4059 $T ein -0.0229
-2.4059 $T es -0.0815
-2.4059 $T gesetzt -0.0766
-2.4059 $T hab 0.1915
-1.8396 $T hast 0.1194
-2.4059 $T hier -0.0836
-1.8396 $T is -0.0841
-2.4059 $T jetzt -0.0858
-2.4059 $T kommt -0.0855
-2.4059 $T liegend -0.0492
-1.8396 $T liegt -0.0821
-2.4059 $T mach -0.0782
-2.4059 $T mit -0.0832
-1.8396 $T muss -0.0811
-2.4059 $T nach 0.0854
-1.8396 $T nee 0.0300
-2.4059 $T nur -0.0643
-2.4059 $T oben -0.0777
-2.4059 $T rein 0.1921
-1.5606 $T und -0.0257
-2.4059 $T verkehrt -0.0305
-1.8396 $T wie 0.0534
-2.4059 $T wo -0.0585
-2.4059 $T äh -0.0669
-2.4059 $T übrig -0.0741
-1.0889 $T's an -0.0425
-1.0889 $T's sind -0.0524
-1.0889 $T's zeigt -0.0069
-1.0889 $T's äh -0.0826
-0.2553 $U </s> 2.3071
-2.1401 $U Form -0.0229
-2.1401 $U angrenzen -0.0618
-2.1401 $U beziehungsweise -0.0654
-2.1401 $U das -0.0839
-1.5738 $U die -0.0822
-2.1401 $U drin -0.0751
-2.1401 $U erkenntlich 0.0852
-1.2947 $U förmige -0.2610
-2.1401 $U im -0.0791
-2.1401 $U liegend 0.0689
-2.1401 $U muss -0.0786
-2.1401 $U oder -0.0684
-2.1401 $U rankommt 0.0852
-2.1401 $U um 0.4987
-2.1401 $U und -0.0704
-1.5738 $U wenn 0.2235
-0.4291 $W </s> 2.1609
-2.4600 $W Teil -0.0843
-2.4600 $W ah 0.0586
-2.4600 $W andersrum -0.0305
-2.4600 $W angelegt 0.0231
-2.4600 $W bildet -0.0799
-2.4600 $W da -0.0804
-1.3817 $W das -0.0663
-2.4600 $W dass -0.0857
-2.4600 $W dem -0.0838
-1.8937 $W die -0.2563
-2.4600 $W dis -0.0830
-2.4600 $W dran -0.0399
-2.4600 $W einma -0.0088
-1.8937 $W hm -0.0710
-2.4600 $W ich -0.0781
-1.4799 $W is -0.0657
-1.8937 $W ist -0.0839
-2.4600 $W ja -0.0856
-2.4600 $W je -0.0361
-2.4600 $W kommt -0.0452
-2.4600 $W liegt -0.0829
-2.4600 $W ma -0.0229
-2.4600 $W muss -0.0855
-2.4600 $W ne -0.0767
-2.4600 $W oben -0.0777
-1.6147 $W oder -0.0205
-2.4600 $W passt 0.0287
-2.4600 $W ran -0.0663
-2.4600 $W rechts -0.0407
-2.4600 $W so -0.0657
-2.4600 $W sozusagen -0.0297
-2.4600 $W um -0.0780
-2.4600 $W umklappen 0.0852
-1.2108 $W und -0.0810
-2.4600 $W verkehrt 0.2186
-2.4600 $W vielleicht -0.0810
-2.4600 $W vom -0.0761
-2.4600 $W vor 0.1248
-2.4600 $W was -0.0621
-2.4600 $W wo -0.0851
-2.4600 $W äh -0.0840
-0.4868 $W's an -0.0335
-0.0488 $Y </s> 2.0818
-1.5927 $Y die -0.2581
-1.3136 $Y und -0.4530
-0.3850 $Z </s> 1.8299
-2.7469 $Z Form -0.0229
-1.2601 $Z Teil -0.0837
-2.7469 $Z ab 0.2745
-2.7469 $Z also -0.0499
-1.3570 $Z an -0.1576
-2.7469 $Z ausfüllt -0.0568
-2.7469 $Z automatisch -0.0361
-2.7469 $Z bezeichnen -0.0717
-2.7469 $Z da -0.0847
-1.7669 $Z das -0.1519
-2.7469 $Z dem -0.0858
-1.9016 $Z der -0.1725
-1.3058 $Z die -0.9315
-2.7469 $Z dieses 0.0698
-2.7469 $Z doch -0.0849
-2.7469 $Z drauf -0.0440
-2.7469 $Z drunter -0.0730
-2.7469 $Z ein -0.0771
-2.7469 $Z entspricht -0.0492
-2.1806 $Z förmige -0.1629
-2.7469 $Z genau -0.0704
-2.7469 $Z genommen -0.0361
-2.7469 $Z gesetzt 0.1255
-2.7469 $Z hab 0.1915
-2.7469 $Z haben -0.0705
-2.7469 $Z hinlegst -0.0361
-2.7469 $Z ick 0.0108
-2.7469 $Z ist -0.0856
-2.7469 $Z ja -0.0845
-2.7469 $Z kommt -0.0452
-1.7669 $Z liegt -0.1519
-2.7469 $Z malen -0.0088
-2.7469 $Z mit 0.1170
-2.7469 $Z ne 0.3399
-2.7469 $Z nimm -0.0843
-2.7469 $Z nur -0.0643
-1.9016 $Z oder -0.0177
-2.7469 $Z okay -0.0422
-1.9016 $Z rein 0.0879
-2.7469 $Z schließt -0.0839
-2.1806 $Z schon -0.0214
-2.7469 $Z schreiben -0.0088
-2.7469 $Z sieht -0.0733
-2.7469 $Z sozusagen -0.0774
-2.7469 $Z steht 0.0001
-2.7469 $Z umgedreht -0.0492
-2.7469 $Z un 0.0667
-1.6686 $Z und -0.0182
-2.7469 $Z ungefähr -0.0717
-2.7469 $Z verlängert 0.0689
-1.9016 $Z vom -0.1785
-2.7469 $Z von -0.0848
-2.1806 $Z vor 0.3588
-2.7469 $Z was -0.0823
-2.1806 $Z weeste 0.0050
-2.7469 $Z welches -0.0786
-2.7469 $Z wenn 0.0267
-2.7469 $Z wieder -0.0564
-2.7469 $Z wird -0.0314
-2.7469 $Z wobei -0.0044
-2.7469 $Z ähm -0.0858
-0.9640 $Z's </s> 3.6189
-0.9640 $Z's am -0.0646
-0.9640 $Z's an -0.0425
-0.4868 'es $W -0.0846
-1.6629 'is 'n -0.0857
-1.6629 'is </s> 3.6189
-1.6629 'is Teil -0.0505
-1.6629 'is aber -0.0855
-1.6629 'is an -0.0486
-1.6629 'is die -0.0856
-1.6629 'is dis -0.0857
-1.6629 'is in -0.0859
-1.0967 'is ja 0.0869
-1.6629 'is jetz -0.0715
-1.6629 'is nich -0.0853
-1.6629 'is praktisch -0.0753
-1.6629 'is sozusagen -0.0742
-1.6629 'is und -0.0846
-1.5660 'm Abzweig 0.0852
-1.5660 'm Boden 0.2046
-0.7207 'm Kopf -0.4464
-1.5660 'm Rücken -0.0840
-1.5660 'm ganz -0.0854
-1.5660 'm großem 0.3122
-1.5660 'm großen 0.2046
-1.5660 'm kleinen -0.0440
-1.5660 'm kurzen -0.0568
-1.5660 'm langen -0.0701
-2.2109 'n $C 0.0371
-3.0562 'n $F -0.0717
-3.0562 'n $I -0.0239
-1.2683 'n $L 0.1943
-2.2109 'n $M 0.0039
-3.0562 'n $P 0.0852
-1.5694 'n $S 0.0008
-1.5280 'n $T 0.1533
-2.2109 'n $U 0.3006
-2.0762 'n $W -0.1116
-1.2683 'n $Z -0.1278
-3.0562 'n 'n -0.0857
-1.8668 'n </s> 3.3105
-3.0562 'n Balken 0.3160
-3.0562 'n Bauch -0.0786
-3.0562 'n Bein -0.0695
-3.0562 'n Bild -0.0361
-3.0562 'n Blitz -0.0088
-2.4899 'n Block -0.0751
-3.0562 'n Bogen -0.0361
-3.0562 'n Bumerang -0.0361
-3.0562 'n Ding -0.0796
-3.0562 'n Dings -0.0088
-3.0562 'n Eckstück -0.0088
-1.8668 'n Elefant -0.1078
-2.4899 'n Fehler 0.0203
-3.0562 'n Feld -0.0808
-3.0562 'n Flügel -0.0766
-2.4899 'n Freikästchen 0.0852
-2.4899 'n Haken 0.0852
-3.0562 'n Hintern -0.0492
-2.4899 'n Kolibri -0.0254
-2.4899 'n Kopf -0.0563
-1.8070 'n Kreuz -0.0125
-1.6151 'n Kästchen -0.0043
-3.0562 'n Körper 0.0109
-2.2109 'n Loch -0.0279
-3.0562 'n Mittelstrang 0.0852
-3.0562 'n Pfeil -0.0088
-2.4899 'n Plus -0.0680
-3.0562 'n Preis -0.0088
-2.2109 'n Problem 0.0648
-1.5280 'n Quadrat -0.0172
-2.2109 'n Rand -0.1390
-1.5694 'n Rechteck 0.0178
-3.0562 'n Rotes 0.0852
-3.0562 'n Rucksack -0.0701
-3.0562 'n Rücken -0.0715
-2.0762 'n Rüssel -0.0739
-3.0562 'n Sattel -0.0088
-2.4899 'n Schachbrett 0.2227
-3.0562 'n Schornstein -0.0239
-3.0562 'n Schwanz -0.0361
-3.0562 'n Stein -0.0401
-3.0562 'n Stern -0.0088
-1.8070 'n Stück -0.0572
-3.0562 'n Stückchen 0.0853
-1.3653 'n Teil -0.0059
-3.0562 'n Viereck -0.0766
-3.0562 'n Vorderbein -0.0802
-3.0562 'n Weg 0.0852
-1.9779 'n Winkel -0.0480
-3.0562 'n Würfel -0.0543
-3.0562 'n Ypsilon 0.0852
-3.0562 'n Zeichen 0.0852
-3.0562 'n Zickzack 0.0852
-1.9779 'n and'res -0.1490
-1.8668 'n anderes -0.1813
-3.0562 'n aus -0.0550
-3.0562 'n ausgestreckter 0.0852
-3.0562 'n b -0.0088
-3.0562 'n bis -0.0799
-0.9162 'n bisschen 0.0959
-3.0562 'n das -0.0860
-3.0562 'n dickes 0.0852
-2.0762 'n dis -0.0831
-3.0562 'n ein -0.0688
-3.0562 'n einzelner -0.0088
-1.9779 'n einzelnes -0.0382
-3.0562 'n extra -0.0618
-3.0562 'n falsches 0.0852
-2.4899 'n freies 0.0203
-1.8668 'n ganz -0.1182
-2.2109 'n großes 0.1947
-2.4899 'n größeres 0.0203
-2.4899 'n halbes -0.1048
-3.0562 'n hm -0.0848
-2.2109 'n ich -0.1924
-3.0562 'n is -0.0750
-3.0562 'n jetzt -0.0710
-3.0562 'n klei -0.0361
-2.4899 'n kleiner 0.0203
-2.4899 'n kleines -0.0313
-2.4899 'n komisches -0.0254
-3.0562 'n kürzeren 0.0852
-3.0562 'n längeres 0.0852
-3.0562 'n mittleres 0.0852
-3.0562 'n neunzig 2.0442
-2.2109 'n noch -0.0375
-3.0562 'n normales 0.0852
-3.0562 'n quadratisches 0.0852
-3.0562 'n rechten -0.0459
-1.8070 'n rechter -0.0692
-3.0562 'n rechtwinkliges 0.0852
-3.0562 'n schrä 0.0852
-3.0562 'n schräges 0.0852
-3.0562 'n schönes 0.0852
-3.0562 'n seltsames 0.0852
-2.4899 'n sieht 0.3430
-2.2109 'n so -0.0099
-3.0562 'n spiegelverkehrtes -0.0088
-3.0562 'n stinknormales 0.0852
-3.0562 'n symmetrischer 0.0852
-3.0562 'n umgekehr 0.0852
-3.0562 'n umgekehrtes -0.0361
-3.0562 'n umgete 0.0852
-3.0562 'n verk 0.0852
-3.0562 'n verkehrtrumes 0.0852
-3.0562 'n verlängertes -0.0088
-2.4899 'n wa -0.0823
-3.0562 'n weiteres -0.0088
-2.4899 'n wie -0.1683
-3.0562 'n zackiges 0.0852
-2.4899 'n ziemlich -0.0654
-3.0562 'n zusammengedrücktes 0.0852
-3.0562 'n zwei -0.0856
-3.0562 'n zweites 0.1359
-2.4899 'n äh -0.0806
-3.0562 'n ähm -0.0850
-3.0562 'n überhaupt -0.0730
-2.4825 'ne $T -0.0844
-2.4825 'ne $Z -0.0853
-2.4825 'ne 'n -0.0742
-2.4825 'ne 'ne -0.0847
-1.2930 'ne Art -0.0254
-2.4825 'ne Brille 0.0852
-2.4825 'ne Brücke -0.0717
-2.4825 'ne Delle -0.0088
-2.4825 'ne Dreierreihe 0.0264
-1.9162 'ne Ecke 0.0287
-2.4825 'ne Einheit -0.0618
-1.9162 'ne Ente 0.0852
-2.4825 'ne Fläche 0.1359
-2.4825 'ne Gerade -0.0654
-2.4825 'ne Höhe -0.0701
-1.5024 'ne Idee 0.1273
-1.9162 'ne Kante -0.0497
-2.4825 'ne Keile 0.0852
-2.4825 'ne Kuh 0.0852
-1.6372 'ne Linie -0.4134
-1.5024 'ne Lücke 0.1242
-2.4825 'ne Möglichkeit -0.0568
-2.4825 'ne Nummerierung 0.0852
-2.4825 'ne Pforte 0.0852
-1.9162 'ne Reihe -0.0595
-1.9162 'ne Sieben 0.3248
-1.9162 'ne Stufe -0.0709
-2.4825 'ne Toreinfahrt 0.0852
-0.6946 'ne Treppe 0.0475
-2.4825 'ne Vier -0.0772
-2.4825 'ne Zeile -0.0786
-2.4825 'ne Zwei -0.0730
-2.4825 'ne Zweierreihe -0.0568
-2.4825 'ne also -0.0818
-2.4825 'ne aufrechte -0.0088
-2.4825 'ne dicke 0.0852
-2.4825 'ne drei -0.0855
-1.6372 'ne dreistufige 0.1525
-2.4825 'ne ganz -0.0854
-2.4825 'ne gerade -0.0802
-2.4825 'ne große -0.0403
-2.4825 'ne hast 0.1114
-2.4825 'ne hintere 0.0272
-2.4825 'ne k 0.0852
-2.4825 'ne klei -0.0361
-1.6372 'ne kleine -0.1570
-2.4825 'ne kürzere -0.0568
-2.4825 'ne linke -0.0738
-2.4825 'ne lustige 0.0852
-2.4825 'ne richtige -0.0239
-2.4825 'ne sieht 0.3167
-2.4825 'ne so -0.0724
-2.4825 'ne verkehrtrume 0.0852
-1.9162 'ne wie -0.0407
-2.4825 'ne zartgrüne 0.0852
-2.4825 'ne äh -0.0850
-1.5660 'nem $L -0.0824
-1.5660 'nem Elefanten -0.0186
-0.9997 'nem Quadrat -0.0280
-1.5660 'nem Rucksack -0.0701
-1.5660 'nem Schachbrett 0.1359
-1.5660 'nem ander'n -0.0561
-1.5660 'nem großen 0.2046
-1.5660 'nem im -0.0842
-1.5660 'nem kleinen -0.0751
-0.9997 'nem mit -0.2526
-1.7421 'nen $E -0.0239
-1.7421 'nen $S 0.1089
-1.7421 'nen $Z -0.0806
-1.7421 'nen Elefanten -0.0186
-1.7421 'nen Kästchen -0.0520
-1.7421 'nen Pluszeichen -0.0492
-1.7421 'nen Stuhl -0.0777
-0.4929 'nen Stück -0.0455
-1.7421 'nen and'res -0.0680
-1.7421 'nen anderen -0.0772
-1.1758 'nen bisschen -0.0764
-0.9640 'ner Faust 0.5354
-0.9640 'ner bestimmten 0.0852
-0.9640 'ner in 0.0335
-3.0196 's $T -0.0844
-3.0196 's $W -0.0846
-2.0396 's 'n -0.1047
-3.0196 's 'ne 0.0119
-1.2540 's </s> 2.4263
-3.0196 's Fenster 0.0852
-3.0196 's Hinterteil -0.0823
-3.0196 's Kreuz -0.0849
-2.4533 's Rechteck -0.0545
-3.0196 's Richtung -0.0472
-3.0196 's ab -0.0500
-3.0196 's ah -0.0630
-2.4533 's als -0.0756
-2.4533 's also -0.0217
-3.0196 's an -0.0748
-3.0196 's anguckt -0.0361
-1.6297 's auch 0.0038
-2.4533 's auf -0.0761
-1.7704 's aus -0.0610
-2.4533 's aussieht 0.6483
-2.0396 's bei 0.4074
-3.0196 's beschreiben -0.0407
-3.0196 's besteht 0.0748
-3.0196 's bezeichnen 0.1288
-3.0196 's bisschen -0.0785
-1.8302 's da -0.0196
-2.1743 's dann -0.0784
-2.4533 's das -0.0784
-2.4533 's denn -0.0813
-3.0196 's der -0.0855
-2.4533 's dir -0.0811
-3.0196 's dis -0.0792
-1.7704 's doch -0.0974
-1.9413 's dreht 0.0325
-2.4533 's drei -0.0325
-3.0196 's eben -0.0741
-3.0196 's eigentlich -0.0605
-2.1743 's ein -0.0629
-3.0196 's eine -0.0716
-1.7704 's einfach 0.0700
-2.4533 's eins -0.0473
-3.0196 's erstma 0.0144
-3.0196 's falsch -0.0846
-3.0196 's fünfte 0.0983
-3.0196 's für 0.0032
-2.4533 's ganz 0.0331
-2.1743 's gar 0.3994
-3.0196 's ge -0.0680
-3.0196 's gefunden -0.0361
-3.0196 's gelegt -0.0793
-2.0396 's genau -0.0830
-3.0196 's gesagt -0.0361
-3.0196 's glaub 0.2361
-2.4533 's gut -0.0791
-3.0196 's hat -0.0051
-2.4533 's hier -0.0595
-2.0396 's hin -0.1092
-3.0196 's hinlege 0.0852
-2.4533 's hinlegen -0.0596
-2.4533 's hohl 0.1385
-2.4533 's ich -0.0637
-3.0196 's ick -0.0839
-3.0196 's immer -0.0543
-2.0396 's in 0.1035
-3.0196 's ins -0.0499
-2.0396 's irgendwie -0.0232
-1.8302 's is -0.0187
-1.4914 's ja 0.0460
-2.4533 's jetz -0.0699
-1.1525 's jetzt -0.0651
-3.0196 's keine -0.0802
-3.0196 's kippen 0.0852
-3.0196 's kompliziert -0.0618
-3.0196 's könnte -0.0759
-3.0196 's leg -0.0368
-3.0196 's letzte -0.0385
-2.0396 's links -0.2060
-3.0196 's losgehen 0.0852
-2.0396 's ma -0.0977
-2.4533 's mal -0.0603
-3.0196 's meinst -0.0799
-2.0396 's mit -0.2533
-3.0196 's muss -0.0567
-3.0196 's na 0.1045
-1.4914 's nach 0.7481
-3.0196 's natürlich -0.0717
-2.4533 's nee -0.2400
-1.7704 's nich 0.0074
-2.0396 's nicht 0.0712
-2.4533 's noch -0.0715
-1.9413 's nochma -0.0171
-2.1743 's nochmal -0.0537
-2.4533 's nur -0.0555
-3.0196 's nämlich -0.0680
-3.0196 's obere -0.0227
-3.0196 's och -0.0618
-3.0196 's okay -0.0660
-2.4533 's praktisch -0.0623
-3.0196 's raus -0.0802
-2.1743 's rechts -0.1803
-3.0196 's rechtwinklig 0.0852
-3.0196 's rein -0.0725
-1.9413 's richtig 0.1707
-3.0196 's rote -0.0088
-3.0196 's sagst -0.0618
-2.1743 's schon -0.0200
-3.0196 's schreibt -0.0492
-3.0196 's schöner 0.0852
-3.0196 's sein -0.0840
-3.0196 's seitenverkehrt -0.0618
-3.0196 's senkrecht -0.0825
-2.4533 's sieht 0.1430
-3.0196 's sind -0.0822
-1.4914 's so 0.1967
-3.0196 's sozusagen -0.0849
-3.0196 's total -0.0568
-3.0196 's tun -0.0088
-1.9413 's um 0.4916
-3.0196 's umdrehst 0.0852
-3.0196 's umgekippt -0.0088
-3.0196 's unser -0.0568
-3.0196 's unterteilt -0.0492
-2.4533 's vielleicht -0.0759
-3.0196 's voll 0.0410
-3.0196 's von -0.0857
-2.1743 's vor -0.2581
-3.0196 's vorher -0.0568
-3.0196 's waagerecht -0.0796
-1.9413 's weiter -0.0179
-3.0196 's wenn 0.0572
-2.4533 's wie -0.0773
-2.4533 's wieder -0.2363
-3.0196 's wo -0.0585
-3.0196 's wäre 0.0109
-3.0196 's würdest -0.0088
-3.0196 's zeigt -0.0835
-3.0196 's zu -0.0289
-3.0196 's zwei -0.0725
-3.0196 's äh -0.0789
-0.0001 </s> <s> 0.1077
-3.3468 <s> $L -0.0148
-4.1921 <s> $M -0.0812
-4.1921 <s> $T -0.0844
-4.1921 <s> $U 0.2661
-4.1921 <s> $W -0.0846
-3.6258 <s> $Y 0.7133
-3.3468 <s> 'n -0.0148
-4.1921 <s> 'ne -0.0760
-4.1921 <s> 's -0.0857
-4.1921 <s> Bauch -0.0191
-4.1921 <s> Block -0.0775
-4.1921 <s> Blöcken -0.0305
-3.2121 <s> Brücke 0.3140
-4.1921 <s> Dreierstück -0.0361
-4.1921 <s> Druckbuchstaben 0.0852
-4.1921 <s> Fuß -0.0701
-4.1921 <s> Gott -0.0793
-4.1921 <s> Hase 0.0852
-4.1921 <s> Kreuz 0.0900
-4.1921 <s> Krücke 0.1609
-4.1921 <s> Käse -0.0088
-3.6258 <s> Kästchen -0.1827
-4.1921 <s> Manu 0.0852
-3.6258 <s> Mensch -0.0378
-4.1921 <s> Mist 0.0852
-3.1138 <s> Moment 0.0271
-2.8022 <s> Nummer 0.2114
-4.1921 <s> Pardon 0.0852
-4.1921 <s> Problem -0.0305
-3.3468 <s> Quadrat -0.1448
-3.6258 <s> Spalte 0.2182
-4.1921 <s> Stufenabsatz 0.0852
-3.3468 <s> Stückchen 0.1499
-2.7510 <s> Teil -0.0444
-3.3468 <s> Treppe -0.2536
-4.1921 <s> Tschuldigung 0.5354
-4.1921 <s> Unterkante 0.3371
-4.1921 <s> Winkel 0.2356
-3.2121 <s> Würfel 0.2550
-4.1921 <s> a 0.1609
-2.1032 <s> aber 0.0222
-1.9649 <s> ach 0.0708
-2.0521 <s> ah 0.1007
-2.5292 <s> aha 0.1092
-4.1921 <s> alle -0.0826
-2.4265 <s> alles -0.9108
-3.3468 <s> als -0.0794
-1.3398 <s> also 0.1069
-4.1921 <s> am -0.0646
-2.3830 <s> an -0.0066
-4.1921 <s> angeordnet 0.0598
-4.1921 <s> ans -0.0766
-3.6258 <s> argh 0.0852
-4.1921 <s> auch -0.0777
-3.1138 <s> auf 0.1665
-4.1921 <s> aufgezeichnet 0.0852
-4.1921 <s> ausgefüllt -0.0144
-4.1921 <s> auslaufend -0.0088
-3.3468 <s> außer 0.0084
-4.1921 <s> bedauerlicherweise 0.0852
-3.6258 <s> bei 0.2815
-3.6258 <s> beschreib -0.0361
-4.1921 <s> besser -0.0492
-3.3468 <s> besteht 0.1432
-4.1921 <s> betrachte -0.0088
-3.6258 <s> beziehungsweise -0.0436
-4.1921 <s> bis -0.0799
-3.3468 <s> bisschen -0.1842
-4.1921 <s> bleibt -0.0385
-4.1921 <s> boah 0.0852
-3.2121 <s> cool 0.0989
-3.2121 <s> d -0.0054
-2.0240 <s> da -0.0048
-4.1921 <s> damit -0.0717
-3.2121 <s> danach -0.0621
-4.1921 <s> daneben 0.0231
-1.8360 <s> dann -0.0796
-4.1921 <s> darum 0.0852
-3.2121 <s> darüber 0.0206
-1.0378 <s> das -0.2654
-3.6258 <s> dass 0.0436
-4.1921 <s> dat -0.0088
-4.1921 <s> dazu -0.0680
-4.1921 <s> dazwischen 0.0443
-2.8022 <s> den -0.0648
-3.1138 <s> denn -0.0673
-1.6718 <s> der -0.6418
-1.6261 <s> die -0.6294
-3.3468 <s> diese -0.0241
-4.1921 <s> diesen -0.0818
-4.1921 <s> dieser -0.0830
-2.5011 <s> dieses 0.0571
-3.2121 <s> direkt -0.0402
-2.1032 <s> dis -0.0096
-3.3468 <s> dit -0.0879
-2.7053 <s> doch -0.1755
-4.1921 <s> dran 0.0447
-3.2121 <s> dreh -0.1142
-1.9344 <s> drehe 0.4679
-2.8022 <s> drehen 0.0373
-2.6639 <s> drei 0.0573
-4.1921 <s> dritte 0.1886
-2.3830 <s> du -0.2973
-4.1921 <s> eben -0.0741
-4.1921 <s> echt -0.0568
-4.1921 <s> ei -0.0618
-2.1868 <s> ein 0.0588
-3.1138 <s> eine -0.0479
-3.3468 <s> einen -0.0655
-4.1921 <s> einer -0.0815
-4.1921 <s> eingesetzt -0.0680
-4.1921 <s> einmal -0.0852
-3.6258 <s> eins -0.0769
-4.1921 <s> einwerfen -0.0088
-4.1921 <s> erklär 0.0332
-2.2281 <s> es -0.3690
-4.1921 <s> ey -0.0361
-3.3468 <s> fallen 0.7615
-4.1921 <s> falls 0.0852
-4.1921 <s> falsch 0.4975
-4.1921 <s> fang -0.0741
-3.3468 <s> fertig 0.5197
-4.1921 <s> fertisch 0.0852
-4.1921 <s> findeste 0.0852
-3.0027 <s> flip 0.2261
-4.1921 <s> flippen 0.1359
-4.1921 <s> fällt -0.0088
-4.1921 <s> fü -0.0361
-2.7510 <s> füge 0.2101
-3.1138 <s> fünf -0.0713
-4.1921 <s> fünfte 0.0410
-4.1921 <s> g -0.0492
-2.6261 <s> ganz 0.1334
-4.1921 <s> ge -0.0680
-3.6258 <s> gedreht 0.3438
-3.6258 <s> geflippt 0.0208
-3.0027 <s> geht 0.1380
-3.6258 <s> gen -0.0088
-1.5469 <s> genau -0.3124
-3.6258 <s> genauso -0.0088
-4.1921 <s> gern 0.0852
-4.1921 <s> gespiegelt 0.0201
-4.1921 <s> gewisser 0.0852
-4.1921 <s> gibt 0.0230
-4.1921 <s> glaub 0.2361
-4.1921 <s> graden 0.0852
-4.1921 <s> guck 0.0852
-2.0718 <s> gut 0.1250
-4.1921 <s> gute 0.0852
-3.3468 <s> ha 0.2979
-2.5292 <s> hab -0.3223
-4.1921 <s> hach -0.0088
-3.2121 <s> hallo 0.1058
-4.1921 <s> halt -0.0746
-4.1921 <s> has -0.0088
-2.6261 <s> hast -0.1324
-3.2121 <s> haste -0.0534
-4.1921 <s> hat -0.0846
-4.1921 <s> hellblau -0.0088
-3.3468 <s> hervorragend 0.0539
-4.1921 <s> hi 0.0852
-3.0027 <s> hier -0.5512
-4.1921 <s> hin -0.0847
-1.3589 <s> hm 0.0208
-4.1921 <s> hoffen 0.0852
-3.6258 <s> horizontal 0.4114
-3.6258 <s> huh 0.0852
-3.3468 <s> hä -0.1513
-4.1921 <s> häh 0.0852
-4.1921 <s> hätt 0.2811
-1.6560 <s> ich -0.4318
-4.1921 <s> ick -0.0839
-2.5292 <s> in 0.3393
-4.1921 <s> ir 0.0852
-4.1921 <s> irgendwie -0.0833
-2.5591 <s> is -0.0135
-3.0027 <s> ist -0.0380
-0.9901 <s> ja -0.2232
-4.1921 <s> jap 0.0852
-2.7053 <s> jawohl 0.1049
-4.1921 <s> je -0.0361
-4.1921 <s> jedenfalls -0.0361
-3.6258 <s> jetz -0.0739
-2.1868 <s> jetzt -0.0844
-3.1138 <s> jo 0.1098
-4.1921 <s> joa 0.0852
-4.1921 <s> juhu 0.0852
-3.6258 <s> jut 0.3726
-4.1921 <s> kann -0.0097
-3.2121 <s> kannst -0.1653
-3.3468 <s> kannste -0.0357
-4.1921 <s> kay 0.0852
-4.1921 <s> keine -0.0090
-4.1921 <s> klappt -0.0568
-4.1921 <s> kleinen -0.0751
-4.1921 <s> kom 0.0852
-4.1921 <s> komische -0.0492
-3.3468 <s> kommt 0.0002
-4.1921 <s> korrekt -0.0088
-4.1921 <s> können 0.1513
-4.1921 <s> l -0.0088
-3.6258 <s> lass -0.0361
-3.2121 <s> leg 0.1625
-2.5913 <s> lege 0.1558
-4.1921 <s> leider 0.0689
-3.6258 <s> letzten -0.0618
-4.1921 <s> liegend -0.0492
-4.1921 <s> liegendes 0.1218
-4.1921 <s> linken -0.0787
-2.3073 <s> links -0.3335
-4.1921 <s> linksseitig -0.0361
-4.1921 <s> logisch -0.0088
-3.1138 <s> loslassen -0.2654
-3.6258 <s> m -0.0361
-3.3468 <s> mach -0.0776
-3.6258 <s> macht -0.0568
-4.1921 <s> meinste -0.0088
-4.1921 <s> mh -0.0361
-3.0027 <s> mhm 0.0424
-4.1921 <s> mir -0.0846
-2.7053 <s> mit 0.2768
-3.6258 <s> mittig -0.0051
-2.7053 <s> mm 0.0618
-2.5591 <s> muss 0.0026
-4.1921 <s> musste -0.0730
-4.1921 <s> müssen -0.0296
-4.1921 <s> müssten -0.0361
-3.6258 <s> n -0.0395
-2.0618 <s> na 0.0436
-2.3628 <s> nach 0.6129
-4.1921 <s> natürlich -0.0717
-2.7510 <s> ne -0.5283
-3.6258 <s> neben -0.1001
-1.7657 <s> nee 0.1610
-1.6759 <s> nehme -0.3291
-3.6258 <s> nehmen -0.0608
-1.9893 <s> nein -0.1992
-3.6258 <s> neunzig 1.8705
-3.1138 <s> nich -0.1630
-2.7053 <s> nicht -0.5256
-1.8602 <s> nimm -0.0515
-3.1138 <s> nja 0.0290
-2.0718 <s> noch -0.5245
-3.3468 <s> nochma -0.0546
-3.3468 <s> nochmal -0.1312
-4.1921 <s> nun -0.0088
-3.0027 <s> nur 0.0075
-4.1921 <s> nächstes -0.0361
-3.3468 <s> nö 0.0149
-4.1921 <s> oah 0.0852
-3.2121 <s> oben -0.0630
-4.1921 <s> oberen -0.0834
-2.6261 <s> oder 0.0485
-2.4748 <s> oh 0.1584
-4.1921 <s> ohne -0.0359
-3.6258 <s> oje 0.0203
-1.3398 <s> okay 0.0227
-4.1921 <s> pap 0.0852
-2.7510 <s> passt 0.0894
-4.1921 <s> perfect 0.0852
-3.0027 <s> perfekt 0.2415
-4.1921 <s> praktisch -0.0576
-3.6258 <s> prima -0.0254
-4.1921 <s> rech -0.0492
-2.4265 <s> rechts -0.0418
-3.0027 <s> richtig 0.0169
-4.1921 <s> rosa -0.0492
-3.6258 <s> rotate 0.0203
-3.3468 <s> runter 0.0579
-3.2121 <s> sag -0.1356
-4.1921 <s> sagen -0.0126
-4.1921 <s> sch -0.0568
-4.1921 <s> scheint 0.3122
-4.1921 <s> scheiße 0.0759
-3.3468 <s> schließt -0.0675
-3.6258 <s> schön 0.1381
-4.1921 <s> sechs -0.0766
-3.2121 <s> sehr -0.0289
-3.1138 <s> senkrecht -0.0650
-3.6258 <s> setze 0.7509
-4.1921 <s> setzt 0.0584
-2.6261 <s> sieht -0.1453
-3.3468 <s> sind -0.1411
-1.6967 <s> so -0.2454
-3.3468 <s> soll -0.3284
-4.1921 <s> sollen -0.0088
-4.1921 <s> sondern -0.0799
-4.1921 <s> sonst -0.0730
-3.1138 <s> sozusagen -0.0466
-4.1921 <s> sp -0.0088
-3.6258 <s> spieg'le 0.3616
-2.4042 <s> spiegel -0.4886
-2.1490 <s> spiegele 0.1147
-4.1921 <s> spiegeln -0.0793
-3.3468 <s> sprich 0.1149
-4.1921 <s> stark 0.3122
-4.1921 <s> steht -0.0349
-3.2121 <s> stopp -0.0266
-4.1921 <s> stößt -0.0680
-3.1138 <s> super 0.0016
-4.1921 <s> supertoll 0.0852
-3.6258 <s> toll -0.0088
-4.1921 <s> tschüss 0.3122
-3.6258 <s> tut 0.4813
-3.1138 <s> uh -0.1277
-3.6258 <s> um -0.0838
-4.1921 <s> umgedreht -0.0492
-4.1921 <s> umgedrehtes -0.0618
-4.1921 <s> umgekehrt -0.0361
-3.2121 <s> un 0.1398
-0.9810 <s> und -0.0253
-4.1921 <s> ungefähr -0.0717
-2.6639 <s> unten -0.0339
-4.1921 <s> unter -0.0812
-4.1921 <s> unter'nander 0.2811
-4.1921 <s> untereinander 0.0689
-4.1921 <s> unterhalb 0.2316
-3.3468 <s> ups 0.0852
-4.1921 <s> verbunden -0.0361
-4.1921 <s> verkehrtrum 0.1280
-4.1921 <s> verkürztes 0.0852
-4.1921 <s> verschieb -0.0088
-4.1921 <s> verschoben -0.0472
-3.6258 <s> versteh 0.3142
-4.1921 <s> verstehe -0.0088
-3.6258 <s> verstehste 0.3943
-4.1921 <s> versteht 0.0852
-4.1921 <s> versuch -0.0680
-3.6258 <s> vertikal 0.5721
-3.2121 <s> vielleicht -0.0654
-3.0027 <s> vier 0.0021
-4.1921 <s> vierte -0.0717
-3.3468 <s> vom -0.0489
-3.0027 <s> von 0.2075
-3.6258 <s> vorne -0.2499
-3.6258 <s> waagerecht -0.0123
-4.1921 <s> wann -0.0361
-4.1921 <s> war -0.0756
-4.1921 <s> wart 0.3706
-2.5913 <s> warte 0.4299
-3.3468 <s> warum 0.0084
-2.9429 <s> was -0.0095
-4.1921 <s> weeste -0.0568
-3.2121 <s> weil -0.1023
-3.6258 <s> weiter -0.1368
-4.1921 <s> weißt 0.0852
-3.6258 <s> welchen 0.0852
-2.4748 <s> wenn 0.4082
-2.2429 <s> wie 0.2019
-4.1921 <s> wieder -0.0626
-4.1921 <s> wieso -0.0361
-3.2121 <s> wir -0.1302
-4.1921 <s> wird -0.0679
-2.5913 <s> wo -0.0577
-3.6258 <s> wobei -0.0436
-4.1921 <s> wohin -0.0492
-4.1921 <s> woll'n 0.3122
-3.6258 <s> wunderbar 0.5369
-4.1921 <s> yes 0.0852
-4.1921 <s> zeiliges 0.0852
-4.1921 <s> ziemlich -0.0759
-4.1921 <s> zuerst -0.0361
-4.1921 <s> zum -0.0799
-4.1921 <s> zurück 0.0332
-2.6639 <s> zwei -0.0799
-4.1921 <s> zweimal -0.0766
-3.2121 <s> zwischen -0.0317
-1.7915 <s> äh -0.1147
-1.5321 <s> ähm -0.1488
-3.2121 <s> öh 0.0203
-3.1138 <s> über 0.0607
-4.1921 <s> übrig -0.0741
-0.4868 Abbildung neun -0.0305
-0.4868 Abmessung nich -0.0853
-0.7879 Abschluss bilden 0.0598
-0.7879 Abschluss der -0.0726
-0.9640 Abschnitt </s> 3.6189
-0.9640 Abschnitt des -0.0698
-0.9640 Abschnitt halt -0.0830
-0.4868 Abschnitte und -0.0312
-1.3899 Abstand bleibt 0.0900
-1.3899 Abstand das -0.0844
-1.3899 Abstand ein -0.0672
-0.8237 Abstand hat 0.0284
-1.3899 Abstand ja -0.0827
-1.3899 Abstand nach -0.0075
-1.3899 Abstand zu -0.0582
-0.4868 Abzweig </s> 3.6189
-0.4868 Abzweigungen hat -0.0846
-0.4868 Acht ist -0.0789
-1.1858 Ahnung </s> 3.6189
-1.1858 Ahnung ah -0.0773
-1.1858 Ahnung ich -0.0373
-0.6195 Ahnung wie -0.0698
-1.0889 Anfang positioniert -0.0361
-1.0889 Anfang sich -0.0846
-0.5226 Anfang und -0.0645
-0.7879 Angebot aber -0.0670
-0.7879 Angebot das -0.0814
-0.4868 Anordnung von -0.0848
-0.7879 Anzahl einer -0.0815
-0.7879 Anzahl von -0.0848
-1.6629 Art $L 0.0915
-1.6629 Art $S -0.0831
-1.6629 Art $T 0.1006
-1.6629 Art Dreieck 0.0759
-1.6629 Art Treppe 0.1293
-1.6629 Art Winkel -0.0599
-1.6629 Art Zickzacklinie 0.0852
-0.4137 Art und -1.0217
-1.6629 Art vierer 0.0852
-0.4868 Aus ein -0.0843
-0.7879 Ausbuchtung nach 0.0854
-0.7879 Ausbuchtung über -0.0233
-0.4868 Ausbuchtungen sondern -0.0799
-0.7879 Ausläufer des -0.0856
-0.7879 Ausläufer mit 0.1170
-1.0889 Ausrichtung hat -0.0846
-1.0889 Ausrichtung nach 0.0854
-0.5226 Ausrichtung und -0.0808
-0.4868 Ausschnitt also -0.0499
-0.4868 Auswahlfeld und -0.0810
-0.4868 Auswahlfeldes als -0.0779
-0.9640 Auswuchs </s> 3.6189
-0.9640 Auswuchs an -0.0512
-0.9640 Auswuchs hat -0.0051
-0.4868 Auswuchtung an -0.0425
-0.4868 Auswählen </s> 3.6189
-0.4868 Auß'dings nach -0.0075
-0.7879 Außenkante ein -0.0697
-0.7879 Außenkante mittig -0.0684
-0.4868 Außenwände von 0.0483
-0.2191 Balken </s> 2.1999
-2.2111 Balken an -0.0740
-1.6448 Balken aus -0.0659
-1.2311 Balken das -0.3221
-2.2111 Balken davon -0.0577
-2.2111 Balken dazu -0.0680
-1.3658 Balken der -0.1721
-2.2111 Balken die -0.0633
-2.2111 Balken irgendwie -0.0833
-2.2111 Balken länger 0.0109
-2.2111 Balken oben -0.0858
-1.2311 Balken und -0.1034
-2.2111 Balken äh -0.0780
-0.4868 Basis ein -0.0814
-0.8451 Bauch </s> 2.7050
-1.4866 Bauch also -0.0354
-2.3319 Bauch auch -0.0852
-2.3319 Bauch aus -0.0840
-2.3319 Bauch beginnt 0.0332
-2.3319 Bauch das -0.0791
-0.4834 Bauch des -0.6031
-2.3319 Bauch einfach -0.0843
-2.3319 Bauch endet -0.0568
-2.3319 Bauch ganz -0.0427
-2.3319 Bauch hm 0.0219
-2.3319 Bauch jetz -0.0846
-1.7657 Bauch kommt -0.0706
-2.3319 Bauch mit 0.1170
-2.3319 Bauch noch -0.0719
-1.3519 Bauch rein 0.2704
-2.3319 Bauch so 0.0177
-1.2536 Bauch und -0.0326
-1.7657 Bauch unten -0.0090
-2.3319 Bauch vom -0.0155
-1.3519 Bauch von -0.1432
-2.3319 Bauch zu -0.0843
-1.7657 Bauch äh -0.0820
-2.3319 Bauch ähm -0.0815
-0.7879 Bauchdecke berühr'n -0.0088
-0.7879 Bauchdecke entfernt -0.0492
-0.4868 Bauchlinie des -0.0133
-0.7879 Bauchnabel </s> 3.6189
-0.7879 Bauchnabel hätte -0.0701
-0.4868 Bauchquadrat </s> 3.6189
-0.7879 Bauchraumes bündig -0.0335
-0.7879 Bauchraumes ein -0.0229
-0.9640 Bauchseite </s> 3.6189
-0.9640 Bauchseite also -0.0844
-0.9640 Bauchseite rein 0.1921
-0.4868 Bauchstück </s> 3.6189
-0.4868 Bauchteil mit 0.1170
-0.4868 Bauchteile noch -0.0797
-0.4868 Baukästen übereinander -0.0427
-1.9182 Baustein </s> 3.6189
-1.9182 Baustein also -0.0818
-1.9182 Baustein an -0.0425
-1.9182 Baustein br 0.3122
-1.9182 Baustein dazwischen -0.0741
-0.4771 Baustein der -0.2962
-1.9182 Baustein drin 0.0690
-1.3519 Baustein frei -0.0266
-1.9182 Baustein gesucht 0.0852
-1.9182 Baustein hat -0.0585
-1.9182 Baustein klebt 0.0852
-1.9182 Baustein links -0.0820
-1.9182 Baustein noch -0.0846
-1.9182 Baustein oben -0.0595
-1.9182 Baustein praktisch -0.0576
-1.9182 Baustein rechts 0.0196
-1.9182 Baustein um -0.0780
-1.9182 Baustein von 0.0483
-0.9426 Bausteine </s> 3.2360
-0.9426 Bausteine an -0.0721
-1.7879 Bausteine angrenzen 0.1218
-1.7879 Bausteine angrenzt 0.2707
-1.7879 Bausteine anliegt 0.3746
-0.8078 Bausteine die -0.1627
-1.7879 Bausteine müssen -0.0816
-1.2216 Bausteine nach 0.2079
-1.7879 Bausteine oder -0.0850
-0.9426 Bausteine und -0.0783
-1.6910 Bausteinen </s> 3.6189
-1.6910 Bausteinen abschließt 0.6299
-1.6910 Bausteinen anliegt -0.0806
-1.6910 Bausteinen auf 0.1397
-0.8457 Bausteinen besteht -0.1247
-1.1247 Bausteinen dann -0.0778
-1.6910 Bausteinen in 0.0335
-1.6910 Bausteinen ist -0.0789
-1.6910 Bausteinen passt 0.0287
-1.6910 Bausteinen suchen 0.7590
-1.1247 Bausteinen und -0.0793
-1.6910 Bausteinen weil -0.0319
-0.7879 Bausteines unten -0.0697
-0.7879 Bausteines unterhalb -0.0618
-0.4868 Bausteinkomplex anliegt 0.3746
-0.9640 Bauteil an -0.0748
-0.9640 Bauteil ich -0.0826
-0.9640 Bauteil kommt -0.0471
-0.1089 Bayonett </s> 3.1831
-0.2216 Bedrängnis ich -0.0756
-0.4868 Begriffe geht -0.0459
-0.7439 Bein </s> 2.6636
-2.2722 Bein auf -0.0468
-2.2722 Bein aus -0.0550
-2.2722 Bein ausgefüllt 0.0448
-2.2722 Bein dann -0.0819
-1.4269 Bein das -0.0752
-2.2722 Bein der -0.0850
-0.7439 Bein des -0.2481
-2.2722 Bein drin -0.0440
-2.2722 Bein gelegt -0.0793
-2.2722 Bein genau -0.0849
-1.7059 Bein hinten -0.0150
-2.2722 Bein is -0.0818
-2.2722 Bein legen -0.0796
-2.2722 Bein muss -0.0855
-2.2722 Bein nach -0.0058
-2.2722 Bein noch -0.0857
-1.7059 Bein oder -0.2276
-2.2722 Bein passt 0.0287
-2.2722 Bein quasi -0.0790
-2.2722 Bein ragt -0.0654
-2.2722 Bein ran -0.0663
-2.2722 Bein rangeh'n 0.0852
-1.7059 Bein rein -0.0823
-2.2722 Bein reinragen 0.0852
-2.2722 Bein schon -0.0776
-2.2722 Bein sieht 0.3167
-1.4269 Bein und -0.1558
-1.4269 Bein von 0.0004
-1.7059 Bein vorne 0.4161
-2.2722 Bein äh -0.0858
-0.7879 Beinchen </s> 3.6189
-0.7879 Beinchen was -0.0823
-0.9620 Beine </s> 3.4452
-1.5282 Beine da -0.0857
-1.5282 Beine das -0.0850
-1.5282 Beine des -0.0665
-1.5282 Beine die -0.0769
-1.5282 Beine ein -0.0697
-1.5282 Beine nach -0.0058
-1.5282 Beine und -0.0860
-1.5282 Beine vorne -0.0834
-1.5282 Beine zeigen -0.0804
-1.2650 Beinen </s> 3.6189
-1.2650 Beinen da -0.0723
-0.6987 Beinen des -0.1516
-1.2650 Beinen hin -0.0725
-1.2650 Beinen sondern -0.0799
-0.4868 Beines abschließt 0.6299
-0.5226 Beins </s> 3.4452
-0.5226 Beins und -0.0816
-0.3977 Bereich des -0.2548
-0.9640 Bereich müsstest 0.1609
-0.4868 Beschreibung </s> 3.6189
-0.4868 Bett heißt -0.0499
-0.9640 Bild angucken -0.0088
-0.9640 Bild und -0.0490
-0.9640 Bild ziemlich -0.0472
-0.4868 Bildes </s> 3.6189
-0.3977 Bildschirm </s> 3.4452
-0.9640 Bildschirm ist -0.0299
-0.4868 Bio </s> 3.6189
-1.4868 Blatt aus -0.0855
-1.4868 Blatt das -0.0857
-1.4868 Blatt ja 0.0867
-1.4868 Blatt jetzt -0.0858
-1.4868 Blatt viergeteilt 0.0852
-1.4868 Blatt vierteil'n 0.0852
-0.9206 Blatt vierteilen -0.0254
-1.4868 Blatt vor -0.0825
-1.4868 Blatt wenn 0.0572
-0.4868 Blattes </s> 3.6189
-0.4868 Blattteilen miteinander -0.0044
-0.4868 Bleistiftstriche nicht -0.0851
-0.7879 Blitz aussehen -0.0568
-0.7879 Blitz sozusagen -0.0297
-0.5066 Block </s> 2.4263
-2.2722 Block Abstand -0.0680
-2.2722 Block Lücke 0.0984
-1.7059 Block an 0.0160
-2.2722 Block anschließend -0.0361
-2.2722 Block beziehungsweise 0.0853
-1.2921 Block der -0.0788
-2.2722 Block hin -0.0762
-1.7059 Block in 0.1952
-1.7059 Block is -0.0809
-1.7059 Block ist -0.0743
-1.0827 Block liegt -0.0532
-1.7059 Block links -0.2573
-1.7059 Block mit 0.1523
-2.2722 Block nee -0.0291
-2.2722 Block noch -0.0857
-2.2722 Block oben -0.0832
-2.2722 Block okay 0.0720
-2.2722 Block plus -0.0492
-1.7059 Block raus 0.1582
-2.2722 Block raussteht -0.0361
-1.7059 Block und -0.0716
-1.4269 Block unten 0.0135
-2.2722 Block von 0.0483
-2.2722 Block wieder -0.0837
-0.4868 Blockbuchstaben das -0.0859
-0.4868 Blocks anliegt -0.0154
-0.7879 Blättchen oder -0.0232
-0.7879 Blättchen praktisch -0.0832
-0.7373 Blöcke </s> 3.1831
-1.7173 Blöcke hätte -0.0701
-1.7173 Blöcke im -0.0677
-0.5279 Blöcke lang 0.1025
-1.7173 Blöcke nach -0.0058
-1.7173 Blöcke oben -0.0353
-1.7173 Blöcke und -0.0490
-1.7173 Blöcke unten -0.0768
-1.7173 Blöcke von -0.0571
-0.2974 Blöcken </s> 3.3105
-0.9206 Blöcken auf -0.0341
-1.4868 Blöcken is -0.0812
-1.4868 Blöcken und -0.0804
-0.4868 Blödsinn ist -0.0746
-0.3116 Boden des -0.1319
-1.3899 Boden ganz -0.0379
-1.3899 Boden gesetzt 0.0149
-1.3899 Boden keine -0.0090
-0.9640 Bogen </s> 3.6189
-0.9640 Bogen nach -0.0075
-0.9640 Bogen und -0.0857
-0.9640 Breite drei -0.0628
-0.9640 Breite frei 0.0108
-0.9640 Breite äh -0.0816
-0.2216 Breitseite der -0.2579
-0.4868 Brille aufsetzt 0.0852
-0.7879 Brust also -0.0844
-0.7879 Brust vom -0.0155
-0.2974 Brücke </s> 3.3105
-1.4868 Brücke liegend 0.0689
-1.4868 Brücke umgekehrt -0.0361
-1.4868 Brücke verkehrtrum 0.1280
-1.4868 Brücke ähm -0.0840
-0.4868 Buchstabe $L 0.0915
-0.4868 Buchstaben identifizierbar 0.0852
-0.9640 Bumerang hab 0.1915
-0.9640 Bumerang positionierst 0.0852
-0.9640 Bumerang so -0.0841
-0.2216 Croissant </s> 3.4452
-1.7421 Daumen auf 0.1397
-1.1758 Daumen geht -0.0614
-1.7421 Daumen hin 0.1258
-1.7421 Daumen hochgeht -0.0088
-1.7421 Daumen ick -0.0839
-1.1758 Daumen mit 0.0322
-0.8968 Daumen muss -0.0456
-1.7421 Daumen sich -0.0846
-1.1758 Daumen und -0.0784
-1.1758 Daumen zeigt -0.1807
-1.7421 Daumen äh -0.0780
-1.7421 Daumen ähm -0.0850
-0.7879 Delle </s> 3.6189
-0.7879 Delle die -0.0856
-0.4868 Dete wir -0.0793
-0.9640 Diagonale geteiltes 0.0852
-0.9640 Diagonale und -0.0795
-0.9640 Diagonale wie 0.0519
-0.8492 Ding </s> 3.1831
-1.8293 Ding auch -0.0556
-1.8293 Ding da -0.0835
-1.8293 Ding das -0.0814
-1.8293 Ding einfach -0.0796
-1.8293 Ding hab 0.1915
-1.2630 Ding hin 0.1482
-1.8293 Ding in -0.0798
-1.8293 Ding is -0.0750
-1.8293 Ding jetz -0.0846
-1.8293 Ding kommt -0.0723
-1.8293 Ding muss -0.0567
-1.8293 Ding rausragt -0.0492
-1.8293 Ding vor 0.0426
-0.9840 Ding was -0.0092
-1.8293 Ding wie -0.0747
-0.7879 Dinger ach -0.0795
-0.7879 Dinger auch -0.0829
-0.4868 Dingern du -0.0794
-0.7879 Dings dran -0.0508
-0.7879 Dings hab 0.1915
-0.4868 Dozentin </s> 3.6189
-0.4868 Drei </s> 3.6189
-0.5068 Dreieck </s> 3.1831
-1.4868 Dreieck darstellt 0.0852
-1.4868 Dreieck das -0.0854
-1.4868 Dreieck die -0.0844
-1.4868 Dreieck sozusagen -0.0774
-1.4868 Dreieck und -0.0701
-1.4868 Dreieck was -0.0621
-0.4868 Dreier Riegel -0.0088
-0.4868 Dreierlinie waagerecht -0.0796
-1.4868 Dreierreihe </s> 3.6189
-1.4868 Dreierreihe am -0.0849
-0.9206 Dreierreihe steht -0.0292
-0.6415 Dreierreihe und -0.0794
-0.6415 Dreierreihe von -0.0194
-0.2216 Dreierriegel des -0.2436
-0.4868 Dreiers und -0.0844
-0.9640 Dreierstück also -0.0852
-0.9640 Dreierstück guckt -0.0766
-0.9640 Dreierstück nach -0.0852
-0.4868 Dreiersäule is -0.0520
-0.4868 Drittel von 0.0483
-0.4868 Dromedar ein -0.0680
-1.5660 Dromedars </s> 3.6189
-1.5660 Dromedars ausfüllt 0.1787
-0.3766 Dromedars ein -0.3313
-1.5660 Dromedars eingefügt 0.0109
-1.5660 Dromedars oben -0.0807
-1.5660 Dromedars und -0.0807
-1.5660 Dromedars zwischen -0.0564
-0.4868 Dromedarzielobjektes ein -0.0229
-0.4868 Druckbuchstaben $L 0.0915
-0.4868 Druckschrift sozusagen -0.0297
-0.4868 Ec rechten -0.0708
-0.4868 Eck rein 0.1921
-0.6395 Ecke </s> 2.3071
-2.5243 Ecke abgebissen 0.0852
-1.6790 Ecke an -0.0824
-2.5243 Ecke aus -0.0840
-2.5243 Ecke befindet 0.2661
-2.5243 Ecke beginnt 0.0332
-2.5243 Ecke bitte -0.0741
-2.5243 Ecke bündig -0.0335
-2.5243 Ecke dann -0.0759
-1.9580 Ecke das -0.0804
-2.5243 Ecke deines 0.0852
-2.5243 Ecke der -0.0761
-0.7587 Ecke des -0.3713
-1.0832 Ecke ein -0.8910
-2.5243 Ecke einen -0.0729
-2.5243 Ecke entfernt -0.0492
-2.5243 Ecke fehlt 0.0149
-2.5243 Ecke gefüllt -0.0088
-2.5243 Ecke genau -0.0674
-2.5243 Ecke gepackt 0.5681
-2.5243 Ecke halt -0.0640
-2.5243 Ecke haste -0.0561
-2.5243 Ecke her -0.0088
-1.9580 Ecke hinein -0.0043
-2.5243 Ecke in 0.0308
-2.5243 Ecke ist -0.0049
-1.9580 Ecke kommt -0.0802
-2.5243 Ecke liegen -0.0833
-2.5243 Ecke liegt 0.0043
-1.9580 Ecke mit 0.1523
-2.5243 Ecke packt 0.0852
-2.5243 Ecke passt 0.0287
-1.9580 Ecke rein 0.0183
-2.5243 Ecke reinschieben -0.0361
-2.5243 Ecke schließt -0.0592
-1.9580 Ecke so -0.1560
-2.5243 Ecke soweit -0.0492
-1.9580 Ecke und -0.0435
-2.5243 Ecke unterhalb 0.2316
-1.5442 Ecke vom -0.0510
-1.6790 Ecke von -0.0577
-2.5243 Ecke was -0.0823
-2.5243 Ecke wie -0.0640
-2.5243 Ecke äh -0.0850
-2.5243 Ecke übrig -0.0741
-0.9640 Ecken berühren 0.0598
-0.3977 Ecken ne 0.4591
-0.7879 Eckstück dann -0.0616
-0.7879 Eckstück äh -0.0826
-0.4868 Eindruck </s> 3.6189
-1.2650 Einheit </s> 3.6189
-1.2650 Einheit lang -0.0700
-1.2650 Einheit ne 0.3399
-1.2650 Einheit raussteht -0.0361
-1.2650 Einheit weg -0.0618
-1.2650 Einheit zu -0.0843
-1.2650 Einheiten also -0.0852
-1.2650 Einheiten bestehend 0.0852
-1.2650 Einheiten denn -0.0837
-1.2650 Einheiten für -0.0793
-1.2650 Einheiten lange -0.0599
-1.2650 Einheiten ähm -0.0850
-0.4868 Einkerbung von -0.0430
-0.5860 Eins </s> 3.1831
-1.5660 Eins an -0.0851
-1.5660 Eins dran -0.0755
-0.9997 Eins ham -0.1302
-1.5660 Eins ranpassen -0.0088
-0.9997 Eins und 0.0016
-1.5660 Eins was -0.0841
-0.4868 Einserteil anlegen -0.0741
-0.4868 Einzel Einzelstück -0.0088
-0.7879 Einzelstück </s> 3.6189
-0.7879 Einzelstück müssen -0.0416
-0.7879 Einzelteil guckt -0.0499
-0.7879 Einzelteil in 0.0335
-0.4868 Ele ach -0.0795
-1.0033 Elefant </s> 3.2360
-1.8486 Elefant am -0.0522
-1.8486 Elefant ausfüll'n -0.0088
-1.8486 Elefant da -0.0665
-1.2823 Elefant das -0.0772
-1.8486 Elefant endet -0.0568
-1.8486 Elefant haben -0.0705
-1.0033 Elefant hat -0.1492
-1.2823 Elefant hinten -0.0150
-1.8486 Elefant ne -0.0836
-1.8486 Elefant oben -0.0850
-1.8486 Elefant oder -0.0539
-1.8486 Elefant okay 0.0720
-1.8486 Elefant rechts -0.0407
-1.8486 Elefant sein -0.0785
-1.8486 Elefant voll 0.0410
-1.8486 Elefant äh -0.0858
-0.8418 Elefanten </s> 2.4263
-2.0411 Elefanten ab 0.1008
-2.6074 Elefanten abschließt 0.6299
-1.7621 Elefanten also -0.0710
-1.4180 Elefanten an -0.0332
-2.6074 Elefanten anschließt 0.3611
-2.6074 Elefanten anzubringen 0.0852
-2.6074 Elefanten auf 0.1397
-2.6074 Elefanten befindet -0.0782
-2.6074 Elefanten bilden 0.0598
-2.0411 Elefanten bildet -0.0736
-2.6074 Elefanten dann -0.0819
-2.0411 Elefanten dass -0.0758
-2.6074 Elefanten davor -0.0654
-2.6074 Elefanten denkst -0.0492
-2.0411 Elefanten der -0.0810
-2.6074 Elefanten drin -0.0751
-2.6074 Elefanten eigentlich -0.0793
-1.0414 Elefanten ein -0.2838
-2.6074 Elefanten einfügen 0.0109
-2.6074 Elefanten füllt 0.0109
-2.6074 Elefanten fünf -0.0629
-2.6074 Elefanten ganz -0.0231
-2.6074 Elefanten genau -0.0614
-1.7621 Elefanten gepackt 0.1852
